12 128
1 0.0036816846 -0.002001813 0.0021625839 -0.0010067367 0.0036368181 8.098919e-05 0.0014429208 -0.002690345 -0.00062630087 0.0005260947 -0.0031758829 0.0027562652 -0.0016417211 -0.0006532714 0.0028791158 -0.0006868952 -0.0023850962 -0.0029878065 0.0009931863 -0.0038558238 -0.0023763285 -0.0035497688 0.0015438886 -0.0011191312 -0.0002138568 -0.0012535622 0.002737969 0.0038685647 -0.0010966072 -0.00097060023 -0.0028450342 0.0033501333 0.001438776 0.0009525497 -0.0026964394 0.0019418492 0.00060274405 0.0038444432 0.00028764486 0.003016978 0.0026927146 0.0033997318 0.0006664143 -0.002481074 0.0033281704 0.003385793 -0.00070139853 -0.002857682 0.0010915176 0.0014365941 0.0037213573 0.0025420347 -0.0020891076 -0.00068041263 0.0026538987 -0.0035610425 -0.0023307635 0.0029170252 0.00017698253 0.0028763148 0.0006849114 0.002566745 0.0027655312 -0.0012719531 -0.0032234835 0.0028566509 0.0010456949 0.0037185538 -0.0011482474 -0.00077414117 0.00026508525 0.0005096757 -0.0035037613 0.0032711672 0.0037817112 -0.0029932745 -0.00097056053 -0.0030812097 0.002237595 0.0006585115 0.0023193413 7.549322e-05 -0.0009230952 0.0032594525 0.0023389915 -0.0018714678 0.0008832344 -0.0014561864 0.0010937499 -0.0015810381 -0.0038276894 0.0014888133 -0.00015177994 -0.00015197566 -0.0030830528 0.0010669115 0.0036705066 -0.0006597069 -0.00044903927 -0.0016521217 -0.0029267694 -0.0016292804 0.001231179 0.0005257343 0.0029562842 0.0014636391 0.00048928265 -0.0015962091 -0.001562264 0.00034250805 -0.00036247293 -0.0024679073 0.00270714 0.0034997722 -0.0030559937 0.0022989835 0.0037514595 0.00062397635 0.0030964918 0.0034817252 0.0006392362 0.0017905813 0.0011629418 0.00080079207 -0.0017868943 -0.0011034779 0.0015899515 0.0017262845
13 -0.0010511228 -0.0031385482 0.0016525089 0.0008312583 0.00046584173 -0.0025325397 0.0020498377 0.002693053 -0.0021694943 -0.0003666892 -0.0036924246 -0.0007471562 0.0033957988 -0.0012058952 -0.00036662427 0.002671874 0.002225955 -0.0005245228 -0.0037817918 0.0029583937 0.001958882 0.0036888951 -0.0022511217 -0.0015187202 0.0006776357 -0.0015133414 -0.0038402092 -0.0035736249 -0.0037211997 0.001715508 -0.00086133817 -0.002149845 -0.0013180855 -0.0015102037 0.00089071604 -0.0015642545 -0.0010699122 0.0019653987 -0.0036063592 0.003890533 0.003096723 -0.0008062369 -0.0013450179 -0.0027565889 0.00063100044 -0.0027132577 -0.00044061086 -0.0018028617 0.0020742998 -0.0019229471 -0.00027765907 0.0034307253 -0.0028936926 -0.0017126795 0.0015975614 -0.0014923837 -0.0038485783 0.00025711206 -0.0013976772 0.0014386091 0.0034155522 -0.0011124612 -0.001828031 0.002509512 0.0005861176 -0.0018629415 -0.0014974362 0.0010580601 -0.0032965762 0.0034072022 -3.779331e-05 0.0004752241 -0.003247129 0.0026067046 0.0005082096 -0.0034769983 -0.001119049 -0.002696037 -0.0025570604 -0.003372909 -0.0026558961 0.0025755798 -0.0028093308 -0.0021460764 0.0008153443 0.0017792799 -0.0024576867 0.002825338 -0.0033249315 0.0008517107 -0.0021398768 0.0007424251 -0.00077396206 0.0037575087 0.0034178197 0.001754626 -0.0033419398 -0.0029297133 -0.003596854 0.0015995288 -0.0026616065 -0.0008333274 0.0033440222 -0.002769087 0.0033455929 0.0024436333 0.0017690709 0.0036172098 0.0013483607 -0.0019699018 0.0026880652 0.003901111 -1.2040136e-05 0.0013492864 0.003551357 0.00048061335 0.0029125584 0.0002584193 -0.0015199548 0.003021644 -0.003832785 0.0038261416 -3.658478e-05 -0.002794742 0.0038147212 0.00214435 0.0030555383 0.0019497917
2 0.00039300078 0.002298811 0.0030294973 0.0012249922 -0.0015690351 -0.0019782865 0.0038112425 0.0022881308 0.001416918 0.0030576342 0.0032100643 0.0032226078 0.001874288 0.0008321482 -0.0028944002 -0.0021913373 0.0037220528 -0.002417662 -0.002400304 0.002386181 0.0027548333 -0.00058157416 0.0013167225 1.7043112e-05 0.0020492093 -0.0020588823 0.0028339673 0.003507003 -0.0038294354 -0.0031433553 -0.0023061505 4.888819e-06 0.0012383087 0.003404047 0.0002193177 2.3892537e-05 0.0019092254 -0.0015534015 0.003092539 -0.0018920149 -0.0037896922 -0.0026610643 0.00073608186 -0.0026477077 -0.0008927564 -0.0011835151 -0.0022832442 -0.0013295399 0.0018055496 0.0033904535 0.0003832649 0.00022796006 -0.0035523798 0.0014348866 0.0024535493 -0.0017673103 -0.0032586893 -0.0027180251 0.0036629848 -0.0035650642 -0.0027225874 0.0031099818 0.00042497306 0.0005284862 -0.0025876684 -0.0024390896 -0.0010351037 0.0011843608 -0.0024889826 -0.00021281483 -0.0016765377 -0.00077398954 -0.0023300485 0.003548985 -0.0009983385 0.0025127104 -0.0013641336 -0.0020694325 0.0018496775 -0.00016045978 -0.003131496 -0.002766145 0.0021950668 -0.0022883753 0.001991342 0.0024557142 -0.0021149109 -0.002883232 0.0012071115 -0.0033389523 -9.986083e-05 -0.0020604057 -0.0021996044 0.0013222712 0.0026020873 0.0016046403 -0.00089691003 -0.0004238709 0.00037078097 0.0012034273 -0.0033994901 0.0012328462 -0.0017945373 -0.0021585731 -0.0026981893 0.0030090155 -0.00055316783 0.0013627907 0.0024560855 0.0038863712 0.0036763698 0.0016610257 0.0028995543 0.0015395076 0.0023878256 -0.00024405621 0.0012712991 -0.0005759 -0.00040619352 -0.0017179374 0.0034408744 -0.0037265213 -0.00193013 -0.0036202488 -0.00089101424 -0.0010363013 -0.003334402 -0.0018962482
15 -0.0013573039 0.0006282656 -0.0034333314 -0.000944237 -7.394073e-05 0.0018869471 -0.0021315373 -0.003731184 -0.0028818413 0.00059401244 -0.0017314926 -0.0030340278 0.002719022 0.00240589 -0.0021130873 0.0015774262 0.0023168405 0.0011402726 -0.0023117382 0.0020655917 0.0018875909 0.001812541 0.002141966 0.0015123367 0.0025677255 -0.00256358 -0.00026797087 0.003393276 -0.0038753275 -0.003545142 0.00057215046 0.0034688783 0.0020153713 -0.000759591 0.00037083967 0.0023171492 -0.003335278 -0.0020592373 -8.496308e-05 0.002858426 -0.0019499589 -0.0031476098 0.0007188632 -0.0016160316 -0.0012815276 0.0024194582 -0.0017642784 0.0030741196 0.0001793661 0.0007034359 0.002080664 0.0032040852 0.00030586138 0.0011117423 -0.0001549314 -0.002997713 0.0026553445 -0.00086902344 -0.0029652135 0.0029352994 0.003629785 -0.0023368136 -0.0032401383 -0.0032958733 -0.00076745066 0.0019925153 -0.0038030937 0.0012024149 -0.0029133696 0.0038672125 -0.0039050765 0.0022231766 0.0007679994 -0.0014505313 -0.00260916 -0.0011640643 -0.0019780523 0.0037854845 0.0032934286 -0.0009449974 -0.0019153544 0.0007246819 7.294615e-05 0.003036564 -6.140849e-05 -0.00048520588 -0.0006653293 0.0024626201 0.0010813379 0.0010030774 0.0026893425 0.0038690718 0.0002832112 0.00086577225 -0.0017572109 -0.00025316814 -0.002764306 0.0026424057 -0.0038983142 0.0020410712 -0.002264411 -0.0027881775 0.0026719172 0.0033363092 -0.002901949 -0.002076103 -0.0009177077 0.0002175692 -0.0013907427 0.002252001 -0.0010025878 0.00026854518 0.0034909984 0.0005609336 3.9305447e-05 -0.0025982382 -0.0013781697 -0.00045117864 -0.0024084388 -0.00072996266 0.003000422 -0.0027218284 0.0018444323 -0.0017610316 -0.001758234 -0.003898366 -0.00028484437 0.0027625358
3 -0.0012971943 0.0009450212 0.00064393546 -0.0009028059 0.0021394168 -0.0014733671 0.0005795448 -0.0032116082 -0.00025539368 0.0011096036 0.0037702702 0.0032286823 -0.0029811244 -0.0036710948 -0.0010961976 -0.0009193968 0.0029803626 0.0031813637 0.0027503772 -0.0017006487 0.0037713242 -0.003189376 -0.0016999949 -0.00021888493 0.00030745787 -0.003317351 0.0020972511 0.0036309299 -0.003501238 -9.042435e-05 0.0038534096 0.00047127303 0.0003063891 -0.0015631695 -0.0022628414 0.00097074703 -0.002983877 0.0018776276 -8.055245e-05 0.0013235075 0.0024549402 0.0026532444 -0.0010315886 0.0032461863 -0.00040361838 -0.0012849313 0.0022045749 -0.0032173381 -0.0012975617 -0.0014193289 0.0036971907 -9.677396e-05 0.0028303312 0.0009745437 0.00036660774 -0.0029965865 0.002836568 -0.000619203 -0.00039243756 -0.0034511515 -0.0037688937 0.0035296537 -0.0037906785 -0.0036064766 -0.0005351022 -0.002138855 -0.00041602956 -0.0026250817 0.0011237451 -0.0003505968 -0.00053967803 -0.00038758933 0.0037970596 -0.00017913972 0.002547931 -0.0038880354 0.0008696332 -0.0027735494 0.0028099986 0.00081952295 -0.0032452755 -0.0029912654 0.0036327997 4.8858885e-05 0.0015452616 0.0029779382 0.0035633126 -0.0002575971 0.002082378 -0.0027488307 -0.0038600308 0.0011186437 -0.002245216 0.0023936261 -0.0012504486 0.00041537025 0.0006707236 0.0013236586 0.00030796608 9.063992e-05 0.0032735225 0.00021023637 -0.0008078409 -0.0025646442 -0.0024819956 0.0024942828 -0.00057400967 0.0005909971 0.0030039833 -0.0012001065 -0.002988028 1.1124793e-05 0.0017628453 0.0030117168 -0.0018816121 0.0033283269 0.0006747197 -0.0031501055 -0.0027584238 -0.0030597448 0.0038354173 -0.0038661407 -0.0031947242 -0.0015034156 -0.00030248193 -0.000369553 0.0011244714 0.0036157125
11 -0.001559911 -0.00035639448 -0.00043768302 0.0034651787 -0.003532984 0.0038141797 -0.0013048946 -0.00047193735 0.0030470556 0.0004128737 0.003199849 0.0033548537 5.1027186e-05 0.00023749429 0.003316249 0.0028202578 -0.0005362673 -0.0033186642 0.0023727184 -0.00036079594 0.003161535 0.0019595327 0.0038208659 0.0007471142 -0.0011666141 0.00021586669 0.0030584258 0.0021518082 -0.0030479296 0.0005615711 -0.0014358582 -0.0030062227 0.003534999 -0.0021256297 -0.0026717007 -0.0020410495 -0.0026784188 -0.0025499389 0.00044885246 -0.0012969751 0.0038851423 0.00070475746 0.0012394949 0.0028094205 -0.0013584944 0.0012509781 -0.0001808693 0.0038984087 0.0029968312 -0.0027058157 0.0020153678 -0.00263931 0.0003597754 0.0014514497 0.0031882334 -0.0013915407 -0.0022836197 -4.626876e-05 0.0028968258 -0.000905507 0.0027366458 -0.00026575706 0.00075710454 0.00018644636 -0.00092365 0.00121318 -0.00057176466 0.0035890706 0.0032151495 -0.0024201632 0.0022631513 -0.0012859856 -0.0016053969 0.0019507612 0.0026174323 -0.0005302624 0.0025143423 0.0034805834 0.001144192 0.002473647 -0.0037753328 -0.0010539436 0.0019369505 0.0014151288 -0.00051963143 -0.00344673 0.0022953856 -0.00025435764 -0.0020922022 0.00061298447 0.0003356323 0.0036436978 0.0016409864 0.00055432675 -0.003467151 0.0022848218 -0.0002040205 0.003510021 0.00022918796 0.0011552917 -0.003085122 -0.002240423 -0.0009238533 0.0026306538 -0.0010650571 -0.0021270083 0.0028434214 -0.0011942644 0.00018722261 -0.0029016766 -0.00023707705 0.00020159 0.0034837963 -0.0009017911 0.00037973744 0.0021005385 -0.0013381877 0.0017661565 -0.0016840784 0.0009439314 0.00064575806 0.0016747845 0.0026691498 -0.0023724716 -0.00074989535 0.000101066726 -0.0010518483 0.0012371955
4 0.0034853886 9.1194306e-05 -0.0023235176 -0.002879393 0.001155645 -0.0029597585 0.0007816722 -0.0017049686 -0.0036512208 1.2147457e-05 -0.0020310467 0.0020794992 0.0025495256 0.0028178734 -0.0028613647 0.0021116806 -0.0010087611 0.0017513639 0.0019666236 -0.00090924604 0.0034998227 -0.003907556 0.0029980352 0.003379514 0.0020379797 -0.0032737893 0.0025354107 0.0029651267 0.0013660946 0.002599731 0.0021494727 0.0028897922 0.0021609636 0.0031256105 -0.0011995302 -0.0028292986 -0.0038260443 0.0038591523 0.0005924833 -0.002703329 0.0012311336 0.0014708124 -0.0026249955 -0.0034977233 -0.0007196304 -0.0009139769 -0.00025138728 0.0011201223 0.00095193053 -0.00048468533 0.0028459686 -0.0037546684 0.001933069 -0.003156366 -0.0032184166 -0.0022802746 -0.003432691 -0.002304834 0.003720834 0.0030184654 -0.002821846 -0.0033381337 0.003678752 -0.0008611318 -0.0023238147 -0.0005960272 0.0017039375 7.625708e-05 0.0011300188 0.0023219888 0.0013492806 0.003316415 -0.0036553687 0.002215489 -0.0031480677 0.003861534 0.00342894 -0.0008096269 -0.0030518495 9.402325e-05 0.00156495 0.000539734 0.0031322776 0.0027421562 -0.0021443435 -0.0010786018 -0.0028039915 0.0016366226 0.0026676012 -0.0020734712 -0.00049945666 -0.00374345 -0.0014873141 -0.0035985797 -0.00010436879 -0.0024744452 0.0033381262 0.002326328 -0.003577253 -0.0021458962 0.003068022 -0.0024210687 -0.0025161284 -0.0037330312 0.0007266435 -0.0015623193 -0.001691315 -0.0028762175 -0.0036780601 -0.00016728585 -0.0027334385 -0.0011233209 -0.0035704267 -0.0009007487 -0.001573574 0.0039002204 1.0015194e-05 -0.0030816316 0.0024428144 -0.0029523547 0.0020540208 -0.0038731801 -0.00039438863 0.0027221495 0.00048309486 -0.0026851993 -0.0008069506 0.0036370496
14 0.003485353 -0.0010632054 0.0017081095 -0.000854345 0.0021402442 -0.0038460519 0.0019946413 0.0014384651 -0.001009942 -0.002315662 0.0037305146 0.0011421198 0.0023411904 0.002329274 -0.0031692728 -0.0032179286 -0.0030574487 -0.003299394 -0.0011515178 0.0025008854 0.0013543109 -0.0039050644 -0.00021216154 0.0025466888 -0.00039893808 0.00021133806 -0.002788871 0.0010251611 0.0008471156 0.0019492063 0.0016275551 -0.0031187863 -0.0034199483 -0.0005564652 0.0010053694 -0.00288039 -0.0013787077 0.0011583363 -0.00037813315 0.0037581043 -0.0012939422 -0.0025456308 -0.0031924471 0.0031438142 -0.002789377 -0.0013646524 0.0034042806 0.0008865199 0.00011429644 -0.0018322767 0.0012329371 -0.001910905 -0.0019705424 0.0019335009 -0.0005872475 0.002450853 -0.0037374734 -0.00033742873 -0.0024634541 0.0038329712 0.0020049848 0.0018598182 0.0036340212 0.0015295077 0.001928806 0.0036635012 0.0020312741 -0.0029642442 0.0018664823 0.0028980314 -0.003538663 0.003339511 -0.0037098625 0.00019252246 0.001775983 0.0019419846 0.0033204444 -0.0028471216 -0.0024757306 0.0038732754 0.0028456058 0.0015731769 0.00095504994 0.0010304862 -0.002375952 0.0021601375 0.0035984574 0.0038298666 -0.0023096206 -0.001241937 0.0026341423 -0.0009946981 -0.00068381056 -0.0006907735 0.0023454456 0.0026194507 0.00094579306 0.0018002753 -0.0034389372 -0.00054885086 -0.0008833588 -0.00059622264 -0.000472612 -0.00027662335 -0.00046300865 0.0025200264 0.0035670602 -0.0028393704 -0.003808378 0.0007773789 0.0008015023 0.0026862633 0.0007139626 -0.0027468572 0.0025308346 0.0015305663 -0.0028109425 0.0034361028 -0.00046916213 -0.001469033 0.0008410992 0.0034240133 -0.00068697 0.0023202186 -0.0025019299 0.0017351909 -0.00093010254 0.0009591318
5 -0.00017218493 0.0031179383 0.0038656127 0.00014526148 -0.0014113492 -0.0035860639 0.0028817733 -0.00037230924 -7.8518344e-05 0.0030010059 0.0011651361 -0.0019833096 -0.0022906573 -0.0013917534 0.00075055455 0.0016205402 0.001604687 0.003669825 -0.00083867775 0.0034458814 -0.0007942049 -0.00012277339 -0.00043141353 0.0020444216 -0.0021010612 0.0012118904 -0.0026945393 -0.0035063373 0.003615007 0.003798738 0.0018378142 0.0012811699 -0.0023520256 0.002089199 0.003875717 0.0025318798 -0.003649113 0.0023050006 0.003765967 0.002109023 0.0025930582 -0.0037016587 -0.00066129275 0.0031963508 0.0037571718 -0.00057073066 0.0017178074 0.00073022157 -0.0035023 0.0032098545 0.002974691 0.0031017489 -0.0002609099 -0.0026718217 -0.0009869048 -0.0017586912 -0.0037322738 -0.0032430661 -0.00050689926 -0.0017710022 -0.0021434256 0.0035707317 0.002046354 0.0013746182 -0.0014252226 0.0012109363 0.00097429013 0.0025333152 -0.0028526187 0.0026109952 -0.00081204856 -0.0013034486 -0.0035339813 -0.0005095148 0.001530871 0.0038053486 -0.00042549858 -0.00116815 -0.0035921638 -0.0010223235 -0.002691978 0.0024656926 3.3093947e-05 0.0016785662 0.0010630835 0.00022214843 0.0019927497 0.0016208753 -0.0016000563 -0.0003262984 -0.0015766637 -0.002722901 -0.00084483816 0.00315795 0.00015348659 0.0024751339 -0.0029023648 -0.0037943625 0.0019917213 0.0009032322 -0.0019676804 -0.001316879 -0.0027710253 0.0004122889 0.0025904533 0.0019075254 -0.0022669858 -0.0018431576 -0.0015788641 0.0034848633 0.0019749035 -0.0026558528 -0.0029414357 -0.00094107393 -0.0015285774 -0.0016047017 0.0038377943 -0.0011141599 0.0026586305 0.003821469 -0.00058780005 0.0022991456 0.0033828982 -0.0013271152 0.00081349816 -0.0029365474 0.0025625683 0.0031242839
6 -0.0010498888 -0.0021292432 0.0009042966 -0.00078203366 -0.0024144095 -0.0016064589 -0.0019150055 0.0018013925 -0.0035259596 -0.0010933991 -0.002104813 -0.0024947412 -0.0005114458 0.0002484612 -0.00069564715 -0.002670118 0.0022819354 0.002116588 0.001288901 0.0023259136 -0.00036534568 -0.0023324138 0.0023880072 0.003898231 0.0021486138 0.0012938734 -0.0008701818 -0.0036542825 0.0013748949 0.0024106242 0.0008262545 0.002691719 0.0038390942 -0.0034266536 0.0019717831 -0.0038039987 0.0011769774 0.0027701776 4.3191052e-05 0.0025236546 -0.00063347834 -0.0023493008 -0.0021888195 -0.0018888791 0.0034831858 -0.0017741211 -0.0036051667 -0.0035184883 -0.0031037354 0.003248335 -0.0014056365 -0.003324873 0.0011183323 0.0033587418 0.0016417627 0.0035650202 -0.0035495616 -0.0025908533 0.0016889005 0.002424796 -0.0019596417 0.0037890144 -0.0030617607 0.00093586766 0.0023689799 0.00048376794 -0.001355885 -0.00055217557 0.00018012474 0.0021625084 0.00083038246 0.0026801128 0.00083082134 0.0026965088 0.00018336812 -0.002294802 -0.0007427467 0.003420415 0.0009949642 0.0021974146 0.00016838187 -0.0029981995 -0.0038326932 -0.00014089217 -0.0025916959 4.5784775e-05 0.0025446462 0.00070952484 -0.0035431169 -0.001144833 -0.0035993739 0.0029343558 -0.001556172 -0.0013342035 0.0005456112 -0.0013518683 -0.0031806456 1.4845044e-05 -0.0031302609 0.0030699929 0.00335278 -0.0010936889 -6.437221e-05 -0.00015463869 0.0030606724 0.0017331582 -0.0014704268 0.001288153 0.0021088943 -0.00039845685 -0.001749149 -0.003593186 -0.002207997 -0.0024452326 0.00045540486 0.002703725 -0.00021844375 0.0033545492 -0.002871261 -0.0012218361 -5.3846943e-05 0.0020574636 -0.0006849022 -0.0024562688 -0.0030757983 0.0016450518 -0.0010577829 0.002589996
7 0.0012015726 0.001807809 -0.00037359883 0.0028305906 -0.0012516244 -0.001842626 0.0031433124 0.0027442742 0.0034032345 0.000101510836 -0.0024488403 0.003035021 -0.0015122469 0.0024437862 -0.00071589067 0.0012590693 0.0012136538 0.0030032245 0.003538778 -0.002747534 -0.002023857 0.001773099 -0.0036139577 -0.0014925379 0.003706294 -0.00260256 -0.00022672137 0.0010485053 0.0019092571 0.0027415692 -0.0028490527 0.0028515966 0.0021600355 -0.003610134 0.0032947059 0.0018528731 -4.348242e-05 0.0011122946 -0.0023157804 0.0025876095 -0.0013520535 -0.0014202296 0.0021307692 0.0027594215 0.00068514247 0.00076943234 -0.0029618167 -0.0025516634 0.0020924911 0.0008722954 0.0028886402 0.0033677032 0.00068747246 0.0018660228 -0.0019693049 0.0017376221 0.00019662447 -0.0026376196 -0.0017889562 0.0031356255 0.0019793778 0.0016696167 -0.001185744 -0.0036140406 -0.0007983753 0.00055146375 0.0019772616 0.001281231 -0.0013251379 0.0008260418 0.0024395152 0.0025119395 -0.0017484952 0.0017731668 -0.002343414 0.0019692422 -0.0011715813 -0.003300245 0.0003792979 -5.263756e-05 0.0012566511 0.0026924533 -0.00037445678 -0.00276563 0.0016880508 4.3725802e-05 0.0017090553 0.0016025304 0.0025956559 -0.0020449464 0.0010445693 -0.002008664 0.0020901656 -0.0015495596 0.0037906705 -3.512215e-05 0.0032115965 -0.0015014613 -0.00093402853 -0.00021403047 -0.0037623774 -0.0022219347 -0.0017942656 0.0034479501 0.000854756 -0.0014017002 0.0032758028 0.0025168813 -0.001788936 0.0011545575 -0.0032770908 -0.0017546503 0.0035419767 -0.0023799697 -0.0025904446 -0.002713939 -4.141204e-05 0.0038660679 -0.003200101 0.0025342712 0.003281729 0.0029212167 0.0021560555 0.0022239357 0.00044014765 -0.0025037176 -0.0034957726 -0.0017154646
9 1.788821e-05 -0.0005467536 0.0014041027 0.0028625263 -0.0011462087 0.003116117 -0.0029679828 0.0011796869 0.00090728584 -3.841934e-05 -0.00074934226 -0.0016715291 0.0013361205 -0.0004468884 0.0035109702 0.0026100327 0.0034390653 0.00058804156 -9.1620306e-05 0.0018579331 0.0017107477 -0.0033203186 -0.0019596796 0.0024251663 -0.0028598 0.0008746556 0.0022345874 0.001577029 0.0019148876 0.0020255109 0.0024943696 -0.00059145835 -0.00020156195 -0.0014723478 -0.0037812432 -0.0035317775 0.0031407091 0.0028298218 0.00019037697 0.0030958767 -0.003234401 -0.0028627384 0.00043029521 -0.0031757317 0.00090742105 -0.0007063136 -0.0018745302 0.003830601 -0.0017076426 0.0028456512 0.0035843973 -0.0017639386 -0.0023480377 -0.00025041818 0.000123087 0.00047201687 -0.003134753 -0.0025470112 0.0020752668 0.0007111685 0.0016383609 -0.0035600842 0.0012472011 -0.00020832273 -0.0020540997 -0.0032292318 0.0036561587 0.002530736 -0.0020646763 -0.00085265713 0.0006502061 -0.00040238543 -0.0016911351 0.0030880128 -0.0012350408 -0.001779715 -0.0026045623 0.003383387 -0.0012566258 0.0029970247 -0.0035215172 -0.0021281242 -0.0021282039 0.0034860426 -0.000858542 0.0014035488 0.0012961952 0.002097275 -0.0028273277 0.0036192227 -0.0010566805 0.001666561 -0.0029027623 -0.0034971042 -0.0037723384 -0.00287861 0.002535671 0.0013685933 0.0034258603 0.0036897669 0.00083407963 -0.0028577254 0.003285228 0.00063607213 0.0024583936 0.0017215618 -0.0031198147 0.0031443313 -0.003121226 0.0001745446 0.001990593 0.00027254896 -0.003532816 -0.0033838095 0.0014989286 -0.0023558624 0.0012183498 0.0009728239 -0.0014336908 0.0037058096 0.00044730748 0.001263092 -0.0015526074 -0.0003450427 0.002485642 -0.002907049 -0.0032415362 -4.977316e-05
