10 32
824 -0.9267204043174007 0.14366487817231005 -0.28863121150222076 -0.09668404634480617 0.15926497438614565 0.0502514053184865 4.912291478817953e-17 -0.0018379684387663186 -0.9176958466888794 -0.09346817611810025 -0.353231228652582 -0.050700214841626005 0.03503535846847571 -0.1380870132427824 -0.0382062923274413 7.154555773081674e-17 -0.9838709196390041 0.0846358742116102 -0.1282357007885021 -0.06424984839291772 -0.06527460694082655 0.001252995860466028 -3.573956058833349e-17 -1.096723612928327e-25 -0.9865566128553909 0.05231733405348442 0.10899616648025866 -0.1044286289214111 0.006076769977807226 0.03386024526894741 1.2670653479177437e-16 -2.5805037901706414e-25
825 -0.07162479612676974 0.09811875744590283 0.2144222126283765 0.08647174594185279 0.15729938426914888 -0.16501494655004778 1.1658343401465412e-16 -0.9379847125758614 -0.049624482093235035 -0.18312806933359183 0.36818642870921087 0.13441094309203902 0.2749383160152804 0.4286838200534757 -0.7423025514583903 6.330068386402662e-16 0.0 -4.7978664797952286e-08 0.0 3.1954091902884085e-08 1.8208769340887867e-08 -4.08662089599995e-08 1.2383442303233692e-08 0.9999999999999972 0.0 0.0 2.4667942112443516e-08 1.175283943977207e-08 4.42176157635481e-09 2.4757137640163826e-08 2.067180755666183e-08 0.9999999999999992
827 -0.5592948443906817 -0.6756832491577562 0.04687777835236148 -0.09407154441643918 -0.4127640049561464 -0.22065451043760276 -1.3638001503643983e-16 -0.02306307675869548 -0.6971719675635513 0.5989371499874798 0.13650816357423462 -0.044423585348865355 -0.011663239157637251 0.36525403993635763 -0.03272704559390504 -1.4784962734291964e-16 -0.6550153441891212 -0.6923588504474048 0.19982649255902266 0.07835208140805323 0.21328699351580233 -0.005753580757249655 8.564896210712148e-17 -1.4172465633937235e-25 -0.7566305088764209 -0.5999707105618958 -0.1832424670813302 0.13163537846154064 -0.058958028954488276 -0.11473315005829182 -3.833571938746989e-16 9.820806637396746e-25
829 -0.35858092226644833 0.06720210352460765 0.7256653543394758 -0.20613261419968754 0.030139301197499677 0.18186625787249472 0.5129761563933898 0.026353141854873616 -0.37629394837461344 -0.6038685776358519 0.4470305447869711 -0.3230239842396776 -0.15223847984168218 0.056105472455448925 0.06030610724979013 0.3995041897633951 -0.3730693738690393 0.5023926816519918 0.7215863591388202 -0.03437719652347255 0.001379128864819328 -0.03016791778236008 0.2926434094725228 4.493878240571881e-25 -0.5954424282615898 0.6388173067769812 -0.4126501536939025 0.20545434831759687 0.0665855470861367 -0.015822628298190804 0.1420743958456744 -2.9638944042700868e-24
830 -0.23381925966314634 -0.204194850252311 0.38885191349629794 0.38791119568536925 0.5474389326700135 -0.542076628312185 -3.4875816083966776e-17 -0.0917368770344787 -0.1960577074752116 0.0010692791043257674 0.5223223378803488 0.04030582880637686 0.7702845396017095 -0.2596679289162227 -0.1623248047592889 1.2791875851778597e-16 -0.11593239415201763 -0.029660759895884348 0.2456528485216643 0.11518724518679792 -0.07091793538481689 0.952384975894099 -2.9350441740055427e-15 3.7362330792854044e-24 -0.10809898621127538 0.07086019194612338 -0.33639276364723036 0.29773509970511247 -0.8015082463355766 0.3729231722525256 8.954509740902548e-16 -6.145107769706299e-24
831 -0.3585809222664483 0.06720210352460815 0.7256653543394759 -0.2061326141996877 0.030139301197499902 0.18186625787249555 -0.5129761563933893 0.026353141854873474 -0.37629394837461344 -0.6038685776358516 0.4470305447869712 -0.3230239842396773 -0.1522384798416823 0.05610547245544861 0.060306107249789596 -0.3995041897633956 -0.37306937386903927 0.5023926816519919 0.7215863591388199 -0.03437719652347213 0.0013791288648194368 -0.030167917782362354 -0.29264340947252326 -1.6852054786815346e-25 -0.5954424282615899 0.6388173067769816 -0.4126501536939019 0.2054543483175963 0.06658554708613697 -0.0158226282981881 -0.14207439584567486 2.906521920549674e-24
832 -0.297786535712938 -0.49252375733935283 0.12905446701615766 0.7192983481702517 0.21758386300565452 0.1814162854281338 -1.1212791510921058e-16 0.23333185039366278 -0.405180548418207 0.5687821863640407 0.5516343768138299 0.2298978640234206 -0.04878634527202694 -0.18939994382432018 0.34192044087403134 6.521142921740956e-17 -0.20164111848138191 -0.3258847456038307 0.1572388496246426 0.8342540196157622 -0.3599913766739333 -0.05331393405454747 2.0735463848367938e-16 6.60386031662476e-25 -0.2404071520094987 -0.5522586587933592 0.26012672712238305 0.6763311017910593 0.2448879968581741 0.22837462781999607 6.03053996487081e-16 -2.157633274707347e-24
835 -0.36129765376017503 0.7034439651869275 0.15105141667778205 0.4062003889584325 -0.3965095024069099 -0.1694223924405723 -1.7586625698030491e-16 0.029859239773908367 -0.28386946102203564 -0.5251592123729256 0.03517465850005789 0.7875266631052706 -0.011718949521216602 0.133050325507436 0.06595988296740525 9.44427649316911e-18 -0.284368861031666 0.753287032203206 -0.2732409855414043 0.42522943271009256 0.3099014107434098 0.013168408662336956 2.1893927333919343e-16 6.000601279266257e-25 -0.1954559827811376 0.5836526319347279 0.6422320204188037 0.39487356246269767 -0.14997738125542953 -0.1739719826848204 -4.499879941729512e-16 8.363062711160156e-25
838 -0.15329672722344007 -0.28968722962514226 -0.1102188854854166 0.49889748668083866 -0.22198695475854055 0.6869344354243763 9.67823625198769e-17 -0.33223092996560444 -0.1326289584499308 0.2866198231579471 0.35912717505850256 0.23571697586449944 -0.6353692526419978 -0.34500364546774354 -0.43932017161553694 2.6014912871584504e-16 0.0 0.0 0.0 0.0 0.0 0.0 0.0 0.0 0.0 0.0 0.0 0.0 0.0 0.0 0.0 0.0
840 -0.05055984568353395 -0.053443008813119905 0.2386746806430011 0.3112441388081944 -0.12115659560896161 0.016987967354492442 -7.764653234654694e-15 -0.9087252158912364 -0.07567801058279051 -0.03143171215291008 0.4643594307877231 0.20630368930960596 -0.03430798009088153 0.32994800263678525 -0.7906018410421232 -4.244907470957696e-15 0.0 0.0 0.0 0.0 0.0 0.0 0.0 0.0 0.0 0.0 0.0 0.0 0.0 0.0 0.0 0.0
