402 128
51 0.1290798 0.03526871 -0.0016533787 -0.0024052442 -0.027357686 -0.06860497 -0.04458771 0.011066662 0.1456302 0.011728851 -0.0040533585 -0.0035730042 -0.07144008 -0.046154805 -0.03007242 -0.050118264 -0.040131863 -0.027387014 -0.023034032 -0.004179106 -0.045322385 -0.0049299197 -0.015634766 -0.041157793 0.011936827 -0.013942026 -0.05682307 -0.032473695 -0.035482988 -0.015624814 -0.022235896 -0.04908255 -0.026467452 0.18272021 -0.081964366 -0.03186397 -0.0040599965 -0.07421743 -0.032277193 -0.03255146 0.04208901 -0.022276465 -0.004154373 -0.0007464636 0.039211992 -0.04813392 -0.06224537 0.015748136 -0.008726711 -0.008501206 -0.04676496 -0.02997811 -0.022223558 -0.03700144 -0.042884197 -0.02048008 -0.026056686 -0.048555393 -0.0119577935 -0.023044148 -0.03405593 -0.045955103 0.112625375 -0.027716756 -0.02654 0.036763728 -0.04074091 -0.0075334846 -0.042041317 -0.0502086 -0.015158159 -0.040128086 0.05705448 -0.020104375 -0.053136915 0.19210443 -0.041123625 -0.041425403 -0.0068049305 -0.03341757 -0.035152324 -0.019327348 -0.07985183 0.10625605 -0.054802306 0.18370205 -0.01814797 -0.0022754546 -0.061510354 -0.02968857 0.027233101 -0.037698265 -0.013237992 -0.02989005 -0.01728504 -0.030910388 -0.020704145 -0.027308155 -0.03899055 -0.04154376 0.044416454 -0.06428992 -0.039978735 -0.028828606 -0.03381245 0.31644595 -0.024728734 -0.014751159 0.036047276 -0.011595051 -0.03599192 -0.014946001 0.06111627 -0.038868494 -0.002979947 -0.037129916 -0.057589084 -0.04019937 -0.0057134386 -0.044095717 -0.027202487 0.24560258 -0.036821287 0.19179314 -0.034182604 -0.0038629372 -0.024444064 0.029053608
52 -0.009345783 -0.010393131 0.063444614 -0.01094766 0.0042424686 -0.0067608315 0.0114048 -0.003178063 0.061856315 0.0359008 -0.00078988617 -0.0065100077 -0.0019263618 -0.007892447 0.010606337 -0.005533077 0.008469749 -0.00047080553 -0.011121034 0.02005298 -0.0032965434 -0.0052101053 -0.01086827 -0.0017642044 -0.004175208 -0.0018526502 -0.007347507 0.00342796 0.028386105 -0.009947191 0.05830033 0.054166235 -0.013927472 -0.0035726817 0.028513305 -0.003978719 -0.0065620714 -0.0009786327 0.035984144 -0.008459135 -0.00766495 -0.016853146 -0.004270743 -0.0024259011 0.013283791 -0.0025979604 0.016807301 -0.010286571 0.018914044 0.02195972 -0.010648774 -0.0025436797 -0.011949844 0.035625152 0.056100752 -0.0028045047 0.005081311 -0.0071369554 -0.010896574 -0.0103095835 0.008788198 0.00027380046 -0.011258334 -0.0013219967 0.032288462 0.038628697 -0.0004742157 -0.0069551663 -0.012384023 0.011759747 0.033756208 -0.017417058 -0.004210492 0.051189914 0.015890017 0.035163946 -0.009391166 -0.003628193 -0.002539161 0.013346556 0.011040291 -0.0063273697 1.9042753e-05 0.02051872 -0.0012694281 -0.0039490513 0.009041503 0.012005892 -0.004685811 0.04750732 -0.0023958546 -0.003414159 -0.0006757397 -0.0066984924 -0.005065221 -0.0097545115 0.024137575 -0.00675146 -0.010087612 0.06534069 0.040203866 0.022403127 -0.0043834075 -0.0063297646 -0.0022318915 -0.0045199706 0.062786415 -0.0056488267 0.0025000982 -0.016785417 0.057353944 -0.007339023 -0.009311169 0.015677705 -0.010251904 -0.015573922 -0.006235576 0.025668208 -0.0060591605 -0.0034117822 -0.0033607953 0.015267581 -0.013559992 -0.0032349706 0.011484949 -0.0059670447 -0.0044335085 0.063822284
54 -0.03211231 -0.028932247 0.116180524 -0.0062022964 -0.018175075 0.023048993 0.07060083 0.0402791 0.108052425 -0.004057854 -0.0050649364 -0.018498011 -0.0015056534 0.002184203 0.0721516 -0.007625246 -0.00041364637 0.0014225915 -0.03567334 0.038863417 0.016717147 -0.011158287 -0.012793382 0.016979758 -0.0028799407 -0.015015553 0.028783416 0.05173233 0.04544209 -0.008549644 0.10349834 0.04672891 -0.0232875 -0.0029533498 0.009077497 -0.0076841153 0.0045247152 -0.0017094233 0.0038939938 0.035655674 -0.010812522 -0.02608707 -0.00025872962 -0.010455768 0.09485909 0.023580672 0.09979935 -0.024586035 -0.01434035 0.02938645 -0.022903508 -0.0014369173 -0.02266584 0.07498932 0.1034001 0.047169186 0.11001503 -0.008138677 -0.006695138 -0.0016537566 0.0061852317 0.06463616 -0.02407158 0.08194408 0.04888065 -0.0019862447 -0.0016697446 0.017812487 -0.019121682 0.12861127 0.051330928 -0.023954814 0.0017789165 0.12936887 0.012624335 0.024794666 -0.007941929 -0.0053955833 -0.006816586 0.058359906 -0.0010496349 -0.015230345 0.037623286 0.00454583 0.02730999 -0.01585388 -0.0064754747 0.13229896 -0.005099847 0.07819481 -0.012805784 0.021817416 0.03551087 0.029929591 -0.0053701685 -0.019911801 -0.00073846424 -0.0032316563 -0.006554076 0.07677544 0.042344578 0.03812626 -0.008627013 -0.01594819 0.04339018 0.015736692 0.068266556 -0.0031968781 -0.007895066 -0.017715 0.029065069 -0.009483949 -0.018620944 0.111962765 -0.03244528 -0.023924636 0.011205058 0.028009497 -0.016052557 -0.016315917 -0.01563248 -0.018970668 -0.018012363 0.027275443 0.0662759 -0.010591744 -0.0009195458 0.074583456
55 -0.02860943 -0.002978699 0.2084368 -0.0019602848 -0.0125144245 -0.004182517 -0.009343465 0.019420972 0.0489501 0.06817829 -0.011235076 -0.019081319 0.01706747 -0.0033200344 0.11076713 -0.0028988472 -0.009029676 -0.0080678575 -0.03353647 0.13041955 0.029321842 -0.013548222 -0.0014129559 0.009293444 0.1287936 -0.011287881 0.0037589096 -0.009664441 0.019434541 -0.029256955 0.079077095 0.0024530804 -0.037654266 0.071013 -0.00033658557 0.040278867 0.06969172 -0.003093379 -0.00091190636 0.007931957 -0.0037006915 -0.0142906755 -0.0044863406 -0.020704241 0.12780535 0.009824488 0.07605721 -0.02042375 -0.011705767 -0.0032217347 -0.036298912 -0.0012743225 -0.023931272 0.03750324 0.02212273 0.02870913 0.1545742 -0.0060986253 -0.0075386884 -0.018215654 -0.001450578 0.004618286 -0.026491804 -0.004045431 0.08000734 -0.00028771255 -0.012829698 -0.0051000277 -0.02757747 -0.0020082057 0.22601774 -0.0046139336 0.0043137204 0.02138454 -0.011572323 0.061848104 -0.01013484 0.011763487 -0.013259775 0.007253344 0.03180477 -0.011732883 0.02646348 0.02804704 -0.0027422146 -0.0043055746 -0.011292387 -0.008972763 -0.014241812 0.03349042 -0.00636499 -0.006744172 0.004352916 -0.0030922764 -0.008306953 -0.011957516 -0.005242859 -0.00049007125 -0.004521823 -0.0007430708 -0.000957706 0.051179036 -0.012131459 -0.0045803036 0.003763061 0.01314266 0.03681035 -0.0050005517 0.23767017 -0.037834167 0.17769186 0.042648554 -0.009114971 0.008669123 -0.017632905 -0.010363758 0.01382143 0.021303922 -0.03079688 -0.016332744 -0.018444812 -0.0049925786 -0.003017025 -0.01724109 -0.0111115975 -0.0007051835 0.0089661265 0.09550881
138 0.12126629 -0.06405963 0.1151126 -0.057092387 -0.06791404 -0.039954443 -0.023922782 -0.0050122994 0.38289785 0.13651654 -0.03516346 -0.002034568 -0.031911936 0.08433138 -0.022762576 -0.023090178 -0.012417371 -0.05275926 -0.0062908395 0.043392055 -0.0007262284 -0.023660189 0.047495876 -0.054376222 -0.020624448 0.084266946 -0.02401681 -0.01675169 -0.027175268 -0.024266325 0.12025263 0.31223798 -0.07788422 -0.03670271 0.016452927 -0.022403229 -0.059481807 0.034311924 -0.009576458 -0.02233144 -0.034792796 -0.036158573 -0.033765513 -0.026683945 -0.0069454475 -0.0144679 -0.051765718 0.15864888 -0.006256678 -0.04044007 0.24322715 -0.030325634 -0.05849397 -0.0053752162 -0.019334132 -0.012832107 0.13473007 -0.015751377 -0.011709473 -0.0071320334 -0.07911641 -0.046809398 -0.05184815 -0.03950288 -0.036274116 0.17980453 -0.022293298 -0.043074697 -0.056300756 -0.016548883 -0.0036778802 -0.043645024 0.18201494 -0.023486027 -0.050497778 -0.040047996 -0.039097365 -0.03905149 0.0022119577 -0.03896141 0.25988156 -0.06741776 -0.028814811 -0.022027334 -0.044067897 0.20402539 0.084736906 -0.016804835 -0.045412775 0.33318743 -0.064286284 -0.05533889 -0.041056953 0.11453655 0.10696919 0.1512137 0.024627108 -0.06025007 -0.025363937 0.048868902 -0.0074166926 -0.022967922 -0.07414344 -0.02621968 -0.047317307 -0.03886446 0.05426792 -0.02954234 -0.034040786 0.17079526 -0.03244263 0.27132818 -0.031080708 -0.07736312 0.5931578 -0.033940744 -0.07870456 -0.03197655 -0.03198006 -0.048844244 -0.011174812 0.0065737814 -0.05401341 0.038874995 -0.061579883 0.2064582 -0.050476726 -0.05807188
139 0.025610723 -0.060491074 0.03276606 -0.024457818 -0.023077281 -0.028213 -0.031077644 -0.035462085 0.38962862 0.064142056 -0.029472051 0.20311171 -0.029433642 -0.004561684 -0.037978582 -0.026126787 0.14476445 -0.038982615 -0.018461885 -0.01088402 -0.025195107 -0.018344043 0.41889325 -0.080141835 -0.008002776 0.018915158 -0.040663462 -0.074252985 -0.029783512 -0.03600004 0.2592715 0.461313 -0.110901766 -0.017776584 -0.013971849 -0.006542331 -0.022666294 0.024112798 -0.04375245 -0.030777449 -0.010863091 -0.028811276 -0.048892263 0.1639759 0.08428662 -0.0667843 -0.064258695 0.1920082 -0.015102446 -0.005879242 0.13740298 -0.013479548 -0.013646445 -0.045677457 -0.03321741 -0.035426803 -0.011944574 -0.008903764 -0.009041007 -0.016027072 -0.094221026 -0.06307987 -0.067302145 -0.025524527 -0.014729484 0.09803563 -0.07122614 -0.057108443 -0.05603344 -0.06267874 -0.020410279 -0.040358465 0.30724263 -0.032576956 -0.07852936 -0.029587284 -0.105562806 -0.07162394 0.018719463 -0.038378876 0.3286494 -0.047758777 -0.017025964 -0.06829899 -0.063165456 0.46481556 -0.0145329265 -0.025207195 -0.018866938 0.6284195 -0.019103285 -0.052961405 -0.063159764 0.45453787 0.030272305 -0.011533958 0.29482108 -0.0702269 -0.037393533 0.011849101 0.1633698 -0.038117234 -0.10363424 -0.036315072 -0.09079041 -0.04972162 0.07920718 -0.037588816 -0.06610578 0.2780134 -0.0008862484 0.16883208 -0.03702762 -0.07881104 0.4925121 -0.0314986 -0.085626476 -0.021113165 -0.050644096 -0.043967124 -0.05074477 0.16887733 -0.05600635 -0.0024161998 -0.06178241 0.10731402 -0.066778295 -0.074151196
140 0.08406265 -0.044943843 0.11984412 -0.036891438 -0.051520552 -0.026625047 -0.02423197 -0.009210594 0.307291 0.15224642 -0.029608084 -0.005464592 -0.02199468 0.05143583 -0.013973367 -0.012827474 -0.0069009946 -0.025873665 -0.0134670315 0.045947526 -0.0040030703 -0.029652974 -0.0042676046 -0.03563597 -0.01706589 0.04284848 -0.014351438 -0.008920849 -0.008923396 -0.01886811 0.051634215 0.21215408 -0.050882656 -0.021983488 0.04948158 -0.016545473 -0.04406761 0.053280078 -0.0004953057 -0.005017906 -0.020483017 -0.029373664 -0.028968459 -0.019513564 0.01741763 -0.00036242921 -0.027943423 0.012440134 -0.008221864 -0.020724634 0.10384426 -0.023780724 -0.04468735 0.050404508 -0.022954375 -0.0033334703 0.15092187 -0.014486196 -0.001586235 -0.010318507 -0.048021927 -0.027271537 -0.030530933 -0.029359102 -0.01993541 0.15062393 -0.014261949 -0.035874892 -0.05225246 0.0019095754 0.030874267 -0.03867927 0.12791689 -0.017831381 -0.029807765 -0.031821866 -0.025309438 -0.02252023 -0.00091710326 -0.034700323 0.13876238 -0.046998926 -0.011277775 -0.010418671 -0.0347667 0.10837396 0.026219442 -0.006122184 -0.03333236 0.25243804 -0.042441275 -0.04043552 -0.034410458 0.07025227 0.061030515 0.08120785 0.0073653823 -0.041970696 -0.010305929 0.069495544 0.0120047135 -0.016759526 -0.049248084 -0.01295871 -0.03744309 -0.022488942 0.066692054 -0.014698677 -0.020455247 0.09335059 -0.017067125 0.21069849 -0.0312607 -0.04460184 0.4298656 -0.017702589 -0.052905686 -0.019252885 -0.0275118 -0.036327682 -0.008143648 0.024704542 -0.032371506 0.05455088 -0.04065973 0.18877944 -0.036486086 -0.030066064
141 0.03911723 -0.022188287 -0.004287325 -0.008835797 0.061703958 -0.014625281 -0.024376497 -0.020282546 0.16059642 0.05150087 -0.015781168 0.17835966 -0.021455163 -0.020823328 -0.018726448 -0.018226434 0.19513103 -0.014949473 -0.021255204 0.0099822525 -0.030103674 -0.0036732608 0.2860245 -0.039993044 -0.0023070886 -0.010318737 -0.0316808 -0.0670733 -0.0044252924 -0.027721776 0.17794955 0.20222409 -0.06847516 0.047939118 -0.023471551 0.04877223 0.016453229 -0.00998404 -0.050315034 -0.03763106 0.026154622 -0.014058023 -0.02973473 0.26871657 0.059348397 -0.043695353 -0.03724077 0.024857331 -0.0059456723 0.051767558 -0.009988 -0.010863264 0.087359756 -0.02685613 -0.016057147 -0.028806794 -0.018503595 -0.007920175 -0.0023420677 -0.010757643 -0.048843462 -0.03932851 -0.03471591 0.011577118 0.07812333 0.03827449 -0.05365899 -0.045878477 -0.039931655 -0.057436734 -0.021978144 -0.027278243 0.084754884 -0.007238938 -0.038919803 -0.012614113 -0.077899784 -0.05745548 -0.002604552 -0.03078166 0.13454041 -0.013886017 -0.008643682 -0.05003479 -0.03742153 0.26895124 -0.030152282 -0.024607474 -0.015227429 0.40209863 0.122533776 -0.016982863 -0.03755258 0.2256646 -0.0077003674 -0.030984774 0.18516232 -0.033103254 -0.030911896 -0.0014225265 0.18713714 -0.030746946 -0.053152155 -0.019347675 -0.0544583 -0.015039003 0.07630529 -0.025920162 -0.030242255 0.16023944 0.1332343 0.024859078 -0.023175796 -0.0250799 0.13813464 -0.017738285 -0.04891714 -0.0053146183 -0.03056465 -0.02012764 -0.04670191 0.13633141 -0.039194975 0.0022400506 -0.036763333 -0.014926232 -0.036594238 -0.014478045
145 0.27101842 -0.08848903 -0.04736791 -0.032460272 -0.08361659 -0.037360746 -0.05582307 -0.01842689 -0.0028265268 0.80943125 0.24775411 0.22521672 -0.16404961 0.23772502 -0.020580284 -0.008143532 -0.011337032 -0.01555832 0.41707495 -0.028890083 -0.035285722 -0.07311564 -0.03416892 -0.048957575 -0.012072328 0.5790297 -0.032502037 -0.08644694 -0.031877894 0.025816143 -0.052019384 0.018084582 -0.031280864 -0.056244433 -0.099758446 0.27407953 0.7739736 -0.018014805 -0.102181874 -0.09490272 0.09093675 -0.002452173 -0.01636397 0.2416467 0.0144033525 -0.01014733 -0.070721045 0.20816061 -0.021561423 -0.037142795 -0.030589586 -0.0022240567 -0.016307933 -0.007120279 -0.05896629 -0.027147084 -0.022894172 0.03670468 0.62192094 -0.019450275 -0.054214187 -0.057738114 0.006574312 0.38330197 -0.00792336 0.09441949 -0.05767299 -0.029186064 -0.052527662 -0.023609199 -0.088578306 -0.026786206 -0.03282502 -0.0088422075 0.021825828 -0.01871775 -0.08461441 -0.0071859704 0.44040436 -0.059436537 -0.08291079 0.08882212 0.65013 -0.102825366 -0.0921472 -0.027680648 0.09248821 -0.020853216 -0.03237558 0.2744416 -0.05359265 -0.028476838 -0.06571908 -0.019767158 0.49813494 -0.068133794 -0.031994108 -0.038259868 -0.05714879 -0.038757302 0.4074516 -0.01984705 -0.09184991 0.008569551 -0.13229601 -0.057318974 0.35830736 -0.034825508 0.3037368 -0.040208325 -0.07359741 -0.0140616195 -0.044089064 -0.04714223 0.8439691 -0.0074360194 -0.061748184 -0.03812709 0.63624763 -0.100451805 -0.109282196 -0.07049248 -0.0740143 0.052678958 -0.091568254 -0.05265369 -0.033753745 0.011737119
146 0.12985584 -0.11716963 -0.056634974 -0.03205667 -0.0935207 -0.071053155 -0.0727509 -0.01075988 -0.017512927 0.926814 0.19825698 0.21351245 -0.22071436 0.036593437 0.017728753 -0.012004961 -0.024333961 -0.024134701 0.40199015 -0.04688009 -0.04064655 -0.10242913 -0.027606973 -0.07544982 -0.0496985 0.93786436 -0.06678014 -0.11833721 -0.05529617 -0.006161626 -0.05404204 0.14213248 -0.03836104 -0.03284206 -0.117521696 0.40345195 0.9510772 -0.06595936 -0.13857132 -0.1248071 0.07841696 -0.014805317 -0.04922266 0.010037325 0.051529538 -0.052818842 -0.1006211 0.108788915 -0.049801607 -0.034754153 -0.07016682 -0.014446335 -0.03456945 0.13709281 -0.12003418 -0.020703634 -0.048260387 0.016283382 0.730213 -0.015362898 -0.049144432 -0.060941614 -0.0013499431 0.4288449 -0.0041288696 0.27898914 -0.08641553 -0.048078325 -0.07343703 -0.034176577 -0.12383749 -0.038597416 -0.04342421 -0.03907756 0.095798835 -0.044846937 -0.118202865 -0.023723075 0.53510123 -0.07900422 -0.10366622 0.12717424 0.94846064 -0.14791758 -0.09670308 -0.0058752424 0.0085562095 -0.03410647 -0.059115052 0.582214 -0.08241895 -0.06326155 -0.09116517 -0.032140255 0.5582558 -0.12455278 -0.02412791 -0.04384264 -0.07230301 -0.06326038 0.6465896 -0.07042284 -0.13583682 0.0031204114 -0.17252263 -0.061421543 0.37862653 -0.050611623 0.3274879 -0.0048365216 -0.14300214 -0.06020802 -0.05034856 -0.07878896 0.9928395 -0.0036828702 -0.10258428 -0.07399418 0.84523183 -0.14103414 -0.13773331 -0.08993635 -0.09347644 0.13815635 -0.15960707 -0.069950394 -0.05614794 -0.0073138545
147 0.2404321 -0.051938307 -0.015097709 -0.036240872 -0.06382589 -0.02688253 -0.044088177 -0.01252802 0.05240944 0.5192055 0.21012323 0.18666326 -0.09347852 0.21003921 -0.024281852 -0.008657867 -0.00074154104 -0.004171889 0.28458688 -0.015287987 -0.020368805 -0.03531876 -0.033498056 -0.03808591 -0.0023101796 0.26346081 -0.0052153375 -0.050236195 -0.0047171456 0.013043102 -0.027483318 -0.007520396 -0.02693052 -0.04107083 -0.05908471 0.10768149 0.47409666 -0.0034673356 -0.045459557 -0.06255465 0.054352883 0.01200621 -0.011682159 0.2109912 -0.0028258313 0.049269944 -0.033622462 0.16707245 -0.0014156018 -0.025544647 -0.008225048 0.0015963474 -0.0026415628 -0.016267395 -0.021084001 -0.01543644 -0.014095406 0.059292607 0.43184575 -0.014958647 -0.041030906 -0.045132928 0.0023239888 0.22060329 -0.009678116 0.05625046 -0.026603905 -0.019648893 -0.03200322 -0.020573666 -0.046425648 -0.022216933 -0.027800692 0.06523179 0.016377557 0.017470842 -0.059294935 -0.0019599 0.27235818 -0.040341504 -0.03987064 0.034439087 0.41410118 -0.051653177 -0.060967036 -0.032378305 0.12770125 -0.015367244 -0.014847954 0.12127693 -0.014624956 -0.012350335 -0.03805503 -0.015436594 0.26518944 -0.02537918 -0.014669026 -0.02339839 -0.037420776 -0.004916007 0.25431606 0.03535025 -0.048041373 -0.010810086 -0.08882908 -0.038391225 0.27332217 -0.017200606 0.20563693 -0.04017579 -0.011539106 -0.00071404874 -0.022606635 -0.024187123 0.549835 -0.009553338 -0.03133215 -0.023163967 0.37611157 -0.05906088 -0.067722775 -0.030745555 -0.031244386 0.03832293 -0.03762631 -0.039424717 -0.021060834 0.004820461
148 -0.003192699 -0.048130844 -0.003425561 -0.024002042 -0.0276556 -0.039487626 -0.03184205 -0.0044470835 0.029752519 0.27878484 0.058701064 0.044371415 -0.07573437 -0.015702976 0.029872531 -0.0029176115 -0.0074323253 -0.00784932 0.07000129 -0.016236698 -0.014820211 -0.037620243 -0.016454995 -0.033935826 -0.029562166 0.3232448 -0.031105746 -0.032022756 -0.01277175 -0.010401467 -0.00032264442 0.16096795 -0.024216792 -0.0046233525 -0.028240655 0.041726317 0.30354592 -0.033514496 -0.031574912 -0.043151703 -0.0003008511 -0.021879828 -0.023403296 -0.012222943 0.050194994 -0.031629868 -0.030960932 -0.006574798 -0.0085062105 -0.012635169 -0.03488275 -0.018422607 -0.022550749 0.14815493 -0.031277012 -0.008899632 -0.02322617 -0.00858263 0.19034824 -0.007674253 -0.011508164 -0.023221118 -0.00846926 0.11156406 0.034780115 0.18694404 -0.023600394 -0.030660069 -0.05355938 -0.026393944 -0.032923695 -0.029760165 -0.01707955 0.008751204 0.084661946 -0.008488384 -0.04881384 -0.007970394 0.1431616 -0.020166196 -0.022319708 0.0019073347 0.41098547 -0.037555944 -0.025234748 0.040844303 -0.0014987104 -0.011281841 -0.03255807 0.315445 -0.019623913 -0.030855983 -0.025317982 -0.023579696 0.08823836 -0.05227669 -0.0015570595 -0.020093977 -0.03192109 0.02155044 0.31461117 -0.020923171 -0.046872046 -0.0109989 -0.054724634 -0.0128264325 0.17622402 -0.023008501 0.104983896 0.010513985 -0.038732298 -0.030996129 -0.0025992093 -0.025887165 0.24789596 -0.012483281 -0.046030182 -0.021173624 0.26210386 -0.044805925 -0.0445053 -0.010690507 -0.035082523 0.04365843 -0.056535482 -0.026632205 -0.028708313 0.03333758
152 -0.02431351 -0.06672826 -0.00053609425 -0.018369803 -0.026076242 -0.011060435 -0.021300258 0.1573874 0.06401509 -0.019100849 -0.0057890844 -0.002517473 -0.024820765 0.007184677 0.00077698403 -0.016371926 -0.002388725 0.29326963 -0.012109702 0.24567036 -0.016524248 -0.014044332 -0.027034745 0.08571622 -0.01723702 -0.01346266 -0.036363807 -0.0112325195 -0.012193123 -0.017832149 0.19246598 0.03805778 -0.03796109 -0.052960236 -0.013582592 0.29810572 -0.013786 -0.021289928 0.10235975 -0.033403214 0.21117988 -0.0028796357 -0.007063031 0.0036068968 0.05197674 -0.020021813 0.0792134 -0.02781408 0.06766415 -0.025402308 -0.042619698 0.07873085 -0.009112502 -0.0011192091 0.08934389 0.13218406 -0.028771007 -0.02000912 -0.003961657 -0.06274295 -0.016160086 -0.010089089 -0.0013596466 0.17671739 -0.015621376 0.013031481 -0.0012510894 -0.020438902 -0.07749064 -0.009265465 0.050569765 -0.00578792 -0.019588709 0.29001227 -0.017782573 0.103826664 -0.04785557 -0.009400444 0.00080449274 -0.00693071 0.017574087 -0.0048595234 0.16044623 -0.0026686292 -0.019992605 -0.016597567 0.033615008 -0.0017513022 -0.0442141 0.0344068 0.20881552 -0.01061607 0.13647991 -0.058152605 -0.0028164547 -0.018983867 -0.015738016 -0.015738776 -0.031571757 0.15824997 0.2117118 0.119552374 -0.014367597 -0.026875874 0.06656611 0.042773247 0.09096815 -0.020030528 0.035647362 -0.026075348 0.058821246 -0.018281145 0.02102825 0.0027861977 -0.041620072 -0.03232656 -0.014111273 0.030254224 -0.01943462 0.02190385 -0.016925467 0.009233609 -0.003397847 -0.014579798 0.17121999 0.008291105 -0.021102732 0.06695152
153 -0.0328097 -0.027588794 0.07775087 -0.010049247 -0.009401232 0.0009542797 0.03373529 0.050681192 0.046728093 0.018852295 -0.0055183484 -0.023552084 -0.0033143552 -0.013576912 0.06706355 -0.0077382955 0.04788012 0.045782313 -0.0234762 0.18250965 -0.0060873055 -0.013365689 -0.020005384 0.0061406903 -0.026187217 -0.00018787039 0.005549035 -0.0035474398 0.06490825 -0.023720128 0.16833025 0.076361686 -0.023509173 -0.026971934 0.057333894 0.025191072 -0.007377714 -0.0019723743 0.06468725 0.032625917 0.030880146 -0.02530512 -0.0038264722 -0.009257953 0.004952618 -0.0071964557 0.027219823 -0.03559352 -0.0077402205 0.014005287 -0.022838669 0.08082883 -0.020176958 0.09647536 0.064942166 0.062362544 -0.008586762 -0.009216624 0.028661463 -0.028421534 -0.0036374007 -0.0035438442 -0.022589786 0.0639615 0.013601866 0.043265864 0.047376413 0.03798534 -0.026458198 -0.0013227847 0.13990325 -0.027415527 -0.0055754837 0.076319136 0.036882542 0.08965908 -0.01810635 -0.007257619 0.032794397 0.040145308 0.043712772 -0.004165686 0.09677707 -0.006689027 0.042722523 -0.007725004 -0.00028530732 -0.0007412564 -0.017654404 0.09387405 -0.0038210307 0.022419982 -0.0046047135 -0.016367838 -0.0146892695 -0.027350545 0.033567812 -0.0052877367 -0.009306236 0.17031018 0.17706364 0.118273556 -0.009562201 -0.008467924 0.007840585 -0.0071539166 0.08544453 -0.010688226 -0.0076081823 -0.026594331 0.069622606 -0.0016932574 -0.02055016 0.024932329 -0.02795947 -0.02524969 0.086041994 0.04007006 -0.020943644 -0.008814356 -0.0057597198 -0.0060225218 -0.0071990103 -0.006822951 0.040810265 0.0083162505 -0.00036365874 0.048486706
154 -0.052289158 -0.0548122 0.051495597 -0.011608292 -0.021200472 0.03632292 -0.00063356245 0.1795807 0.008464569 -0.010088197 -0.0117796995 -0.036231425 -0.013146994 -0.009054459 0.11195436 -0.01603303 0.073520236 0.18153693 -0.03767551 0.3538196 -0.0093041435 -0.01704702 -0.019406205 0.06319751 -0.032058764 -0.004063376 -0.003259609 -0.009008412 0.05964653 -0.04163117 0.2601992 0.05057054 -0.03379169 -0.05898538 0.048954956 0.18196951 -0.0052403556 -0.0027597614 0.077399366 0.012173196 0.15186878 -0.024107939 -0.011511419 -0.01367409 0.035187863 -0.014473775 0.06482225 -0.053089518 -0.014816579 -0.0017193325 -0.048880212 0.16962862 -0.03044494 0.07947481 0.08340953 0.15508561 -0.009320715 -0.015249555 0.0720579 -0.058756422 -0.0050767106 -0.004484191 -0.026412804 0.16020378 -0.011136393 -0.0018392288 0.020489145 0.05037106 -0.05953288 -0.0057646236 0.2607858 -0.026482115 -0.009308084 0.19224688 -0.00016321689 0.14679965 -0.0342328 -0.015738329 0.044732664 0.024629086 0.08698721 -0.006134145 0.23190822 -0.018074973 0.058410972 -0.02410051 -0.005806354 -0.009427972 -0.03872512 0.08540405 0.050982617 0.057984598 0.0152829215 -0.03613535 -0.017685335 -0.040433925 0.0093768155 -0.009565743 -0.01701841 0.20767254 0.3196633 0.2146083 -0.014426722 -0.0130027635 0.03550973 -0.0073643946 0.095153406 -0.020593705 -0.0061670803 -0.036110725 0.09172238 -0.009215157 -0.020167379 0.027903467 -0.050627943 -0.043089733 0.1183308 0.057633057 -0.03480057 -0.004455211 -0.022997627 -0.0077039017 0.0023780875 -0.014523587 0.1474575 0.042177018 -0.004047747 0.024170324
165 -0.0012571823 -0.023200464 0.0144128455 -0.023274153 -0.02153783 -0.03538651 -0.022176135 -0.0074196295 0.010549597 0.011393826 -0.019110963 -0.003018132 -0.042861324 -0.020898262 -0.018427234 -0.012972842 -0.006151257 -0.014200433 -0.017936826 -0.003312625 -0.031854074 -0.0051242397 -0.019447168 -0.0060219876 -0.007518926 -0.016832052 -0.036346924 -0.0031630495 -0.0071458854 -0.011045435 0.016068675 -0.007117779 -0.025489718 -0.019028215 -0.02888577 -0.018004637 -0.028236235 -0.037434906 -0.012725035 -0.041506447 -0.013349836 -0.026440283 0.011714991 -0.00723186 -0.020795371 -0.020494541 -0.015317224 -0.01799005 0.073952734 -0.00861312 -0.028987054 -0.012885155 -0.013085867 -0.009148817 0.0018661637 -0.0066496553 -0.018460348 -0.027298305 -0.01827616 -0.043402735 -0.018100074 -0.022939475 0.0008446276 -0.02286242 0.068000786 0.063670404 -0.01343813 -0.023023825 -0.047917966 -0.033451714 -0.019025866 -0.020210914 -0.03193597 0.029551124 -0.022609204 0.0065190513 -0.036143802 -0.026326612 -0.0050635636 -0.025407081 -0.017388593 -0.01839912 -0.029864728 0.006903786 -0.022360755 0.07923454 0.014926635 0.030113433 -0.022535928 0.034807283 -0.0014856618 -0.030052697 0.03390568 -0.016831694 0.011570398 -0.0215849 -0.0145480735 -0.034170393 -0.03184943 0.061260104 0.034026835 -0.015531096 -0.022455184 -0.013591732 -0.0023694367 0.059509814 0.041837778 -0.019252421 0.028634962 -0.013374249 0.042692468 -0.021653075 -0.003484159 -0.023420407 -0.00511366 -0.040133856 -0.03109297 -0.014269309 -0.005332313 -0.028166458 -0.012055826 -0.009820822 -0.037174832 -0.014806933 -0.010622214 -0.026351249 -0.036381107 0.12771478
166 -0.010070301 -0.035359066 0.012073032 -0.018921865 -0.009870569 -0.026507283 -0.029955735 0.0123398565 0.011751585 -0.0044239643 -0.014792566 -0.0055528656 -0.026985694 -0.012082611 -0.008258104 -0.011747579 0.012949687 -0.012372601 -0.0147909615 -0.0057843677 -0.025442535 -0.011946946 -0.022227667 -0.009483044 -0.0040954035 -0.028219745 -0.03594212 -0.009667127 -0.006337167 -0.0139139965 0.060951076 -0.010908706 -0.025663514 -0.022888957 -0.018628864 0.08844484 -0.01016566 -0.020165876 -0.020811366 -0.032117255 0.04872336 -0.009535831 -0.013165495 -0.010677125 -0.019152217 -0.016995033 -0.014987978 -0.007796209 -0.009046144 -0.013340065 -0.028705588 -0.0013563925 -0.01311435 -0.015970849 -0.008112433 -0.01508978 -0.015165644 -0.02278958 -0.015836773 -0.024495108 -0.017899137 -0.018134061 -0.004438806 -0.025110273 -0.0065883636 0.016743006 -0.020387216 -0.011434656 -0.026781393 -0.022060644 -0.0014263102 -0.03528016 -0.027178183 -0.0058426643 -0.028128242 -4.33065e-06 -0.031146897 -0.020483151 0.03945316 -0.013899597 -0.015123302 -0.013480163 -0.01105973 -0.007954307 -0.029636195 0.090049475 -0.011299168 -0.0056361123 -0.019275602 0.021925801 -0.001282736 -0.02373907 -0.008812373 -0.029667964 -0.0035831796 -0.03152348 -0.011538054 -0.028944463 -0.025250563 -0.00021449347 -0.016130464 -0.027889434 -0.019431321 0.0806091 -0.018550439 -0.014441165 -0.006634438 -0.013194921 0.039943434 -0.016975963 -0.012259076 -0.017493937 -0.0045072734 -0.014879695 0.030713402 -0.024339875 -0.018110713 -0.012518975 -0.016995057 -0.023509903 -0.017033258 -0.015307802 -0.027170777 -0.0057866345 -0.027606878 -0.022286547 -0.023019591 0.04221648
169 -0.008989295 -0.061950922 0.15254685 0.1809936 -0.043065023 -0.03643718 -0.060151722 0.25023973 0.39377296 0.013589418 -0.06387368 0.44668853 0.20471056 -0.03480813 0.30217773 -0.048169445 0.12070313 0.28453118 -0.029846812 0.32041392 -0.011449762 -0.039477635 0.31171852 0.02183783 0.047477603 -0.098084144 -0.042901587 0.031139217 -0.016541846 0.032899514 0.050318465 -0.020926204 -0.07932727 -0.04393398 -0.0007750638 0.2493295 -0.048463117 0.061427005 0.13028717 0.0039388603 -0.0068679913 -0.07083995 -0.008094044 0.37383974 0.22791286 0.11862376 0.1548608 -0.00768265 0.022533525 0.24827631 -0.11055201 -0.022504594 0.056824468 -0.045799773 -0.005303291 0.24238747 0.03933541 -0.06551129 -0.020043049 -0.061815906 -0.019503806 0.0076314723 -0.04407356 -0.086256616 -0.06810733 0.35349283 -0.04131613 -0.023227228 -0.13424444 0.29977816 0.29505354 0.06078612 -0.013443355 0.21066688 -0.0015701976 0.2854372 -0.07585909 -0.008391253 0.020173438 0.0753669 -0.023931503 -0.05528022 -0.0093930885 0.11195299 -0.06001395 -0.031797815 -0.0095762005 -0.02350494 -0.05455656 0.28782952 0.30144107 -0.017993784 0.11791843 -0.03433342 0.64367926 0.07211472 -0.026998177 -0.042295065 0.36403835 -0.006154179 0.07863458 0.1397401 -0.08011561 -0.03238212 -0.012855741 0.075570524 0.069508776 -0.05008359 -0.0028068607 -0.13377866 0.35932744 -0.03992374 0.19936997 -0.015284926 -0.00082159415 -0.09940692 -0.019895954 0.049903017 -0.03111477 -0.010980819 -0.02517481 0.06477606 -0.061318155 0.079401664 -0.030417917 -0.045116834 -0.048494194 -0.019412337
170 -0.03464299 -0.050101638 0.20158552 -0.02135507 -0.0027026504 0.059459478 0.0005072239 0.106182724 0.23311593 0.006441113 -0.024272222 0.16698602 0.34390953 -0.015180944 0.19292255 -0.010692016 0.041118674 0.29214758 -0.0312708 0.2148417 0.14982516 -0.025837496 0.06755727 0.09880367 -0.011761251 -0.038693972 -0.004981744 0.14013624 0.19808815 -0.00502308 0.23136686 0.13636428 -0.04953817 -0.04214844 0.34962428 0.077503495 -0.042125743 0.20134059 0.3830358 0.07671887 -0.02115962 -0.058231086 0.01075919 0.16424438 0.16038182 0.1914511 0.2259963 -0.031736292 0.14349757 0.06945225 -0.061115958 0.024753142 0.04577394 0.0711299 0.33786753 0.18783705 0.18451665 -0.004563503 -0.011765253 -0.043720316 0.07145557 0.18751505 -0.041299973 -0.018572172 -0.017476937 0.18783233 0.007853895 -0.007251654 -0.07704182 0.24050045 0.13201739 0.07474136 0.019337479 0.15398929 0.16971894 0.18937872 -0.017262807 0.05911916 -0.020636039 0.1343389 0.07942964 -0.033319663 0.15300559 0.3015416 0.03359241 -0.048007607 0.06741845 0.02284811 -0.00023438595 0.19686416 0.14976898 0.0606753 0.12644741 -0.045057036 0.29479578 0.26643956 0.08956797 -0.019656872 0.2940514 0.21766807 0.19640654 0.3470173 -0.03998683 -0.03947371 0.19086853 -0.0008652359 0.21672478 -0.027515337 -0.0032672137 -0.10339495 0.5168384 -0.0020643475 -0.0032373227 0.2568699 -0.03534132 -0.054439373 -0.0092122955 0.16357821 -0.01769134 0.0956655 0.013458669 0.09533665 -0.024650183 -0.015447617 0.043828063 -0.013821471 -0.011692872 0.057291135
171 -0.032764394 -0.03296242 0.12985003 -0.0123003945 0.020437172 0.042473197 -0.0061843516 0.080145255 0.18572508 -0.0031609235 -0.013111663 0.10389653 0.21423718 -0.009680316 0.15126345 -0.01545448 0.074011065 0.23253298 -0.027287055 0.108266264 0.12688415 -0.017942093 0.12707336 0.0152248405 -0.008847895 -0.025431028 0.009374795 0.09273302 0.13301958 -0.013267854 0.1635878 0.10875507 -0.03419268 -0.022251373 0.26027784 0.09793357 -0.029399535 0.1494954 0.2429814 0.067064896 -0.012000781 -0.044891845 -0.008536445 0.062122732 0.1321889 0.1193818 0.12761012 -0.022083066 0.09513056 0.06114923 -0.0473787 0.059211805 -0.00077187235 0.006007027 0.18380871 0.077843346 0.09798824 0.014990568 -0.00082320685 -0.024955215 0.051855154 0.12388378 -0.036299612 -0.0070713977 -0.011405397 0.1307753 -0.0043602674 -0.0047681634 -0.051445086 0.22791979 0.15273577 0.06799719 0.01334748 0.08497242 0.13443705 0.07548188 -0.016005054 0.02978376 -0.007542199 0.11152086 0.028764542 -0.011152937 0.11727296 0.20747697 0.031229744 -0.04121701 0.03356369 -0.0028906688 0.023743207 0.10897778 0.09413382 0.10472056 0.07082626 -0.03840993 0.19748116 0.17631742 0.084805444 -0.016011616 0.21462248 0.18688756 0.14895457 0.22784512 -0.034789823 -0.021406122 0.1509596 -0.0008238174 0.13586967 -0.00838095 -0.015083486 -0.07564252 0.3598088 -0.006410248 -0.011937794 0.22759266 -0.02086809 -0.041003022 -0.0042269095 0.12283553 -0.016400943 0.042101707 -0.004602092 0.03636115 -0.007451545 -0.017396012 0.039520845 0.0014385609 -0.009981971 0.056813665
172 -0.038211625 -0.033263534 0.13756746 -0.020466788 0.04742597 0.07150073 0.03200152 0.049012437 0.15145127 -0.0011233169 -0.007611713 0.042059552 0.19935262 -0.007888354 0.10593417 -0.01022838 0.054129086 0.2081137 -0.02883402 0.09795044 0.12930116 -0.017530043 0.039825276 0.033404246 -0.013381581 -0.008648823 0.006260245 0.07649927 0.15226364 -0.016443914 0.18788256 0.13575827 -0.029663822 -0.02029987 0.25602505 0.054200526 -0.026695875 0.14681798 0.23495689 0.06297204 -0.013614281 -0.04116266 -0.0027179793 0.029874705 0.12002533 0.12161252 0.13045928 -0.022542726 0.08584313 0.031988874 -0.036857195 0.054733846 -0.005751196 0.066054374 0.22718766 0.058801472 0.10080202 0.03855867 -0.0056647174 -0.020640993 0.076083094 0.15104814 -0.034011524 0.030182753 0.008298331 0.104519404 0.005318746 -0.0038788468 -0.040171802 0.19532952 0.11348215 0.039936148 0.0020239297 0.09660436 0.1619371 0.050002813 -0.013704446 0.024952665 -0.009138721 0.098653905 0.035970684 -0.010404542 0.13776354 0.18389776 0.073743664 -0.042077202 0.057523422 -0.00067567156 0.023235803 0.10213369 0.04770545 0.108952746 0.07045603 -0.03750331 0.12350702 0.1367599 0.091970794 -0.010689751 0.14000617 0.19820532 0.15471636 0.23261042 -0.023245724 -0.021756085 0.1729333 -0.0032033236 0.14880262 -0.010433464 -0.012397915 -0.06883168 0.33879018 -0.0034051083 -0.019102419 0.24594401 -0.024638811 -0.03446402 -0.0049436963 0.13019603 -0.009890857 0.03761543 -0.0018206049 0.033802398 -0.0050413585 -0.017392367 0.06619609 0.009054724 -0.0023455825 0.0970981
173 -0.035110883 -0.031112129 0.1299067 -0.022961883 -0.0009459935 0.061554372 0.021031857 0.029772867 0.11853032 0.04308544 -0.0140131805 0.00090363994 0.2129459 -0.00881503 0.08406168 -0.0016867708 0.018132145 0.13393204 -0.030704653 0.15406744 0.09601969 -0.018449346 -0.0013606863 0.05562718 -0.014157722 -0.007887724 -0.0035205197 0.05136455 0.12288494 -0.0151834665 0.21136509 0.13738151 -0.029274613 -0.031172842 0.25924572 0.02088637 -0.025342269 0.0909632 0.2560652 0.098568454 -0.011284972 -0.03985427 0.012651522 0.032000024 0.11733896 0.08444552 0.12558694 -0.026121214 0.11617607 0.018869208 -0.038026627 0.03340373 -0.012032873 0.08482316 0.27055344 0.07157962 0.14237697 0.051041003 -0.013559935 -0.027897364 0.061633453 0.19697146 -0.031084448 0.010264296 0.0020699687 0.08782857 0.0064872317 -0.0012741477 -0.03511634 0.1776411 0.13429306 -0.002472384 0.026713464 0.07470664 0.14298098 0.077252306 -0.0012466882 0.024122354 -0.020142188 0.11415377 0.06070438 -0.015563977 0.14422774 0.18996902 0.049267165 -0.0321591 0.044789933 0.0030915402 0.03871949 0.14706233 0.032050405 0.044931427 0.06597714 -0.026822412 0.09390779 0.10883654 0.115210816 -0.014057571 0.1393433 0.16114922 0.13902333 0.23380114 -0.01986607 -0.021992248 0.11254457 -0.006865629 0.17817083 -0.005385948 -0.006982936 -0.054016184 0.33764005 0.040265583 -0.014410384 0.21571968 -0.036047645 -0.03514374 -1.1623465e-05 0.1343154 -0.011913913 0.02931748 0.018555373 0.049910434 -0.010510238 -0.013117264 0.029031387 -0.008487241 0.014709434 0.035935726
174 -0.038211625 -0.033263534 0.13756746 -0.020466788 0.04742597 0.07150073 0.03200152 0.049012437 0.15145127 -0.0011233169 -0.007611713 0.042059552 0.19935262 -0.007888354 0.10593417 -0.01022838 0.054129086 0.2081137 -0.02883402 0.09795044 0.12930116 -0.017530043 0.039825276 0.033404246 -0.013381581 -0.008648823 0.006260245 0.07649927 0.15226364 -0.016443914 0.18788256 0.13575827 -0.029663822 -0.02029987 0.25602505 0.054200526 -0.026695875 0.14681798 0.23495689 0.06297204 -0.013614281 -0.04116266 -0.0027179793 0.029874705 0.12002533 0.12161252 0.13045928 -0.022542726 0.08584313 0.031988874 -0.036857195 0.054733846 -0.005751196 0.066054374 0.22718766 0.058801472 0.10080202 0.03855867 -0.0056647174 -0.020640993 0.076083094 0.15104814 -0.034011524 0.030182753 0.008298331 0.104519404 0.005318746 -0.0038788468 -0.040171802 0.19532952 0.11348215 0.039936148 0.0020239297 0.09660436 0.1619371 0.050002813 -0.013704446 0.024952665 -0.009138721 0.098653905 0.035970684 -0.010404542 0.13776354 0.18389776 0.073743664 -0.042077202 0.057523422 -0.00067567156 0.023235803 0.10213369 0.04770545 0.108952746 0.07045603 -0.03750331 0.12350702 0.1367599 0.091970794 -0.010689751 0.14000617 0.19820532 0.15471636 0.23261042 -0.023245724 -0.021756085 0.1729333 -0.0032033236 0.14880262 -0.010433464 -0.012397915 -0.06883168 0.33879018 -0.0034051083 -0.019102419 0.24594401 -0.024638811 -0.03446402 -0.0049436963 0.13019603 -0.009890857 0.03761543 -0.0018206049 0.033802398 -0.0050413585 -0.017392367 0.06619609 0.009054724 -0.0023455825 0.0970981
183 -0.044619884 -0.028930882 0.14724262 -0.00808555 0.023485482 0.06599685 0.012532813 0.09073271 0.10903429 0.045653343 -0.012231095 -0.005849725 0.1648214 -0.007417392 0.121008195 -0.0116273 0.055645764 0.1807891 -0.032279123 0.13465635 0.05749184 -0.015625661 0.01928549 0.040203158 -0.010961689 -0.011562417 -0.012036275 0.051150955 0.09737949 -0.027090851 0.20672771 0.12631251 -0.02730889 -0.01881477 0.19620281 0.057699412 -0.01941878 0.11834397 0.14557368 0.11082712 -0.011550142 -0.046977025 0.021481961 0.030097015 0.15723313 0.06588024 0.08194012 -0.024726493 0.03944816 0.05983948 -0.031601433 0.0712076 -0.017990429 0.07518442 0.14745107 0.020328188 0.09339259 0.0484213 -0.008083832 -0.017235762 0.047677606 0.18591064 -0.036756787 0.029982163 0.03943806 0.095946215 -0.00948865 0.008065101 -0.024879854 0.23105839 0.21192925 -0.0116183115 0.020062149 0.106500216 0.1639466 0.05444047 -0.01227007 -0.0005833447 -0.010503079 0.098480776 0.045431778 -0.0042974874 0.2174692 0.043707874 0.05367072 -0.03182246 0.030624457 -0.0067122476 -0.005996037 0.1603797 0.021753818 0.053320695 0.026684735 -0.02660939 0.07432224 0.028747812 0.120037556 -0.01293073 0.09261537 0.15239963 0.1297784 0.20314066 -0.024872547 -0.0101485755 0.099035114 -0.002421605 0.1558424 -0.0073850336 -0.011060408 -0.053836085 0.25010478 -0.0065629976 -0.019204639 0.22116998 -0.017227853 -0.04328903 0.026099343 0.14644724 -0.016948653 0.016046945 -0.01205077 -0.005838082 -0.0071350187 -0.016968206 0.044126682 -0.0036574227 -0.006118866 0.038002174
184 -0.027355809 -0.022351438 0.07736793 -0.018107586 0.04303842 0.032122154 0.020895232 0.012424858 0.083645545 0.03064539 -0.0021775712 -0.0057289605 0.10835123 -0.007877219 0.039332032 -0.0054063885 0.021175139 0.10853504 -0.024244403 0.07224644 0.076000266 -0.0099796 0.003725847 0.03372887 -0.00985787 0.010006089 -0.00017974355 0.03502602 0.10426568 -0.01753681 0.15489735 0.12019011 -0.01947379 -0.014355241 0.16729379 0.00910668 -0.018861955 0.068529874 0.15126735 0.052601304 -0.008783205 -0.029906167 0.00064250827 -0.002065191 0.07681056 0.04609576 0.05250767 -0.016060317 0.06636456 0.010417759 -0.02323285 0.04652205 -0.00955498 0.073940605 0.18026297 -7.39608e-05 0.06635894 0.05061853 -0.008053889 -0.014514006 0.053282753 0.11662329 -0.020856084 0.047976892 0.048561208 0.0549336 0.0031724945 -0.0030283008 -0.02023301 0.13486964 0.09722231 -0.005140805 0.0018422185 0.0497697 0.12550645 0.022523237 -0.00409631 -0.00066225603 -0.009893301 0.059727594 0.039585404 -0.0045816177 0.117004275 0.11361721 0.05714526 -0.027482612 0.03333757 -0.0020695098 0.036543757 0.07134196 -0.0016082237 0.06056381 0.027867772 -0.025685523 0.019661821 0.053453825 0.08143546 -0.010210908 0.04761371 0.15262663 0.1078955 0.15338369 -0.009365711 -0.015461954 0.103971034 -0.0058623045 0.12644163 -0.0015359203 -0.009769101 -0.033625092 0.22518516 0.011077139 -0.020266328 0.1762711 -0.020333458 -0.02445814 -0.002169906 0.087165765 -0.005614575 0.020430602 -0.0016273157 0.013179377 -0.00536978 -0.016291646 0.029967053 -0.002773131 0.030260086 0.07058101
187 -0.09505809 -0.08906644 0.76793545 0.29008698 0.29237553 0.07981176 0.39243653 0.3496928 0.2712186 -0.01042325 -0.050185885 -0.047296327 -0.03039515 -0.020325432 -0.03747742 -0.032318395 -0.037881654 -0.034516063 -0.097477905 0.24303104 0.116364 0.045634683 -0.07738708 -0.027287392 -0.019130973 0.5488979 -0.08556645 -0.094439395 -0.07296725 -0.0646184 0.30592832 0.23700936 -0.0968623 -0.1132378 -0.01771709 -0.06154113 -0.021954695 0.018648792 -0.06405098 -0.03462268 -0.013746473 -0.097298816 0.13372315 0.08070585 0.033853702 0.06471971 0.077015735 -0.03912734 -0.08515326 -0.037222467 -0.08008843 0.23294836 -0.13976713 0.6869 0.22061375 -0.037053935 -0.016383698 -0.059844315 -0.045350447 -0.017388156 -0.015641531 0.12871484 -0.052710034 -0.014378071 0.9395447 0.25701958 -0.088974886 -0.064456366 -0.08175363 -0.010626028 0.16778012 -0.013844418 -0.008022729 0.27428016 0.36218926 -0.04084761 -0.077684306 -0.077465706 0.03049268 -0.035070702 -0.019903507 -0.07394765 -0.0033012691 0.022044756 -0.048049465 0.24493676 -0.110745005 -0.021070763 -0.11198341 0.1424625 -0.041562356 -0.013934068 0.57159454 -0.02842915 -0.010463652 -0.032558303 -0.0028121963 -0.008056783 -0.009201656 0.16295382 0.90611875 0.008456921 -0.015356304 -0.08544131 0.030392673 0.051245153 0.28530705 -0.032031186 -0.025931245 -0.07793201 -0.023509946 0.70620626 0.2863717 -0.001552503 -0.027808422 -0.0005087804 -0.04392167 0.09256128 -0.064201765 -0.07852897 -0.0645836 0.34873256 -0.030832723 0.004408248 -0.03783071 -0.034098472 -0.028428454 0.42335695
188 0.1061548 -0.048674922 0.26685724 -0.021803763 0.08717216 -0.06460853 0.11915402 0.22299986 0.2024152 0.011240732 -0.045632288 -0.020211736 -0.039673306 -0.04918454 -0.013351685 -0.02530923 -0.034279518 -0.042524915 -0.05445639 0.19738387 -0.01658285 -0.008202312 -0.08469411 -0.05529902 -0.022945467 0.6348052 -0.0646562 -0.084678546 -0.06967024 -0.05486982 0.10790725 -0.027496917 -0.06604331 -0.043831103 -0.016873164 -0.031462625 -0.05412031 -0.054089617 -0.031347524 -0.07707904 -0.044275887 -0.02639339 0.016203042 -0.015224802 -0.04437808 -0.0112088425 -0.03559792 0.008935552 -0.027221395 -0.04093838 -0.048369814 -0.00018610676 -0.07582656 0.110103205 0.15614958 -0.050148048 -0.028573224 -0.052918006 -0.041861974 0.22840749 -0.04626755 -0.04166611 0.066992514 0.017650839 0.5944292 0.08777694 -0.06109788 -0.060860753 -0.08687993 -0.05363536 -0.0028178224 0.34972143 0.1790805 0.11220548 0.29555044 -0.05208903 0.11356582 -0.012801054 0.0765542 -0.04435043 -0.025809992 -0.016783895 -0.042885717 -0.0032815107 -0.007659675 0.12152014 -0.04195757 -0.032257453 -0.057611138 0.05165134 -0.056841638 -0.052505422 0.49927062 -0.078387015 0.03048928 -0.051324315 -0.020499846 0.012499899 -0.050070822 -0.02449865 0.25618458 -0.052271646 -0.03361183 -0.026096731 -0.013745542 0.00012999773 0.05545181 -0.021788647 0.17084494 -0.005280419 -0.026490761 0.38131595 0.019487273 -0.042060953 0.15148406 0.23205927 -0.083042316 -0.02276013 -0.024863977 -0.039649993 -0.03923844 0.21430406 -0.06165213 -0.012096857 -0.05375118 -0.056233764 0.054114282 0.35356706
189 -0.037450816 -0.09755355 0.78309476 0.09682119 0.27806833 -0.0054196157 0.5420151 0.31578925 0.21903841 -0.00028136867 -0.059882283 -0.031234032 -0.057522394 -0.031397086 -0.0478989 -0.02251753 -0.059841603 -0.036892857 -0.06580915 0.10964904 0.07807211 -0.016465958 -0.113816835 -0.02407651 -0.051132917 0.7253908 -0.0752006 -0.114681184 -0.05062898 -0.07114996 0.18630822 0.1689215 -0.0947066 -0.121997476 -0.010051893 -0.085113935 -0.06455059 -0.030927068 -0.046583947 -0.07203791 -0.056246143 -0.074458055 0.07992154 0.13815656 -0.04709297 0.15086669 0.10028844 -0.020462798 -0.049763035 -0.07316423 -0.05219966 0.17470518 -0.13534877 0.7925878 0.412475 -0.032824557 -0.014216544 -0.067378454 -0.047045607 0.36021763 -0.038071286 -0.0015058626 0.058053575 -0.007391362 1.0923179 0.19537596 -0.07087697 -0.065815575 -0.10421176 -0.058000077 -0.001888553 0.0687601 -0.004743436 0.3956964 0.42793912 -0.04187914 -0.057237186 -0.054290827 0.07645438 -0.022287646 -0.022696089 -0.06425875 -0.04773212 0.051257845 -0.04208539 0.4713496 -0.0786654 -0.006971071 -0.10043936 0.12715432 -0.088604555 -0.045468174 0.7226207 -0.06361342 0.15240051 -0.0035489008 -0.03416303 -0.013576082 -0.03848086 0.030833185 0.6983611 -0.014554634 -0.009512222 -0.1124352 0.051542263 0.007318843 0.30225664 -0.039575294 0.11958514 -0.079993956 -0.00984756 0.7549111 0.16991748 -0.034312557 0.01758451 0.13677116 -0.060881805 -0.006257382 -0.02850807 -0.06694466 -0.028838528 0.3456074 -0.04533282 -0.010222456 -0.05460831 -0.06869718 -0.036483668 0.5404903
190 -0.009345783 -0.010393131 0.063444614 -0.01094766 0.0042424686 -0.0067608315 0.0114048 -0.003178063 0.061856315 0.0359008 -0.00078988617 -0.0065100077 -0.0019263618 -0.007892447 0.010606337 -0.005533077 0.008469749 -0.00047080553 -0.011121034 0.02005298 -0.0032965434 -0.0052101053 -0.01086827 -0.0017642044 -0.004175208 -0.0018526502 -0.007347507 0.00342796 0.028386105 -0.009947191 0.05830033 0.054166235 -0.013927472 -0.0035726817 0.028513305 -0.003978719 -0.0065620714 -0.0009786327 0.035984144 -0.008459135 -0.00766495 -0.016853146 -0.004270743 -0.0024259011 0.013283791 -0.0025979604 0.016807301 -0.010286571 0.018914044 0.02195972 -0.010648774 -0.0025436797 -0.011949844 0.035625152 0.056100752 -0.0028045047 0.005081311 -0.0071369554 -0.010896574 -0.0103095835 0.008788198 0.00027380046 -0.011258334 -0.0013219967 0.032288462 0.038628697 -0.0004742157 -0.0069551663 -0.012384023 0.011759747 0.033756208 -0.017417058 -0.004210492 0.051189914 0.015890017 0.035163946 -0.009391166 -0.003628193 -0.002539161 0.013346556 0.011040291 -0.0063273697 1.9042753e-05 0.02051872 -0.0012694281 -0.0039490513 0.009041503 0.012005892 -0.004685811 0.04750732 -0.0023958546 -0.003414159 -0.0006757397 -0.0066984924 -0.005065221 -0.0097545115 0.024137575 -0.00675146 -0.010087612 0.06534069 0.040203866 0.022403127 -0.0043834075 -0.0063297646 -0.0022318915 -0.0045199706 0.062786415 -0.0056488267 0.0025000982 -0.016785417 0.057353944 -0.007339023 -0.009311169 0.015677705 -0.010251904 -0.015573922 -0.006235576 0.025668208 -0.0060591605 -0.0034117822 -0.0033607953 0.015267581 -0.013559992 -0.0032349706 0.011484949 -0.0059670447 -0.0044335085 0.063822284
192 0.02152326 -0.04528046 0.32379755 -0.0283117 0.022653691 -0.052509435 0.20179865 0.271482 0.09174839 0.015714793 -0.04778109 -0.026998786 -0.043459643 -0.031170214 -0.013546625 -0.023458028 -0.039308432 -0.037746087 -0.050232757 0.14022298 -0.0035269298 -0.014325059 -0.07650149 -0.044534963 -0.02999769 0.5364767 -0.04601095 -0.093284704 -0.032895252 -0.05906607 0.061518386 -0.013055657 -0.060807694 -0.06274847 -0.0058361846 -0.04295505 -0.05164647 -0.05753832 -0.023128169 -0.06369777 -0.045866944 -0.01656102 -0.010535049 0.0045265723 -0.057141285 0.037358187 -0.011477088 0.010442015 -0.027534088 -0.04411478 -0.04559441 0.03308063 -0.081880316 0.27860427 0.20113368 -0.03758216 0.009953003 -0.045349386 -0.030606085 0.3300783 -0.028656004 -0.030419175 0.1458954 0.035861246 0.6077156 0.050303027 -0.059055217 -0.049636465 -0.07657757 -0.05852389 -0.0036593087 0.23798445 0.18732205 0.2054984 0.26169652 -0.035850152 0.045274425 -0.012022071 0.05351052 -0.028103476 -0.03416192 -0.024042731 -0.036049582 -0.0043580695 -0.0026794418 0.29813868 -0.035459865 -0.02552019 -0.053157188 0.13956441 -0.079060495 -0.040775724 0.4430674 -0.062403858 0.050758563 -0.040429812 -0.03696158 -0.0071637975 -0.03404047 -0.028536966 0.19736205 -0.040804278 -0.030738208 -0.02748139 -0.014797377 0.008881465 0.07460544 -0.027663792 0.21250278 -0.020432364 -0.0013529845 0.37654036 -0.0050166086 -0.023118636 0.1453315 0.174428 -0.069666915 -0.0145651875 -0.011340539 -0.047901418 -0.02229364 0.18470016 -0.04771025 -0.021994712 -0.057927694 -0.05697747 0.002925191 0.31540465
193 0.11515091 -0.041745793 0.19672528 -0.03221839 0.02296691 -0.056106042 0.087772034 0.12553456 0.13850363 0.035001643 -0.031638037 -0.012462969 -0.043674916 -0.037548564 -0.012000217 -0.021612028 -0.025860513 -0.026119426 -0.03456078 0.11186501 -0.013109361 -0.01550478 -0.06797689 -0.040902987 -0.019347837 0.412991 -0.04153092 -0.0633639 -0.033188026 -0.04368508 0.047553457 -0.016135665 -0.048619814 -0.037616085 -0.0116033135 -0.02925081 -0.043197237 -0.045608055 -0.01875751 -0.061792757 -0.033868518 -0.014929662 -0.012343698 -0.004532443 -0.0405275 -0.008684041 -0.01808312 0.02500214 -0.0090066055 -0.031119077 -0.030826345 -0.003986607 -0.046571124 0.12151928 0.13287948 -0.029904047 -0.01404758 -0.042937633 -0.028553499 0.26763016 -0.031447418 -0.032882165 0.13768113 -0.004545004 0.3867315 0.054154642 -0.036727544 -0.040752735 -0.06491607 -0.05267882 -0.012740004 0.21935456 0.1003502 0.11156463 0.1893656 -0.026775101 0.036268428 -0.0005890541 0.071178265 -0.03237825 -0.029380608 -0.013106324 -0.03555902 0.009324346 -0.012495264 0.14598346 -0.025958722 -0.017039118 -0.04279093 0.03965627 -0.04940296 -0.03723355 0.3151408 -0.062111557 0.0453901 -0.03315496 -0.026549691 -0.0021509347 -0.044606112 -0.02115146 0.08419096 -0.047312025 -0.03139357 -0.024622696 -0.012805082 -0.0014419832 0.053032275 -0.018987548 0.18601009 -0.01028216 -0.010634171 0.25681564 -0.010196367 -0.03533276 0.14029822 0.14075159 -0.056848843 -0.021424908 -0.008573772 -0.030000774 -0.025388842 0.12338342 -0.045902994 -0.014713286 -0.040487625 -0.0471172 0.04205672 0.22759824
198 0.11515091 -0.041745793 0.19672528 -0.03221839 0.02296691 -0.056106042 0.087772034 0.12553456 0.13850363 0.035001643 -0.031638037 -0.012462969 -0.043674916 -0.037548564 -0.012000217 -0.021612028 -0.025860513 -0.026119426 -0.03456078 0.11186501 -0.013109361 -0.01550478 -0.06797689 -0.040902987 -0.019347837 0.412991 -0.04153092 -0.0633639 -0.033188026 -0.04368508 0.047553457 -0.016135665 -0.048619814 -0.037616085 -0.0116033135 -0.02925081 -0.043197237 -0.045608055 -0.01875751 -0.061792757 -0.033868518 -0.014929662 -0.012343698 -0.004532443 -0.0405275 -0.008684041 -0.01808312 0.02500214 -0.0090066055 -0.031119077 -0.030826345 -0.003986607 -0.046571124 0.12151928 0.13287948 -0.029904047 -0.01404758 -0.042937633 -0.028553499 0.26763016 -0.031447418 -0.032882165 0.13768113 -0.004545004 0.3867315 0.054154642 -0.036727544 -0.040752735 -0.06491607 -0.05267882 -0.012740004 0.21935456 0.1003502 0.11156463 0.1893656 -0.026775101 0.036268428 -0.0005890541 0.071178265 -0.03237825 -0.029380608 -0.013106324 -0.03555902 0.009324346 -0.012495264 0.14598346 -0.025958722 -0.017039118 -0.04279093 0.03965627 -0.04940296 -0.03723355 0.3151408 -0.062111557 0.0453901 -0.03315496 -0.026549691 -0.0021509347 -0.044606112 -0.02115146 0.08419096 -0.047312025 -0.03139357 -0.024622696 -0.012805082 -0.0014419832 0.053032275 -0.018987548 0.18601009 -0.01028216 -0.010634171 0.25681564 -0.010196367 -0.03533276 0.14029822 0.14075159 -0.056848843 -0.021424908 -0.008573772 -0.030000774 -0.025388842 0.12338342 -0.045902994 -0.014713286 -0.040487625 -0.0471172 0.04205672 0.22759824
195 0.11515091 -0.041745793 0.19672528 -0.03221839 0.02296691 -0.056106042 0.087772034 0.12553456 0.13850363 0.035001643 -0.031638037 -0.012462969 -0.043674916 -0.037548564 -0.012000217 -0.021612028 -0.025860513 -0.026119426 -0.03456078 0.11186501 -0.013109361 -0.01550478 -0.06797689 -0.040902987 -0.019347837 0.412991 -0.04153092 -0.0633639 -0.033188026 -0.04368508 0.047553457 -0.016135665 -0.048619814 -0.037616085 -0.0116033135 -0.02925081 -0.043197237 -0.045608055 -0.01875751 -0.061792757 -0.033868518 -0.014929662 -0.012343698 -0.004532443 -0.0405275 -0.008684041 -0.01808312 0.02500214 -0.0090066055 -0.031119077 -0.030826345 -0.003986607 -0.046571124 0.12151928 0.13287948 -0.029904047 -0.01404758 -0.042937633 -0.028553499 0.26763016 -0.031447418 -0.032882165 0.13768113 -0.004545004 0.3867315 0.054154642 -0.036727544 -0.040752735 -0.06491607 -0.05267882 -0.012740004 0.21935456 0.1003502 0.11156463 0.1893656 -0.026775101 0.036268428 -0.0005890541 0.071178265 -0.03237825 -0.029380608 -0.013106324 -0.03555902 0.009324346 -0.012495264 0.14598346 -0.025958722 -0.017039118 -0.04279093 0.03965627 -0.04940296 -0.03723355 0.3151408 -0.062111557 0.0453901 -0.03315496 -0.026549691 -0.0021509347 -0.044606112 -0.02115146 0.08419096 -0.047312025 -0.03139357 -0.024622696 -0.012805082 -0.0014419832 0.053032275 -0.018987548 0.18601009 -0.01028216 -0.010634171 0.25681564 -0.010196367 -0.03533276 0.14029822 0.14075159 -0.056848843 -0.021424908 -0.008573772 -0.030000774 -0.025388842 0.12338342 -0.045902994 -0.014713286 -0.040487625 -0.0471172 0.04205672 0.22759824
205 -0.13071895 -0.126862 -0.074940264 -0.13533844 -0.057667073 -0.026352031 -0.14213146 -0.11333781 -0.0141272275 0.013044804 -0.1709026 0.5706326 -0.12980425 -0.03522378 0.1233028 0.78882986 -0.11872059 -0.052868832 -0.11139327 -0.22566096 -0.22879505 -0.0075922357 -0.120757215 -0.1438998 -0.03273457 -0.0700693 -0.04510301 -0.022831654 -0.08587111 -0.016996447 -0.01880847 0.03928427 -0.10681347 -0.121987425 -0.15241727 -0.18294752 -0.11197293 -0.13718276 -0.026868213 0.5421053 -0.12975384 -0.10402956 -0.022308318 0.97250867 0.7534133 -0.027811483 -0.04698774 -0.06864527 -0.011760312 -0.068916656 -0.18701385 -0.017217362 -0.059054524 0.09961209 0.6538613 -0.0781016 -0.101982646 -0.011956501 -0.04461476 -0.15503208 -0.14744559 -0.0842077 -0.05210504 0.74625546 -0.027027844 -0.058477875 -0.07806029 -0.12518722 -0.17080227 -0.19971286 0.014234886 0.4474692 -0.17578189 -0.19301438 -0.044372644 -0.027819598 -0.29237968 0.29678005 -0.049197517 -0.01588737 -0.21883754 -0.07824753 -0.17978042 -0.1589256 -0.22481321 -0.11519219 -0.05104624 0.6068162 -0.029218256 -0.004829846 -0.024261849 -0.101854675 -0.054745413 -0.09388242 -0.0028177635 -0.002442728 -0.1489456 -0.09880583 -0.09761045 -0.16742472 -0.11847178 -0.05336314 -0.028434096 -0.1749481 0.6409053 0.25893462 0.24393655 0.25146 -0.04186401 0.3478292 -0.035003595 -0.040108934 0.5178362 -0.095867954 -0.069654204 -0.0068235653 -0.019814804 -0.06695749 -0.1409476 -0.13347997 -0.04202388 -0.059885677 -0.063841045 0.066760294 -0.16672717 -0.08537181 -0.3559982 1.0576962
206 -0.010650549 -0.026471913 -0.01575052 -0.022646653 -0.012671853 -0.02630592 0.15948841 -0.011862348 -0.009024711 -0.013725593 0.123634204 0.111663595 -0.029268486 -0.048734352 -0.009071884 -0.0034243762 -0.01272246 -0.02496933 -0.04300673 0.23726492 0.01841326 -0.00021159276 -0.024028415 -0.03255331 0.3516707 -0.028351888 -0.0060662422 -0.034992944 -0.026639545 -0.011877387 -0.01643727 -0.018104382 -0.028320406 -0.0351895 -0.07823513 -0.009205306 -0.020016301 -0.057933908 -0.0072370577 0.0068106353 0.014766827 -0.0372781 -0.027369127 0.5150591 0.0771697 -0.03181044 -0.020421987 0.18854302 -0.00044685454 -0.024608776 -0.052812513 0.0205779 -0.03406496 -0.013604499 0.24707466 -0.04320969 -0.0131874895 -0.03681893 -0.026639903 -0.02188861 -0.02265474 -0.048250742 -0.03551216 0.2595853 -0.006924557 -0.0074055153 -0.049863674 -0.015481877 -0.047526333 -0.06239083 0.27007672 0.20673966 -0.04525041 -0.07733413 -0.0028322476 0.14445244 -0.047643635 0.26968405 0.1369367 -0.013634533 -0.03155616 -0.01558926 -0.04007911 0.2737615 -0.07425164 -0.036529977 -0.03449241 0.29857853 0.2913913 -0.016170679 -0.03312106 -0.030941455 -0.030383488 -0.036722444 0.017344281 -0.033056885 -0.06483846 -0.052096646 -0.041175585 -0.04288822 -0.0009881506 -0.027833423 -0.012859461 -0.018227022 -0.003706573 -0.021394653 0.1616846 0.13171157 0.16853826 0.30815825 -0.03672605 0.004640349 0.05232504 -0.041373905 -0.015383867 -0.030637944 0.009260346 -0.041726667 -0.01149216 -0.04954248 -0.0005856209 -0.030358935 -0.009045928 0.16641706 -0.049991053 -0.013657123 -0.035825737 0.3734626
207 -0.029916743 -0.036497887 -0.033774372 -0.067434065 -0.061961193 -0.036266964 0.08382645 -0.048048284 -0.02437192 -0.003974579 -0.038321484 0.10197538 -0.0722955 -0.07375903 0.056887165 0.049145523 -0.025004646 -0.0124592995 -0.10775944 0.044239957 -0.04088404 0.028687011 -0.05172419 -0.050461378 0.23127037 -0.049544074 -0.037063535 -0.064003356 -0.008559033 -0.04484659 -0.016847769 -0.047643393 -0.04915373 -0.062461413 -0.111786954 -0.032085955 -0.05156591 -0.11510167 0.021486856 0.09786731 -0.020420045 -0.057631057 -0.026555194 0.6267013 0.051814873 -0.043358877 -0.03252499 0.25009117 -0.020089353 -0.07550857 -0.08055473 -0.0044003553 -0.06347468 0.04290628 0.4605738 -0.05728803 -0.046733245 -0.0668102 -0.061259218 -0.061248373 -0.059098314 -0.07690629 -0.040023506 0.53959954 -0.011106311 -0.019030549 -0.05691403 -0.024115246 -0.097676925 -0.09881951 0.2015352 0.30235797 -0.06633609 -0.12588665 0.095023885 0.19652976 -0.112634376 0.27187732 0.09586894 -0.0400757 -0.030948013 -0.049893882 -0.06824395 0.37620357 -0.10614339 -0.04472197 -0.06519701 0.45892578 0.34867856 -0.039631143 -0.047068354 -0.050526973 -0.065674424 -0.06966203 -0.017208818 -0.0448487 -0.1067961 -0.059110593 -0.07189999 -0.051817715 -0.03950706 -0.043190442 -0.02862598 -0.032412052 -0.0012178555 -0.0115944715 0.052154467 0.2440823 0.24779437 0.5105965 -0.10090643 0.0067340126 0.037804782 -0.06163646 -0.03688669 -0.052285988 0.01806071 -0.089796446 0.0125928745 -0.08758672 -0.012280916 -0.06808887 -0.054242995 0.17316529 -0.07880473 -0.03221203 -0.07792515 0.5635605
208 -0.022381742 -0.030526752 -0.031709358 -0.048436552 -0.048222408 -0.0404081 0.15888484 -0.025576148 -0.02680035 -0.010739266 -0.009004968 0.10341199 -0.07084086 -0.07656827 0.076920375 -0.0113970665 -0.012238368 -0.016834443 -0.07265055 0.14721502 -0.021439029 -0.008148531 -0.02970993 -0.05149382 0.20790371 -0.043189727 -0.03211311 -0.0645595 -0.021179445 -0.03578521 -0.014944285 -0.045511145 -0.036875803 -0.04791402 -0.10550541 -0.015675073 -0.046101775 -0.093839705 0.03026525 0.03831424 -0.0055415346 -0.049982112 -0.034092493 0.49883175 -0.011327743 -0.04433582 -0.029131992 0.30069286 -0.013901499 -0.05800044 -0.06582901 0.05589156 -0.06269161 -0.022419218 0.3749272 -0.05668469 -0.041524895 -0.064020686 -0.04494558 -0.052382566 -0.036438573 -0.069645174 -0.038498018 0.44398436 -0.008306643 -0.015101065 -0.05775952 -0.01471551 -0.07206364 -0.08234323 0.20525733 0.21735801 -0.053162068 -0.09568829 0.07212733 0.1571361 -0.090834305 0.20815572 0.15911955 -0.034563404 -0.030973895 -0.037704017 -0.053912457 0.3694272 -0.09895733 -0.033404727 -0.059317417 0.32275033 0.30316132 -0.026674945 -0.046984293 -0.048710182 -0.04965805 -0.060899626 -0.012174933 -0.042675953 -0.08753157 -0.06792846 -0.057898283 -0.044106405 -0.025015295 -0.037861947 -0.021166364 -0.019743329 -0.0059545278 -0.019002695 0.052916747 0.104368486 0.25977856 0.42725956 -0.08050479 -0.002893365 0.11460261 -0.06148501 -0.015592773 -0.036179405 0.009969673 -0.08197095 -0.0032050707 -0.07716458 0.016552106 -0.06174616 -0.02902694 0.19572318 -0.07823046 -0.026105035 -0.047869284 0.45399937
209 -0.016420444 -0.01250644 -0.0042700777 -0.021542301 -0.012391261 -0.023607075 0.1458126 -0.014422935 -0.004826753 -0.008871355 0.080009714 0.12795354 -0.018180495 -0.051719435 0.030808931 -0.0004160963 -0.0033809708 -0.027640877 -0.03393166 0.076729484 0.04698195 0.023766048 -0.03368755 -0.015361443 0.21299852 -0.03883654 -0.020613506 -0.019589355 -0.028895244 -0.026889334 -0.0038130966 0.009281584 -0.034904417 -0.017997412 -0.060355723 -0.022588411 -0.02636112 -0.056155104 0.0077728666 0.009732962 -0.015524465 -0.043023944 -0.01823335 0.47190592 0.029811425 -0.027744224 -0.010591619 0.16655537 0.06523609 -0.036526483 -0.03980341 0.04901921 -0.033521168 0.031607356 0.32457483 -0.038133092 -0.022200359 -0.040066075 -0.03501342 -0.0138918115 -0.016928952 -0.042395163 -0.023557609 0.30345276 0.014103595 -0.004048481 -0.04003333 -0.02056526 -0.05773718 -0.061212946 0.2071071 0.13018113 -0.051521104 -0.059137817 0.05946416 0.077658385 -0.05309943 0.1850984 0.06474368 -0.009166099 -0.028929515 -0.020365115 -0.04562187 0.1414582 -0.054702133 -0.02212392 -0.027064908 0.36347577 0.2731473 -0.007525015 -0.029177858 -0.035188723 -0.036846083 -0.04153357 0.061236694 -0.020657426 -0.05814038 -0.043827977 -0.04927587 -0.016437199 -0.00335739 -0.004928974 -0.017739639 -0.021280661 0.051837962 -0.012080438 0.16862117 0.04109789 0.17215732 0.32985967 -0.033094037 -0.004794058 -0.006373414 -0.02665451 -0.024168482 -0.029794648 -0.012494112 -0.044750284 -0.0036857766 -0.041491188 0.023221038 -0.027094692 -0.027827187 0.14899293 -0.04153591 -0.011222567 -0.03720061 0.42151472
210 -0.027678207 -0.03349572 -0.06097194 -0.06669849 -0.076616846 -0.04161314 0.33459067 -0.032545857 -0.05213942 -0.0195159 -0.009237351 0.17413534 -0.08548263 -0.09309638 0.16309519 -0.0025083364 -0.016138969 -0.009700301 -0.09836521 0.09069566 -0.035422444 -0.017233092 -0.04109192 -0.061615195 0.4250637 -0.056342244 -0.033686455 -0.08080779 -0.020616984 -0.033208575 -0.019333662 -0.07964496 -0.0464272 -0.09179326 -0.15539311 -0.03541855 -0.049121104 -0.1357163 -0.018638728 0.05555876 -0.020920454 -0.065617435 -0.062390685 0.61995494 -0.010242692 -0.045450296 -0.03050421 0.51907724 -0.038079213 -0.05971792 -0.09996803 0.056847457 -0.084502086 -0.04304699 0.4169415 -0.07340189 -0.04835305 -0.0846784 -0.0465164 -0.06976243 -0.025385588 -0.086330384 -0.05296835 0.5551575 -0.031579193 -0.029900713 -0.09222563 0.022019394 -0.07355415 -0.08796673 0.27129012 0.25757942 -0.066625945 -0.11588106 0.19374065 0.044749953 -0.10433246 0.18178391 0.0943047 -0.043675832 -0.07212403 -0.043422885 -0.06773769 0.29324222 -0.11578523 -0.047159154 -0.09268968 0.51556075 0.33476165 -0.0313698 -0.073767506 -0.06456958 -0.044800837 -0.035892088 -0.032895394 -0.06143725 -0.13811491 -0.09195634 -0.071289256 -0.062127095 -0.029981747 -0.04132787 -0.041464355 -0.020466095 -0.027767772 -0.02870791 0.025237419 0.038848024 0.25472182 0.42591378 -0.11453258 -0.013120289 0.19064978 -0.082477026 -0.02475602 -0.041915953 -0.006891155 -0.120548986 -0.0149773685 -0.12010963 -0.0051292526 -0.10278235 -0.02922509 0.16056639 -0.10281064 -0.035531387 -0.0548846 0.5160547
216 -0.02026073 -0.022186683 -0.016916884 -0.03637918 -0.028495714 -0.021508481 0.10451461 -0.03222008 -0.009205187 -0.0037864011 -0.0066479384 0.078199774 -0.029538244 -0.050395843 -0.006289554 0.041746315 -0.011456444 -0.011126083 -0.07807704 0.11031808 -0.014627478 0.045390982 -0.04913765 -0.025041414 0.24688366 -0.037533928 -0.02916843 -0.034143627 -0.009494557 -0.03338304 -0.0050849724 -0.016891038 -0.038222607 -0.04049573 -0.07853667 -0.026883243 -0.026112659 -0.08089944 -0.0038342334 0.024010755 -0.01861972 -0.046666086 -0.01474836 0.4572036 0.07249027 -0.029748624 -0.01853395 0.1835702 -0.0063142166 -0.046555124 -0.055499643 -0.005068247 -0.037490137 0.08395378 0.29873404 -0.038674887 -0.02361305 -0.0440344 -0.05191887 -0.03634512 -0.034841504 -0.05381583 -0.02299056 0.2808831 -0.00850465 -0.010357397 -0.04133014 -0.015005133 -0.06232018 -0.06547266 0.16993934 0.21922044 -0.04747622 -0.08607491 0.031160213 0.124585345 -0.06409258 0.17875257 0.072820015 -0.021721054 -0.018096281 -0.023983262 -0.044872057 0.23192771 -0.06945619 -0.031744193 -0.03613941 0.3883142 0.34907335 -0.025496764 -0.03286742 -0.03015071 -0.044475194 -0.038651206 -0.0043652686 -0.034727056 -0.074165516 -0.04037375 -0.051667582 -0.023391066 -0.019123437 -0.026610488 -0.023769518 -0.024459815 -0.0031770857 -0.016404197 0.12565427 0.19060713 0.13931476 0.35201165 -0.05201111 0.0020242026 -0.019849123 -0.03090924 -0.026861621 -0.04785161 -0.0064596133 -0.059760172 0.03757341 -0.058213025 -0.007489635 -0.041809518 -0.045596268 0.12544614 -0.044517126 -0.015317008 -0.049630206 0.4347693
217 -0.024885198 -0.025971115 -0.036071587 -0.04310018 -0.04944028 -0.01896674 0.28508246 -0.01650036 -0.027806122 -0.017749002 0.08202259 0.16108218 -0.041289695 -0.06519771 0.1751171 0.055884045 -0.012722464 -0.014010767 -0.0652354 0.040671937 -0.01435549 -0.011543562 -0.056460936 -0.031636357 0.40762767 -0.05035023 -0.020125052 -0.032164615 -0.023423014 -0.028608322 -0.0075626853 -0.044000786 -0.03687897 -0.062683396 -0.105641685 -0.048156977 -0.026402751 -0.10005619 -0.020234015 0.03365495 -0.026384035 -0.05068962 -0.048823573 0.48516917 0.03276552 -0.021758445 -0.019389592 0.38364142 -0.00756804 -0.02840664 -0.07484618 0.024236813 -0.050839562 -0.018865392 0.31265652 -0.04924911 -0.025760725 -0.060937423 -0.034736004 -0.04538116 -0.0035834454 -0.05750924 -0.042177167 0.2680469 -0.018729078 -0.02721865 -0.066218235 0.029634386 -0.05260346 -0.049411535 0.25601012 0.16326168 -0.056419678 -0.075829364 0.18395078 -0.0047445693 -0.050983634 0.12984702 0.013654379 -0.012468726 -0.06325007 -0.021747896 -0.054309975 0.04173008 -0.074964635 -0.041524936 -0.052100874 0.4752521 0.3264456 -0.012103515 -0.04397688 -0.05576098 -0.034095854 -0.018527273 -0.014726388 -0.041421223 -0.106698446 -0.06943702 -0.05413098 -0.032559663 -0.00968188 -0.021174034 -0.023675544 -0.023169285 -0.014372571 -0.019214598 0.13038966 0.012261462 0.06592241 0.23301437 -0.051450502 -0.008340865 0.04863313 -0.043380655 -0.028445898 -0.04329323 -0.022089418 -0.071804844 -0.020066625 -0.09441943 -0.0017050486 -0.07369687 -0.02435803 0.0996287 -0.06797535 -0.023974344 -0.050825205 0.46263596
219 -0.016799053 -0.023531374 -0.045861658 -0.042274263 -0.062873386 -0.025048494 0.38759238 -0.031013472 -0.04886477 -0.025351522 0.07989521 0.1589616 -0.059874613 -0.081789546 0.010377811 0.058676068 -0.014114695 -0.022477714 -0.068381205 0.044991504 -0.039680265 -0.008942069 -0.05169192 -0.030649815 0.59828913 -0.082855046 -0.032896556 -0.039301343 -0.02595836 -0.022778863 -0.011979167 -0.055494566 -0.031213714 -0.079432316 -0.14309208 -0.036050785 -0.023133058 -0.11778148 -0.040464647 -0.007394951 -0.036117822 -0.06584797 -0.07901577 0.56746155 0.014303179 -0.030127278 -0.03195901 0.5108987 -0.023097435 -0.030238742 -0.119997494 0.18179877 -0.058391012 -0.032356024 0.15715533 -0.057063144 -0.02467152 -0.07449454 -0.039500736 -0.0661304 -0.010665952 -0.076669574 -0.06373379 0.3758499 -0.03433766 -0.027843092 -0.107020095 0.15334153 -0.055696458 -0.0613104 0.122675106 0.23029487 -0.079221435 -0.08916584 0.019158922 -0.00726868 -0.065909415 0.01705259 0.03465165 -0.038253255 -0.0937262 0.023314103 -0.059886944 0.014179066 -0.093102805 -0.033347547 -0.060451847 0.47834957 0.4317138 -0.008757569 -0.07560829 -0.060303237 -0.04310414 0.02766749 -0.011401049 -0.05373892 -0.12633865 -0.08656046 -0.04914051 -0.034703538 -0.016063567 -0.02778982 -0.047680076 -0.01604477 -0.040106896 -0.049035694 0.18066937 -0.023735842 0.10853039 0.31472862 -0.08678398 -0.040573556 0.053708404 -0.055670965 -0.01485272 -0.028595004 -0.034614325 -0.108310975 -0.031089595 -0.11462145 -0.0045478777 -0.09474815 -0.015601101 0.18378174 -0.08935725 -0.02952737 -0.042634334 0.5072522
220 -0.011476703 -0.018670255 -0.04100774 -0.03624783 -0.04939617 -0.0305479 0.363748 -0.01654674 -0.031103803 -0.01857725 0.09518622 0.14957993 -0.041595053 -0.071715355 0.07686302 -0.0059386566 -0.0047618183 -0.011775213 -0.06875182 0.13394855 -0.0066944943 -0.012497753 -0.03873999 -0.03165972 0.47044483 -0.051132727 -0.028758252 -0.047849108 -0.022812178 -0.026441848 -0.012341238 -0.049767826 -0.032260064 -0.06792195 -0.121649384 -0.03166816 -0.028814763 -0.104988374 -0.03339038 -0.008974141 -0.022791406 -0.053855926 -0.053313743 0.4713184 -0.008457257 -0.030720735 -0.021107636 0.4517931 -0.016972557 -0.03497923 -0.07763125 0.07407739 -0.056337494 -0.03220592 0.2505836 -0.05692674 -0.020930698 -0.06300616 -0.035604797 -0.042870097 -0.0077149333 -0.06670559 -0.03748743 0.29045814 -0.024243487 -0.019150592 -0.07962269 0.074088216 -0.043030486 -0.052892227 0.23500471 0.16483565 -0.051577527 -0.07211258 0.14113294 -0.00592713 -0.051216282 0.07846397 0.023363063 -0.025672257 -0.061848726 -0.018388515 -0.048236918 0.117433354 -0.076437816 -0.0334115 -0.059305854 0.4552131 0.33488604 -0.014765725 -0.053536154 -0.049947515 -0.029781038 -0.008748381 -0.011583452 -0.049841102 -0.1084757 -0.07754286 -0.05367543 -0.03340483 -0.009909451 -0.023592532 -0.03765724 -0.017106086 -0.026697818 -0.034289703 0.11824768 -0.007975315 0.14492127 0.2691686 -0.0706949 -0.017260319 0.027422734 -0.04907303 -0.021183485 -0.041700896 -0.02120313 -0.08757381 -0.012067361 -0.09458389 -0.0011974954 -0.071794316 -0.020593416 0.113753326 -0.07056965 -0.025969645 -0.024303058 0.39284855
221 -0.018206334 -0.024951724 -0.027204795 -0.042445764 -0.015898643 -0.023206046 -0.0014319065 -0.026609147 -0.020981109 -0.012728776 0.030722197 0.15810236 -0.024321506 -0.048560474 -0.030252382 -0.011455382 -0.01581253 -0.02754188 -0.022383194 0.17295465 0.117957346 0.008208152 -0.041135386 -0.03264452 0.1996302 -0.022777397 -0.009369617 -0.04213477 -0.06131768 -0.034169298 -0.0016762872 -0.0030452209 -0.024744937 -0.006708452 -0.07145665 -0.03272211 -0.029303908 -0.07465278 0.099003606 0.026725233 -0.017853731 -0.056096114 -0.0067888903 0.38495758 0.034618832 -0.0382487 -0.037999984 0.17123646 0.08567691 -0.04069447 -0.046681885 0.020130187 -0.028902834 -0.0027291223 0.27762634 -0.050459977 -0.020234266 -0.025466437 -0.041897062 -0.025447583 -0.03332263 -0.061136227 -0.034164306 0.15786172 -0.0026343332 -0.017599866 -0.046609018 -0.012052844 -0.05070452 -0.056540977 0.32459843 0.28968412 -0.05319832 -0.06891022 -0.008649461 0.06975572 -0.05998078 0.083180875 0.029579403 0.11086048 -0.00023923628 -0.010516416 -0.058363836 0.25221437 -0.084143266 -0.027039273 -0.025286973 0.26424736 0.5632008 -0.014883927 -0.04106268 -0.04605167 -0.038909424 -0.040066242 0.14646423 -0.023965664 -0.07636649 -0.059565444 -0.050778903 -0.046544835 -0.010215915 -0.0071462602 -0.02033737 -0.027171183 0.19654539 -0.016244095 0.23872106 0.032461423 0.15086609 0.42194498 -0.012609921 -0.027489126 -0.0073212073 -0.04230363 0.025708698 -0.025025679 0.061571423 -0.049342383 -0.01414457 -0.06023053 0.10724291 -0.034724157 -0.017671457 0.2580584 -0.03984798 -0.009976643 -0.043298732 0.41673335
222 -0.011476703 -0.018670255 -0.04100774 -0.03624783 -0.04939617 -0.0305479 0.363748 -0.01654674 -0.031103803 -0.01857725 0.09518622 0.14957993 -0.041595053 -0.071715355 0.07686302 -0.0059386566 -0.0047618183 -0.011775213 -0.06875182 0.13394855 -0.0066944943 -0.012497753 -0.03873999 -0.03165972 0.47044483 -0.051132727 -0.028758252 -0.047849108 -0.022812178 -0.026441848 -0.012341238 -0.049767826 -0.032260064 -0.06792195 -0.121649384 -0.03166816 -0.028814763 -0.104988374 -0.03339038 -0.008974141 -0.022791406 -0.053855926 -0.053313743 0.4713184 -0.008457257 -0.030720735 -0.021107636 0.4517931 -0.016972557 -0.03497923 -0.07763125 0.07407739 -0.056337494 -0.03220592 0.2505836 -0.05692674 -0.020930698 -0.06300616 -0.035604797 -0.042870097 -0.0077149333 -0.06670559 -0.03748743 0.29045814 -0.024243487 -0.019150592 -0.07962269 0.074088216 -0.043030486 -0.052892227 0.23500471 0.16483565 -0.051577527 -0.07211258 0.14113294 -0.00592713 -0.051216282 0.07846397 0.023363063 -0.025672257 -0.061848726 -0.018388515 -0.048236918 0.117433354 -0.076437816 -0.0334115 -0.059305854 0.4552131 0.33488604 -0.014765725 -0.053536154 -0.049947515 -0.029781038 -0.008748381 -0.011583452 -0.049841102 -0.1084757 -0.07754286 -0.05367543 -0.03340483 -0.009909451 -0.023592532 -0.03765724 -0.017106086 -0.026697818 -0.034289703 0.11824768 -0.007975315 0.14492127 0.2691686 -0.0706949 -0.017260319 0.027422734 -0.04907303 -0.021183485 -0.041700896 -0.02120313 -0.08757381 -0.012067361 -0.09458389 -0.0011974954 -0.071794316 -0.020593416 0.113753326 -0.07056965 -0.025969645 -0.024303058 0.39284855
234 -0.014155055 -0.019598778 -0.016619721 -0.026623864 -0.032333832 -0.023389718 0.19966172 -0.02649791 -0.020686273 -0.021696564 0.07854594 0.08401708 -0.0392092 -0.059034646 -0.01001919 0.012679208 -0.00723982 -0.028442541 -0.04832331 0.10990373 -0.019272996 0.011270504 -0.04145678 -0.021240732 0.36971775 -0.065071166 -0.027287042 -0.019992575 -0.026321858 -0.021873875 -0.0018389747 -0.020321362 -0.027095312 -0.03448082 -0.089584656 -0.014337537 -0.010438214 -0.071001455 -0.011646735 -0.0057916604 -0.014114839 -0.05377541 -0.04955108 0.44581914 0.024128148 -0.030226514 -0.03082656 0.2991623 0.0069944374 -0.021541584 -0.081765704 0.11887415 -0.03715363 -0.012713713 0.08656968 -0.041156705 -0.017076066 -0.053428512 -0.036774527 -0.043139443 -0.017043715 -0.054789085 -0.050842877 0.2864936 -0.012857869 -0.015370837 -0.07547223 0.073466614 -0.05186742 -0.054163087 0.09889534 0.2045349 -0.06195701 -0.07069539 -0.01396482 0.07243811 -0.05604825 0.037996117 0.10151373 -0.023807576 -0.048852522 0.036485877 -0.041622218 0.11556311 -0.07264722 -0.021814344 -0.032537494 0.2883768 0.42509624 -0.006802303 -0.04959652 -0.040027194 -0.04554392 -0.018009366 -0.0025517226 -0.035826262 -0.07196509 -0.058104593 -0.033810977 -0.016919447 -0.009459611 -0.030207787 -0.025958622 -0.012072144 -0.015332109 -0.037864946 0.16824338 -0.00882358 0.100450106 0.31123143 -0.050431132 -0.027750848 -0.007891977 -0.037409972 -0.008319676 -0.023030361 -0.023779145 -0.063609704 -0.020646647 -0.069980524 0.0051732883 -0.0560639 -0.016943878 0.18646148 -0.061995298 -0.0139628025 -0.03850862 0.45230517
235 -0.010503034 -0.020365013 -0.012162014 -0.031885758 -0.0036525968 -0.02302262 0.16050819 -0.017227849 -0.0033824488 -0.0026313679 0.098551154 0.13060659 -0.028318018 -0.050570607 0.03983639 0.006470686 0.064919055 -0.02376577 -0.044681318 0.11947786 -0.010555511 0.012142248 -0.0369121 -0.023819312 0.23226492 -0.031412207 -0.018676199 -0.030903576 -0.024957245 -0.0068581137 -0.012904373 -0.014177637 -0.028402707 -0.027683174 -0.069358215 -0.02010504 -0.032217424 -0.054165054 -0.0022091225 0.026753288 -0.00072607363 -0.037616834 -0.014439571 0.4621616 0.07650721 -0.025103638 -0.0136749325 0.21413136 0.020033102 -0.035691485 -0.04789103 0.0002551535 -0.033031955 -0.00398791 0.26632884 -0.040833943 -0.016824488 -0.039750334 -0.03514354 -0.038462054 -0.01652782 -0.051552396 -0.024162931 0.25228488 -0.0069936635 -0.004975749 -0.033410233 -0.01794587 -0.05332021 -0.055099823 0.15344335 0.15721789 -0.042255882 -0.06402019 0.013472974 0.10192184 -0.051788818 0.22818619 0.1085235 -0.0074794465 -0.03706653 -0.022680424 -0.049130756 0.14435706 -0.06683027 -0.018632134 -0.02564021 0.33203387 0.31795517 -0.0049638012 -0.021366244 -0.028649006 -0.030551612 -0.037433904 0.0456523 -0.030592779 -0.060850985 -0.05092725 -0.038564708 -0.021973593 -0.014654735 -0.0187698 -0.001245714 -0.02776956 0.02821717 -0.013438515 0.19561039 0.042948335 0.1720768 0.3162918 -0.020436538 -0.010007982 -0.0013816602 -0.034106564 -0.020716561 -0.03119926 -0.00891816 -0.04475641 -0.00807805 -0.043405835 0.04813376 -0.025702951 -0.018582802 0.18075702 -0.046938986 -0.016479552 -0.040137094 0.4248266
237 -0.008653365 -0.018000042 -0.009598409 -0.019464938 -0.017258424 -0.026103849 0.17694028 -0.011997038 -0.007387468 -0.01104035 0.09928134 0.08124857 -0.027322454 -0.051383723 -0.0010095974 -0.014037794 0.0005858997 -0.019407185 -0.046599127 0.18885268 0.046203297 -0.0033111994 -0.027891163 -0.02341407 0.2502149 -0.033971485 -0.025742128 -0.03161859 -0.023481607 -0.025303686 -0.005643659 -0.014132239 -0.026240751 -0.024046151 -0.06812878 -0.013895246 -0.020591497 -0.059143335 -0.0033591778 -0.0058286507 -0.004080643 -0.04021778 -0.021637524 0.34647956 -0.0024720086 -0.030767813 -0.01917055 0.22306308 0.014539912 -0.029435758 -0.043659486 0.03780513 -0.036518198 -0.0114844935 0.20036459 -0.04021785 -0.014784837 -0.03924359 -0.035109606 -0.024129508 -0.016940141 -0.045241002 -0.026390506 0.18997337 -0.0038198181 -0.006384611 -0.043766987 -0.004763955 -0.043123864 -0.045285016 0.18142435 0.14807181 -0.038270604 -0.056214876 0.021463148 0.09021918 -0.04066143 0.10682055 0.102465786 -0.014833576 -0.01865551 -0.013179967 -0.03347645 0.20911427 -0.0600865 -0.021654492 -0.028791716 0.2654309 0.3059416 -0.012723575 -0.03143115 -0.031171719 -0.03122933 -0.030245481 0.014077242 -0.031366076 -0.05652864 -0.047888465 -0.03939867 -0.017188137 -0.004429037 -0.021927744 -0.017836874 -0.011093977 -0.0072050947 -0.02201269 0.12129861 0.032970436 0.14353009 0.26462114 -0.032552715 -0.0055986284 -0.011321808 -0.030669296 -0.011422246 -0.033890005 -0.00850076 -0.047342367 -0.003424131 -0.049458575 0.022705417 -0.033283837 -0.019078348 0.13540283 -0.044214882 -0.011061868 -0.018743912 0.32851768
240 0.7147347 -0.27651784 -0.12457819 -0.027440611 -0.089300744 -0.25253275 -0.31984028 -0.11513288 0.42234305 0.022034083 -0.13097605 0.1732563 -0.25632975 -0.1719846 -0.17907576 -0.19359894 0.42520037 -0.046853185 -0.007377402 -0.14866552 -0.11069322 0.11535312 -0.19968274 -0.17480037 0.7027919 -0.16597053 -0.0652957 -0.045482207 -0.11019883 0.1718231 -0.014409716 -0.06592473 -0.085795455 -0.09627987 -0.2524365 -0.036651578 -0.038787343 -0.39845774 -0.14897461 -0.2433106 -0.030476013 -0.08036689 0.0221636 0.5072833 -0.22026539 -0.17806827 -0.25825235 0.45034692 0.24548692 -0.16687627 -0.1350135 -0.053077616 0.19867598 -0.20324464 -0.23416145 0.65700895 -0.14733458 -0.15544984 0.20296359 -0.1455702 -0.24106348 -0.27417105 0.60690767 -0.1967015 -0.109109335 0.43057054 -0.034943324 -0.1326246 -0.1407488 -0.2833412 -0.17744021 0.21474323 -0.24724917 -0.12870914 -0.2448421 -0.028312314 -0.20657134 -0.09590647 0.72924715 -0.18694 -0.10446441 -0.10298083 -0.314698 1.1548202 -0.30195522 -0.06670887 0.18095732 -0.010339915 -0.07626932 -0.118576266 0.19884422 -0.078269646 -0.028999675 -0.17446168 0.31969637 -0.05402265 -0.16169363 0.25229135 -0.07449388 -0.033928555 -0.13627659 -0.2274236 -0.1634328 -0.08238926 -0.027874103 0.35584652 -0.01387907 1.9884668e-05 0.62964284 0.41379333 -0.13270754 -0.062018074 0.37434828 -0.21305144 0.62920254 -0.17513753 -0.18629757 -0.25642133 -0.021286914 -0.16938624 -0.09625117 0.17711784 -0.14633995 0.18420252 -0.25200906 -0.07514282 -0.14963275 0.22967537
241 0.05152772 -0.1158356 -0.025137965 -0.07548278 -0.093409 -0.112003975 -0.10831548 -0.03646794 0.46077037 -0.018337702 -0.090249114 0.2952399 -0.1355355 -0.057980776 -0.062542684 -0.07025548 -0.0371761 -0.07848971 -0.039344937 -0.09421047 -0.060070302 -0.027684445 -0.07500635 0.06958452 0.055464 0.16620946 -0.007897611 0.2206667 -0.03730147 -0.0029828174 -0.018931087 -0.027117044 -0.080919184 -0.025491288 -0.12166121 0.038704667 -0.06190393 -0.12796186 -0.050117146 -0.13678972 -0.04069788 -0.011637367 -0.025617098 0.022120863 -0.05634587 -0.051805206 -0.027592612 0.105327554 0.012297425 -0.046701536 -0.07142396 -0.07311146 0.32085603 -0.075869106 -0.010586402 0.22749332 -0.11314871 -0.06497503 -0.031257164 -0.0645496 -0.035114307 -0.021964611 0.22553484 -0.10244848 -0.03177962 0.02832756 -0.05733471 -0.04777023 -0.07940637 -0.12043502 -0.1317544 -0.058454014 -0.0984356 -0.041163705 -0.13037865 0.041836463 -0.120519474 -0.06191224 0.16191255 -0.052183848 -0.07578176 -0.07298696 -0.09101911 0.017672513 -0.12757333 0.056094415 0.037145108 0.0433927 0.059791893 -0.022687996 0.4214959 -0.071139894 -0.022209479 -0.030508136 0.21933705 -0.06548181 -0.042689126 -0.0647602 -0.03159148 0.0024942579 0.13695262 -0.073906 -0.07289567 -0.06355659 -0.039033733 0.02922237 0.029981606 0.10787577 0.09821975 0.04893652 -0.043999538 -0.030960191 0.40694445 -0.12503214 0.18380758 -0.06523746 -0.10771787 0.022227868 -0.020121252 -0.07321866 -0.08481206 -0.009610544 -0.066105925 0.06135071 -0.093864225 -0.05633783 -0.108417444 0.11073222
242 0.0014112704 -0.16194743 -0.026884794 -0.11172636 -0.10431992 -0.12770033 -0.16491687 -0.039714325 0.5461848 -0.030359313 -0.106446795 0.14109313 -0.16397478 -0.082646005 -0.030711947 -0.0847959 -0.028181514 -0.088847384 -0.054170854 -0.12444134 -0.06696689 -0.0503694 -0.07068994 -0.027668927 0.0065632667 -0.020333646 -0.009615193 0.07411124 -0.06097575 0.14367533 -0.0065291375 -0.041691236 -0.10055267 -0.045794822 -0.14037457 -0.01189028 -0.0839011 -0.16997994 -0.053459007 -0.12314396 -0.015655125 -0.04063332 -0.056977164 0.20543063 -0.05439132 -0.05279676 -0.042131927 0.13249716 0.0028818808 -0.059799887 -0.07789949 -0.05224352 0.21630304 -0.11739178 -0.0046483944 0.3519616 -0.098693766 -0.07532311 -0.0056777108 -0.09030018 -0.058081824 -0.04506391 0.25841275 -0.09200778 -0.039504927 0.07344883 -0.072147086 -0.0700159 -0.08262002 -0.13431971 -0.15506761 -0.031739403 -0.12391529 -0.07185636 -0.1455466 0.15809046 -0.1435107 -0.08628743 0.254756 -0.073099144 -0.058255043 -0.09715041 -0.13357751 0.21434642 -0.16925433 -0.020809585 0.061269276 0.161926 -0.029081453 -0.020458627 0.38675156 -0.08627283 -0.0123535795 -0.01658576 0.21482751 -0.068651326 -0.08284065 -0.11025369 -0.05192117 0.049437955 0.12639977 -0.10565205 -0.104896 -0.03536418 -0.0535775 0.017801572 -0.0029421367 0.08322019 0.11849676 0.02182347 -0.048648763 -0.06903326 0.47034866 -0.11620982 0.24493128 -0.11635553 -0.13332634 -0.04027465 -0.033707082 -0.11453098 -0.08506417 0.070732646 -0.08089914 -0.015563547 -0.11076925 -0.06812614 -0.11367053 0.089449264
243 0.0068400353 -0.1566545 -0.032960128 -0.09922662 -0.12239621 -0.13833858 -0.15996724 -0.03884278 0.6786406 -0.025674928 -0.11644202 0.25732264 -0.1585117 -0.07698589 -0.06514926 -0.099710226 -0.033757504 -0.095019095 -0.0542172 -0.121426634 -0.06634035 -0.0450187 -0.1047781 -0.0078493655 0.059312895 0.119511195 0.06126526 0.20215952 -0.051363707 0.099158615 -0.010620217 -0.04515141 -0.10948312 -0.048662063 -0.15934058 -0.0027228002 -0.08592041 -0.160265 -0.05271923 -0.16071402 -0.035322558 -0.019635802 -0.033951093 0.056224868 -0.06394387 -0.05229625 -0.046998736 0.093414806 0.039505307 -0.057833493 -0.08430236 -0.08095052 0.41190496 -0.11892451 -0.0026837327 0.39327648 -0.1247473 -0.08305689 -0.0120906085 -0.094812766 -0.04754247 -0.018171666 0.19102187 -0.118860476 -0.042673152 0.020561269 -0.07844851 -0.05849722 -0.08615262 -0.14122035 -0.17226402 -0.06541976 -0.13998024 -0.07521226 -0.1531865 0.13442327 -0.14996453 -0.0923442 0.18180977 -0.07754852 -0.0764545 -0.09749929 -0.12246587 0.117373765 -0.1653428 0.009638485 0.012154229 0.09309125 0.03197135 -0.03242114 0.4875322 -0.084330924 -0.026784835 -0.011362198 0.25007752 -0.06887593 -0.059748292 -0.09331768 -0.034627095 0.006222219 0.17293891 -0.09700142 -0.09983206 -0.06309634 -0.051953495 0.010195222 -0.001246351 0.1779495 0.086247794 0.0032052668 -0.06762105 -0.046100575 0.5274097 -0.14714004 0.18037981 -0.107826434 -0.14502011 -0.019673228 -0.028458541 -0.10945294 -0.097833775 -0.0067994185 -0.05413418 -0.0067549334 -0.118706405 -0.07775808 -0.13515745 0.107251085
244 -0.019817501 -0.11923641 -0.022078862 -0.101375006 -0.10693898 -0.10055436 -0.121515945 -0.024087874 0.52010316 -0.022931103 -0.09011253 0.12450595 -0.11721867 -0.05400163 -0.020720033 -0.07099187 -0.037403427 -0.08065992 -0.055392325 -0.09510615 -0.04625645 -0.05066989 -0.07164494 -0.0027874147 -0.0084114885 0.05076522 0.04926832 0.11830688 -0.045184683 0.06349428 0.019400187 -0.04283909 -0.09384807 -0.038862456 -0.11246868 -0.007182342 -0.07378657 -0.11681644 -0.033893425 -0.114809826 -0.0122839995 -0.021926312 -0.05035745 0.08380834 -0.028794348 -0.032897096 -0.016979478 0.03452515 -0.008437969 -0.048314873 -0.05858634 -0.058915704 0.23289144 -0.089020394 0.14490072 0.27316615 -0.09453771 -0.06990015 -0.011637711 -0.07490124 -0.02540107 -0.01085968 0.08384276 -0.07001427 -0.028632963 -0.006895879 -0.07127484 -0.045959827 -0.07295261 -0.08640197 -0.13275515 -0.052129626 -0.09248189 -0.052056313 -0.11837164 0.19541201 -0.12341618 -0.08133175 0.10152713 -0.058276016 -0.05264687 -0.07890731 -0.09736253 0.05430754 -0.11660278 -9.397827e-05 0.009564266 0.16463844 -0.014597443 -0.0063405694 0.34095827 -0.07509356 -0.018797988 0.0016956399 0.17178392 -0.056151368 -0.053953897 -0.09365026 -0.04648445 0.07173993 0.23252812 -0.0743972 -0.08398602 -0.027415542 -0.0480311 0.0004331395 -0.008506385 0.12693822 0.026462305 -0.010978221 -0.04344658 -0.048796143 0.37035722 -0.102239326 0.10342227 -0.09490506 -0.11336639 -0.014606687 -0.026289824 -0.084098496 -0.07829918 0.0038504303 -0.048885714 -0.015534488 -0.08169099 -0.058289506 -0.0968424 0.06824175
245 -0.022002552 -0.0909084 0.018774461 -0.060960855 -0.08763336 -0.060723264 -0.0764129 -0.021808317 0.4644665 -0.005016444 -0.07560667 -0.0012701169 -0.06626576 -0.037039116 -0.01319276 -0.053382844 -0.025725171 -0.051144876 -0.04990662 -0.061128248 -0.022599217 -0.047544613 -0.06666788 0.009353001 -0.011337312 0.010059539 0.1354304 0.08027623 -0.02932412 0.055109426 0.01638324 -0.039197296 -0.061630275 -0.025786504 -0.07871518 -0.007918469 -0.050653767 -0.065270804 0.027560502 -0.081879206 -0.008744808 -0.02734359 -0.04097252 0.06805428 0.0023779052 -0.0099288095 -0.017175477 -0.012378384 -0.009152661 -0.023972854 -0.05015562 -0.029117813 0.20859785 -0.068658754 0.12760578 0.29894212 -0.056158282 -0.055941354 -0.007657256 -0.05847452 -0.023254223 0.11194145 -0.008902349 -0.036213096 -0.015795706 -0.0052607656 -0.059509616 -0.025155107 -0.052081954 -0.045122135 -0.08695292 -0.037682224 -0.069858156 -0.04213605 -0.073188595 0.17777018 -0.08414247 -0.07001945 0.01428633 -0.048193365 -0.029722739 -0.0582094 -0.060992535 -0.0014593945 -0.07431162 -0.011011574 -0.013239481 0.15007903 -0.017409867 0.009433955 0.25770345 -0.05741739 -0.008501131 0.13359235 0.062877506 -0.030733401 -0.037494488 -0.0704911 -0.035027362 0.022812508 0.23831806 -0.050883062 -0.06804617 -0.0150627345 -0.047182597 -0.005521752 -0.0050856746 0.0610209 -0.014202097 -0.0208474 -0.038369343 -0.047548555 0.20499885 -0.07595746 -0.013145295 -0.064052016 -0.0792407 -0.0048965113 -0.028509894 -0.083028555 -0.05760291 0.06461333 -0.008648496 -0.01885186 -0.06590684 -0.045085344 -0.06517076 0.033264503
247 0.03137562 -0.09012715 0.011631913 -0.03430399 -0.063041255 -0.057881206 -0.058601197 -0.032848414 0.29403916 0.03009672 -0.0544248 0.013861384 -0.062199343 -0.03755963 -0.041995507 -0.0439271 -0.0015815347 -0.014007068 -0.021134194 -0.046253037 -0.018349947 -0.025750285 -0.061920106 0.09494664 0.07543306 -0.009140205 -0.0021734245 0.09117135 -0.037417185 0.06561561 -0.011001098 -0.019022074 -0.0313855 -0.012325983 -0.06441415 -0.0052598906 -0.0263802 -0.07198663 0.073432304 -0.08483545 -0.027363334 -0.031235812 -0.018462503 0.11285395 -0.021926064 -0.017882925 -0.032349408 -0.00091487524 -0.0012021281 -0.026470935 -0.050552618 -0.021235032 0.13787203 -0.045990463 -0.0062426473 0.30720887 -0.057360124 -0.05801731 -0.020361548 -0.037330404 -0.043409165 -0.014277752 0.07980114 -0.022650734 -0.014560376 0.06438329 -0.046198677 -0.012780688 -0.0584942 -0.049162086 -0.07800472 -0.01693643 -0.057571556 -0.013621437 -0.06560981 0.04983797 -0.068953335 -0.044737715 0.13009417 -0.042568486 -0.042193513 -0.030941634 -0.07986524 0.094714776 -0.06305396 -0.018247502 0.06950022 0.19569 -0.015071235 0.021023553 0.1546675 -0.05461436 0.022175893 -0.018159024 0.073915735 -0.017191028 -0.03303696 -0.0040784935 -0.031291675 -0.0001898868 0.12724884 -0.048107017 -0.046098724 -0.024477357 -0.021818757 0.058521815 0.0033575618 -0.0002566634 0.05926565 -0.002172036 -0.019958748 -0.033115897 0.1558066 -0.06856567 0.0026179068 -0.02494379 -0.061104637 -0.0072602793 -0.02054896 -0.055482954 -0.037230287 0.21875177 -0.03986214 0.05400785 -0.06796816 -0.008783658 -0.05606419 0.10726541
248 -0.022002552 -0.0909084 0.018774461 -0.060960855 -0.08763336 -0.060723264 -0.0764129 -0.021808317 0.4644665 -0.005016444 -0.07560667 -0.0012701169 -0.06626576 -0.037039116 -0.01319276 -0.053382844 -0.025725171 -0.051144876 -0.04990662 -0.061128248 -0.022599217 -0.047544613 -0.06666788 0.009353001 -0.011337312 0.010059539 0.1354304 0.08027623 -0.02932412 0.055109426 0.01638324 -0.039197296 -0.061630275 -0.025786504 -0.07871518 -0.007918469 -0.050653767 -0.065270804 0.027560502 -0.081879206 -0.008744808 -0.02734359 -0.04097252 0.06805428 0.0023779052 -0.0099288095 -0.017175477 -0.012378384 -0.009152661 -0.023972854 -0.05015562 -0.029117813 0.20859785 -0.068658754 0.12760578 0.29894212 -0.056158282 -0.055941354 -0.007657256 -0.05847452 -0.023254223 0.11194145 -0.008902349 -0.036213096 -0.015795706 -0.0052607656 -0.059509616 -0.025155107 -0.052081954 -0.045122135 -0.08695292 -0.037682224 -0.069858156 -0.04213605 -0.073188595 0.17777018 -0.08414247 -0.07001945 0.01428633 -0.048193365 -0.029722739 -0.0582094 -0.060992535 -0.0014593945 -0.07431162 -0.011011574 -0.013239481 0.15007903 -0.017409867 0.009433955 0.25770345 -0.05741739 -0.008501131 0.13359235 0.062877506 -0.030733401 -0.037494488 -0.0704911 -0.035027362 0.022812508 0.23831806 -0.050883062 -0.06804617 -0.0150627345 -0.047182597 -0.005521752 -0.0050856746 0.0610209 -0.014202097 -0.0208474 -0.038369343 -0.047548555 0.20499885 -0.07595746 -0.013145295 -0.064052016 -0.0792407 -0.0048965113 -0.028509894 -0.083028555 -0.05760291 0.06461333 -0.008648496 -0.01885186 -0.06590684 -0.045085344 -0.06517076 0.033264503
260 -0.016605375 -0.050963946 0.082031704 -0.035889722 -0.05370913 -0.034407627 -0.029583206 -0.0144945085 0.2515094 0.0022306512 -0.041987192 0.025842864 -0.04376324 -0.020084022 -0.0054849177 -0.024261137 -0.024523241 -0.032907393 -0.03400289 -0.034695316 -0.015268089 -0.026640056 -0.035415553 0.11698046 -0.004918521 0.053922724 0.048854582 0.09969736 -0.010961986 -0.0020351948 -0.0024458168 -0.011136419 -0.0403374 -0.006732174 -0.040655274 -0.0032928472 -0.02724026 -0.033324827 0.06225477 -0.055338275 -0.01376206 -0.02061196 -0.024054108 0.028531816 0.022643318 -0.006968077 0.009985441 -0.012529063 -0.008159864 -0.017153803 -0.035708766 -0.023855355 0.09232576 -0.023758119 0.116519585 0.13778809 -0.04114553 -0.042022962 -0.020129135 -0.029618 -0.007311517 0.06845065 -0.0047186143 -0.021941265 -0.0029296426 0.014982978 -0.03312919 -0.01261498 -0.040808324 -0.024182986 -0.048000325 -0.033343777 -0.028228402 -0.006046179 -0.041881323 0.10014672 -0.05179056 -0.038557645 0.017501043 -0.018372603 -0.025650328 -0.036512285 -0.028079346 -0.012394774 -0.036554754 -0.0025654589 -0.0001699172 0.119354025 -0.009505192 0.04085799 0.18034399 -0.041962232 -0.0010317266 0.014001284 0.033606194 -0.025634235 -0.018670872 -0.040105697 -0.02933327 0.02875403 0.1919073 -0.021119712 -0.03980299 -0.018411692 -0.023942968 -0.0021359443 0.048479434 -0.0005788578 -0.010284908 -0.009374932 -0.013480598 -0.030873701 0.110074356 -0.045364466 -0.01227073 -0.030093689 -0.044615217 0.08532543 -0.012724772 -0.040491253 -0.039948165 0.067312 -0.025880132 -0.003985488 -0.03862984 -0.02157124 -0.040663864 0.07828722
263 0.0055454522 -0.15300839 -0.02285089 -0.12338652 0.1420229 -0.16794677 -0.13330324 0.04192261 0.055456243 0.028057907 -0.10665905 0.049271274 -0.12657988 -0.08969051 -0.10535129 0.037326448 -0.084727645 0.44259253 0.92661077 -0.063666955 -0.13441345 -0.09866462 -0.15811105 -0.08158591 -0.033803187 -0.07757397 -0.1699034 -0.045478012 0.20131683 -0.036701344 -0.06932332 -0.15447952 -0.079162054 -0.070680715 -0.09344468 -0.034601018 -0.0725063 -0.097238615 -0.08362069 -0.1747884 1.2735868 0.06822509 -0.04264782 0.06301664 0.1257001 -0.0026043232 -0.13950332 0.18501747 -0.06284533 -0.05908218 -0.22743843 -0.03499118 -0.011111367 0.22981413 -0.07099911 -0.02941521 -0.1576001 -0.08964252 -0.07368723 -0.08570764 -0.044221293 -0.13947748 -0.028836697 0.24250647 -0.046573915 0.09969408 -0.04809867 -0.14024137 -0.13748841 0.25565714 -0.072517246 -0.115113676 -0.08105484 -0.0008138623 -0.08307879 -0.05840191 -0.14738454 -0.17448197 -0.031146264 -0.10490054 -0.099248454 0.15872166 -0.11190667 -0.1176217 -0.11542602 0.7881912 0.73539376 -0.057818353 -0.1433144 0.95243925 0.6202587 -0.09735332 0.29178646 -0.077175274 0.09992197 -0.14159732 -0.06930357 -0.043982632 0.4421875 0.3132486 0.45490035 -0.094796896 -0.036874756 -0.04227732 -0.047299054 -0.038374163 -0.08399154 -0.057060875 0.115939915 0.16250864 -0.04033055 -0.06596648 0.6392592 -0.010815781 -0.0766518 -0.036103297 -0.14543983 -0.07274424 -0.060556483 -0.13483097 -0.08855485 -0.054171395 -0.16560684 0.089831874 -0.15263712 -0.09960953 -0.06375628 0.0037559145
265 -0.012025853 -0.10771749 0.35684574 -0.06853481 0.2563541 -0.0657977 -0.0055179023 0.062506825 0.30951193 0.2745926 -0.009661126 0.07780798 -0.06292676 -0.060769714 -0.038134538 -0.015519455 -0.042564582 -0.0065575438 0.029804893 0.035599463 -0.040144227 -0.030338762 -0.055529732 -0.04883593 -0.022961527 -0.02713734 -0.083410256 -0.0588282 -0.04152408 -0.0478095 0.07019043 -0.03850146 -0.040708814 -0.0013184829 -0.064277515 -0.03730277 -0.017910829 -0.047275048 -0.0723522 -0.08263527 0.5771712 -0.027959907 -0.035748165 -0.0065606567 0.16144182 -0.05770594 -0.06502142 -0.01990362 -0.0463594 -0.01848324 -0.07604259 -0.01732091 -0.032319665 -0.04411192 -0.05750925 -0.051292863 -0.03504154 -0.020665286 -0.025717208 -0.051739223 0.0747223 -0.047853302 -0.0125596095 -0.0071593015 0.019347675 -0.019952815 -0.07630213 -0.04563682 -0.040462732 0.0864618 -0.030621925 -0.073732845 -0.035455223 -0.06183433 -0.054366555 -0.02645146 -0.089465074 -0.08210526 0.04673914 -0.061086304 -0.059403766 0.010858331 -0.020435773 -0.06408476 -0.04845971 0.252524 0.31228462 -0.015593128 -0.06450844 0.422064 -0.005616799 -0.054104414 -0.0066233994 -0.033733454 0.04068005 -0.0790688 -0.014077854 -0.023195297 0.2579314 0.018591803 0.3721748 -0.0814048 -0.06257509 -0.025921235 -0.047375392 -0.011146733 -0.016926512 -0.02313534 0.14779958 -0.025000429 -0.0015384533 -0.03733656 0.071694136 -0.048533034 -0.014551679 -0.04312466 -0.0848791 -0.06466862 -0.02333335 -0.07918375 -0.057350017 -0.04391254 -0.057317536 -0.029258287 -0.07025423 -0.06098191 -0.04054362 0.009497343
266 -0.020808235 -0.1290196 0.12703416 -0.06527833 0.21966891 -0.10014924 -0.052050393 0.12402707 0.19250503 0.16141081 -0.03489435 0.06472927 -0.07407292 -0.015301021 -0.06406262 -0.024211405 -0.04435377 -0.007622279 0.25378564 -0.016769236 -0.107745364 -0.058237463 -0.07091873 -0.037186466 -0.019897263 -0.04766773 -0.102022074 -0.08050703 0.002778733 -0.06246226 -0.014408442 -0.08220445 -0.053846594 -0.018139545 -0.080187984 -0.026169315 -0.046310615 -0.051912148 -0.07196028 -0.09862983 0.8232348 -0.0063045234 -0.044587325 0.3294528 0.17180334 -0.037732285 -0.07285486 -0.018306015 -0.062219884 -0.032409746 -0.10842796 -0.052186485 -0.03867596 0.083642215 -0.06424472 -0.024378212 -0.056358635 -0.039956447 -0.026460031 -0.05492579 0.058528334 -0.05734057 -0.020012554 0.08919434 -0.02860646 0.009924715 -0.068676434 -0.088787876 -0.07165509 -0.00855872 -0.01799166 -0.093515925 -0.048063654 -0.037526596 -0.04264295 -0.037778955 -0.10229627 -0.07285023 -0.02087729 -0.037129685 -0.07533635 -0.0045950213 -0.049886804 -0.060511917 -0.088688806 0.2767166 0.35322726 -0.04760707 -0.085158475 0.48572463 0.06467192 -0.033883262 0.10550997 -0.053162433 0.03440033 -0.08232372 -0.042488407 -0.010682724 0.41409904 0.11275215 0.34532958 -0.08037559 -0.049849626 -0.022369143 -0.040473044 -0.03906517 -0.05806713 -0.015939133 0.1538801 0.0060855523 0.049207192 -0.032286916 0.118539006 -0.018423557 -0.027249241 -0.049629167 -0.082257174 -0.025366945 -0.014969656 -0.099337816 -0.035272967 -0.031324994 -0.08591652 -0.0016094976 -0.0725638 -0.079884276 -0.037147067 0.20802313
267 0.018330604 -0.1149552 0.43350592 -0.045679227 0.23619427 -0.08037742 -0.0037695796 0.03967257 0.7203899 0.5005733 0.043672416 0.14286111 -0.06367044 -0.05181197 -0.056357253 -0.038740437 -0.034732252 -0.037422497 0.11927677 0.3405873 -0.06264756 -0.037743777 -0.05100271 -0.09750054 -0.030107735 0.01843541 -0.08567927 -0.10344305 -0.060794402 -0.05430752 -0.0024407834 -0.03642827 -0.027809788 -0.013143397 -0.076605156 -0.054906584 -0.024359867 -0.057268836 -0.074747846 -0.09175452 0.4690782 -0.03276612 -0.043232407 0.1031513 0.120164484 -0.06667135 -0.08394493 -0.01592422 -0.070043325 -0.012246292 -0.072276056 -0.031996205 -0.0037929122 -0.05360469 -0.082686216 -0.0629328 -0.034909543 -0.0146411685 -0.042077746 -0.05031535 0.22117294 -0.07440778 -0.01075593 -0.02429081 0.09862759 -0.038395267 -0.12147641 -0.063462034 -0.04214816 -0.0004984811 -0.0026956864 -0.062600665 0.008302625 -0.105283 -0.06568138 -0.049295176 -0.09832551 -0.040253144 -0.012637473 -0.056479115 -0.06585868 -0.016302396 -0.038170982 -0.04838362 -0.055188674 0.024238735 0.38456059 -0.036842134 -0.035526387 0.4272931 -0.038617235 -0.043552693 -0.009483332 -0.037668385 -0.0022767975 -0.08959181 -0.0077438126 0.026340153 0.21927324 0.034973197 0.42393592 -0.112528525 -0.060543258 -0.0065582963 -0.0698152 -0.034455754 0.0010272171 -0.024902435 0.12143797 -0.055788178 0.08877587 -0.0058439993 -0.0077664214 -0.06818289 -0.01627541 -0.028218454 -0.104216956 -0.05196163 -0.03774206 -0.121054105 -0.0737161 -0.04606928 -0.05560379 -0.022660464 -0.065314926 -0.06166422 -0.019982088 -0.005961669
269 0.018330604 -0.1149552 0.43350592 -0.045679227 0.23619427 -0.08037742 -0.0037695796 0.03967257 0.7203899 0.5005733 0.043672416 0.14286111 -0.06367044 -0.05181197 -0.056357253 -0.038740437 -0.034732252 -0.037422497 0.11927677 0.3405873 -0.06264756 -0.037743777 -0.05100271 -0.09750054 -0.030107735 0.01843541 -0.08567927 -0.10344305 -0.060794402 -0.05430752 -0.0024407834 -0.03642827 -0.027809788 -0.013143397 -0.076605156 -0.054906584 -0.024359867 -0.057268836 -0.074747846 -0.09175452 0.4690782 -0.03276612 -0.043232407 0.1031513 0.120164484 -0.06667135 -0.08394493 -0.01592422 -0.070043325 -0.012246292 -0.072276056 -0.031996205 -0.0037929122 -0.05360469 -0.082686216 -0.0629328 -0.034909543 -0.0146411685 -0.042077746 -0.05031535 0.22117294 -0.07440778 -0.01075593 -0.02429081 0.09862759 -0.038395267 -0.12147641 -0.063462034 -0.04214816 -0.0004984811 -0.0026956864 -0.062600665 0.008302625 -0.105283 -0.06568138 -0.049295176 -0.09832551 -0.040253144 -0.012637473 -0.056479115 -0.06585868 -0.016302396 -0.038170982 -0.04838362 -0.055188674 0.024238735 0.38456059 -0.036842134 -0.035526387 0.4272931 -0.038617235 -0.043552693 -0.009483332 -0.037668385 -0.0022767975 -0.08959181 -0.0077438126 0.026340153 0.21927324 0.034973197 0.42393592 -0.112528525 -0.060543258 -0.0065582963 -0.0698152 -0.034455754 0.0010272171 -0.024902435 0.12143797 -0.055788178 0.08877587 -0.0058439993 -0.0077664214 -0.06818289 -0.01627541 -0.028218454 -0.104216956 -0.05196163 -0.03774206 -0.121054105 -0.0737161 -0.04606928 -0.05560379 -0.022660464 -0.065314926 -0.06166422 -0.019982088 -0.005961669
270 -0.023465041 -0.1143079 0.3715133 -0.049933113 0.122228086 -0.07477159 -0.018436836 0.08545998 0.4878912 0.28720552 -0.021331841 -0.008520397 -0.07442927 -0.040536202 -0.04744854 -0.03149012 -0.026022527 -0.032749236 -0.0061945925 0.13916984 -0.034774926 -0.021302924 -0.06507767 -0.054789938 -0.0373231 -0.02032973 -0.10919958 -0.06574518 -0.045594458 -0.05041331 0.079733975 -0.04539719 -0.04757357 -0.00011322461 -0.07423817 -0.028766809 -0.028337881 -0.04328074 -0.07598638 -0.08031603 0.42650142 -0.02246343 -0.05295005 -0.00733912 0.15870799 -0.06863971 -0.07333327 -0.03426633 -0.036991842 -0.024437279 -0.08095329 -0.03349374 -0.035086077 -0.06122923 -0.061266888 -0.029271519 -0.028382827 -0.009277522 -0.058534335 -0.06601756 0.11060207 -0.041151054 -0.016412025 -0.028964138 0.11968485 -0.016107997 -0.09292777 -0.051742878 -0.046681516 -0.018629968 -0.058977813 -0.07291967 -0.032023415 -0.063428245 -0.07458251 -0.01981239 -0.105714194 -0.08815204 -0.017387545 -0.07658794 -0.053625304 -0.017013162 -0.014217739 -0.067427486 -0.059246756 0.2371245 0.27145153 -0.006816645 -0.056280363 0.4834047 -0.0036510457 -0.032483045 0.0066854097 -0.045309365 0.18062745 -0.087549366 -0.023878174 -0.03267734 0.17983426 0.031240288 0.47801438 -0.106620386 -0.048161723 -0.012394006 -0.04448532 -0.023170372 -0.011759931 0.15620403 0.3333466 -0.031676214 -0.012690203 -0.024725616 0.11721131 -0.058751214 -0.022994105 -0.02548104 -0.08023923 -0.04450608 -0.018641029 -0.090895556 -0.06599672 -0.048104446 -0.052604746 -0.0019575523 -0.071816966 -0.05477302 -0.035745226 -0.01609016
