402 128
51 -0.1522768 0.022281421 0.14657477 -0.16122663 -0.41580388 0.23148404 0.12764981 -0.27255678 0.23130673 -0.01436049 0.03075034 -0.083951965 -0.049322814 -0.27410915 -0.101119064 -0.05381336 -0.0985039 0.15666236 -0.023136925 0.18910544 0.031018669 0.048234776 0.02192793 0.07860213 -0.076352105 0.10133251 -0.03589384 -0.22759049 0.11787683 0.01491516 -0.24701086 0.0093117235 0.005956238 0.0061578876 -0.06428096 0.2974737 -0.08220811 0.056057487 0.012878829 0.08158461 -0.027894953 0.07597838 -0.049153887 -0.0055832593 -0.2961685 -0.09058143 -0.17386003 -0.09232756 -0.13061002 0.13976863 0.056155838 0.014531671 -0.012136285 -0.09570939 0.17062059 0.053662762 0.07949364 -0.19498385 0.0034700916 -0.057252884 -0.0627058 -0.08416951 0.1503369 -0.13874032 -0.30179995 -0.008033602 0.1326883 -0.008008165 -0.060803562 -0.026685754 -0.19016062 -0.007451453 0.16864659 -0.17146812 0.1324984 0.05071914 0.0062426897 0.17393064 -0.056496862 0.003462678 0.07733243 0.06305809 0.13415998 0.10928887 -0.0044503934 0.018288678 0.1712546 -0.16048 0.07429915 0.09110574 0.14001718 0.09762035 -0.014977199 0.1485238 0.041101284 0.068897575 0.21934284 -0.014461985 0.19265547 0.062938064 -0.09566555 0.024280021 0.062485646 0.042764097 -0.06046521 0.11572687 0.116144545 -0.17273743 -0.26582116 -0.11420548 -0.014706362 -0.01574709 -0.0022150965 0.06894318 0.15524387 0.06449612 0.051500723 -0.20012298 -0.04328032 -0.09349669 -0.03419157 0.053348728 0.16246957 0.036711704 0.040357027 0.043924127 -0.03534288 -0.024816778
52 -0.28784108 0.28793222 0.29876158 -0.18945797 -0.3155211 0.1411557 0.1602292 -0.18186748 0.16268075 -0.04432705 0.025927877 -0.11741464 -0.10599425 -0.1735763 -0.112443484 -0.08324588 -0.08190864 0.17575736 -0.039942 0.22566955 0.0014834288 0.013877908 0.021227391 0.26001912 -0.15268362 0.10038025 -0.0022731072 -0.22403961 0.09444783 0.010497928 -0.36711726 0.10027852 0.047250748 0.1757231 0.07846536 0.31174928 -0.10255573 -0.0864075 0.058719136 0.020248592 0.05694862 0.18613042 -0.09382617 -0.06521887 -0.19445977 -0.07368586 -0.325575 -0.06252943 -0.23369403 0.14841452 0.028254492 -0.04824142 -0.024653086 0.07155968 0.26264337 -0.16159484 0.1185035 -0.1998842 -0.08236703 -0.06943984 -0.1488224 -0.15627438 0.1363834 -0.1385425 -0.17616671 0.028321065 0.18310334 0.0022656166 -0.1387586 -0.10551789 -0.1676005 -0.10185321 0.25335574 -0.27402556 0.11058236 0.026044292 0.12958916 0.16678324 0.007464721 -0.08212628 -0.015420612 0.056043707 0.033763506 0.1936446 0.024544332 -0.07060376 0.12094005 -0.1839825 0.11144041 0.061065834 0.06391989 0.11046917 -0.047821324 0.071008846 0.048703477 0.12054583 0.17068739 0.004329378 0.18018483 0.005457659 -0.030426089 0.082347155 0.070981085 -0.12735169 0.037193656 0.08130943 0.22308367 -0.024377925 -0.14059816 -0.20701139 -0.04039792 -0.03596739 -0.09592449 0.078987 0.10275183 0.079913326 0.0027641198 -0.12796743 0.038722917 -0.17742397 -0.11604902 0.13230601 0.15907928 -0.05425337 -0.13258736 0.047719557 0.0043053986 -0.07612804
54 0.50906384 -0.030805603 0.80057025 0.30561063 0.97337246 -0.6716462 0.5671336 0.10530096 -0.10097501 0.097490795 -0.6835211 -0.45511675 0.2700961 -0.23718144 -0.013194116 0.06632372 -0.2497127 0.40483075 -0.104386106 -0.4723614 0.09045999 0.8277057 -1.1812856 -0.3575852 0.4334005 -1.2248647 -0.34854922 -0.45527014 -0.64932156 -0.23239367 0.23213658 -0.58559966 0.29608324 0.20193537 0.194968 0.12455955 -0.38694283 0.19218867 0.050689645 -0.18795048 -0.1840528 -0.42852405 -0.08620494 0.21495076 -1.414836 -0.82500917 0.3509769 -0.74872786 -0.21129611 1.1884549 0.49351555 -0.06455678 0.19788049 0.09897821 -0.1727687 0.3341389 0.29367822 -0.11800317 -0.41338912 0.036156602 -0.7074276 -0.71768105 0.74160653 0.19088678 0.384296 -0.02310134 -0.40228716 -0.50892526 -0.52242196 -0.8305217 -0.24709918 0.15272404 -0.033517946 -0.09332973 0.2069703 -0.40041894 -1.0585825 -0.21045405 -0.11901058 0.8271952 0.71007544 0.43541625 0.46026066 0.47068688 1.187012 -0.3130233 0.06678929 -0.20562127 0.02488091 0.5342325 0.7854817 -1.3974844 -0.1225127 0.11593728 0.26899472 -0.8504722 -0.48983696 0.59818953 0.8813957 0.026905054 0.5276069 0.24216352 0.22783524 -0.5212606 0.53707945 0.31590718 0.28733075 0.0840304 0.5447584 0.01637154 -0.21647726 -0.45171148 -0.42879713 -0.8089271 -0.49922293 -0.40833285 0.07221932 -0.21445747 -0.978485 0.18959807 -0.8110799 0.03650002 0.28951743 -0.21548495 0.055966273 0.16109602 0.35578138 1.1874378
55 0.4840079 -0.056809276 0.74431276 0.3022585 0.99914646 -0.70478106 0.57749885 0.11073729 -0.085402854 0.111833 -0.68216985 -0.47616634 0.27175483 -0.1979297 0.021266157 0.090501584 -0.23989645 0.43088534 -0.11694587 -0.47024542 0.08364904 0.84423006 -1.2016051 -0.37940153 0.46236357 -1.238924 -0.33356935 -0.47560358 -0.65434754 -0.24447581 0.20496617 -0.59183687 0.30107585 0.20619918 0.18651499 0.1245012 -0.42514902 0.1841005 0.045681708 -0.22986248 -0.18236074 -0.4515376 -0.08904354 0.17691351 -1.3423247 -0.7947353 0.33315533 -0.7438737 -0.19935979 1.1887118 0.48415655 -0.117121726 0.19408946 0.1086397 -0.16228877 0.33822244 0.26519173 -0.11928775 -0.41861385 0.019814856 -0.71903336 -0.7323816 0.7380789 0.2043154 0.34917694 -0.03326922 -0.39857343 -0.501391 -0.4844746 -0.7966855 -0.24522722 0.14154401 -0.042700812 -0.08554615 0.23191382 -0.41212 -1.0680869 -0.16413487 -0.119465515 0.791604 0.6930202 0.44683188 0.4455049 0.45923656 1.2016664 -0.3063051 0.07808877 -0.19451828 0.012204477 0.50476605 0.7604351 -1.4008996 -0.13335368 0.1264176 0.25229022 -0.81167036 -0.52200276 0.59425026 0.89403456 -0.015985608 0.4681874 0.28899547 0.23445006 -0.5517226 0.52153814 0.28955364 0.26545447 0.06599273 0.55735874 0.005227702 -0.22462082 -0.4752905 -0.43866256 -0.80210054 -0.4719146 -0.4147843 0.065822564 -0.22899088 -0.9476293 0.17311677 -0.81342715 0.041760664 0.3078135 -0.21354698 0.08720739 0.12287637 0.32811388 1.1845068
138 -0.4054146 -0.44006646 0.65306157 -0.2767089 -0.84833646 -0.30029723 -0.7630021 -0.57501906 0.47644234 0.22092195 -0.1518056 0.24912046 -0.023211751 -0.5817105 -0.27940917 0.1411865 -0.1661698 -0.013963957 0.8455148 -0.62504977 -0.7683448 0.44968808 0.09967464 -0.064985275 0.36115754 -0.5260196 0.03654424 0.5578191 0.060979195 -0.3379634 0.32051918 -0.13480555 0.16429418 0.44504574 -0.49926165 0.16464753 0.6708042 -0.22609134 0.34760994 0.5279569 -0.5525716 -0.54989517 0.38539904 0.012810366 -0.58067673 0.38582143 0.34294394 0.8838812 0.65377825 0.8174468 -0.6868546 0.6823922 0.14708503 -0.20792978 -0.13216391 -0.16480117 0.111228675 0.08707782 0.13850416 0.64286613 -0.27946204 0.42315114 -0.998369 -0.47340274 -0.9291713 -0.25125703 -0.48140612 -0.84395593 -0.19464728 0.21659401 -0.7200593 0.06100888 -0.7005176 0.026608743 -0.18596482 0.12313758 -0.38942075 0.17490146 -0.19114244 -0.04843691 -0.3877231 0.6165108 0.5279937 0.16051027 -0.51606613 -0.035143882 0.83634174 -1.043015 0.44438562 0.7107582 0.43951914 -0.45292333 0.120308936 0.21566619 -0.03729573 0.24486163 0.6405194 -0.23674564 -0.55742633 0.8649094 0.3236436 0.19937113 -0.36875516 -0.22788665 0.11284779 0.25446823 0.2723445 0.8761864 -0.5901148 0.92368025 0.710368 0.2465857 0.57497185 -0.58800155 -0.28115603 -0.532648 0.06186662 -0.20154479 0.26492432 -0.6353178 -0.49254334 -0.20437036 -0.042030293 -0.47669378 0.37093547 -0.105348855 0.6151792 0.94345194
139 -0.42591143 -0.48399866 0.7088028 -0.25362742 -0.8247489 -0.23005962 -0.7886517 -0.53477407 0.4417482 0.22821864 -0.115573764 0.2877055 -0.009840371 -0.5561041 -0.26489145 0.18430847 -0.09872439 -0.0040202425 0.79143316 -0.60337245 -0.7648801 0.43161073 0.11150134 -0.075333245 0.3739965 -0.49107113 0.023228893 0.5588167 0.045548376 -0.32558823 0.32885358 -0.15499343 0.21072027 0.4540682 -0.5064878 0.15137653 0.7207228 -0.25024322 0.37746292 0.5667261 -0.530283 -0.55843294 0.36572835 0.034947775 -0.56034905 0.38390514 0.38947204 0.8561245 0.6519095 0.7566044 -0.6260849 0.68341845 0.15278558 -0.18205023 -0.17239967 -0.22269838 0.09317673 0.13007946 0.17023104 0.6377195 -0.25511658 0.43173712 -0.9613167 -0.39592525 -0.8431458 -0.2629463 -0.48986274 -0.7739032 -0.17318043 0.22986673 -0.69726646 0.050066233 -0.6943838 0.12192748 -0.14881268 0.16444695 -0.40247616 0.21194859 -0.23702022 -0.109042816 -0.37280875 0.6189615 0.5445584 0.15402743 -0.5552225 -0.10819614 0.8562728 -1.0609603 0.46910796 0.69183004 0.48109922 -0.38122576 0.07536988 0.21429889 -0.058432143 0.24291562 0.6345349 -0.23633195 -0.56978804 0.84561884 0.3385316 0.21619672 -0.38331378 -0.20371561 0.12430872 0.2372099 0.27912197 0.8614391 -0.60068035 0.9781417 0.7084859 0.28669626 0.5480548 -0.57087994 -0.28242937 -0.5592817 0.08297377 -0.14453828 0.26909554 -0.6105166 -0.45345286 -0.18915743 -0.04816319 -0.46381432 0.36152485 -0.1279083 0.6654914 0.9570493
140 -0.47702345 -0.4023111 0.68867606 -0.2692081 -0.86892766 -0.23223504 -0.8241261 -0.55026716 0.44452736 0.24593808 -0.13239853 0.22599821 -0.028737504 -0.5593836 -0.27985546 0.16595232 -0.11130921 0.024458282 0.8408791 -0.5809333 -0.7581172 0.4430642 0.11837085 -0.0912424 0.3483504 -0.47583252 0.023811016 0.5485263 0.05977987 -0.3449373 0.29021484 -0.12402259 0.16585419 0.46387756 -0.4358502 0.19358122 0.714453 -0.24476159 0.3789932 0.54033095 -0.5288368 -0.5416168 0.40380573 0.05029271 -0.529153 0.4420549 0.366023 0.8801095 0.581982 0.731468 -0.6664406 0.66854197 0.15049648 -0.22421862 -0.13565032 -0.22733848 0.119139105 0.11008595 0.16198108 0.6345779 -0.3033482 0.40975896 -0.9790329 -0.48262617 -0.8652153 -0.23140398 -0.4602894 -0.8014859 -0.1960399 0.247501 -0.6692439 0.019466404 -0.7247448 0.07781128 -0.14793973 0.14631465 -0.39901686 0.208662 -0.23651393 -0.069807835 -0.40127674 0.62885535 0.5522947 0.13733758 -0.5794201 -0.010937961 0.85927886 -1.0501084 0.39622083 0.747174 0.4383307 -0.45015407 0.15034452 0.26078197 -0.015135504 0.21822953 0.6885634 -0.24457817 -0.5432266 0.82274085 0.33469838 0.19009453 -0.3439191 -0.23732272 0.1308516 0.27843577 0.23595597 0.8627191 -0.56092316 0.9063037 0.65451914 0.18148616 0.6111338 -0.5958088 -0.2870904 -0.5187882 0.0487013 -0.17066526 0.23190084 -0.6165427 -0.46926045 -0.16925675 -0.08724437 -0.4032011 0.37290174 -0.0929895 0.63759685 0.99216795
141 -0.49768004 -0.3811608 0.650987 -0.29845583 -0.8293755 -0.28558373 -0.79952323 -0.5593409 0.46473595 0.22607829 -0.10673738 0.22731107 0.02031299 -0.5034766 -0.26447973 0.15756167 -0.13292062 0.074555025 0.83285797 -0.58313674 -0.7311989 0.43580434 0.113756604 -0.030397939 0.31826097 -0.5017983 0.013961304 0.55720097 0.069030315 -0.34751725 0.29690024 -0.11824517 0.20092554 0.45911947 -0.4363987 0.15024847 0.7235174 -0.26498803 0.39155284 0.5308261 -0.5316586 -0.5473696 0.42527354 0.015042342 -0.49957097 0.4233353 0.31873348 0.89763594 0.6145087 0.6699886 -0.6481548 0.6471158 0.14131469 -0.18634792 -0.14566705 -0.23784518 0.108104095 0.09865984 0.13961776 0.6261024 -0.28337386 0.439667 -0.9924446 -0.42414516 -0.8275079 -0.24960825 -0.490716 -0.72569263 -0.13335627 0.20402434 -0.6451749 0.042669687 -0.6519379 0.0939231 -0.21821654 0.16763453 -0.37738317 0.18834805 -0.1981951 -0.08147151 -0.3822833 0.62644243 0.46673355 0.1941874 -0.59124696 -0.041432217 0.90229785 -1.042119 0.46785682 0.7207253 0.43124273 -0.40946084 0.103286326 0.23422858 -0.068933636 0.26963633 0.65277094 -0.27706867 -0.61741394 0.7724403 0.31094745 0.19518901 -0.36639687 -0.20673417 0.11129642 0.22476694 0.26319826 0.8456701 -0.6194642 0.8520443 0.72179496 0.25204206 0.59809303 -0.5542099 -0.23514777 -0.5098538 0.051465463 -0.20266472 0.26597744 -0.6509469 -0.4759922 -0.20905909 -0.03326568 -0.47073027 0.38359746 -0.09996281 0.620312 0.96023786
145 -0.22753713 0.60531247 -0.07434588 -0.33181226 -0.22763415 -0.030531013 -0.017469617 -0.69281 0.1766156 0.35838047 0.22783254 0.3060868 -0.25691286 0.062403265 -0.15194918 -0.28738555 -0.3778601 -0.11957125 -0.30435887 0.025109345 0.00749148 -0.33157328 0.1839287 -0.045575812 -0.04074005 0.57378143 0.30361694 -0.37926492 -0.06158173 0.1587945 -0.91164446 0.021772273 0.56664515 0.8948338 -0.0850955 0.6506004 -0.14191425 -0.25359547 0.28996837 -0.13177118 0.48297146 0.4875258 -0.67384124 0.017093174 -0.9387447 -0.5766544 -0.7510522 -0.13957366 0.008217316 1.2206391 -0.33495447 0.26116315 -0.2227716 0.55681753 0.15270168 -0.20487437 -0.05226612 -0.062267985 0.07254096 -0.07507574 -0.17250812 -0.4722174 0.52121097 0.4050293 -0.42934364 -0.0146285575 0.3924709 -0.20152901 -0.48385555 0.0032218061 -0.55133224 0.09205364 0.29797673 -0.28590253 0.17730656 -0.20541212 -0.21846527 0.4259073 -0.2198824 -0.6815098 0.5614067 0.835339 -0.26474735 0.07993931 0.02337278 -0.4007552 -0.18378976 -0.6932635 0.066946246 0.101675406 0.58702093 0.60415363 0.24395396 0.20878284 0.31564528 0.35602105 0.85811895 1.2123877 0.5154473 0.83550656 0.03282725 0.12939928 -0.4859787 0.46857515 -0.16433325 0.6179022 0.67430264 0.1833079 -1.6123297 0.112642586 0.33095944 0.6981736 0.7055587 0.25691852 0.8019302 -0.0032363727 0.19711292 -0.4211033 0.5583435 -0.81396943 0.07441846 0.23543231 0.8115063 -0.6731116 0.22786866 0.35792166 0.27914274 1.3999139
146 -0.24177583 0.6218469 -0.062737435 -0.370113 -0.14538176 -0.05147438 -0.0012694868 -0.6973312 0.23095958 0.30813882 0.2576379 0.34216827 -0.29281482 0.05275653 -0.13703749 -0.32450518 -0.39518836 -0.08792664 -0.3241382 -0.028966485 -0.010909826 -0.32681677 0.19584274 0.03830939 -0.08399701 0.55914307 0.30561092 -0.32665074 -0.07527312 0.1688873 -0.9351743 -0.013636816 0.60421276 0.8919479 -0.13600877 0.63170165 -0.1479213 -0.28331205 0.28499767 -0.09638365 0.44804227 0.4721898 -0.6972158 0.021728044 -0.92629594 -0.6027199 -0.71836185 -0.10101214 0.053575035 1.1344092 -0.312774 0.26408777 -0.22176184 0.5395003 0.153073 -0.1756799 -0.081246994 -0.08119034 0.06689854 -0.095629975 -0.15681274 -0.3940607 0.47643328 0.39794508 -0.3898859 -0.007380179 0.31085956 -0.19325003 -0.45101672 0.027587686 -0.58059204 0.11039047 0.29219672 -0.26167473 0.15917324 -0.1936504 -0.23430243 0.4071777 -0.22806576 -0.6748685 0.5535575 0.8269798 -0.23921889 0.11708626 -0.013204386 -0.42010787 -0.17926665 -0.6356021 0.08887877 0.04375202 0.58678293 0.62206674 0.24023746 0.16929944 0.26196197 0.33456233 0.82452965 1.206699 0.43530953 0.83911145 0.016848924 0.16864784 -0.5186311 0.46610522 -0.1324141 0.5774683 0.6564554 0.19750056 -1.6083479 0.16034529 0.37955755 0.7405834 0.6897951 0.26600224 0.81420064 -0.0314159 0.18338451 -0.41014794 0.6086396 -0.8120325 0.06308991 0.22452812 0.8051252 -0.7053424 0.19793327 0.34836516 0.27752113 1.3838707
147 -0.29402733 0.67935354 0.0004474786 -0.35948378 -0.12886901 -0.017310627 -0.023534354 -0.6598665 0.15728532 0.2833251 0.24060555 0.33741 -0.27111864 0.06919009 -0.15291826 -0.34750593 -0.3654729 -0.089597225 -0.32468686 0.06318147 0.039413653 -0.35389018 0.21312355 -0.015293991 -0.08965108 0.5909665 0.27979153 -0.39314175 -0.07341436 0.15307175 -0.9328 0.008600537 0.5848576 0.88269967 -0.073215805 0.64597636 -0.17536493 -0.2518813 0.27865857 -0.14386524 0.4614809 0.5201202 -0.66433483 0.024701204 -0.91961867 -0.5544683 -0.7758491 -0.10788636 0.007773832 1.183353 -0.3429358 0.23007031 -0.23953912 0.5551772 0.17690982 -0.1801588 -0.044165753 -0.05884712 0.0634378 -0.106267065 -0.1697506 -0.43370166 0.46512797 0.38231632 -0.42101815 -0.009748993 0.34535274 -0.19589388 -0.46321562 -0.021917699 -0.5076993 0.07181285 0.3059639 -0.27828065 0.16801922 -0.2194218 -0.24154079 0.41923183 -0.22762176 -0.684104 0.5702738 0.8377437 -0.25687698 0.058849633 -0.000379582 -0.40475655 -0.21264718 -0.66906685 0.04622779 0.08564228 0.6069884 0.5729556 0.23028788 0.20340002 0.3095791 0.37856966 0.8400507 1.2003435 0.46309716 0.7697895 0.00024994017 0.13478911 -0.514571 0.5024424 -0.16470836 0.59333974 0.6768357 0.16531044 -1.6134387 0.07939137 0.32191825 0.7295471 0.73151577 0.2719034 0.8601379 0.000119858996 0.2009455 -0.4431982 0.5534657 -0.7986315 0.07573569 0.19246125 0.8119247 -0.65366393 0.24247299 0.4001678 0.26611647 1.3827082
148 -0.33176178 0.6426052 0.024459798 -0.38334665 -0.15868968 0.030101763 0.006039139 -0.66996753 0.22503687 0.2683362 0.27477992 0.32445258 -0.26578024 0.08224078 -0.17196439 -0.3687889 -0.3797734 -0.06314048 -0.32457727 0.06906086 0.03316185 -0.3579809 0.22623824 0.04962906 -0.11090826 0.5941487 0.29160777 -0.35975116 -0.07200798 0.16113384 -0.93600005 0.011404219 0.5696727 0.8832022 -0.08144273 0.65184635 -0.14120695 -0.26207453 0.3524346 -0.13474391 0.44877017 0.51610136 -0.69606245 0.024982993 -0.9155429 -0.542868 -0.7924777 -0.12491555 0.02757292 1.1450344 -0.33729547 0.24779616 -0.25333253 0.5427813 0.1856446 -0.21575697 -0.032460675 -0.06379186 0.06222924 -0.10601321 -0.1732639 -0.41439196 0.46612263 0.4314806 -0.42076927 -0.013925688 0.3508737 -0.14068799 -0.44338515 -0.006176853 -0.5177519 0.08528741 0.33728388 -0.25450432 0.19617754 -0.17485848 -0.2110308 0.41775104 -0.24145505 -0.68319535 0.5625116 0.8374166 -0.24734107 0.12040303 -0.037289847 -0.37942815 -0.14959933 -0.6296048 0.078032136 0.06057145 0.59625876 0.6045645 0.22649224 0.17669739 0.27436677 0.40694204 0.8223326 1.1325381 0.3964157 0.7762443 -0.002762549 0.14708066 -0.51550394 0.479751 -0.16616143 0.59186804 0.6663735 0.12106203 -1.6136295 0.09378814 0.3367275 0.7203219 0.7197457 0.3056896 0.79721487 -0.013803614 0.18739949 -0.43760523 0.60734236 -0.78046244 0.06353666 0.218273 0.7934952 -0.6753018 0.25710806 0.36017007 0.2573702 1.4074564
152 -0.44923517 0.2924388 0.6433319 -0.0651578 -0.13277505 -0.2614883 -0.117868766 -0.122652285 0.4109383 -0.14257078 0.23893401 0.017205715 0.32730255 0.5833391 -0.13661245 -0.44655842 -0.13480775 0.81827337 0.63389045 0.17081636 0.37956744 0.49101806 -0.45641056 0.38996384 -0.2010056 0.2321341 -0.22716287 0.5770121 0.025673538 -0.5490539 -0.5551039 -0.64205414 0.37640387 1.2646054 -0.3501291 0.27049062 -0.33904824 -0.6313409 0.36389396 -0.042241495 -0.5639709 -0.8400793 0.35387492 0.35357875 -1.1466154 0.45641708 -0.0016232578 -0.22056663 0.85968643 0.4128235 0.15305506 -0.076338336 0.8658935 -0.24773028 0.96577394 -0.3380515 0.32842746 0.082444586 0.0100488365 -0.14935215 -0.8267661 0.20756465 -0.6666827 0.04228281 -0.50550294 -0.2349282 0.2563043 -0.7910538 0.1448051 -0.7445359 0.14321084 -0.14086975 -0.29813054 0.6428288 -0.35234123 0.3021852 -0.040285766 0.89654493 0.04528181 0.056250274 -0.43379167 1.0124476 1.2567574 0.19814426 -0.3114016 -0.38277745 0.7122676 -0.60373586 -0.14034255 0.5127272 0.29634863 -0.12625338 -0.09272274 -0.55100805 0.29987082 0.40801838 -0.10923693 0.51359224 -0.23955707 -0.22749692 0.24389443 0.3498209 -0.29050243 -1.4485525 0.46851102 0.7399132 0.169898 0.22419119 -0.16130453 0.6363239 0.03326407 0.29014006 -0.31981978 -0.29935944 -0.20483233 -0.633771 -0.13555734 0.06301938 0.31071958 -0.41117176 0.10523 0.9784866 -0.1276957 -0.38720068 0.6616087 0.42802876 0.693827 0.95785505
153 -0.5339098 0.29112822 0.6123301 -0.036156856 -0.16123083 -0.17275183 -0.16769163 -0.12863705 0.43537283 -0.18054877 0.3134318 -0.014363757 0.3284468 0.5753588 -0.12327928 -0.4710275 -0.092343576 0.89602166 0.60977507 0.23771507 0.4052323 0.47844473 -0.48016593 0.47032443 -0.21210137 0.29630768 -0.22748369 0.5913936 0.05955601 -0.5538975 -0.62602293 -0.587287 0.37314594 1.1785281 -0.27089584 0.2625662 -0.31102768 -0.62659097 0.41149017 -0.048037156 -0.584032 -0.80589247 0.4060991 0.37484312 -1.090182 0.5054031 0.0034362767 -0.23530045 0.82002544 0.34111106 0.1405138 -0.053639133 0.83349824 -0.27429965 0.98439753 -0.30723387 0.36695045 0.1079692 0.03109419 -0.16912651 -0.82217723 0.29567087 -0.6718196 0.06362566 -0.44357854 -0.23490123 0.26693028 -0.68232155 0.092522964 -0.76834625 0.16478619 -0.13241911 -0.27543768 0.6568331 -0.36267608 0.31892118 -0.04064768 0.9305786 0.051774006 0.042069603 -0.3960547 1.0493534 1.2972331 0.24045902 -0.3495875 -0.35060945 0.7496558 -0.6291592 -0.10876161 0.5075598 0.32878286 -0.11185931 -0.08767841 -0.5287062 0.327782 0.43001693 -0.07929911 0.45976466 -0.32111946 -0.25120574 0.2211003 0.28218117 -0.28909075 -1.4461404 0.42325833 0.71305466 0.1645477 0.17158072 -0.20436342 0.63153964 0.03552822 0.34572974 -0.29951265 -0.2853329 -0.17484425 -0.6280764 -0.12608676 0.030898394 0.3202122 -0.38471255 0.08393414 0.9287128 -0.13545728 -0.3685654 0.65860933 0.41150385 0.7102087 1.0284995
154 -0.47811815 0.25334397 0.5847684 -0.01326169 -0.10644328 -0.1594306 -0.18545122 -0.09328642 0.37918836 -0.15698096 0.2648697 0.027550614 0.29638475 0.59277135 -0.15549491 -0.41953424 -0.11106711 0.82389045 0.65419775 0.18867835 0.3832691 0.44387826 -0.47447425 0.42804778 -0.2448245 0.28582528 -0.2501517 0.58385044 0.07181575 -0.5680125 -0.5726074 -0.6216252 0.3697434 1.2625803 -0.32216224 0.32222646 -0.32516328 -0.5934087 0.4096037 -0.053229548 -0.57479835 -0.8501326 0.38441828 0.40108675 -1.1473049 0.48130366 0.033809885 -0.19725668 0.81882006 0.36957628 0.17514619 -0.027914546 0.8720498 -0.2766061 0.9412378 -0.40432498 0.36874512 0.10611049 0.05050215 -0.121084824 -0.81715846 0.21097594 -0.640617 0.03961501 -0.4490398 -0.23715124 0.26933724 -0.7363176 0.14811859 -0.7465514 0.1897383 -0.110061355 -0.31184766 0.68009806 -0.35016555 0.32472607 -0.07463611 0.8862169 0.062494706 0.050427407 -0.38694215 0.9843477 1.2768855 0.1802782 -0.35754922 -0.36082318 0.7542325 -0.62387717 -0.13060716 0.5216548 0.3390089 -0.16335659 -0.07919531 -0.46953046 0.31912276 0.3502543 -0.011946451 0.49974865 -0.2752771 -0.22215112 0.27275738 0.3136175 -0.28026736 -1.4016598 0.4597818 0.7174908 0.103821926 0.19642882 -0.14194861 0.6545682 0.011224944 0.32934377 -0.3323824 -0.32918754 -0.22430344 -0.6454937 -0.14251973 0.03698726 0.23964973 -0.38500664 0.08082779 0.9474691 -0.13322486 -0.35540813 0.65573823 0.40244868 0.7224784 0.94287527
165 1.1660265 0.13776866 -0.32069954 0.4288281 0.36718625 -0.030625425 0.72548383 0.31218567 0.014995266 -0.11058323 -0.37314752 -0.5134931 0.225911 -0.1644641 0.2807417 -0.39685985 0.05524096 0.15944575 0.050689362 -0.33498365 0.2937904 0.46938744 -0.73219454 -0.16955303 0.087551534 -0.779196 -0.28149164 0.10325086 -0.24749763 0.017014809 -0.11219926 -0.80669796 -0.04481498 0.13156797 -0.12406421 -0.15339822 -0.5248381 -0.50129825 -0.48627463 0.44522873 -0.3832785 -0.32511413 0.15144022 0.9129794 -1.3741422 -0.54299426 0.3025185 -0.7092558 0.82518566 1.4455098 -0.10813874 0.9124154 0.35515288 -0.30498958 -0.20131457 0.22389047 0.23383579 0.7028128 0.5537489 -0.070950985 0.012038123 -0.28640345 0.42784438 -0.019441737 0.63860023 0.12037954 0.2967648 -0.23430935 -0.8002137 -0.49999258 -0.24225144 -0.042932685 -0.3255489 0.17811066 -0.09558188 -0.678381 -1.139076 -0.24065691 -0.7640144 0.14662352 0.30100644 -0.0054954533 0.376045 -0.70947194 -0.080252215 -0.3340555 -0.6691704 0.2837015 -0.83208275 0.18470058 0.35406208 -0.54693377 -0.035757206 -0.4775173 0.22429551 -1.063387 0.1409965 1.3954661 0.29381743 0.6798808 0.5356204 -0.26452187 -0.35309127 0.028344832 0.3412337 0.16175102 0.3420965 -0.37750518 -0.16659017 -0.0023561185 0.01667931 -0.12893572 0.42013866 -1.2513727 0.5434366 -0.6633604 0.43235382 0.2932173 -1.4716678 -0.28918087 -0.24462374 -0.4726323 0.40138265 0.14140464 -0.34946156 0.69888246 0.25992647 0.33940706
166 1.1879648 0.18457852 -0.32430372 0.43442684 0.41531202 -0.022210509 0.6748552 0.31818926 -0.024410238 -0.1335515 -0.3791083 -0.4591215 0.23999894 -0.1539686 0.27801654 -0.40150037 0.030846667 0.10891564 0.033052392 -0.34216905 0.28273696 0.41729409 -0.71643937 -0.17068 0.09317305 -0.7608637 -0.26913333 0.095385715 -0.25395745 0.029414397 -0.122954085 -0.81832826 -0.0043320246 0.15473318 -0.12314245 -0.17921479 -0.5204235 -0.5024818 -0.4388119 0.4503158 -0.37073833 -0.2973624 0.114404455 0.9162319 -1.4026072 -0.57747513 0.2704917 -0.6784377 0.83542275 1.451315 -0.10834336 0.9001424 0.34836194 -0.27568975 -0.22144789 0.22432683 0.21887268 0.7038883 0.5253731 -0.04446953 0.029854584 -0.26040694 0.42875773 -0.013242422 0.6594296 0.12847328 0.27270335 -0.18980633 -0.79816276 -0.49539018 -0.26571542 -0.025969164 -0.31450817 0.16358374 -0.09237473 -0.68598646 -1.1123329 -0.24521253 -0.75712764 0.17904013 0.3354991 -0.005833684 0.3737906 -0.6900822 -0.02635183 -0.3558205 -0.6864505 0.27220008 -0.7758812 0.17200637 0.37823534 -0.52802944 -0.029518167 -0.45679298 0.24377985 -1.0749822 0.16160427 1.4366459 0.2934296 0.6927059 0.52098393 -0.24338795 -0.37475026 0.02246224 0.35364363 0.18455745 0.37217075 -0.3588644 -0.21289743 -0.013751654 0.039495237 -0.09041436 0.4006046 -1.2373313 0.5538822 -0.64332354 0.40543395 0.28806087 -1.4430158 -0.2860088 -0.2513299 -0.47558078 0.3873824 0.10606007 -0.34190443 0.6870986 0.2691388 0.36824766
169 0.14458202 -0.19483374 0.2538421 -0.52147835 -0.40247884 0.16205867 0.85406834 -0.15433307 0.40473327 0.04278301 0.39719394 -0.4832401 -0.3788687 0.36501375 -0.21195038 -0.20373616 -0.5508743 0.69578516 0.24477023 -0.30827188 0.47065172 0.041686073 -0.08340857 0.63604873 -0.36399895 -0.008049668 0.0034186577 0.038409002 0.069446124 0.18504246 -0.5959842 0.012389535 0.65823954 0.20539376 -0.24139093 0.535105 -0.49246037 -0.039533842 -0.16870639 -0.15278092 -0.12630099 0.3580737 -0.014848128 -0.25336376 -0.073267676 -0.37786698 -0.10303958 -0.35458282 -0.36773145 0.13206494 -0.06197154 0.23773487 -0.43449947 -0.38639924 -0.13171606 0.32535324 0.4675568 -0.2374492 0.42727414 0.09466377 0.18458925 -0.51827186 0.5499622 -0.28427273 -0.15135123 0.17441583 0.8984412 0.058337606 -0.25063947 -0.32343042 0.018329464 0.018277679 0.24836305 0.10610106 -0.30480278 -0.11910203 -0.111530006 0.74141973 0.42710638 0.012662743 0.37188682 0.39564356 0.37307984 0.34184697 0.14267898 -0.033536177 0.43905008 -1.0686727 0.055933695 0.58176744 0.63240266 -0.64787734 0.53634006 0.612693 0.29572535 -0.3547558 0.7692961 -0.0077879885 0.42992505 0.14562048 0.06273116 -0.31175748 -0.09866877 0.23071675 -0.21163161 0.13923268 0.10433497 -0.40343943 -0.1750983 0.023691084 -0.046782427 0.01609752 0.31119013 -0.09309632 0.45753795 -0.31138417 -0.071961 -0.19235516 -0.009615648 0.25355345 -0.35103923 0.30246815 0.5320749 -0.17390253 0.9076651 0.4269727 0.3118332 0.5583364
170 0.25948983 -0.17033726 0.17834176 -0.5731661 -0.43136588 0.20767027 0.9126039 -0.21367283 0.50968784 0.020679377 0.40065756 -0.48332784 -0.36772066 0.2884409 -0.21093503 -0.17587328 -0.58414644 0.78483164 0.25713745 -0.34326464 0.491407 0.052586187 -0.095516235 0.6572838 -0.308478 0.0039606914 0.030169893 0.029381933 0.054733258 0.2112025 -0.5806367 -0.017172445 0.6749874 0.14582695 -0.28232282 0.51610684 -0.46579522 0.009601717 -0.17607592 -0.11784323 -0.1348127 0.35196957 0.0045071607 -0.2207532 -0.17844878 -0.44487107 -0.08870117 -0.3949543 -0.2851552 0.16128212 -0.06767284 0.25093013 -0.43574 -0.4597513 -0.13593698 0.42785606 0.4635792 -0.27391014 0.48441795 0.09641544 0.1883831 -0.4789015 0.58280283 -0.25553745 -0.14703372 0.15876445 0.8678663 0.09693424 -0.27796885 -0.29062787 -0.04539623 0.015323647 0.21959917 0.0877555 -0.27469322 -0.12204437 -0.065347284 0.7503401 0.42172423 0.053666316 0.36218506 0.36329654 0.4377671 0.35045335 0.1669044 0.05260664 0.41564545 -1.0380292 0.037511103 0.55629134 0.6134815 -0.5876259 0.57784 0.5691906 0.33261022 -0.31991714 0.6994063 -0.08322079 0.4703859 0.14365655 0.028037775 -0.3432252 -0.08291694 0.23802172 -0.2552611 0.12533337 0.18607268 -0.39790505 -0.2105611 0.078050055 -0.055006396 0.025694065 0.29654318 -0.07243707 0.44806227 -0.28598392 -0.08827409 -0.16221547 0.011188377 0.28866386 -0.3413204 0.23771366 0.53423375 -0.16779947 0.9810242 0.4178307 0.26486433 0.63227147
171 0.13158275 -0.18327112 0.26802865 -0.62641853 -0.29880583 0.15762831 0.88321835 -0.13459267 0.3969509 0.007023557 0.40415487 -0.5025789 -0.4241493 0.35781628 -0.18975613 -0.25433767 -0.60523546 0.68991363 0.24645266 -0.33085972 0.49249452 0.024325375 -0.10818642 0.66460776 -0.34722534 -0.01184315 -0.03973639 0.05179735 0.057233654 0.18279897 -0.5466763 0.010792092 0.70980185 0.18010738 -0.25453565 0.4541652 -0.46420383 -0.0036539757 -0.19156851 -0.118947335 -0.13970576 0.36494216 0.012394525 -0.20474723 -0.077595145 -0.421634 -0.12926903 -0.3569925 -0.285177 0.0839509 -0.068764105 0.2263802 -0.4193288 -0.47100565 -0.18159609 0.420977 0.44888225 -0.26371592 0.46508396 0.086698845 0.2097822 -0.484861 0.5168927 -0.2954336 -0.1582992 0.18768464 0.8776018 0.074826784 -0.16226418 -0.28967744 -0.015239132 0.0061061764 0.25227174 0.14976647 -0.2722968 -0.118294194 -0.06588206 0.8096848 0.4202827 0.041477308 0.3068917 0.40103775 0.4137894 0.3700787 0.11345138 -0.053643614 0.4611603 -1.0490531 0.059068434 0.6160847 0.5697626 -0.56451833 0.51357853 0.5962558 0.2740812 -0.27696756 0.6808298 -0.054430805 0.39294386 0.104394004 0.021937773 -0.2995555 -0.113469295 0.24202408 -0.28027698 0.110473216 0.16506504 -0.38986436 -0.24848115 0.03408621 -0.0034600534 -0.008082282 0.36062297 -0.10963701 0.4722719 -0.31805915 -0.08759345 -0.17911136 0.019381898 0.20151474 -0.32985798 0.24876595 0.5565761 -0.20260352 0.94401926 0.46557823 0.26911032 0.59837157
172 0.21105324 -0.20163542 0.19702952 -0.5699931 -0.45017225 0.09305496 0.9044906 -0.20964035 0.48042083 0.044614457 0.38032773 -0.4833669 -0.44266924 0.31039175 -0.21840201 -0.23314111 -0.64867264 0.7073567 0.25687355 -0.34321645 0.48555553 0.03981617 -0.09188153 0.6652554 -0.3464632 0.024845641 0.016546402 0.024356699 0.018959794 0.19339643 -0.58934724 0.014402067 0.65012205 0.1490108 -0.2564749 0.47229162 -0.50659305 -0.0011313516 -0.19222093 -0.12573585 -0.16715142 0.32767245 -0.035232347 -0.2710703 -0.077760726 -0.41386998 -0.15998109 -0.36045885 -0.23128141 0.17960656 -0.08054652 0.21688968 -0.42240262 -0.47874832 -0.15365252 0.4582137 0.43269312 -0.29791155 0.4421831 0.066874996 0.18170641 -0.49029785 0.5632811 -0.26123324 -0.18189873 0.22728847 0.85020566 0.020983506 -0.23487772 -0.25750136 -0.091457166 0.02239491 0.23626877 0.043094028 -0.2953001 -0.1662667 -0.08553147 0.7810788 0.43546253 0.08187245 0.32862523 0.40789413 0.4241532 0.40297687 0.19351314 -0.009946687 0.3395106 -1.0383444 0.052923836 0.6091723 0.52060664 -0.62884015 0.55501384 0.5701065 0.3092841 -0.29055524 0.67929244 -0.05023697 0.3988894 0.18716833 -0.006981046 -0.3076664 -0.114646316 0.21535501 -0.25572595 0.096744455 0.20002224 -0.34575665 -0.20764384 0.05962034 0.0161484 0.033167034 0.3275134 -0.0776418 0.42510316 -0.30188796 -0.080224216 -0.17591353 0.09682807 0.23554659 -0.34416047 0.28585497 0.54630697 -0.21802127 0.9278526 0.47187716 0.20447885 0.6114987
173 0.19125608 -0.12892964 0.22122172 -0.56949425 -0.387432 0.19350985 0.8802546 -0.17325416 0.46254262 -0.033908695 0.38122696 -0.50213593 -0.39437842 0.34478852 -0.25378242 -0.21685246 -0.5607091 0.7251691 0.23383045 -0.28593796 0.4884453 -0.017668903 -0.045292012 0.6918076 -0.40541834 0.036549512 -0.010819125 -0.0013027724 0.041642677 0.1977671 -0.6283264 0.008691234 0.645425 0.1948759 -0.22704864 0.512171 -0.49430335 -0.045863762 -0.13038874 -0.11707777 -0.16926181 0.35020515 -0.020031996 -0.23362789 -0.11182433 -0.3859264 -0.13346995 -0.32877603 -0.2826944 0.08340011 -0.08167775 0.22554173 -0.4267476 -0.42179078 -0.12067638 0.35812396 0.47293115 -0.25045368 0.42004868 0.102225475 0.20312768 -0.47562638 0.49281853 -0.3301862 -0.15192775 0.17978624 0.85723746 0.07939959 -0.18337882 -0.28558373 -0.017115679 0.03688791 0.29879433 0.09769772 -0.30791134 -0.10068409 -0.06428303 0.7499409 0.4170034 0.023333045 0.3246226 0.3852333 0.39726675 0.4190602 0.08610703 -0.0015434877 0.47283435 -1.0398676 0.08304356 0.59827983 0.5765665 -0.57891923 0.5580471 0.59660363 0.26622137 -0.31411928 0.7622625 -0.06986213 0.3791326 0.15356417 0.04047674 -0.32494068 -0.09813806 0.2703125 -0.23950464 0.101373844 0.15862761 -0.39787862 -0.22067057 0.027107885 0.01574884 0.0141433235 0.32609352 -0.07003821 0.4435732 -0.3085305 -0.093205556 -0.20787424 0.028550822 0.23730502 -0.3894091 0.26355693 0.52649534 -0.1943324 0.9281498 0.47490427 0.28430867 0.61762476
174 0.19545607 -0.17881255 0.1703542 -0.5350227 -0.34513816 0.078984186 0.85656667 -0.2050416 0.48294735 0.04595387 0.3812273 -0.4962643 -0.4144941 0.32071966 -0.2142592 -0.21794434 -0.6889107 0.695087 0.3186475 -0.39939713 0.45858437 0.0073676836 -0.12789784 0.66968465 -0.2964894 -0.014323044 0.01145826 0.049502864 0.02555604 0.20216833 -0.5972447 0.016082594 0.71839184 0.2265019 -0.2780196 0.46179178 -0.47152075 -0.019564612 -0.17746048 -0.1407733 -0.12374535 0.34988883 -0.06116439 -0.28034297 -0.090776466 -0.41690385 -0.11498856 -0.3529083 -0.27752277 0.10806384 -0.030867733 0.21372151 -0.43043333 -0.44967902 -0.16678359 0.34613445 0.43268138 -0.29169977 0.4359345 0.09431572 0.18496445 -0.49039423 0.55794734 -0.2880857 -0.1654037 0.24022521 0.85859364 0.06350774 -0.23282722 -0.2868156 -0.04632781 -0.0046123015 0.25587294 0.089049526 -0.3104101 -0.14864422 -0.11033538 0.78052604 0.44220448 0.02379538 0.33684906 0.3975777 0.38161936 0.39279285 0.14306714 -0.036419384 0.4023875 -1.0719744 0.068309315 0.62040645 0.5550354 -0.58474463 0.5272757 0.57255715 0.2745523 -0.34462848 0.701666 -0.068942115 0.41311485 0.16494153 0.034594428 -0.28952184 -0.12169785 0.25065908 -0.25633785 0.105061345 0.19635025 -0.35784003 -0.204202 0.09802574 0.012662299 0.0270964 0.33689374 -0.10732785 0.48978356 -0.32019296 -0.11984182 -0.19185516 0.07015613 0.2130452 -0.35866782 0.2899579 0.5525922 -0.18083769 0.9243757 0.4276383 0.23703681 0.60098857
183 0.13083947 -0.1425138 0.19661859 -0.5600105 -0.40950957 0.15717213 0.92351305 -0.14691259 0.43184733 0.02795744 0.42539087 -0.47550207 -0.4151807 0.34803098 -0.21521892 -0.24828224 -0.6086872 0.6975613 0.23986278 -0.3131541 0.4872309 0.009968298 -0.07546096 0.69556093 -0.39825335 0.021691598 0.007403432 0.016064337 0.027051587 0.20108302 -0.58687955 0.04342095 0.6506482 0.17682146 -0.23045099 0.4786714 -0.48962003 -0.04583978 -0.1714953 -0.13382077 -0.14608358 0.3632186 -0.0077037215 -0.2753674 -0.041730035 -0.39593804 -0.16576372 -0.3498807 -0.32118282 0.11381952 -0.06775711 0.21680816 -0.42579013 -0.4413553 -0.12537898 0.39562768 0.46452317 -0.25611717 0.43825492 0.077943735 0.17807783 -0.4978505 0.53416383 -0.2795826 -0.13069841 0.2123958 0.86041766 0.06427297 -0.21173444 -0.33700448 -0.017540477 0.011993177 0.27853724 0.1032143 -0.3089731 -0.14563295 -0.10563552 0.7565755 0.42888653 0.047989655 0.35224453 0.4045949 0.40116385 0.3737278 0.10288593 -0.013771625 0.4263355 -1.0089092 0.031784195 0.5923544 0.5467708 -0.58900905 0.5310092 0.5743935 0.28961957 -0.300745 0.72206676 -0.010268446 0.37651926 0.14688432 0.009720372 -0.32221484 -0.110135645 0.23648107 -0.27167848 0.1206773 0.13629054 -0.4068805 -0.21821618 0.004411494 -0.016022593 0.033998318 0.33007717 -0.07905596 0.47595316 -0.28277132 -0.066872925 -0.19391908 0.008003664 0.21635796 -0.35243103 0.26786748 0.5433297 -0.17762326 0.88701445 0.46351606 0.25030276 0.5657035
184 0.14661565 -0.1812285 0.17531604 -0.5841166 -0.37193042 0.16182216 0.8906465 -0.14972718 0.41356137 -0.0011192576 0.38284406 -0.46193972 -0.40302202 0.30615968 -0.23688924 -0.2440888 -0.59953296 0.7575074 0.25808218 -0.321003 0.48451412 0.03919656 -0.08859079 0.6924638 -0.35626036 0.0018042431 0.015202055 0.055263553 0.03296352 0.1875867 -0.60330266 -0.01662184 0.6656797 0.19064514 -0.26881486 0.48379982 -0.45499375 -0.033451308 -0.12560713 -0.10720809 -0.16149902 0.34560302 -0.034511693 -0.22585241 -0.1110259 -0.3812702 -0.14588456 -0.38359317 -0.25965378 0.06982343 -0.04605508 0.20985617 -0.42147717 -0.42281997 -0.1462542 0.4032579 0.4677442 -0.26823753 0.42131355 0.08139068 0.17707193 -0.4349968 0.5137615 -0.26184955 -0.15737039 0.2130727 0.8564486 0.1022373 -0.24711043 -0.30526873 -0.04317033 0.022480324 0.2331788 0.11920964 -0.2774059 -0.10673195 -0.07710554 0.7692009 0.3806557 0.049336538 0.33586127 0.4127395 0.40976226 0.39720595 0.09264907 -0.00083591626 0.4362212 -1.0366101 0.08135575 0.60320425 0.5819083 -0.56246656 0.52665156 0.60424596 0.27812892 -0.2717954 0.7355651 -0.10424012 0.3590722 0.17349437 0.037194345 -0.3409227 -0.112387925 0.22381878 -0.27706546 0.11141714 0.20503668 -0.40869772 -0.24191828 0.06995621 0.011040693 0.0304048 0.36397296 -0.08610618 0.40949145 -0.30860192 -0.08307415 -0.17944272 0.048553273 0.21551207 -0.34397045 0.26329783 0.52193356 -0.21111211 0.92678386 0.45266917 0.2645876 0.63750046
187 -0.35426342 -0.92283905 -0.34233952 0.24778031 -1.2635708 0.8069404 0.83019567 -0.47834605 0.65840995 0.14846507 -0.38549778 -0.6611297 -0.10460518 -1.4283187 -0.108211145 0.1284755 0.2791331 0.3366963 -0.36582276 0.55758077 -0.2931383 0.69996464 -0.22855768 0.14095466 0.413656 -0.07758014 -0.5315736 -0.24855602 0.085356556 -0.39671522 -0.05328515 -0.38087273 -0.2107798 0.060564492 0.0023848284 0.92347836 0.3722379 0.3919924 0.23938207 0.84444255 -0.2694006 -0.08687387 0.20709255 0.08906233 -0.8036151 0.12587205 0.07280767 0.25614592 -0.85889643 0.4207476 0.65236616 -0.38879564 0.22532278 -0.17189817 -0.24110506 -0.75870705 0.13664936 -0.6153235 -0.45203888 0.2616841 -0.97744966 -0.22483982 -0.01666867 -0.50068754 -1.2882168 -0.21254413 0.010345418 -0.7284942 -0.32971874 -0.4429343 -0.012621984 -0.22700498 -0.2284142 -0.03187649 0.22589007 0.28249454 -0.18303029 -0.21788989 -0.54926604 -0.094405375 -0.076631546 -0.08309003 0.474281 -0.36817697 -0.23973729 0.18048158 1.000651 -0.7802375 0.021224335 0.42912436 0.5870098 -0.3315676 -0.28840128 0.232332 -0.056705933 0.08856375 0.45545703 0.15478195 0.90172595 0.25054753 0.07802108 0.043635927 0.08480472 0.23635466 -0.1885081 0.5659046 -0.30996487 -0.40397578 -0.32524365 -0.24687915 -0.23736073 -0.6451181 0.27563012 -0.47568405 0.5080917 -0.061156765 0.51563966 -0.7117463 -1.1735015 -0.81231 -0.21761301 -0.6897956 0.5754044 0.14709064 0.16939421 0.32953808 0.15736139 0.13819759
188 -0.16083388 -0.95992273 -0.4519622 0.3811765 -1.199065 0.68675613 0.79102653 -0.45122612 0.7161855 0.18410282 -0.32132894 -0.691064 -0.15066415 -1.3115485 -0.07978201 0.074316025 0.19131051 0.2947682 -0.3615099 0.49342343 -0.24977937 0.6522802 -0.22793402 0.048786342 0.3403129 -0.13592252 -0.545128 -0.25068137 0.04516239 -0.37492558 0.022507692 -0.37776995 -0.23540074 0.018274069 -0.0022431132 0.7740564 0.27327704 0.378838 0.10194463 0.7472189 -0.2813449 -0.13034028 0.20842852 0.06548566 -0.7248177 0.10757872 0.09230336 0.21211071 -0.7742723 0.5479179 0.5443406 -0.33781904 0.24709046 -0.22677296 -0.15811706 -0.6133071 0.09346322 -0.5217086 -0.4236757 0.16276287 -0.8873 -0.26834434 0.05643786 -0.4651579 -1.1908357 -0.1639485 -0.01744727 -0.80770046 -0.2353436 -0.4128146 0.0011786566 -0.19163662 -0.21921429 -0.07702647 0.265531 0.19395001 -0.25844097 -0.23420826 -0.43918058 -0.044954423 -0.033963867 -0.072598405 0.42323384 -0.35742852 -0.21170318 0.18411505 0.87898976 -0.6693019 -0.07077587 0.37319916 0.4939053 -0.36400974 -0.25102776 0.22212441 -0.071055114 0.015313903 0.3768859 0.22692057 0.93812823 0.2743795 0.068798885 0.04022902 0.1436314 0.23384376 -0.21913552 0.52316403 -0.35325992 -0.3293937 -0.2695157 -0.22231314 -0.19156495 -0.6579254 0.2655852 -0.45746368 0.42111942 -0.039258327 0.48679388 -0.57054794 -1.0836629 -0.7160445 -0.14984691 -0.63718295 0.5067592 0.10577212 0.086741775 0.3295323 0.10565902 0.15418172
189 -0.42504233 -0.9190037 -0.29569876 0.2905387 -1.2451253 0.7316715 0.818789 -0.40259984 0.634624 0.20908375 -0.30755112 -0.6970753 -0.15670572 -1.3293724 -0.10099982 0.14737844 0.2851212 0.4065948 -0.37352988 0.6042511 -0.26123857 0.67919934 -0.18900743 0.10756359 0.33094847 -0.06969821 -0.5643732 -0.29330108 0.07137136 -0.4075922 -0.027641324 -0.30269197 -0.22818404 -0.03814426 0.0717464 0.8595565 0.35135695 0.4058409 0.1643635 0.8014961 -0.30695423 -0.09280792 0.2918496 0.024566654 -0.72297835 0.17248276 0.04755756 0.19839966 -0.8706137 0.5096602 0.602468 -0.3243599 0.23627825 -0.23084919 -0.13941705 -0.78779763 0.13581724 -0.58731407 -0.39433327 0.15551788 -0.9215889 -0.33586273 0.08608515 -0.4735963 -1.2595669 -0.18485478 0.07597894 -0.7661248 -0.2728618 -0.4347096 0.0022771906 -0.26957807 -0.19430429 -0.027074246 0.28921044 0.25498462 -0.2921362 -0.13584028 -0.47496694 -0.16284607 -0.03134343 -0.039146867 0.4387588 -0.34228808 -0.31013817 0.13988791 0.9593611 -0.79675376 -0.05786938 0.37091336 0.56044793 -0.35944083 -0.30852696 0.25125936 -0.0740466 0.115218386 0.42244342 0.1631861 0.9394904 0.25237513 0.07177457 0.013214607 0.16627471 0.22807069 -0.25241107 0.47997364 -0.33538753 -0.36103 -0.26728588 -0.20855667 -0.22252728 -0.6541075 0.22549275 -0.40886375 0.4873633 -0.078017816 0.5605819 -0.59640205 -1.1136389 -0.78771603 -0.16067743 -0.60650325 0.60535234 0.13706237 0.083202176 0.30811068 0.13254525 0.09055429
190 -0.15526034 -1.0322323 -0.47143766 0.44802547 -1.1866949 0.8115121 0.90273356 -0.3902252 0.67800677 0.09756819 -0.31459856 -0.75188977 -0.19126329 -1.3960603 -0.07269242 0.115025416 0.2076685 0.3435778 -0.36379996 0.5330962 -0.26970166 0.7455392 -0.36068317 0.122481585 0.30500263 -0.14547248 -0.6438488 -0.2741108 0.13303204 -0.4552751 0.07726542 -0.37742025 -0.2593251 -0.036043964 -0.03664056 0.8782595 0.25863042 0.51044536 0.1108349 0.739222 -0.34590325 -0.15454356 0.29597896 0.084990926 -0.78349656 0.16139792 0.13066691 0.2394803 -0.8317994 0.4201603 0.6075274 -0.35871816 0.34359542 -0.3919032 -0.1793556 -0.66388464 0.13291922 -0.6297243 -0.44128153 0.20823626 -0.9903059 -0.28856945 0.013731726 -0.61307573 -1.3080691 -0.17416857 -0.023252552 -0.7769602 -0.21128371 -0.4589551 -0.022610208 -0.2143558 -0.2793859 -0.078652896 0.35141122 0.21693577 -0.34060767 -0.16228707 -0.44691804 0.07671261 -0.0058265445 -0.0787995 0.52863985 -0.30484283 -0.14851445 0.15178773 1.0533922 -0.84207815 0.05062917 0.49439737 0.6390736 -0.6056799 -0.26438874 0.38826463 -0.06630449 -0.06663257 0.5044505 0.15527035 1.0020708 0.24580596 0.0025181447 0.16341253 0.18855308 0.13737057 -0.19367264 0.5440992 -0.36631876 -0.28935426 -0.14818618 -0.2366728 -0.22186516 -0.72589904 0.11749869 -0.4866784 0.42008507 -0.044039898 0.48239025 -0.6633388 -1.1671125 -0.7418638 -0.26964223 -0.6633353 0.5513251 0.07685141 0.085022725 0.3178402 0.21057333 0.14956273
192 -0.3107976 -0.9752743 -0.43555018 0.37383428 -1.1920985 0.7734798 0.8356441 -0.40883645 0.6997455 0.20135707 -0.28152 -0.7853893 -0.17163146 -1.3566934 -0.061703995 0.12960754 0.26725468 0.35853973 -0.38220805 0.54009837 -0.25772277 0.7055545 -0.27103204 0.087407164 0.35536706 -0.10586676 -0.6000836 -0.22757712 0.030990403 -0.43484956 0.047300488 -0.3529151 -0.21230488 -0.033081032 0.0729662 0.7886552 0.37465513 0.41805118 0.1638638 0.84228843 -0.3007319 -0.13439503 0.30005047 0.06307123 -0.7923058 0.16870224 0.112101436 0.27176684 -0.86320084 0.51027375 0.6242406 -0.3162685 0.27401128 -0.2547553 -0.20597705 -0.7730204 0.12157351 -0.59799856 -0.43898207 0.19368285 -0.94248337 -0.26678044 0.051680233 -0.46682137 -1.200297 -0.14584409 -0.030203998 -0.7576535 -0.26270494 -0.41966483 0.049855087 -0.23058654 -0.26840034 -0.0005471616 0.2979134 0.2573888 -0.35438594 -0.20293549 -0.48739555 -0.06727756 -0.011422989 -0.07332674 0.47036594 -0.38181746 -0.25918144 0.15035206 0.98256725 -0.73970866 -0.046474285 0.36337844 0.5690165 -0.3910869 -0.31023583 0.2907237 -0.07312096 0.0041266056 0.43949163 0.21419837 0.95810485 0.2540576 0.07128303 0.06687575 0.17742625 0.25589648 -0.21364461 0.51776016 -0.44521898 -0.3528702 -0.2178096 -0.18482895 -0.23566653 -0.65254974 0.21609889 -0.4752119 0.49558124 -0.09526146 0.5349879 -0.63442624 -1.1868956 -0.7124855 -0.15192035 -0.67541075 0.5328144 0.17960761 0.112581864 0.29657474 0.17055114 0.091203384
193 -0.30566734 -0.8248055 -0.36022806 0.37775943 -1.3330071 0.698656 0.8672833 -0.42138416 0.6569565 0.21738864 -0.37703305 -0.6596177 -0.22331731 -1.4168417 -0.090437725 0.09073254 0.22887301 0.325583 -0.47140747 0.51035637 -0.3150121 0.7193181 -0.18793769 0.07037941 0.34726733 -0.18795569 -0.54568297 -0.32315597 0.010705873 -0.41058826 0.002993558 -0.37744832 -0.23746245 0.0142527865 -0.0029601022 0.82812715 0.32668227 0.33772537 0.16309538 0.81444454 -0.31382433 -0.11370418 0.2361038 0.019959155 -0.6855037 0.144603 0.03647913 0.23960535 -0.83282316 0.5724017 0.59103936 -0.4073154 0.21981317 -0.2128052 -0.13745444 -0.702584 0.12453053 -0.561353 -0.44342825 0.17384507 -1.0215406 -0.329274 0.06463311 -0.5762237 -1.2937936 -0.20770687 0.023893522 -0.83663607 -0.29858884 -0.474832 -0.06050423 -0.24907741 -0.20664704 -0.14801377 0.28641063 0.19059467 -0.258111 -0.19042411 -0.54101294 -0.08078801 -0.08277336 -0.0382672 0.46971878 -0.3506786 -0.2788846 0.1598933 0.92173064 -0.7473851 -0.09422891 0.42520773 0.5152117 -0.40818763 -0.24631824 0.22810009 -0.030831695 0.050788987 0.4322894 0.25042334 0.960718 0.25752 -0.0074621486 0.10867734 0.14977589 0.118861586 -0.19182488 0.54371774 -0.2696239 -0.31897077 -0.255095 -0.28620303 -0.24460825 -0.72200084 0.24975766 -0.46267292 0.43545604 0.005039711 0.533627 -0.59748495 -1.1561785 -0.82864976 -0.22003697 -0.6479072 0.5667635 0.08635678 0.08026644 0.34856328 0.13523725 0.12563963
198 -0.30551562 -0.8411625 -0.42907634 0.36622292 -1.2558382 0.7753181 0.79323196 -0.38380456 0.63574976 0.16968456 -0.3429808 -0.6833745 -0.12193548 -1.3503635 -0.07156869 0.09276548 0.24994414 0.35446158 -0.39073804 0.5760352 -0.24722724 0.6541926 -0.21197103 0.09898019 0.32203475 -0.07579775 -0.5588128 -0.28883687 0.04680819 -0.38852754 -0.043870203 -0.3799392 -0.23278706 0.050884094 0.038267475 0.79595834 0.32531783 0.32042667 0.17270936 0.8189397 -0.2948175 -0.12802015 0.24289899 0.08033789 -0.7649073 0.12998289 0.02976607 0.20008175 -0.7874497 0.48842868 0.6031831 -0.34520435 0.28862178 -0.20596926 -0.14983873 -0.7482335 0.12767623 -0.51954216 -0.42357364 0.15763831 -0.93365204 -0.29204667 0.052660182 -0.45952478 -1.2034863 -0.1815061 0.031872455 -0.7479551 -0.2573943 -0.4706993 0.05072028 -0.23387104 -0.18284072 -0.0450996 0.24302384 0.230359 -0.24006085 -0.20280966 -0.49177566 -0.082354516 -0.045517914 -0.033535432 0.43423876 -0.34412628 -0.27911198 0.14128406 0.95449674 -0.71060526 -0.048535928 0.36335742 0.53227663 -0.35536742 -0.2601109 0.19383761 -0.053721126 0.05513749 0.43754375 0.26753932 0.904421 0.2513676 0.050553396 0.06601777 0.09874737 0.21156418 -0.18499093 0.5144962 -0.3529955 -0.3781371 -0.28250203 -0.29355386 -0.19847709 -0.6651244 0.27719122 -0.45460576 0.48983246 -0.05002787 0.5380268 -0.6210806 -1.1715144 -0.7719726 -0.17749065 -0.6778722 0.55681974 0.12688354 0.10114955 0.34706774 0.112897195 0.11276688
195 -0.12366919 -0.53829306 -0.23261745 0.20492779 -0.7511501 0.3082274 0.40998024 -0.3026848 0.39898133 0.15553272 -0.21872433 -0.33988872 -0.13314463 -0.7817139 -0.0770056 0.08235116 0.10236557 0.1742201 -0.1868834 0.31084558 -0.13068363 0.40391675 -0.06757243 -0.021197647 0.1222059 -0.07271542 -0.3672341 -0.23376171 0.014250982 -0.23741402 0.045850385 -0.22574632 -0.14157814 0.032621384 0.045792256 0.45466113 0.11635712 0.18529566 0.05888701 0.39741883 -0.17740671 -0.12144217 0.14124161 0.011139795 -0.42510176 0.05419029 0.040055342 0.08245661 -0.47521156 0.40265518 0.30959958 -0.2191339 0.14889218 -0.0846158 -0.020246867 -0.32341993 0.05032985 -0.28173408 -0.2698368 0.04818536 -0.4827048 -0.22216631 0.068912156 -0.3210536 -0.72101575 -0.097385734 0.025245836 -0.593635 -0.09176632 -0.23606588 -0.036979996 -0.097286515 -0.095847875 -0.080826834 0.15727414 0.09566743 -0.18551897 -0.10228523 -0.22792639 -0.037569083 -0.02631933 0.00050856697 0.20689382 -0.22764966 -0.13944773 0.10103874 0.46382573 -0.34242335 -0.08783997 0.20460862 0.27231273 -0.17129773 -0.12449655 0.11554741 -0.030108217 0.025689956 0.20037942 0.1887098 0.61122066 0.13816601 0.0022537801 0.014485458 0.09713932 0.12882708 -0.15250778 0.3301903 -0.20930731 -0.23403797 -0.18444225 -0.17086369 -0.12351322 -0.42517245 0.1227703 -0.19193758 0.24420488 0.068077385 0.33405924 -0.31405067 -0.62459034 -0.45181558 -0.008932402 -0.29332256 0.2876539 0.093132615 -0.047343872 0.2578295 0.023434177 0.08907998
205 -0.43104962 -0.057241805 0.05304749 0.05320136 0.22487932 0.035550904 0.24261208 -0.14972763 0.60775065 -0.10537413 0.19410643 -0.42911342 -0.26569867 0.24477401 -0.053794876 0.051399656 0.15600318 -0.051466193 -0.01402007 0.20368119 0.1376443 -0.0009120102 0.13438004 0.4417268 -0.3657773 0.07311963 -0.32626095 0.49058986 -0.28202447 -0.05566275 -0.33601865 -0.5292514 0.1147389 0.40690482 0.14435399 0.13315159 -0.27869081 -0.1690535 0.42627427 0.14042614 -0.38294607 -0.25058523 -0.20309904 0.15112677 -0.0855645 0.10373473 0.14987667 -0.010177992 0.20118827 0.6078918 -0.14857815 -0.09675984 -0.10454911 0.27546868 -0.32071587 -0.5095636 0.18702084 0.3703451 -0.16831984 0.3018014 -0.0988775 -0.13618721 -0.2981038 -0.031393796 -0.23783278 -0.23775679 0.13857846 -0.24119061 -0.32513186 -0.4770464 -0.4406907 -0.32121232 -0.41340065 -0.018353378 -0.2142638 -0.48885763 -0.56311166 -0.036828227 -0.19711907 -0.35728982 0.066003256 0.41558537 -0.2205809 -0.30307937 -0.23763394 -0.0076715904 -0.12977928 -0.76818824 -0.021633597 0.32058814 0.40031376 -0.47101328 0.16912843 -0.3149803 0.34471768 0.15091483 -0.10549973 0.55292404 0.12669876 0.09757124 -0.07604547 -0.26489785 -0.411519 -0.25449404 -0.14046325 -0.005722389 -0.14266518 -0.17177893 -0.55066264 -0.03488098 0.1787627 -0.1284952 0.16866332 -0.46368453 0.53574413 -0.23141475 0.31142977 0.28383586 0.057141162 -0.6488024 0.026153957 -0.029503565 0.18173757 -0.23250604 0.12531348 0.3330186 -0.030680789 0.8725444
206 -0.43286622 -0.038134564 -0.046661794 0.15689477 0.2547511 0.0153188575 0.21984611 -0.12290559 0.6019906 -0.018650383 0.25768435 -0.43531317 -0.3361404 0.27033144 -0.025496582 0.030625645 0.13178445 -0.10671699 -0.061536033 0.09616455 0.12234775 0.0048947833 0.10067599 0.37439165 -0.34996825 0.053133532 -0.30986354 0.5472307 -0.25215873 -0.0840673 -0.26151907 -0.48791692 0.17352429 0.43726814 0.124827445 0.11997999 -0.18192945 -0.15460071 0.4456404 0.13955028 -0.3186387 -0.21061288 -0.143519 0.1682552 -0.07249053 0.12777607 0.22022267 0.050395623 0.12723187 0.57589465 -0.17752299 -0.055303134 -0.079656936 0.25714183 -0.34886777 -0.5747019 0.19224218 0.4108157 -0.12281121 0.33094722 -0.13060689 -0.14960152 -0.3183259 -0.04641877 -0.24120486 -0.25486463 0.08939449 -0.22882444 -0.36802143 -0.5195349 -0.369053 -0.31488115 -0.46122804 0.030135972 -0.20534728 -0.5004283 -0.60258675 -0.058041237 -0.18205692 -0.34522063 0.1299871 0.42635986 -0.24271181 -0.36543128 -0.1850913 -0.030312153 -0.13491379 -0.76264435 -0.004566296 0.2666326 0.44923913 -0.500335 0.14188516 -0.262337 0.35304877 0.05942985 -0.051955424 0.59896225 0.13035941 0.08713202 -0.0777296 -0.23514026 -0.41981086 -0.21433696 -0.1304343 0.017003838 -0.23961651 -0.20503277 -0.5292021 -0.032502253 0.1416324 -0.09264072 0.1848936 -0.4300398 0.5834513 -0.23133181 0.30358505 0.26818505 0.036316637 -0.5731807 0.06919712 -0.033849724 0.19493414 -0.20037904 0.15478827 0.28858784 0.00809922 0.86832196
207 -0.39135808 -0.04998125 0.14595327 0.013657762 0.24152547 -0.034939315 0.25040933 -0.13566335 0.6615124 -0.14636439 0.19630864 -0.5473702 -0.29932094 0.2848442 -0.038946334 0.0055762115 0.2128319 -0.014988083 -0.05848884 0.26717684 0.15357007 -0.067847796 0.13743085 0.5264728 -0.3584433 0.11079251 -0.3241191 0.47961095 -0.27412117 -0.09707143 -0.42721802 -0.465014 0.14844565 0.38387465 0.24766487 0.14345504 -0.26876885 -0.181887 0.46253625 0.1447134 -0.40539715 -0.22815415 -0.11307521 0.069189735 -0.04395499 0.15006113 0.08156715 0.05101322 0.13792562 0.5392568 -0.12855116 -0.08931357 -0.15979168 0.25634268 -0.32740748 -0.5907012 0.2036087 0.3474043 -0.18386334 0.2805493 -0.10270597 -0.1672853 -0.30085632 -0.07231051 -0.21184513 -0.2101279 0.142985 -0.20064738 -0.3349588 -0.5113015 -0.47260186 -0.37870613 -0.31556138 -0.08590872 -0.24836905 -0.51256275 -0.48662493 -0.005986026 -0.16475861 -0.35958487 0.040037293 0.35398412 -0.20941111 -0.25207114 -0.29891875 0.005571302 -0.033559173 -0.77358353 -0.05078802 0.24946575 0.35839778 -0.4875239 0.20571607 -0.31267032 0.2749414 0.16492406 -0.0947121 0.52519387 0.12142099 0.07659283 -0.08757512 -0.31618547 -0.4575942 -0.20214412 -0.18154293 -0.07732254 -0.17990378 -0.27952564 -0.503282 -0.112793386 0.20324843 -0.18011247 0.19083138 -0.40210572 0.6079137 -0.2655522 0.29488072 0.22188812 0.038910873 -0.5973246 -0.061720725 -0.084699556 0.1954535 -0.22358301 0.16374464 0.35594958 -0.031886708 0.8494334
208 -0.37172642 -0.07247211 0.026950639 0.040757567 0.20267926 -0.036481414 0.23832399 -0.047303967 0.55065274 -0.11883683 0.1388742 -0.47707832 -0.3157265 0.21244924 -0.057584554 -0.045761254 0.22826755 -0.003744089 -0.064792104 0.25821024 0.1718267 -0.023483876 0.1599328 0.47571084 -0.32354316 0.089817345 -0.37051085 0.5129129 -0.31542933 -0.10960202 -0.36569145 -0.5010103 0.16578662 0.3855458 0.09116529 0.1282837 -0.26815647 -0.16125363 0.46971822 0.22649346 -0.43756604 -0.20496033 -0.1195427 0.039702564 0.0068009603 0.2375955 0.13063411 0.05419156 0.25624412 0.5903091 -0.12263023 -0.10893964 -0.116699435 0.23566288 -0.3041499 -0.6288471 0.18538536 0.38564327 -0.1736663 0.30529138 -0.072088964 -0.19023362 -0.32466376 -0.010447227 -0.3289206 -0.2896947 0.15796715 -0.21018985 -0.23085529 -0.47043774 -0.4191137 -0.34453574 -0.40948805 0.031890456 -0.25218803 -0.50971866 -0.54308635 0.010121305 -0.26329482 -0.3423037 -0.014896697 0.3936651 -0.25388163 -0.3154887 -0.33191195 -0.0055761733 -0.04170041 -0.79545057 -0.06261537 0.30625537 0.3274466 -0.48464108 0.18354033 -0.27886423 0.2866974 0.19348116 -0.037455365 0.5235109 0.058821768 0.03726676 -0.1488082 -0.21538784 -0.48130807 -0.18757825 -0.24531445 -0.058597215 -0.14594804 -0.15697731 -0.5638043 -0.09031819 0.2433323 -0.16735655 0.17888056 -0.43875954 0.5921963 -0.27616978 0.29683638 0.24033132 -0.0046434435 -0.66197264 -0.053490065 -0.211251 0.19357526 -0.27406368 0.18016598 0.34245655 0.057477195 0.88693833
209 -0.4199552 -0.033787623 -0.019455092 0.122961566 0.25270468 -0.0730211 0.29329005 -0.14184044 0.6944439 -0.022754848 0.28352344 -0.49204257 -0.25249928 0.24971108 0.011935246 0.041817736 0.17104675 0.0056609674 -0.057717483 0.14721169 0.10354376 -0.010171179 0.14000829 0.4391441 -0.30105984 0.095890045 -0.28533226 0.5612416 -0.23870035 -0.040247485 -0.36663762 -0.4639213 0.11730417 0.42350844 0.15615952 0.13942815 -0.22693676 -0.18212734 0.4626757 0.1580305 -0.32260004 -0.2149606 -0.1276192 0.108014226 -0.0578307 0.13523456 0.23213167 0.019584026 0.22449894 0.6282409 -0.15000503 -0.06512857 -0.08579014 0.31499663 -0.25786012 -0.6164052 0.1994383 0.4145714 -0.13816497 0.2785349 -0.018550178 -0.14115103 -0.3027262 0.026894284 -0.20649984 -0.3324536 0.14912865 -0.2101792 -0.39745682 -0.48613563 -0.42649722 -0.30794176 -0.4064219 0.04079089 -0.26316473 -0.48455545 -0.5520716 -0.057644986 -0.1649746 -0.41929275 0.07887671 0.38830346 -0.2580805 -0.30128956 -0.17239033 -0.005116171 -0.09551171 -0.7253182 0.0011325045 0.22575921 0.3834355 -0.3905573 0.15076417 -0.37658533 0.3461887 0.072149135 -0.15002425 0.5902699 0.16334379 0.06669569 -0.060702067 -0.2354087 -0.44508457 -0.24835671 -0.12389689 -0.02344938 -0.24000253 -0.28419366 -0.5823811 -0.0745243 0.2085817 -0.1267095 0.08811444 -0.44509917 0.5974785 -0.2489838 0.2711673 0.25890422 0.08484741 -0.5903676 0.005324729 -0.063109994 0.18261564 -0.3209295 0.17822489 0.29416826 -0.04299712 0.871318
210 -0.32803077 0.021939958 0.038448963 0.017422285 0.2808907 -0.039513808 0.29170695 -0.060525056 0.60191196 -0.16514617 0.12834826 -0.47190738 -0.2929867 0.31240335 -0.040557455 -0.05571001 0.27113432 -0.027190676 -0.08129603 0.23257828 0.14829452 -0.027759686 0.13505277 0.4667344 -0.32533354 0.025806108 -0.37119934 0.5140092 -0.33204025 -0.10782401 -0.29494056 -0.51725805 0.18430617 0.46239424 0.096233465 0.15077257 -0.25505537 -0.14405839 0.4340763 0.19853224 -0.40104935 -0.21427763 -0.11899158 0.11394565 0.006000857 0.19074123 0.12965454 0.041941337 0.119497076 0.49602053 -0.14206462 -0.1294441 -0.14416838 0.2325013 -0.3625371 -0.5569261 0.18227553 0.33277842 -0.20404956 0.2961027 -0.19186172 -0.16903393 -0.3488592 -0.09734099 -0.33321297 -0.31007627 0.10786819 -0.2401119 -0.2243176 -0.46461746 -0.421479 -0.2873988 -0.40864468 -0.04396897 -0.1883708 -0.52780485 -0.48034236 -0.01634718 -0.25511345 -0.3003946 0.027670013 0.41728914 -0.2753661 -0.31151322 -0.3171665 0.022048252 0.010152962 -0.75299615 -0.033720132 0.29354724 0.41286296 -0.50939804 0.22837077 -0.270572 0.2561328 0.16739464 0.03490712 0.57489014 0.015725726 0.01936862 -0.11457653 -0.24843277 -0.5008702 -0.24685855 -0.19380637 0.00935814 -0.1319237 -0.18993601 -0.53840464 -0.07983482 0.19070758 -0.14482333 0.20655517 -0.41296053 0.559332 -0.26814252 0.24587086 0.25563216 0.039934307 -0.6755536 -0.027817206 -0.12631951 0.12539333 -0.28779888 0.13088414 0.42405635 0.1451841 0.922191
216 -0.4147878 0.05042821 0.0120937945 0.05726995 0.15840329 -0.019191511 0.28330007 -0.13617088 0.5946762 -0.06538795 0.25090227 -0.49840048 -0.36214978 0.38507575 -0.039378807 0.073995985 0.15128206 -0.112886146 -0.06161343 0.23092033 0.15357596 -0.0357199 0.11238238 0.40210062 -0.3751759 0.07637389 -0.32725453 0.48092934 -0.20238484 -0.16721602 -0.3830572 -0.49299598 0.18605983 0.4610963 0.21268997 0.18364157 -0.30903983 -0.24904494 0.47548532 0.1856688 -0.3997592 -0.24697003 -0.10510634 0.17062183 -0.037178736 0.18944602 0.17342192 0.07052804 0.15180105 0.54105747 -0.16391309 -0.0876791 -0.1362673 0.20978461 -0.37854964 -0.61607015 0.18444842 0.35838428 -0.22052602 0.32024688 -0.20231682 -0.1766733 -0.30193835 -0.12732577 -0.22017898 -0.23091806 0.10663052 -0.25720784 -0.24113765 -0.4877621 -0.37081608 -0.3058317 -0.39328867 -0.058007613 -0.24190119 -0.5303111 -0.5004032 0.034544986 -0.14432395 -0.34021422 0.04635408 0.39189023 -0.24245173 -0.29253015 -0.30694276 0.05094664 -0.06962312 -0.771415 -0.038664658 0.29746863 0.3080369 -0.48207983 0.19484645 -0.30122545 0.2547115 0.11063328 0.04970109 0.6174331 0.076056615 0.044685867 -0.098472424 -0.24683933 -0.5025934 -0.30852774 -0.1782776 0.01737719 -0.1895462 -0.17661695 -0.49558905 -0.09748734 0.17777127 -0.15966453 0.19627315 -0.36789408 0.60329103 -0.27089208 0.2678787 0.24964249 0.020857086 -0.62591785 0.040902212 -0.07968453 0.14799047 -0.22948207 0.1637382 0.35519323 0.04511395 0.8161186
217 -0.4328175 -0.041574463 0.02903792 0.119307294 0.2837877 -0.1502834 0.2430869 -0.14642256 0.6003069 -0.120575786 0.2003381 -0.4153122 -0.33846235 0.27193573 -0.0819142 0.010443761 0.20395637 0.014287762 -0.06657473 0.2576847 0.17634052 -0.0057618846 0.100057505 0.47320223 -0.34476405 0.09655546 -0.3445158 0.5244444 -0.26789674 -0.1079833 -0.39342308 -0.4832946 0.20263416 0.36555707 0.1643617 0.12589219 -0.20844077 -0.14761268 0.50392497 0.20174997 -0.40477878 -0.21828815 -0.08227022 0.17440987 -0.02160707 0.14736569 0.1312905 -0.003484462 0.19554517 0.5187003 -0.15563624 -0.044687327 -0.13590336 0.2403787 -0.35570383 -0.51983076 0.21038444 0.36050683 -0.16821375 0.30546996 -0.07227804 -0.11709465 -0.30785382 0.025208574 -0.2672158 -0.30613056 0.12580979 -0.16828448 -0.30146873 -0.49357793 -0.48134282 -0.30911446 -0.41038802 0.010574842 -0.21542703 -0.48519927 -0.5337692 0.0065083634 -0.17681788 -0.31965938 0.12420075 0.43692353 -0.24716604 -0.2831527 -0.22981825 0.0022857068 -0.06369605 -0.7986436 0.0337382 0.28445762 0.41307077 -0.48797718 0.16217712 -0.2753623 0.2829966 0.21562642 -0.056959078 0.5587524 0.008885315 0.09128456 -0.08384199 -0.29060945 -0.4599867 -0.23744829 -0.22886628 0.0022809266 -0.061431944 -0.17437693 -0.5907933 -0.04604554 0.24056938 -0.061292306 0.11424579 -0.37657756 0.5434722 -0.27442563 0.25303373 0.21494788 0.03393536 -0.6552542 -0.043870375 -0.13916107 0.19905235 -0.31731054 0.08478163 0.29932365 0.04552532 0.9971648
219 -0.356529 -0.029308727 0.11815792 0.042331703 0.27303708 -0.034446187 0.22972542 -0.111942135 0.6585181 -0.1153599 0.15039526 -0.5426568 -0.24224511 0.29863563 -0.10478897 -0.006342982 0.20528501 -0.0004252205 -0.026040971 0.23293805 0.19549713 -0.07093981 0.14956696 0.48507372 -0.38443568 0.08203345 -0.3716701 0.48066312 -0.32255107 -0.08466741 -0.36381948 -0.5406991 0.13499765 0.43906385 0.13379468 0.14823575 -0.30724025 -0.1495467 0.39582056 0.2041629 -0.42905527 -0.24753626 -0.14411248 0.090597264 -0.062018786 0.18042955 0.20467612 0.0060327603 0.21074253 0.5897888 -0.12959741 -0.070026994 -0.11926451 0.27820474 -0.25607342 -0.55038077 0.20999403 0.40536895 -0.15675314 0.29235384 -0.050649107 -0.20769218 -0.26986438 0.0008696366 -0.27473572 -0.29694918 0.11547105 -0.23283371 -0.2329225 -0.51037157 -0.4674454 -0.29648986 -0.4283832 -0.011454823 -0.24077865 -0.5178149 -0.5648724 -0.0454503 -0.15771341 -0.30699074 0.045767795 0.40926898 -0.23644853 -0.30364984 -0.2780478 -0.006937288 -0.051539168 -0.7763105 -0.0363087 0.24548419 0.40594622 -0.5223483 0.22058478 -0.26160884 0.30581954 0.13097367 -0.032075934 0.5633699 0.110131584 0.06952911 -0.11700534 -0.26871666 -0.42618045 -0.19554955 -0.17122808 -0.038062774 -0.21798447 -0.19671372 -0.5722231 -0.06077979 0.21947366 -0.13287765 0.106664635 -0.42424646 0.5672907 -0.2548882 0.27823594 0.28603783 0.042077284 -0.6038037 -0.02894211 -0.06626382 0.17581993 -0.25601396 0.09442537 0.32480294 0.06735912 0.8829665
220 -0.33678958 -0.050235566 0.04351977 0.05532671 0.24470732 0.03142806 0.25662827 -0.13226973 0.6438518 -0.1216731 0.16683675 -0.44434026 -0.32844415 0.27710828 -0.068637446 -0.0027246368 0.20261107 0.009515395 -0.049707703 0.17430532 0.14268906 -0.041663937 0.14046106 0.5198796 -0.42188966 0.08382674 -0.38274726 0.50463694 -0.35478932 -0.052469574 -0.33985958 -0.5348631 0.2037425 0.44624516 0.15046662 0.12051669 -0.271406 -0.16576953 0.47151613 0.22511236 -0.40795156 -0.23426665 -0.1792544 0.18393737 -0.029762574 0.15210432 0.17385383 0.0015968133 0.14883125 0.45834205 -0.102122314 -0.08661141 -0.07989675 0.2745812 -0.37761062 -0.56326467 0.20652041 0.3823907 -0.19321394 0.2804732 -0.12793273 -0.116941385 -0.34305194 0.008753645 -0.2162535 -0.24618351 0.08545976 -0.21457957 -0.24399143 -0.46089274 -0.38125718 -0.26698375 -0.3952321 0.09046713 -0.18542756 -0.44452387 -0.4900839 -0.036238685 -0.2528476 -0.33912936 0.036932167 0.41521522 -0.2687916 -0.33669186 -0.26666465 -0.074021645 -0.092042305 -0.73023194 0.008696179 0.2556059 0.43101743 -0.4247987 0.1841755 -0.27160183 0.31211904 0.1492513 -0.0006631242 0.60138625 0.07600186 0.03216607 -0.08567119 -0.26425666 -0.4633579 -0.17646958 -0.17196101 0.0039094356 -0.17260425 -0.18176691 -0.6125924 -0.084337324 0.19365287 -0.15445052 0.22870912 -0.43850923 0.5494332 -0.26972526 0.28381747 0.24215052 0.054258373 -0.66658515 -0.0005412922 -0.10970701 0.18211758 -0.2890296 0.08014376 0.37083676 0.06533644 0.96391135
221 -0.3864351 -0.10195872 0.035835594 0.07546285 0.1856675 0.07623652 0.23043738 -0.15319796 0.64162517 -0.08282336 0.23853554 -0.36886284 -0.18437676 0.2767475 -0.016659688 0.042475943 0.11331596 -0.049878813 0.01379825 0.2070632 0.1335572 -0.016322175 0.13560173 0.39812055 -0.35117784 0.07493827 -0.33543852 0.4977771 -0.31612754 -0.027987288 -0.29824325 -0.53055304 0.13991679 0.3682269 0.077154905 0.025917009 -0.2520725 -0.1817478 0.40755278 0.15677169 -0.40291837 -0.28610545 -0.22707082 0.096208684 -0.105265066 0.12853792 0.23525415 0.029833779 0.20571297 0.5625306 -0.09680341 -0.13742033 -0.06290118 0.24883723 -0.26595137 -0.5472657 0.17113873 0.3766212 -0.1646262 0.29218978 -0.094564326 -0.07228463 -0.28197128 -0.022368649 -0.18737301 -0.20813955 0.09872791 -0.16397786 -0.32559076 -0.48254544 -0.41087398 -0.2599776 -0.40214494 0.007867739 -0.23133823 -0.49221283 -0.5851222 -0.079531215 -0.21888247 -0.3440506 0.06429419 0.37599152 -0.21355422 -0.29390505 -0.2592261 -0.017387364 -0.057659786 -0.765421 -0.03564607 0.31262663 0.43342784 -0.43476298 0.16365336 -0.32296535 0.37273312 0.061800364 -0.08667436 0.5418932 0.15392013 0.13345851 -0.07830462 -0.22651006 -0.39492902 -0.19810107 -0.17065817 -0.06770664 -0.19456995 -0.18403228 -0.6023913 -0.034118496 0.22633031 -0.14902732 0.22123992 -0.5218136 0.6032314 -0.25543046 0.35816905 0.32256564 0.049146842 -0.64633006 0.019142143 -0.08077664 0.26491582 -0.29127055 0.07469433 0.3804805 -0.056587663 0.830771
222 -0.4304325 -0.015235797 0.0756793 0.0375672 0.24352764 -0.038342692 0.19814877 -0.12900388 0.62712896 -0.06869169 0.12289514 -0.44801164 -0.31147286 0.26047888 -0.1026147 -0.03513032 0.19974801 0.019400388 -0.00184065 0.18846765 0.14621529 -0.011834978 0.13318019 0.5193182 -0.40669098 0.06781523 -0.36329702 0.5211027 -0.3701098 -0.062196624 -0.35473174 -0.5276854 0.22228338 0.47903654 0.15456374 0.113276914 -0.23633376 -0.19550002 0.46884045 0.24130946 -0.38346618 -0.23765308 -0.16756739 0.18113793 -0.031658515 0.1395358 0.19392358 -0.0070503866 0.14003178 0.44410524 -0.09373882 -0.042783532 -0.07255071 0.31573632 -0.41807303 -0.59049803 0.21220025 0.41087693 -0.17703395 0.3104271 -0.04650101 -0.15560348 -0.3506062 -0.0034780202 -0.21629289 -0.24365337 0.12168932 -0.25461286 -0.22100618 -0.4472152 -0.41811177 -0.2579279 -0.37879473 0.06516963 -0.2395818 -0.4575799 -0.4958186 -0.0338405 -0.21679828 -0.3657365 0.049855992 0.40628985 -0.3027129 -0.35858375 -0.2608104 -0.12713476 -0.10286872 -0.73298335 0.013948809 0.26726913 0.4404028 -0.3989602 0.17300697 -0.2842989 0.30946878 0.16355903 -0.040850718 0.6509515 0.05737956 0.04104996 -0.036562905 -0.29609486 -0.4631493 -0.17886049 -0.15414172 0.020600928 -0.15367903 -0.20524941 -0.65394324 -0.090952635 0.2240592 -0.11034868 0.23510975 -0.46294203 0.57099056 -0.2626706 0.30157644 0.24893524 0.011820991 -0.64381635 0.0034734807 -0.07750706 0.15938838 -0.25634256 0.065702945 0.39158872 0.078393176 0.9814095
234 -0.41057613 -0.06055932 0.17728357 -0.016797205 0.22079405 0.028651854 0.23043038 -0.1519403 0.6508925 -0.09486895 0.15426032 -0.38687298 -0.26170084 0.29578578 -0.103849776 0.06871541 0.23242316 0.010398855 -0.017398661 0.22084978 0.1704218 -0.05609483 0.15695879 0.56205606 -0.43588692 0.15802793 -0.37841067 0.508559 -0.35595766 -0.055425745 -0.2860291 -0.514027 0.13949326 0.38778114 0.13516454 0.106540605 -0.29338795 -0.15918115 0.40139115 0.1629973 -0.4326363 -0.2595596 -0.2159954 0.1128403 -0.01341781 0.13214202 0.20106936 -0.056286737 0.20854351 0.5137093 -0.13161601 -0.11012305 -0.047186423 0.28586432 -0.28586566 -0.5326571 0.18699881 0.41212353 -0.11640261 0.3124311 -0.05640275 -0.15993519 -0.29800522 0.023323476 -0.20894556 -0.2388231 0.094928324 -0.2557102 -0.2059145 -0.53942156 -0.44318992 -0.26994413 -0.39626232 0.118868634 -0.23215394 -0.43837097 -0.58012605 -0.06080777 -0.19687136 -0.3530732 0.045215733 0.42541048 -0.26985124 -0.3060282 -0.26829514 -0.082161345 -0.041253164 -0.8119469 -0.026820228 0.27364504 0.4584491 -0.4655795 0.17479636 -0.23349793 0.3304083 0.1563437 -0.081981726 0.5438408 0.1617206 0.06307709 -0.09535523 -0.23246898 -0.37227467 -0.17683125 -0.1857399 -0.0038331067 -0.18240927 -0.1390791 -0.601088 0.017805604 0.1849157 -0.13909282 0.16304645 -0.43931153 0.50796336 -0.24692014 0.32757524 0.2606548 0.07391667 -0.6771581 0.019210111 -0.029850926 0.226698 -0.25237426 0.04395621 0.34592536 0.0610122 0.90429044
235 -0.46970266 -0.074951105 0.034826506 0.07857705 0.21233831 0.095559224 0.16848332 -0.13509251 0.5711264 -0.12985827 0.19264257 -0.38348547 -0.20669083 0.28882223 -0.06019728 -0.09939663 0.11403694 -0.02530976 0.018511372 0.25272787 0.18407983 -0.033528477 0.16680874 0.37032878 -0.3934975 0.067445666 -0.3705902 0.46391308 -0.2744303 -0.06805202 -0.3524459 -0.56440896 0.1067941 0.46400827 0.1749738 0.03858818 -0.23895183 -0.19308856 0.4723639 0.15728478 -0.36848676 -0.25793263 -0.18671562 0.22794035 -0.046554696 0.17549458 0.13721895 -0.005670151 0.18208967 0.47816023 -0.10296407 -0.1361867 -0.099956304 0.3165841 -0.287725 -0.5145605 0.20092383 0.41242194 -0.24462706 0.2400994 -0.10414846 -0.0934828 -0.33290112 -0.007279572 -0.24545093 -0.25125113 0.08647513 -0.19958673 -0.2958121 -0.4861417 -0.38452122 -0.30611262 -0.4033709 0.031658463 -0.2128495 -0.4933768 -0.5593281 -0.07469625 -0.2580819 -0.32141972 0.08346496 0.4303425 -0.26197258 -0.2804108 -0.2543514 -0.046730787 -0.075175144 -0.7486179 0.008134244 0.33521402 0.4085921 -0.44104493 0.14967798 -0.33276823 0.30760834 0.15389411 -0.07406407 0.60378206 0.06472078 0.056458317 -0.092203334 -0.23765208 -0.38087815 -0.26278743 -0.11769451 -0.024512013 -0.18423755 -0.20508952 -0.59320945 -0.10835934 0.21576121 -0.09999438 0.22154087 -0.47257322 0.5724202 -0.2549299 0.30547413 0.28100434 0.012007824 -0.6790818 0.047710575 -0.04676985 0.19486389 -0.25729695 0.143166 0.38467976 -0.048029084 0.88547325
237 -0.34746996 -0.15441687 0.1193557 0.06470184 0.2620175 0.05224987 0.19536518 -0.13859682 0.59050006 -0.097484656 0.19048049 -0.3756983 -0.2648892 0.2827113 -0.088490754 0.11061565 0.20532869 -0.018385245 -0.014886095 0.1956479 0.123237625 -0.054958723 0.17847604 0.43637767 -0.3930687 0.109375276 -0.3614351 0.5120062 -0.33895373 -0.06267667 -0.32221293 -0.5581809 0.16602805 0.36782646 0.113490164 0.0917211 -0.20652094 -0.15779066 0.42770237 0.21982946 -0.4270654 -0.27555662 -0.19454427 0.12887152 -0.08398953 0.14446247 0.24747457 0.017941233 0.19713034 0.53095824 -0.120153055 -0.061089534 -0.106762215 0.24724 -0.30946034 -0.56175506 0.20519122 0.358811 -0.13958679 0.30397663 -0.07954796 -0.097076476 -0.27385107 -0.040704694 -0.17800362 -0.22500372 0.04248457 -0.16447814 -0.29320705 -0.47340906 -0.4275557 -0.26125592 -0.42382738 0.039816484 -0.20086022 -0.47641692 -0.5888704 -0.026264 -0.18421271 -0.36695868 0.09318131 0.4100577 -0.1736006 -0.30334184 -0.24860573 -0.049131688 -0.07659401 -0.8065533 0.012331794 0.24258766 0.5352282 -0.49256083 0.18860026 -0.26713702 0.32507947 0.076602526 -0.013711199 0.60503703 0.15195452 0.12002495 -0.043618012 -0.24846147 -0.4084655 -0.19943357 -0.107412264 -0.037360072 -0.18725067 -0.14723703 -0.57551855 0.0433718 0.19141449 -0.1159886 0.17427899 -0.45369402 0.57742506 -0.2915505 0.35141847 0.30560502 0.075890094 -0.65357935 -0.0033734282 -0.023539724 0.22265416 -0.24234664 0.07248039 0.3264861 0.049903903 0.9182409
240 -0.36750984 0.5329638 0.124157384 0.36703673 -0.78370595 0.25343245 0.17701197 -0.4917736 0.44253182 0.3870634 0.23264734 -0.35179314 0.39100626 -0.30555275 0.33865023 0.04264275 -0.53523 -0.21427096 -0.09527836 -0.51971036 -0.6074604 0.14363384 -0.64693326 -0.31914675 0.9927933 -0.6045574 0.7278887 -0.4898999 0.32132882 -0.16167513 0.07702238 0.3535926 0.034386992 0.59969497 -0.1132289 0.33041674 0.5064737 -0.057661463 0.0014420561 0.08723957 0.6238747 0.4745587 -0.026264612 -0.2380846 -0.6563347 -0.16848956 -0.7377122 0.4305629 -0.40750542 1.1529769 -0.31837362 -0.10675704 -0.07111858 0.2909994 0.26963007 -0.22043891 -0.21187335 -0.44245732 -0.19624008 0.11640533 -0.7959908 -0.32079324 0.16282263 0.12507029 -0.3438358 -0.059294183 -0.45578697 -0.47543555 0.013671507 -0.07455723 0.15337975 0.12531613 0.32386526 -0.36975735 0.2729494 -0.13234745 -0.23920403 0.20744215 0.15650566 -0.13304242 0.48943102 0.37543148 0.11706086 0.23709305 0.2994143 0.017200656 0.89576393 -0.3379965 0.3363019 -0.11091324 0.34741664 -0.24615473 -0.57376915 0.12139704 -0.39486185 0.2770973 0.37250617 0.39619792 -0.089132994 0.45354187 0.12649669 0.55769897 -0.16252966 0.15346059 -0.021188369 0.39409262 -0.10718621 0.20516197 0.06716217 -0.1661454 0.055435337 0.2395735 0.18713321 -0.14416483 0.31408963 -0.34433976 -0.11929743 -1.0815263 -0.25964963 -0.28494176 -0.5261882 -0.20648246 0.2438821 -0.2539435 0.25653198 -0.17676042 0.10972838 0.18021227
241 -0.34879884 0.5619727 0.10728464 0.35049632 -0.75801355 0.26345572 0.1702113 -0.49465147 0.4638492 0.37908036 0.21914037 -0.34680676 0.42195138 -0.2932459 0.32606658 0.049318 -0.49868038 -0.15398484 -0.096367694 -0.4610221 -0.5902119 0.12010869 -0.59376615 -0.2328489 0.94862705 -0.49250236 0.7450908 -0.4708183 0.3252718 -0.15949558 -0.024149643 0.38384297 0.048330057 0.5961887 -0.017364256 0.37615502 0.51471746 -0.07231181 -0.027530344 0.10830699 0.62456053 0.4765875 -0.006177371 -0.24186651 -0.638144 -0.1726659 -0.7627371 0.41429773 -0.46577173 1.1080382 -0.29665238 -0.054557834 -0.06946448 0.28790694 0.29463103 -0.20320266 -0.19171299 -0.49403808 -0.14827424 0.06651069 -0.800261 -0.28842264 0.15180758 0.14643297 -0.30185387 -0.07645118 -0.5024012 -0.4963146 -0.04966046 -0.0831464 0.16832867 0.108094506 0.36560827 -0.41087574 0.27995476 -0.072299905 -0.21246539 0.12878679 0.16221741 -0.15920167 0.47681803 0.37968335 0.111266755 0.25990176 0.28229752 0.023701908 0.9052215 -0.28600872 0.31532434 -0.19378956 0.32852736 -0.18226193 -0.5386229 0.07169539 -0.3591919 0.28409657 0.33804238 0.3941207 -0.06896087 0.45663875 0.123746715 0.5629857 -0.15796955 0.14955963 0.056463774 0.36192593 -0.2023869 0.14913982 0.077642836 -0.23965532 0.032115154 0.1852183 0.21384336 -0.14204869 0.3080285 -0.34573665 -0.05536918 -1.1055515 -0.26312685 -0.28260812 -0.544018 -0.22913261 0.28120482 -0.24451937 0.25775024 -0.14823331 0.06939677 0.20634131
242 -0.36383745 0.57247025 0.14094111 0.34754008 -0.81661487 0.28774863 0.12798119 -0.5345912 0.465731 0.34001455 0.21053474 -0.32160687 0.37627766 -0.29559547 0.31219932 0.015306086 -0.49722353 -0.18068317 -0.12910946 -0.46963742 -0.6131324 0.11727846 -0.55279344 -0.24082139 0.94600606 -0.5122014 0.7653987 -0.47941214 0.32444268 -0.14462407 -0.0035406365 0.34237877 0.06962197 0.6287438 -0.06957798 0.3336475 0.5029935 -0.11102592 -0.023754783 0.08274294 0.63579154 0.46456957 -0.019798435 -0.25579855 -0.6279385 -0.20435126 -0.7766016 0.45823073 -0.46171537 1.0673327 -0.2932215 -0.09916996 -0.068477616 0.28551722 0.29647696 -0.15272067 -0.2095151 -0.48546255 -0.1687544 0.050389823 -0.8171484 -0.28860196 0.15519208 0.14283709 -0.30202958 -0.038235083 -0.5253904 -0.5686649 -0.015153331 -0.058066472 0.1498419 0.12216519 0.41356558 -0.4487712 0.27048323 -0.08731139 -0.16720727 0.14297219 0.16109833 -0.16658817 0.4731214 0.38841298 0.11416438 0.24883051 0.32013386 0.041100644 0.92265403 -0.28968123 0.32147688 -0.18154272 0.35538387 -0.1858772 -0.50790715 0.050575674 -0.3921613 0.3084156 0.3370633 0.43821105 -0.048219766 0.44057703 0.13790849 0.5507353 -0.19536419 0.17981686 0.05348692 0.40985566 -0.16433524 0.110678576 0.06270237 -0.27920702 0.038736645 0.18597235 0.2570679 -0.14210317 0.317649 -0.33667865 -0.087421656 -1.1243258 -0.26353484 -0.26712286 -0.5345041 -0.23406592 0.26311907 -0.283965 0.30352795 -0.10528728 0.06802305 0.2845805
243 -0.37159863 0.5791045 0.093438566 0.33946326 -0.76956433 0.22278498 0.17243983 -0.4685632 0.42145148 0.39813554 0.23494829 -0.32849535 0.3561774 -0.26620987 0.33020353 0.047731634 -0.4994182 -0.15490922 -0.10676902 -0.44546962 -0.5961621 0.11349162 -0.5810109 -0.26711664 0.9333949 -0.5501304 0.73326224 -0.52551705 0.3006261 -0.15316524 -0.0100173885 0.41157258 0.08418645 0.5871126 -0.018803198 0.3322399 0.47647592 -0.105962306 -0.01445374 0.07063742 0.61962694 0.48475423 0.013382215 -0.23790465 -0.6224919 -0.16665903 -0.8188003 0.44546273 -0.43115377 1.1190192 -0.3418703 -0.104915366 -0.065449394 0.27692854 0.31587273 -0.25946876 -0.19412707 -0.48426253 -0.1465667 0.073682465 -0.81497675 -0.35914698 0.17634054 0.10814103 -0.31343594 -0.072105415 -0.4791527 -0.48809218 -0.011022955 -0.08454737 0.1589235 0.12098755 0.41613832 -0.4195199 0.29087606 -0.12323118 -0.19368586 0.25224206 0.1789171 -0.19205838 0.4715555 0.37645215 0.12898709 0.26181152 0.32540724 -0.020925414 0.9447122 -0.38312462 0.35904366 -0.16391844 0.33349618 -0.22351499 -0.5758396 0.11160067 -0.3978391 0.32382295 0.36977053 0.41004962 -0.10534106 0.4150884 0.077380516 0.57433003 -0.1725794 0.13057138 -0.022389816 0.33646414 -0.14350353 0.161377 0.07697563 -0.21903895 0.053480983 0.25236666 0.16662695 -0.106164105 0.32816538 -0.3793988 -0.13378233 -1.0757798 -0.21549824 -0.2933111 -0.5310829 -0.21287885 0.2780585 -0.2949577 0.254383 -0.12438742 0.10461319 0.18489364
244 -0.3255916 0.5748304 0.09926026 0.32947093 -0.79369515 0.23920509 0.16624628 -0.5398666 0.43396938 0.34612563 0.17462093 -0.31595907 0.36137247 -0.32911542 0.3037527 0.0019553863 -0.57644254 -0.24052858 -0.099878825 -0.48327655 -0.62022924 0.085260205 -0.5412675 -0.29084277 0.96570176 -0.5691621 0.74754083 -0.5554574 0.26027328 -0.12304239 0.041486733 0.3450555 0.023057567 0.577634 -0.040132754 0.28900334 0.45907205 -0.09521868 -0.010629212 0.08472881 0.58265954 0.45439202 -0.04595913 -0.23353596 -0.647005 -0.2125854 -0.8476935 0.41998547 -0.38672408 1.1761204 -0.3209781 -0.09913808 -0.072371274 0.2554511 0.2921934 -0.13385056 -0.22050989 -0.47938555 -0.2093545 0.050699297 -0.8068517 -0.29389587 0.1805282 0.09272743 -0.35012415 -0.019696321 -0.43549156 -0.5132188 -0.026841737 -0.07490844 0.12581415 0.1161927 0.41745326 -0.49232984 0.28276485 -0.10988875 -0.13606502 0.17099132 0.14289479 -0.12864201 0.42925677 0.37184855 0.1151772 0.27546132 0.3097413 -0.0069188145 0.80241907 -0.3057663 0.33483 -0.08755504 0.23743157 -0.2093784 -0.525427 0.036055524 -0.37935758 0.3085475 0.34504622 0.41928932 -0.10297194 0.49573568 0.065940276 0.5530674 -0.18730101 0.12747058 -0.0023701484 0.37600535 -0.08514912 0.184954 0.07036591 -0.2163825 0.08107457 0.24488392 0.2345927 -0.13824436 0.27337494 -0.3343856 -0.09665267 -1.0677857 -0.23763669 -0.33316714 -0.5313487 -0.20647563 0.2740645 -0.28548014 0.26778257 -0.05924019 0.04007626 0.20549612
245 -0.3115879 0.55783045 0.10765799 0.32485923 -0.7899843 0.2995987 0.22535796 -0.5114716 0.4178609 0.34535143 0.19302526 -0.3000352 0.39159268 -0.28067476 0.31668422 0.091659255 -0.51764274 -0.18522628 -0.1344579 -0.48578337 -0.61762625 0.09704699 -0.55733705 -0.23862043 0.968677 -0.56565636 0.75448483 -0.52470595 0.3239843 -0.11658078 0.0453821 0.38971642 0.055917524 0.563912 -0.030946447 0.35107937 0.490744 -0.08879919 0.037815377 0.0805334 0.58447194 0.46742532 -0.004239798 -0.18564066 -0.66221166 -0.21869546 -0.82961625 0.43010232 -0.4436229 1.1337987 -0.33148846 -0.09050014 -0.085508004 0.27244505 0.23240814 -0.1853549 -0.19916546 -0.47330502 -0.19770615 0.120178014 -0.7983173 -0.3098986 0.17271031 0.0612094 -0.33713484 -0.05674288 -0.4322106 -0.45327926 -0.03044598 -0.0763215 0.12453859 0.08899864 0.42599803 -0.44156998 0.2935532 -0.092275955 -0.12640862 0.20078726 0.1429529 -0.16115884 0.4564388 0.3513338 0.104378715 0.27966475 0.28377488 -5.5081382e-05 0.9178485 -0.37426153 0.38382202 -0.06722244 0.29039833 -0.20126271 -0.5550682 0.0898135 -0.3806362 0.3324298 0.41233456 0.3817944 -0.122313365 0.46321696 0.10822188 0.54084283 -0.1758645 0.13611366 -0.03742186 0.38246676 -0.047421437 0.18781675 0.06400332 -0.2229579 0.042622983 0.2389333 0.23664494 -0.16341123 0.28472456 -0.3620303 -0.14641693 -1.0829091 -0.23728864 -0.35192904 -0.576517 -0.21225226 0.2799173 -0.2967356 0.27272087 -0.086147144 0.078313015 0.22455238
247 -0.37690023 0.592383 0.1311977 0.39663494 -0.7559454 0.26036263 0.15951726 -0.4926858 0.44642985 0.39718214 0.25237307 -0.3955318 0.41758212 -0.31828773 0.35163718 0.0005346932 -0.53875047 -0.16927046 -0.08645226 -0.48770672 -0.6185934 0.14574389 -0.6342555 -0.3257185 0.96968865 -0.6110052 0.70870465 -0.5112831 0.3472198 -0.14958152 0.03593453 0.3897476 0.03575825 0.55681 -0.047561012 0.3048192 0.5071803 -0.058050834 -0.03585312 0.06760847 0.62502235 0.48016408 0.0317388 -0.2076066 -0.67347676 -0.1548126 -0.7437094 0.43884984 -0.47610056 1.1490879 -0.32349333 -0.057906624 -0.07889542 0.28400797 0.27427816 -0.236568 -0.18325022 -0.4491365 -0.2115669 0.07340278 -0.7819021 -0.27940896 0.17732628 0.11118208 -0.3280743 -0.062595256 -0.4671159 -0.43520343 -0.07718312 -0.0770698 0.18329896 0.11486016 0.33501026 -0.39751598 0.30191317 -0.112662315 -0.2631538 0.18843916 0.15069866 -0.13440558 0.5230904 0.36757907 0.12075556 0.2449675 0.29021034 0.01840565 0.8720766 -0.32998314 0.32391047 -0.09366004 0.34643778 -0.21414198 -0.5648573 0.16037051 -0.3625264 0.22336386 0.403671 0.37333277 -0.06991499 0.4349297 0.124223515 0.5347954 -0.1151444 0.17263326 -0.01785344 0.40634304 -0.14483495 0.14771375 0.064515956 -0.20387799 0.025537647 0.24289894 0.17542581 -0.1696793 0.29954782 -0.33873048 -0.12227599 -1.0660484 -0.26368955 -0.257813 -0.52344143 -0.18665531 0.24155886 -0.23225723 0.25778162 -0.18469968 0.12861198 0.21421698
248 -0.35502622 0.5858977 0.18225546 0.34011564 -0.7614718 0.22670127 0.20399529 -0.5492965 0.41058376 0.3551926 0.21534309 -0.27747956 0.3265982 -0.29952577 0.34007567 0.06696031 -0.52941537 -0.24902256 -0.13960245 -0.45427144 -0.6518087 0.13506296 -0.60994214 -0.30227807 0.94323176 -0.6003517 0.7484022 -0.50477564 0.31631804 -0.15093307 -0.046050325 0.38640988 0.07664836 0.5658541 -0.03289217 0.38786176 0.463755 -0.06661237 -0.022677483 0.07286343 0.6208249 0.50679684 -0.03934814 -0.25135514 -0.662967 -0.20822431 -0.78166234 0.46136346 -0.48514438 1.1239676 -0.32822117 -0.05614131 -0.07576778 0.23515286 0.24552152 -0.17480244 -0.19385278 -0.51451105 -0.18106636 0.0688396 -0.8099099 -0.31597424 0.18541262 0.044833876 -0.30019426 -0.038152885 -0.4384537 -0.4345204 -0.019642962 -0.04351696 0.11638419 0.09344281 0.4020316 -0.44895548 0.33653936 -0.106470525 -0.16501565 0.22576335 0.131554 -0.15751138 0.46973202 0.34189314 0.14411345 0.24615152 0.32119346 0.003911522 0.878144 -0.36225238 0.3529011 -0.11673905 0.32952797 -0.21136889 -0.5295068 0.120690286 -0.39161935 0.25289336 0.41418794 0.4279933 -0.06354841 0.48076597 0.1038679 0.5485203 -0.1793527 0.13980733 -0.02158995 0.34447432 -0.11866362 0.14202575 0.07450915 -0.2239067 0.0598268 0.20312427 0.21598537 -0.12868339 0.35288855 -0.38347405 -0.068344295 -1.1042956 -0.24728216 -0.32415625 -0.5542536 -0.21094586 0.31828916 -0.29807264 0.26109606 -0.07994087 0.12579517 0.23166233
260 -0.37874302 0.57946223 0.101092815 0.38557082 -0.8057328 0.3231035 0.20110732 -0.47628862 0.43673027 0.33059314 0.21276842 -0.32404068 0.40014583 -0.27951303 0.3054061 -0.004433324 -0.5579378 -0.16963775 -0.11713442 -0.43816295 -0.58876336 0.097988 -0.54980135 -0.27019578 0.92134297 -0.54165405 0.7603972 -0.5646963 0.29344136 -0.13647816 0.021045586 0.3598666 0.0017270619 0.5762535 -0.06740313 0.32222158 0.48259282 -0.06523923 0.0141120665 0.066010684 0.5902265 0.4734468 -0.043274753 -0.25838232 -0.6534542 -0.1505496 -0.86062944 0.4388096 -0.43532088 1.1873022 -0.3473398 -0.09927283 -0.101467974 0.2955488 0.31494614 -0.1595144 -0.18447305 -0.46335846 -0.19448784 0.07227535 -0.84405965 -0.31407672 0.15468778 0.1352337 -0.34550622 -0.05366345 -0.46481708 -0.47674108 -0.033784855 -0.10319061 0.1516677 0.085467935 0.4085548 -0.46790403 0.30915734 -0.11647783 -0.19030465 0.18744436 0.160914 -0.15001649 0.48482543 0.38696703 0.13371703 0.31011412 0.2717172 0.031535227 0.9391751 -0.31632823 0.34418878 -0.114455044 0.2935441 -0.22586833 -0.5650156 0.06329427 -0.38007334 0.3309048 0.36299255 0.37531787 -0.14135605 0.45167205 0.10706031 0.5400413 -0.17849462 0.14363955 -0.012132323 0.38066825 -0.10621576 0.13811068 0.078818426 -0.27100244 0.04808622 0.23497994 0.2416496 -0.1591132 0.30593693 -0.35916644 -0.09603924 -1.0913433 -0.23089248 -0.2786823 -0.55726427 -0.19506021 0.2693933 -0.3068343 0.3538235 -0.1056235 0.083925016 0.2595098
263 -1.52676 0.7641587 1.0982236 -0.4655978 -0.30149496 -0.19516598 -0.49635047 0.0047764485 -0.05089684 0.35437387 -0.23746139 -0.4322682 -0.20660105 -0.7684502 -0.36991683 -0.15610076 -0.18098871 0.44818297 0.4060847 0.055378586 0.05435207 0.26328662 -0.015144628 0.43983313 -0.3709062 0.42832202 -0.3884787 0.061796933 -0.012747106 -0.37527266 -0.2860281 0.026875123 -0.23945168 0.24544829 0.7599179 -0.16736959 0.28889373 -0.33856606 0.06620054 0.78726554 -0.3712134 -0.070318885 0.42901093 0.37117723 -0.49643838 0.71772933 -0.3647248 0.32035902 0.30109844 0.70858306 -0.25449666 0.416365 0.45260146 -0.133231 0.309966 -0.72230136 0.38170326 0.1024227 0.12095423 0.22766468 -0.07090014 -0.3185064 -0.09750686 -0.26649192 -0.17941438 0.22332425 -0.50498694 -0.3721701 -0.34813794 -0.26564106 -0.020540576 -0.43450776 -0.12959112 -0.013232321 0.26998335 0.121885896 -0.47357106 0.03174699 0.0054296735 0.3593006 -0.26791617 0.08778248 0.19127272 0.22388588 0.18485071 -0.63723457 -0.2604791 -0.56220746 0.38665593 0.31156588 0.014227202 -0.51871955 -0.29346853 0.40998995 0.45955476 -0.049515203 0.28023422 0.040359035 0.30857795 -0.11640625 -0.46830723 0.41321772 0.4715953 -0.18959789 0.3791517 -0.21960832 -0.5820077 0.4598304 -0.056459025 -0.15625685 0.009296048 -0.13365115 -0.13160206 -0.8654395 -0.06785721 -0.3035482 0.3751658 -0.24545702 -0.7800123 -0.23559986 -0.5133101 -0.2261428 0.04446529 0.756489 0.0684024 0.047700237 -0.021478103 0.09965186
265 -1.6228365 0.71096355 1.0452639 -0.4192861 -0.29373488 -0.11605746 -0.56491244 -0.003344355 -0.06317699 0.39918387 -0.24590169 -0.38843092 -0.20030119 -0.82256186 -0.3249665 -0.08041565 -0.118458 0.4891994 0.35934985 0.08199922 0.03997498 0.29660833 -0.061743863 0.47766924 -0.34574512 0.49421144 -0.3981539 0.11415985 -0.032057345 -0.3792288 -0.2804049 0.01138242 -0.20636709 0.24131477 0.7246831 -0.11281661 0.36302057 -0.27179027 0.038788736 0.8279681 -0.3436491 -0.06471471 0.45143142 0.37256736 -0.51777405 0.663204 -0.36041144 0.32019287 0.2305862 0.6658216 -0.24724938 0.44478175 0.4960469 -0.18169995 0.26879957 -0.76936907 0.36034584 0.03360932 0.20638941 0.25973964 -0.10789906 -0.32259724 -0.059238642 -0.15051816 -0.16004479 0.1835943 -0.52772754 -0.27607912 -0.33080646 -0.3082586 0.03689391 -0.44210303 -0.14921457 0.085557275 0.27535322 0.15417404 -0.51069134 0.042836297 -0.026973307 0.34637755 -0.20653026 0.09379628 0.24828362 0.18533342 0.20065147 -0.6592962 -0.1539617 -0.60543454 0.41773608 0.2408062 0.13780339 -0.52907 -0.32158792 0.39347056 0.4360858 -0.048910875 0.25204647 0.031452667 0.3181831 -0.15045789 -0.44201562 0.3962141 0.46857035 -0.20793718 0.38130957 -0.22553456 -0.66250163 0.39660415 0.011611721 -0.09404989 -0.026949335 -0.11918313 -0.20355466 -0.80626595 0.029221218 -0.34120303 0.3666905 -0.30648264 -0.780922 -0.18623893 -0.48365775 -0.22665976 0.032272104 0.8014543 0.09425833 -0.012666603 0.033244956 0.17369688
266 -1.6125672 0.7600143 1.0500835 -0.47705957 -0.27972135 -0.19492362 -0.5008976 -0.030176833 -0.081537336 0.36144885 -0.26384342 -0.42842844 -0.19452766 -0.8352696 -0.39765912 -0.16217276 -0.19481348 0.47953048 0.3943986 0.017011132 0.05128696 0.2767337 -0.01627842 0.4331049 -0.36256474 0.38727266 -0.37220755 0.04078838 -0.02466146 -0.3326809 -0.25429907 -0.006664237 -0.24231948 0.25102225 0.7079338 -0.17312397 0.2776089 -0.32604143 0.11604241 0.7807663 -0.35538268 -0.017102413 0.40646634 0.37176973 -0.5429133 0.68607813 -0.4149079 0.29056144 0.33825573 0.7592468 -0.26454884 0.35470852 0.4640864 -0.10237165 0.3218368 -0.7207581 0.40461108 0.12643765 0.13683796 0.26803994 -0.06941193 -0.33747494 -0.0807752 -0.24135509 -0.23120622 0.17831108 -0.45746842 -0.32562995 -0.39362735 -0.291176 0.0030369754 -0.45231536 -0.14085108 -0.0060280897 0.2998531 0.121780485 -0.4590389 0.018514246 -0.044513956 0.3435578 -0.2614508 0.05819905 0.21802694 0.15685032 0.22493741 -0.6275789 -0.26414225 -0.5658314 0.40498123 0.30525872 0.021753909 -0.51045007 -0.3592833 0.39498296 0.4760783 0.0188824 0.26505908 0.03097285 0.3202874 -0.14033239 -0.51652056 0.40400082 0.49327058 -0.23723477 0.35197642 -0.20626248 -0.5781145 0.39950356 -0.0726138 -0.14691512 -0.006238348 -0.10923157 -0.16686216 -0.8784482 -0.09801946 -0.29648823 0.34234393 -0.25889286 -0.7711459 -0.21554144 -0.5145675 -0.24694027 0.02180955 0.7751397 0.10531467 0.008338114 -0.056200787 0.091477975
267 -1.4656296 0.7388895 1.0509781 -0.3917437 -0.33192804 -0.19486006 -0.48864064 -0.011247008 -0.044786494 0.39935595 -0.24391808 -0.42715862 -0.19438119 -0.81361616 -0.3571957 -0.10649731 -0.15596998 0.4798654 0.40949535 0.026778603 0.009001246 0.29050657 -0.030597068 0.45350838 -0.30751216 0.38894844 -0.3853182 0.11165998 -0.023626111 -0.3661371 -0.27228758 0.029614082 -0.23455189 0.22658056 0.7263286 -0.17795372 0.3573721 -0.3087763 0.046071395 0.81065506 -0.34627202 -0.037226647 0.4659338 0.36413667 -0.5137206 0.6946843 -0.37657946 0.31694275 0.3070761 0.73407084 -0.28182843 0.44110945 0.47214895 -0.16975337 0.3200619 -0.74846596 0.37743562 0.06679888 0.15894496 0.2637021 -0.06445908 -0.27751547 -0.07802633 -0.2186817 -0.19649848 0.16348359 -0.47663274 -0.31366262 -0.41413516 -0.28484443 -0.01974834 -0.46097323 -0.17738713 -0.0024407143 0.28298825 0.1510352 -0.4582351 0.037317995 -0.0085692685 0.33463797 -0.2594258 0.06162374 0.22978175 0.16367164 0.19933511 -0.61300504 -0.20974118 -0.5886571 0.39576486 0.28173715 0.052671272 -0.480467 -0.31863886 0.39403218 0.4691135 -0.04054248 0.25105968 0.0196632 0.3500731 -0.10477854 -0.45974612 0.39608917 0.504986 -0.2630124 0.36560538 -0.20409223 -0.57263523 0.45439124 -0.010178974 -0.07915352 -0.019632928 -0.12017771 -0.17251767 -0.85544324 -0.060558654 -0.3092944 0.33225465 -0.23360716 -0.7348332 -0.18731184 -0.48697042 -0.20911704 -0.011813011 0.77752584 0.080470935 0.009773253 -0.027025627 0.08197893
269 -1.5276439 0.70119417 1.0575633 -0.4605723 -0.3711287 -0.18928534 -0.5021384 0.0068320385 -0.051839516 0.38682058 -0.25972736 -0.41439593 -0.21245453 -0.7863418 -0.3513519 -0.13468885 -0.1547536 0.4423688 0.38810647 0.03221245 0.01873199 0.29742026 -0.007886848 0.37869123 -0.2904119 0.36884454 -0.371203 0.057839192 -0.04070069 -0.35780853 -0.2515944 0.02528465 -0.2146984 0.22405468 0.71298754 -0.1842372 0.33622688 -0.31054294 0.05741226 0.76757616 -0.3384727 -0.062481284 0.44612873 0.332566 -0.50707597 0.66729206 -0.33800873 0.31823304 0.28836957 0.70030236 -0.23646395 0.38562635 0.42798877 -0.13857685 0.30970505 -0.69090086 0.3425007 0.07164433 0.12498508 0.22533286 -0.08659373 -0.29681435 -0.06327595 -0.18898006 -0.18375312 0.18956178 -0.48049703 -0.35234207 -0.37081015 -0.24612314 -0.012338677 -0.44353825 -0.1518828 0.024193767 0.26570198 0.15963057 -0.4638374 0.05633398 -0.018018153 0.34853873 -0.25724018 0.09388588 0.23173434 0.23329553 0.20550206 -0.6278735 -0.21771342 -0.5747095 0.37046707 0.31623793 0.024726955 -0.49012548 -0.30813226 0.37095764 0.44042015 -0.025446085 0.2440981 0.046987157 0.31363612 -0.120961174 -0.4729368 0.43084848 0.49086565 -0.26853108 0.38084415 -0.22823149 -0.55022764 0.47232625 -0.056249574 -0.08901942 0.012912553 -0.1126256 -0.12809782 -0.8368219 -0.066161 -0.3128558 0.34485358 -0.2322178 -0.75439644 -0.23289405 -0.48911098 -0.2256029 0.030670146 0.74636 0.10575447 0.024007566 -0.03142716 0.11446319
270 -1.6013436 0.77007926 1.0825577 -0.493739 -0.26856625 -0.11017393 -0.4785907 0.06312377 -0.07832048 0.3493098 -0.24983485 -0.4814081 -0.18224879 -0.7479564 -0.34965813 -0.15017103 -0.16360769 0.47303584 0.3756673 0.067418106 0.0777476 0.24300899 0.010542559 0.48579687 -0.3719182 0.48536992 -0.38049442 0.08045348 0.016304804 -0.34531462 -0.2542735 0.050299313 -0.2811647 0.23833936 0.743998 -0.18040001 0.3172535 -0.34637627 0.02826582 0.832228 -0.36880213 -0.07787335 0.46604374 0.38652644 -0.53913283 0.7164922 -0.40684244 0.2852504 0.31155133 0.74279964 -0.2498028 0.4145163 0.4803045 -0.111674935 0.34922943 -0.78279716 0.38649574 0.08640237 0.13440712 0.23616146 -0.07616473 -0.33596787 -0.093434155 -0.21675512 -0.18966714 0.21230568 -0.5082299 -0.38246244 -0.33777308 -0.31572446 0.03177261 -0.44213668 -0.081981145 0.018488958 0.22160071 0.1330513 -0.4884833 0.055896457 0.026520677 0.33107463 -0.25983566 0.110338084 0.17822984 0.25001878 0.18530463 -0.6171274 -0.18340671 -0.5866926 0.38839832 0.30857342 0.04282018 -0.5210872 -0.33547145 0.3664821 0.4506554 -0.0025046852 0.27147353 0.040492326 0.30000165 -0.16586882 -0.46450022 0.4094222 0.4738857 -0.20460916 0.39606503 -0.2120071 -0.61371076 0.4234548 -0.037549924 -0.1697154 -0.011766986 -0.124042965 -0.16493386 -0.84381676 -0.03695017 -0.31249902 0.3668319 -0.26911736 -0.78055984 -0.23222397 -0.4904831 -0.21122743 0.028622594 0.7850095 0.08608996 0.052646022 -0.03108969 0.07387292
271 -1.5471449 0.76486987 1.0946505 -0.4753155 -0.2854814 -0.14928734 -0.44813693 0.0011235228 -0.04800951 0.33700562 -0.22191396 -0.4179002 -0.17550063 -0.78339005 -0.35386622 -0.082447976 -0.10996079 0.48006213 0.38612095 0.08898773 0.037864294 0.27759767 -0.018137438 0.44705665 -0.3221129 0.41687033 -0.39198837 0.08083505 -0.012766299 -0.35948232 -0.26006123 0.04054738 -0.2518151 0.15596363 0.7378279 -0.16735637 0.3519263 -0.28227141 0.057766803 0.81364346 -0.37310007 -0.06842143 0.486482 0.4105709 -0.5182529 0.6538146 -0.38498178 0.29034182 0.2847816 0.68149024 -0.26091257 0.4395208 0.44719487 -0.14853089 0.24472702 -0.719886 0.38762435 0.06974501 0.13609143 0.2825598 -0.058443423 -0.28273487 -0.05944695 -0.19661328 -0.14807032 0.16893774 -0.50652 -0.2660873 -0.40573955 -0.29329738 -0.012060775 -0.43564573 -0.16264594 0.004938158 0.27868405 0.14607473 -0.4582767 0.025318593 -0.0050295214 0.3508188 -0.2274138 0.0754356 0.19977689 0.19373506 0.20068872 -0.6063694 -0.21085224 -0.57467175 0.42765412 0.31187233 0.06649541 -0.49017185 -0.30213964 0.40397295 0.46603802 0.010942606 0.27706712 0.015052386 0.28300062 -0.07814251 -0.4535733 0.3721948 0.47975868 -0.23341385 0.34213746 -0.19923456 -0.52766 0.4244575 -0.054429997 -0.08582057 -0.0065601864 -0.07637925 -0.16102865 -0.82280946 -0.07792845 -0.27277657 0.35131052 -0.23636399 -0.75294375 -0.21014507 -0.4959941 -0.24580546 -0.018885411 0.77536273 0.046500333 -0.0064969785 -0.027678233 0.12556787
274 -0.16683283 -0.3443002 0.48797318 0.09344242 0.74762976 -1.1536684 -0.5541236 -0.29084453 0.07162333 0.062648706 -0.67681265 -0.580245 0.067438066 0.058082018 -0.08733987 -0.07795918 0.24166049 0.61923766 0.56062376 -0.1590014 0.42949402 0.58717906 -0.5104604 -0.35128546 -0.083242804 -0.63312435 -0.844319 0.090539806 -0.2095403 -0.418977 -0.16338328 -0.67910475 0.2603047 0.24034168 0.59508836 -0.04972654 -0.581456 -0.04892976 0.028298028 -0.4363025 -0.35570255 -0.5291308 0.42740083 0.160974 -1.9217896 -0.23037583 0.73052543 -0.44142166 0.19005887 0.5591293 0.39355338 0.39616048 1.0025018 -0.48286006 -0.09661369 -0.36692443 0.2988927 0.63289696 -0.5273451 -0.11461551 -0.5101055 -0.28321674 0.1595487 0.6353217 0.16344823 0.21596485 -0.45193008 -0.6299825 -0.5256851 -0.36842498 -0.25329915 -0.3889275 -0.40233195 0.35094735 -0.013140178 -0.1939863 -1.5529858 -0.12807138 -0.51322997 0.6187357 0.36679128 0.8651885 -0.024768861 0.5989488 0.20722957 0.111389354 0.49985898 -0.1527463 -0.37787575 0.7527412 0.25406462 -1.1747016 0.31227258 -0.10770255 0.08567546 -1.1945876 -0.06937606 0.74226195 0.47942373 0.12805319 0.47989643 0.70194864 -0.21572688 -0.5774956 0.9073374 0.35284877 0.17966734 0.051084388 0.36537006 -0.42708048 0.221953 -1.3293068 -0.11368577 -1.0005245 -0.37750393 -0.6217855 -0.39451182 0.0048491065 -0.5939272 -0.04742378 -0.465148 -0.0484338 -0.08497342 -0.2795745 -0.2654839 0.2315282 0.034484457 1.1657348
275 -0.14942971 -0.3350613 0.47410026 0.078460366 0.7813765 -1.1646272 -0.58328176 -0.27990714 0.031949937 0.06473083 -0.7002211 -0.5480821 0.045700405 0.033445597 -0.10127105 -0.08273624 0.24891585 0.6230234 0.5555208 -0.16343132 0.4415065 0.562342 -0.47475934 -0.35466558 -0.097267136 -0.63071465 -0.8535613 0.078110054 -0.20282367 -0.40400952 -0.17705281 -0.6758189 0.2796249 0.24045329 0.5869376 -0.044560686 -0.56216985 -0.04568081 0.030757284 -0.4219529 -0.3338032 -0.49379453 0.41180137 0.17113928 -1.9588121 -0.25969613 0.70913017 -0.4300415 0.17293017 0.5543066 0.40088233 0.4201839 0.9775591 -0.47089386 -0.12018649 -0.37429613 0.30050385 0.6246052 -0.5302437 -0.09498094 -0.4913635 -0.28631312 0.18858366 0.66096467 0.17839603 0.22483431 -0.4421031 -0.57672924 -0.5509659 -0.35568616 -0.25610206 -0.38154575 -0.38532403 0.33462277 -0.010325933 -0.18778105 -1.5357349 -0.13892105 -0.520199 0.62945354 0.3858219 0.84534407 -0.035929643 0.6143988 0.21329078 0.09504652 0.4881476 -0.17545754 -0.34661883 0.7645174 0.2675572 -1.1497998 0.31134912 -0.095105276 0.09035233 -1.2023711 -0.029050542 0.7479265 0.4678613 0.15221526 0.50504255 0.68569106 -0.22267367 -0.5290059 0.9013889 0.36197752 0.22877246 0.08019569 0.34133065 -0.41160092 0.23857275 -1.2889911 -0.10697299 -1.0044209 -0.36668858 -0.62408364 -0.40336895 0.0015034107 -0.6075011 -0.032707345 -0.46651495 -0.07702911 -0.08040261 -0.2857188 -0.2698335 0.23609288 0.05742895 1.176245
58 -0.33831805 0.079436734 -0.37845984 0.921348 0.14968523 -0.0026826924 0.16144794 0.059167903 0.51215404 0.0905429 0.2006614 -0.5220175 0.19701523 0.34986505 -0.003595104 0.25452676 0.0061730286 1.0875373 0.018009817 0.4842736 0.25736555 0.07186929 -0.9652149 0.7444312 0.0024894902 0.48186877 -0.44378048 -0.3544689 -0.21517797 -0.39289713 -0.5816198 0.11598757 0.3623378 0.31775957 0.7960513 0.07552062 -0.0018890058 -0.52540606 0.47898346 0.12195348 -0.59761316 -0.6186994 0.6857244 0.3399771 -0.2615249 0.44777846 -0.0628997 -0.033744622 -0.06216192 -0.13354638 0.5051595 -0.23741497 0.64634126 -0.40137592 0.3934861 -0.6708636 0.1444404 0.065795384 0.028768906 -0.0861475 -0.61485744 -0.25991586 0.1954004 0.3296419 0.2951771 0.07535771 0.04427977 -0.12855037 0.07268442 -0.56438935 0.02659708 -0.42094386 0.06595983 0.97837555 0.07391736 0.22480595 -1.0937576 0.9157397 -0.2725565 -0.23093916 0.19667031 0.7926856 1.1038021 0.08750259 -0.16004378 -0.82064235 0.87433296 -0.7760518 -0.13846858 0.35069436 0.19288774 -0.46395004 -0.7401453 -0.07546404 0.047270987 -0.02484476 -0.30182037 0.6223791 -0.1999669 -0.19088274 -0.030050026 0.37326953 0.15089943 -0.7864052 0.10727802 -0.14786793 -0.09580916 -0.06678275 0.16509616 0.094436735 -0.033971902 -0.2662408 -0.19929796 -1.085846 0.6272813 -1.1174645 -0.24548553 -0.4901328 -0.7762073 -0.9593893 -0.8292903 0.19837265 0.73917407 0.104070224 0.32215405 0.028229479 -0.20659697 0.5686697
59 -0.4199903 0.10556531 -0.37212095 0.9021008 0.15625554 -0.0011254494 0.13533254 0.0669173 0.5071729 0.09941874 0.19930136 -0.52767605 0.21895996 0.40253255 0.0076969187 0.26183987 0.043477118 1.0759046 0.026468176 0.524863 0.28352788 0.0437071 -0.9364563 0.72090375 0.0075034387 0.47270086 -0.4235936 -0.34600046 -0.22126715 -0.38981026 -0.5668018 0.10290829 0.34416613 0.3452645 0.8119243 0.0620222 0.010043457 -0.50884664 0.48100907 0.12179064 -0.56858253 -0.5982268 0.68239903 0.3512398 -0.26582932 0.42613617 -0.08929357 -0.07101576 -0.076218344 -0.090345144 0.468394 -0.22744463 0.6332755 -0.35365048 0.36794132 -0.69663316 0.13179493 0.1051378 0.015348366 -0.08918106 -0.5869357 -0.29336974 0.19659927 0.3907776 0.27802345 0.070332035 0.041100375 -0.11402126 0.066790186 -0.582495 0.003204419 -0.42797652 0.0684751 0.9792828 0.09937966 0.19699362 -1.1381153 0.89182174 -0.3107203 -0.23950624 0.2371519 0.81603587 0.9807252 0.07632239 -0.18529272 -0.8022287 0.8727295 -0.75391656 -0.13251682 0.35309857 0.20032763 -0.43631834 -0.7669678 -0.045826737 0.034612466 0.013950147 -0.3022757 0.6289421 -0.19062194 -0.20393553 -0.06221831 0.40129274 0.14740656 -0.76706964 0.10686793 -0.15220426 -0.087424226 -0.0774346 0.100008406 0.038044497 -0.032457512 -0.27572882 -0.18259864 -1.0645192 0.6254899 -1.067293 -0.22319356 -0.5298403 -0.785319 -0.9719332 -0.786724 0.18314935 0.7231232 0.13623996 0.2790074 0.0014010221 -0.27068624 0.52415323
