402 128
51 0.012074388 -0.09739585 0.11711176 -0.031002305 0.0281661 -0.03203317 0.097301915 0.076339334 0.046364345 0.1258773 0.112006694 -0.021254234 -0.02347742 -0.017660465 0.022655811 0.0868442 -0.06715165 -0.0059489165 0.005153371 -0.046546645 0.023517247 -0.00337524 -0.06031395 0.09204822 0.05913495 -0.022676932 0.10153483 0.049184572 0.009887923 0.0799218 -0.047527116 0.05417488 0.07880669 0.045990504 0.007037313 0.14638557 0.08301831 0.011594136 0.033145506 0.075115085 -0.047159024 -0.09441456 -0.12671943 -0.018037055 0.030896652 0.021391686 0.0018070805 -0.06938328 -0.033630565 0.0072030164 -0.021167314 -0.031303264 -0.021951927 0.033957496 0.080862716 0.032579966 0.042214155 -0.07179161 0.06755886 0.0026511648 0.045252107 -0.046563502 -0.03966042 0.1150794 0.04419332 -0.0071953028 -0.13914374 -0.109020635 -0.13859461 0.10633426 -0.13337632 0.011029741 -0.07279136 0.0026368995 -0.034270603 -0.09590739 -0.054810114 0.045328338 0.019062892 0.044484563 0.0063521853 0.012945682 -0.09663216 0.05151587 -0.031843077 -0.10798443 0.048412666 0.067769855 0.08592448 -0.104698114 -0.048459914 -0.02182641 0.009746314 -0.059720535 -0.011240799 -0.12606785 0.0014153486 0.09296486 0.02105921 -0.10338241 0.058322787 -0.07513731 -0.12036371 -0.06661188 -0.0495267 -0.0044485703 -0.12832671 0.0027467841 0.01842469 -0.11311059 -0.070416264 0.021665484 0.07439815 0.010980903 0.07781693 -0.011039154 -0.05090631 0.07819177 -0.023669938 0.07336312 -1.689645e-05 0.05588497 -0.012954173 0.14333652 -0.032652624 -0.07589931 -0.06413325 -0.043624535
52 0.10730951 -0.038742457 0.08172557 -0.103752725 -0.11243277 -0.02691483 0.0008561708 0.034587733 0.14423206 -0.01629247 0.10679801 -0.10726082 -0.06514435 0.014728371 0.08199167 0.12830399 -0.083917044 -0.0047247894 0.053501666 -0.07844482 0.12570918 -0.055293866 0.055435315 -0.08044898 0.037422527 -0.13593647 -0.017296903 0.07725376 -0.118859105 0.016089497 0.1311705 0.0058249775 0.059822634 0.11897322 -0.028009264 0.0645699 -0.11368884 0.054475322 0.028616441 -0.044635218 0.032635853 0.040751845 0.11608919 0.057947703 0.0896508 -0.035794232 -0.059395436 -0.022073647 -0.11713546 0.09418367 0.076553136 0.11505346 -0.10845717 -0.11452174 0.009173913 -0.00092191604 0.06538331 -0.11433447 0.08083911 0.03232843 0.037740782 0.018610794 -0.027466329 0.037244413 -0.037310295 0.057445154 -0.048203275 0.011595525 -0.038776577 0.045213256 -0.12835345 -0.009518467 -0.011193206 -0.014472871 -0.024161968 -0.048886023 0.06137586 0.09916163 -0.05524861 0.039425183 -0.019514982 -0.11285448 -0.08431275 -0.07969644 0.019563684 -0.09638489 -0.013927995 0.040358994 -0.033078887 -0.044314194 -0.030430062 0.11634317 0.14315997 -0.09427012 -0.043565705 -0.0024620818 0.0327754 -0.0023532938 0.008733112 -0.12868087 0.060108695 -0.011617772 0.12143522 0.072951846 0.009266147 -0.06179903 0.07887831 0.06878992 -0.004425747 0.0035137942 0.04936268 0.051784217 -0.08594157 0.08345441 -0.11103237 0.0726092 0.012818336 -0.06796885 -0.10381207 -0.08114309 -0.099787205 0.08867236 -0.09486187 -0.0146188205 -0.049318217 -0.04524964 -0.097626984 -0.02610474
54 -0.0068820887 0.09595501 -0.022004195 -0.03920728 -0.036522623 -0.012141137 0.0004197682 -0.08264663 0.029448526 0.12507574 -0.1029157 0.027632171 -0.07304274 -0.024322845 0.12056448 0.0048822407 -0.029893612 -0.059241936 0.11335139 0.14169236 -0.055714063 0.047684323 -0.0016289456 -0.0045549558 -0.10145955 0.025569912 -0.10519282 0.0043146964 -0.096402444 -0.14436483 -0.04262269 -0.022275094 -0.031152459 -0.14428195 0.04010685 0.059988 0.053357426 -0.08909772 -0.12922098 -0.054872796 0.08120996 0.042580128 0.12209659 -0.01487096 -0.04420241 -0.032005243 -0.0081991255 0.07582228 0.031052042 0.049149618 0.034792874 0.0066082263 -0.08975575 -0.06286114 0.041915573 -0.10808468 0.06027662 -0.07408311 0.018827973 0.047095984 -0.09173858 -0.045639597 0.032502927 0.08185261 -0.027254816 -0.00070878014 0.08999551 -0.10171831 0.008938704 0.015010612 -0.015835015 -0.037905544 -0.041552685 0.036840692 0.06416863 -0.04994511 0.05225049 -0.012548223 -0.08796645 0.06324494 0.09032104 -0.114673674 0.0126625495 -0.008021107 0.03905786 -0.0027129566 0.10096671 -0.06396201 -0.15393831 0.11476526 -0.13602647 -0.093634054 -0.0007699961 0.12659737 -0.13001448 0.062314738 0.08466196 0.0967976 0.054075133 0.0002710823 0.021737833 0.055029247 -0.055850517 0.011768825 0.07708936 0.05611031 -0.003112904 -0.0037111833 -0.023820037 0.076643124 0.092332095 -0.010896481 -0.16516016 0.01725973 -0.12593095 0.050520964 0.110506244 -0.0437348 0.028426643 0.09800716 -0.09459532 0.09556868 0.017179672 0.066495985 0.0957493 -0.06645318 -0.0029403053 -0.03165948
55 0.06491466 0.03096574 -0.032373298 0.04698135 -0.044329006 0.061840415 0.05353426 -0.05239834 -0.04887578 -0.07549265 0.049494803 0.02824641 0.05398083 -0.0075265784 -0.122969046 0.10294828 0.005262854 0.052743353 0.045657776 -0.016649013 -0.039281327 0.051357947 0.02887542 -0.10554615 -0.09126121 -0.024372488 0.04064018 0.038430043 0.004894013 -0.08277232 -0.09605448 -0.028729156 0.035652854 -0.009726746 -0.13130526 -0.026653053 0.07911622 -0.11792739 0.0031492498 0.03357117 0.05307689 -0.026597766 0.04564858 0.04368073 -0.09468487 -0.046543296 -0.0031685033 0.02123752 0.027353255 0.020200081 0.05804907 0.0592272 -0.06098679 0.06197352 -0.08091638 -0.022064399 0.030696938 -0.13264093 -0.019303968 -0.008342192 -0.058139235 0.006293006 -0.06382941 0.008017684 0.051023323 -0.020750094 0.083372004 -0.1473749 -0.05086202 -0.0107938 0.025886081 -0.026090434 -0.051452924 0.06561885 0.07062738 -0.03084888 0.09692985 -0.012144878 -0.10858906 -0.0014532204 0.054814562 -0.054396447 0.061672658 -0.01028487 -0.036618814 0.07306234 0.021069983 -0.12917225 -0.030564232 -0.046676576 -0.020144243 -0.040744457 0.11903208 0.009412348 -0.011329558 -0.034302574 0.022376362 -0.08487468 0.071250066 -0.07747015 -0.01583078 -0.07276694 0.029336521 0.022749439 0.03312761 -0.033634294 0.04111533 0.046124537 -0.09835029 -0.06033812 -0.032332905 -0.04127266 -0.072343804 -0.027246168 -0.12945314 0.08117466 -0.01837698 -0.018166278 0.022662738 0.058095064 0.06493487 0.064660445 0.090770125 0.1475375 0.068969496 0.019439718 0.06323581 0.0009391265
138 0.12494261 -0.06484451 -0.013304178 -0.09649089 -0.017448742 0.00877526 0.10593667 0.042279765 0.009583875 -0.0007995439 -0.022445716 -0.012394493 -0.00040018317 -0.063407645 0.09831021 -0.008137064 0.105813265 -0.063144594 0.005246427 -0.030128954 -0.10581884 0.07330413 -0.0101525625 -0.067433305 0.10263284 -0.03248217 -0.0012689866 0.005598877 -0.10239657 0.0497518 0.028464293 -0.02021524 -0.041706007 0.031768154 -0.029574553 0.03524269 0.036878765 -0.042495303 -0.03762891 0.059797097 -0.054749396 -0.04609633 -0.017227247 0.022312805 -0.077304885 -0.040088113 -0.0062409313 -0.07873503 0.022294557 0.056205746 0.050078586 -0.12472744 0.015674515 0.042146772 -0.05274037 -0.09105833 0.0647266 -0.027727572 -0.07528249 -0.100357845 -0.03261243 -0.014437707 0.021365408 -0.0130769815 0.029310701 -0.0702464 -0.0073957774 0.0061005447 -0.043363202 0.025518483 0.035607032 -0.12105325 0.05743732 0.043461088 0.009128769 -0.13317426 -0.090124905 -0.010298102 0.10872926 0.012586812 0.017726963 -0.045155227 -0.11895102 -0.11027949 0.068598956 -0.0035167674 0.043657616 -0.023680707 0.046112426 -0.0017153898 -0.08472024 0.02388755 0.0011596303 0.049862884 -0.12495561 -0.050230235 -0.028478201 -0.037057895 -0.019703645 -0.028190147 -0.14637777 0.050287303 -0.008452917 0.068052016 -0.15817699 0.013192095 -0.060625095 0.0058473377 0.0674718 0.04724375 -0.0038670162 0.12592033 0.050066505 0.1377831 0.00994321 0.008292253 0.15817806 0.06254923 -0.026705263 -0.05623202 0.080749094 0.043248348 0.044941727 0.06779255 -0.06853969 0.0053988085 0.07829404 -0.092958435
139 0.020236053 -0.11306315 -0.103011824 -0.02642656 0.03659143 0.14777465 -0.103769675 -0.060929477 -0.025366995 -0.056690928 -0.109849 -0.03143336 -0.033289626 0.12447697 0.1522732 -0.009103616 0.04182072 -0.03609451 0.015387203 -0.0627672 0.109310806 0.12676194 0.08822887 0.022974966 0.052665662 0.028782628 0.06021764 0.030807279 0.04799531 -0.06529079 -0.11565679 -0.026371738 -0.1021522 -0.024464069 -0.016300827 0.0020649189 -0.009543301 -0.15076753 0.095871866 0.061254505 0.0283573 -0.059747737 0.016793132 0.073278606 -0.08837026 0.056207713 -0.03242705 0.002527768 -0.040943533 -0.13664967 0.1269522 -0.13836035 -0.06238512 -0.08039774 -0.08263223 -0.046952393 0.028353227 0.15046644 -0.03496773 0.0037544216 -0.107867524 0.07500335 -0.04788396 0.13743877 -0.07784376 -0.042749666 0.003642431 0.036475997 -0.063850164 0.09361127 -0.050119635 0.005589388 -0.06550886 0.06520347 -0.10682256 -0.16293477 0.047206316 0.017546395 0.0526695 0.118130416 -0.03480714 -0.07224133 0.097270936 -0.047593407 0.05567175 0.028836358 0.005440945 0.0069324207 -0.028028242 -0.05734171 -0.07929287 -0.060573295 0.0116847055 0.043861978 0.032153893 -0.005779325 -0.021815162 -0.12500916 0.0066357506 -0.03558536 -0.110941276 -0.090930395 -0.01691539 -0.0045486935 -0.112316534 0.049851708 -0.077132456 -0.079517476 -0.035886772 -0.019426707 -0.031285666 0.08965905 0.1260965 0.09573429 0.058891915 0.039799996 -0.026519446 0.035359673 -0.054802183 -0.043911718 0.041785255 0.111184366 0.018927487 -0.073949575 0.026996013 -0.008731408 -0.053239234 -0.11170004
140 -0.007005727 -0.08846447 -0.06780997 -0.07856211 0.09637483 0.005319849 -0.14187405 0.11984425 0.14109607 0.12213388 -0.15016569 -0.071658224 -0.09129892 0.089855894 0.13076298 0.026289962 -0.05422964 -0.089096084 -0.06303158 -0.037004627 0.05768437 0.028647626 0.038831856 0.0020388088 0.114445336 0.118209064 -0.015247237 -0.057191767 -0.043407723 -0.092364155 0.11372108 -0.00043610993 -0.022443593 -0.035614133 -0.014433536 0.10958648 -0.0057386747 -0.003787411 -0.100962415 -0.006712906 -0.11647916 0.042606354 -0.01476621 0.050116025 -0.027860215 0.07949637 -0.03896356 -0.069190584 0.0155399 0.1320322 0.069873184 -0.0027087366 -0.07383136 -0.005075281 0.0040293583 0.11639695 0.017169598 -0.0073819263 -0.055314496 0.07307654 -0.019544743 0.059662398 0.05029141 0.054495234 0.026836049 -0.013909443 0.002625467 0.009463359 -0.0942112 0.011058971 0.116181746 -0.12994802 0.024286292 0.030332947 0.05226042 0.012583934 -0.005387554 0.06542154 -0.03216163 -0.045926787 -0.0007168885 0.07236078 -0.05595542 0.030552955 0.049228568 0.07229381 0.015810711 -0.078392535 -0.109585434 0.05093923 0.06401545 -0.019042995 0.033670943 -0.016053116 -0.059068833 0.10895116 -0.08860153 0.03591484 0.06927302 -0.03568689 -0.06228901 -0.040461686 -0.12104032 0.055403713 -0.024923518 -0.10884124 -0.03517194 -0.10393963 -0.020958696 0.077671796 -0.1169834 -0.023540886 -0.002903307 0.00036013758 -0.121217996 -0.055352442 0.04107573 0.0054758573 -0.087050445 -0.051858477 -0.035732113 0.044202007 -0.00284095 -0.061535556 0.0033013208 0.017737089 -0.007777155 -0.04463337
141 0.054564867 -0.12502562 -0.00059855334 -0.03479291 -0.017179076 0.0743465 0.0054171025 0.061720572 0.049768783 0.052915953 -0.027053213 0.060949337 0.11964841 0.016652845 0.005151656 -0.036123063 0.042150956 0.03804367 -0.08634031 -0.04404427 -0.04039496 -0.08175415 0.06632528 -0.081369825 -0.085165 -0.01408172 -0.019319754 0.020279633 -0.029714925 0.14973484 -0.034292966 -0.09106574 0.029766299 0.016545516 0.007326325 0.038257852 0.03766536 -0.020479249 0.009371308 -0.0030473052 0.07609442 0.021187777 -0.012709146 0.07873372 0.12492855 -0.032586392 -0.076854035 -0.0061318013 -0.103106335 0.061154615 -0.045754325 -0.15556484 0.048797585 0.013036323 -0.040603556 0.07607103 0.0556188 0.06622168 0.049884543 -0.09790324 0.090746894 -0.083662815 0.09673759 -0.018286875 -0.022032076 -0.015290045 -0.022800883 -0.00022691925 0.062660754 0.10031603 0.06626672 -0.018721245 0.11830041 0.053568948 0.03042342 -0.093461245 0.03319444 0.047897723 0.031951547 0.0023761122 -0.01086053 -0.027389117 -0.10501093 -0.046207853 0.03861648 0.089134276 0.05735047 -0.101950124 0.06267328 -0.11113508 0.016386386 0.021804992 0.04540749 0.098755404 -0.06388051 0.01397711 -0.020628836 0.0031811977 -0.09550286 -0.107188016 -0.03320791 0.06085382 0.053850193 0.06750946 0.055693973 0.026274508 0.029904803 0.039603043 0.026098143 -0.09175201 -0.03448156 0.056739554 -0.06531339 0.08861528 0.09561095 -0.111184 -0.029243186 0.027868144 0.0877455 -0.10104142 0.0338458 0.04107274 0.0647661 -0.014759365 -0.00015760137 0.004688097 -0.06268122 -0.04213109
145 -0.016392052 -0.036228072 -0.032772467 0.1538571 -0.03604505 -0.11104488 -0.040018268 -0.010429144 -0.019774094 -0.036217973 0.031736203 -0.0024674316 0.01319502 -0.037727073 0.09790753 0.019168185 -0.03225189 -0.06772115 0.00026967525 -0.07826367 0.13387294 -0.0025002474 0.117228575 -0.113627225 0.11344788 -0.050319023 -0.0042992434 0.004164267 0.05469435 -0.032701936 -0.12939367 0.15076344 -0.025069974 0.051074907 -0.060632993 0.071080215 -0.024656527 0.10629398 -0.12722504 -0.027553314 -0.010057247 0.15264761 -0.038100522 0.10702255 0.11958574 -0.06337456 -0.03170737 0.07465622 -0.11038709 -0.004319404 0.039827906 0.039979488 0.12125043 -0.03567174 -0.10135476 0.077613525 -0.07349426 -0.01263135 0.059026808 0.030179538 -0.00032806842 -0.007046673 0.024006167 0.060237072 -0.031527158 0.002241475 -0.039593253 -0.10346751 0.07674238 0.019253211 0.009211146 -0.031030757 0.07742585 -0.120378785 -0.035595514 -0.0015651425 0.012494749 0.1171483 0.065325 -0.017262325 -0.008582135 0.11835437 0.039042994 0.059749745 -0.013852525 0.0123801585 -0.025316007 -0.049041085 0.008130445 -0.1347389 -0.02695177 -0.066469476 0.011249956 -0.06428772 0.05570507 -0.010587751 0.02674976 0.090037405 0.041217417 0.04901337 0.002846117 0.030387463 -0.048376344 -0.10153646 0.07888239 -0.13088252 0.001404559 -0.024278048 0.11603192 0.085491315 -0.11010513 0.06452482 0.0034527252 -0.13460952 0.07956695 -0.07413575 0.0054185684 -0.014404516 -0.11278398 0.04646495 -0.05573575 -0.019956872 0.049983203 0.06106744 -0.07813928 0.025523715 -0.07189467 -0.016665366
146 0.063370876 -0.049732357 -0.10353852 -0.08820133 0.03660284 -0.060973916 -0.03166889 -0.11823625 0.035187665 -0.0005932721 0.058661997 -0.036969606 -0.045136526 0.01607717 0.043150324 -0.06310512 0.023389205 -0.14145993 0.041919604 -0.073136896 0.040196944 -0.12053271 0.045868304 -0.019948421 -0.041342545 -0.107177526 -0.036896486 -0.08871466 0.0059444564 0.07382647 0.040002182 0.12901084 0.019759329 0.10647811 -0.028791005 0.041313343 -0.104325786 0.044580266 -0.03564992 0.00012467534 0.059066013 -0.014341349 -0.045340978 1.1770957e-05 -0.040712636 -0.054630645 0.12868881 -0.09149814 0.007983051 0.05904603 -0.06845638 0.058335025 -0.12319961 -0.053508326 -0.09163919 -0.07133759 -0.069873236 0.0874779 0.040075235 -0.053970177 0.0060769566 -0.1421394 -0.051278327 0.003887806 -0.035325527 -0.054702453 0.11195456 0.085214436 0.1454198 -0.13882075 -0.0807709 0.0024174885 0.07303098 0.08382549 -0.04411722 -0.1390547 0.00707079 0.056105226 0.0005603879 -0.032321695 0.05140401 -0.050978787 0.087492526 0.08349566 0.06801561 0.05203053 0.08985408 -0.0030143582 -0.06507523 -0.051604543 0.011638414 -0.12862903 -0.04004263 0.107680246 0.1488827 0.031097459 0.11714448 0.015704773 0.038092364 0.029738618 0.012252627 8.8659785e-05 -0.09820741 -0.098002076 0.090923324 0.015334852 -0.09850811 -0.1418114 -0.07663685 0.040541165 0.051992152 0.06953373 -0.067735 0.07981904 0.02780221 -0.009128613 -0.058035918 0.12939693 -0.06033996 0.014339734 0.025293542 -0.0073650624 0.030872788 0.0465472 0.041183703 0.07066302 0.005534176 0.1253949
147 -0.05694843 0.04162137 -0.1301099 0.06186252 -0.04558428 -0.035214458 0.0063735005 -0.05928743 0.030864365 0.060115743 -0.02294074 -0.052718308 -0.022908244 0.1270519 0.09841301 -0.02077506 0.028617255 -0.103481404 0.017083058 -0.028535504 0.029580507 0.10321371 0.1360685 -0.004737449 0.013938901 -0.029462662 0.05605848 -0.0018800356 0.04534126 -0.0396917 0.03396145 0.13835965 0.042950563 -0.04845846 -0.09241377 -0.12239688 0.1037361 0.035266135 -0.038582243 0.13131857 -0.10783643 0.018422436 -0.0631272 0.07024049 0.010550607 -0.09935877 -0.095209345 0.012388755 -0.0077651264 -0.019177034 -0.06652613 0.02407643 -0.025557758 0.09577608 -0.016985785 -0.09191017 0.04159128 0.0469878 0.036263872 0.029471163 0.047711365 -0.040541545 0.06810481 0.05949745 0.068007424 0.107413344 0.104301326 -0.006531936 0.07348583 -0.0865826 -0.091850765 0.07654079 0.03357218 -0.023535764 -0.010784154 -0.010910813 0.14456268 0.006087997 0.122098885 -0.114408724 -0.029448563 -0.04812331 0.0497748 0.061327294 0.08920275 -0.038638067 0.053927403 0.025928322 0.05964824 -0.06320783 -0.01163335 -0.13368241 -0.07966679 -0.009793296 0.01449835 0.015496094 0.013667136 -0.06135644 -0.014638815 0.0049557434 -0.05860323 0.016507592 -0.05366616 -0.14649475 0.087646656 0.06288402 -0.040258173 0.049634468 0.02540899 0.020261487 0.07329645 0.07724538 0.0043287366 0.100129426 0.060501628 0.06504929 0.0052954745 0.035865318 -0.09100353 -0.07541882 -0.011180977 0.011788338 0.02825321 0.0558893 0.1021607 0.030756228 0.05203444 0.06775101
148 0.035456203 -0.04918195 -0.07149344 0.12573323 -0.0042839395 -0.058882665 -0.013432226 -0.12172416 -0.03610831 0.06484047 0.026261732 -0.054166857 -0.06521155 -0.004888934 0.088645145 0.0056136013 0.025176156 -0.07084255 -0.02129297 -0.035032466 0.033921372 -0.043711472 -0.00023526809 -0.018205365 0.03797403 -0.15610786 -0.04594308 -0.029459957 0.019360954 -0.003791752 -0.012429719 0.07264652 0.010596091 0.015934898 -0.060445175 -0.031067112 -0.09400874 0.0028474438 -0.098032445 -0.04296343 -0.0033603555 0.049090076 -0.006793144 -0.012234017 -0.021284522 -0.1039417 -0.09597802 -0.017200269 -0.058282796 0.0035365792 0.06050146 -0.017642085 -0.090195954 -0.052407075 -0.03670468 -0.0036027194 -0.06348991 -0.020528635 0.064732924 0.08017283 -0.038248487 -0.011703269 0.02135482 -0.020715153 0.025717774 0.07197211 -0.11488179 0.0330269 0.079685785 0.031343263 -0.046358697 -0.12656556 0.016899096 0.12510148 0.057240516 0.053386237 -0.07746507 0.053074498 0.0627466 0.10052408 -0.07396594 0.13771828 -0.051500767 0.045413096 -0.06423633 0.022200726 0.034039658 -0.10588926 -0.082213014 -0.03790317 -0.020780616 0.04075328 -0.11653543 -0.054766547 0.029652234 0.0051461295 0.08776412 0.056640003 0.0615525 0.064609766 -0.004800948 0.041457865 0.06138334 -0.12609394 -0.0220542 -0.0003248038 0.10888332 0.07454317 0.05650247 -0.01238784 -0.055877354 0.023455886 0.020121608 0.05034721 0.048462898 0.0820082 0.1171466 0.023443721 -0.10848028 -0.05529607 -0.006462731 0.049239293 0.0043102424 0.02268332 -0.1402641 0.08779526 -0.071489 -0.10966454
152 0.018646667 0.13266952 0.104608096 -0.0794459 -0.018283967 0.028019248 0.0004328906 -0.0064974795 0.017447036 0.07722465 -0.033468716 -0.059939526 -0.13025916 -0.048000075 -0.08686461 -0.03395877 0.065944605 -0.13106936 -0.015044391 -0.04773811 0.056264114 0.026532393 -0.103097804 0.040704448 -0.07769543 -0.014826427 0.0057837004 -0.08689713 0.01946974 -0.025513122 -0.120218284 0.13746904 -0.08880491 0.05513657 -0.09307444 -0.028867407 -0.0388107 0.024991611 -0.026838606 -0.0015218268 -0.002181294 0.033458572 -0.04468264 0.019786106 -0.0043389476 0.08143691 0.028121382 0.0777141 0.026208412 0.072005324 0.11390201 -0.10865085 0.046970222 0.09411193 0.059662767 0.035737656 0.12732455 -0.085120134 -0.04157542 0.06822119 0.042329613 0.048625123 -0.04299306 0.08028388 0.06957802 0.06293153 0.0087605035 -0.07376641 0.061139207 0.0123241935 0.06823502 0.047659613 0.06574487 -0.032441456 -0.047923956 0.022325808 0.10349054 -0.041702736 0.07581722 -0.021904659 0.033078846 0.04400374 0.06115424 0.070899166 0.024178522 -0.12312876 0.07768574 -0.010466636 0.048586015 0.02508258 0.028975315 -0.12080152 -0.092955425 -0.046604414 -0.06655293 -0.030342514 -0.09190237 -0.0844637 0.052766565 0.06365952 0.0477934 -0.05549948 -0.018329358 -0.1072252 -0.009886366 0.008098233 -0.006714758 0.05756163 0.059900865 0.099470116 0.04181958 -0.09837002 0.053973887 0.05114564 0.07266341 0.037195314 0.05341699 -0.0255301 0.03436253 -0.025380543 -0.011024377 -0.004874949 -0.00017521787 0.1412153 -0.034336407 0.09484029 0.045653373 0.008907278
153 -0.008294996 -0.0030829962 0.016495986 -0.02324216 0.051016998 -0.08633263 0.09596799 0.0148832295 0.072739914 -0.01649349 -0.05044745 -0.0007822113 -0.06967366 0.10327334 0.027551841 -0.079405524 0.046198055 0.07929063 0.058808796 0.14846979 -0.09575139 0.078538164 -0.052271385 -0.0015403768 0.014269273 0.022801753 0.008242018 -0.099005744 0.028341535 0.08621057 -0.07466133 0.034506682 0.029427825 0.043850496 -0.004945218 0.0017669194 -0.0031829572 0.04155345 0.050536666 0.033826306 0.020749506 0.047958873 -0.079034016 0.0771556 -0.05003921 -0.023085672 -0.037291843 -0.14287692 -0.13000056 0.12031862 0.018546645 0.038361695 -0.037802238 -0.014116119 0.057181053 0.088046096 0.0043731676 0.027582616 0.13326168 0.004909305 0.013494035 0.00403881 -0.014531596 -0.019349767 0.1102768 0.060955916 0.019404173 0.043486543 0.15545897 0.009649383 0.07453751 -0.0051647467 0.08620331 -0.036728024 0.014825751 0.019104587 0.10366504 0.059118118 0.027049968 -0.015795933 -0.03772465 0.005356215 -0.016833672 0.008183593 0.026108634 0.03257369 -0.012883111 -0.039186675 -0.089653604 0.00866329 0.03556125 0.03181557 -0.13690458 0.052584 0.070447676 -0.10125081 0.018588558 0.07850002 0.049746852 0.03958854 -0.0560451 -0.04978066 0.13969028 0.10955348 -0.002711167 0.061042342 0.036514726 0.09953664 0.033702057 -0.0121278465 0.045958497 -0.14196716 0.026031338 -0.045059852 -0.0196996 0.10888951 -0.025226446 0.05933177 -0.059114754 -0.098918185 0.0046612155 0.058560055 0.043106526 -0.023908058 0.061826266 0.10403235 0.0762206 -0.021565627
154 0.016215617 0.009721533 0.038962755 0.08490252 0.009706169 -0.053681377 0.14109555 0.031920094 -0.0013445942 -0.038099565 -0.10064064 0.108294055 -0.0028921945 0.024475586 -0.05146027 -0.12410509 0.14963777 -0.092849575 0.009312079 0.12186327 -0.049509026 -0.06470326 0.030921873 0.0012814314 -0.00877417 -0.07633787 -0.045385316 -0.061478842 0.06275116 -0.018163761 -0.074296154 -0.061382435 -0.10046883 -0.11793651 -0.14639838 0.028096719 0.015827622 -0.011704724 0.10203696 0.13779704 -0.061771784 -0.011542746 0.009293493 0.04095471 0.048861563 -0.023187093 0.07842503 0.013861228 -0.0109702675 -0.0044239503 0.06770383 -0.01906365 -0.100691736 -0.03838513 -0.015850754 -0.029023988 0.015932027 -0.0026466588 -0.10928928 -0.02587676 0.121331096 -0.02714666 0.055201534 -0.045463264 0.07130976 -0.00013776557 0.04299825 0.048946045 0.053317722 -0.06269974 0.042202897 0.0812492 -0.066955715 -0.020345842 0.018944096 0.035055395 0.03334758 -0.12895146 -0.055549107 -0.046658337 -0.07618003 0.01835108 -0.02293646 0.08437651 0.1056157 -0.024912996 -0.095365204 -0.0008608954 0.0027917004 0.13226871 0.020520194 -0.0024158703 -0.09782564 0.13013645 0.06780445 0.07362521 -0.12066832 0.16040587 0.116876364 -0.0070276493 -0.15929872 0.007906137 -0.026266051 0.00465878 -0.011149639 -0.017206468 0.006819071 0.055564098 -0.03486563 -0.096829034 0.049888633 -0.078295805 -0.05570118 -0.011131677 -0.122828715 0.070679836 -0.0573637 0.034857217 0.045989733 0.001729513 -0.08083359 -0.042077877 0.117170766 -0.063132845 0.011089817 -0.039784107 -0.0003378309 -0.1103837
165 0.021294719 0.038792223 -0.058778957 -0.028637122 -0.08280685 -0.0075763077 0.007924568 0.019052612 0.02086306 -0.08457205 0.041596297 -0.03485206 0.026798137 0.042171847 0.09853371 -0.02189053 0.0898193 0.029309824 -0.026553838 0.15305191 0.0031880257 0.059067205 0.11210368 -0.012923667 -0.08222729 0.011760842 0.027128533 0.030813428 -0.0790051 0.07286748 0.100524105 0.029293086 -0.032082364 -0.058839787 -0.113979496 -0.14057009 0.07587478 -0.0040979995 -0.011771029 -0.10159048 0.03298554 0.04843609 0.08959375 0.014065781 -0.13018513 -0.049450107 -0.009545335 0.005842565 0.009039704 0.06616412 -0.035094563 0.0030155652 -0.11498421 0.14593796 0.0034343859 0.12847851 -0.04396805 0.11358704 -0.04210696 0.08071458 -0.012677988 -0.032743476 0.04727949 -0.09781315 0.030598497 0.0017742799 -0.028298488 -0.10106912 0.014689265 -0.0446506 0.011840153 0.043930374 0.028896274 -0.0618891 0.005619396 0.023087721 -0.055297524 -0.044060465 0.013958503 0.049339116 -0.03662816 -0.009836442 -0.031198867 0.033007182 -0.0069512804 0.0033158795 -0.024833905 -0.11491111 -0.09188147 -0.017794332 -0.0077256253 0.07008836 -0.035195384 0.14183041 -0.013450036 0.1370262 0.007009744 -0.052840684 0.06485624 0.017274579 -0.047985684 -0.095478624 0.03600157 -0.009160145 -0.0137112485 -0.102985226 0.070816405 -0.03872082 -0.01627211 0.17079853 0.014954873 -0.14795248 0.04534505 0.012360942 -0.030727858 0.02923319 -0.0020012143 0.06932267 0.0019614613 0.015441314 0.0020025603 0.050414354 -0.0147934705 -0.10488913 0.049363714 0.09345674 -0.008001512 0.04569133
166 0.0805597 0.0153402975 -0.028740106 0.049962036 0.023695536 -0.037118 0.02173764 -0.05547416 0.048946723 0.024200264 0.08942809 -0.10035987 -0.020866765 0.10681484 -0.0734123 -0.038157027 0.028412951 -0.053023726 0.01243799 0.117706366 -0.10657814 -0.11500671 -0.108546205 -0.09140529 -0.04917398 0.088992916 0.004875334 0.03922801 -0.0075869006 -0.004860779 -0.008834438 -0.01036843 -0.030855084 -0.06024077 -0.05161503 0.043861993 -0.0008130569 -0.06350267 0.07742172 -0.076645084 -0.10504742 0.07550743 -0.0941331 -0.063550696 0.08424864 0.091707945 -0.0060532386 0.021734506 0.04944038 -0.050872527 0.034130804 0.025029179 0.0056170886 0.13610275 0.005229836 0.03618602 0.04671185 0.018358527 -0.016015371 -0.0035236534 -0.045987487 -0.056993634 -0.016314488 0.003081907 -0.056031812 0.010808569 0.026323197 -0.018890882 0.064025976 0.048290145 0.0527481 -0.09487708 -0.08300318 -0.022538278 0.04122778 -0.05774809 0.0018142172 0.004694366 -0.067102104 0.0014547243 -0.023700478 0.048830554 0.10151732 -0.0067350864 -0.100147106 -0.029167326 -0.11966918 0.06598584 0.03879548 -0.075496785 -0.01857135 0.054476548 -0.12389566 0.037432875 0.016724106 0.02463576 -0.08717868 0.010364672 0.11035316 0.0025776657 -0.05452141 0.018176548 -0.043952886 -0.05817533 0.10935168 -0.02998872 0.07730504 -0.067275785 0.015337155 0.10921516 0.059069607 -0.008183579 0.06290772 -0.07763995 -0.0038585141 0.009712252 -0.018643396 0.004803864 0.01041769 -0.036882255 -0.042213988 -0.043731246 -0.0106548695 -0.09869408 -0.049280204 -0.014037969 -0.0038397084 0.072423
169 0.048937213 0.08255099 -0.00857936 0.016723543 -0.01587219 0.036327958 0.016244778 0.011756017 -0.05889182 0.015940757 -0.08651483 0.0052581653 -0.0730777 -0.12123742 -0.056575388 -0.027983721 0.09977221 0.059614196 0.13518097 0.108144544 -0.023471871 -0.0049138456 0.124071315 0.13711536 -0.05905368 0.06794004 -0.027008355 -0.059364494 -0.014568849 -0.069186665 -0.11233764 0.040484287 0.08402785 0.085711606 0.018852873 -0.08301592 -0.040837895 0.10415685 0.051520042 -0.1052879 0.11327992 0.1401203 -0.004767099 0.025707379 -0.08356627 -0.010494769 0.09390252 -0.0022596123 0.07477954 -0.013879136 -0.1110837 -0.09176562 -0.014502974 -0.006305875 -0.1083403 0.09429202 0.07556843 -0.08262751 -0.0192408 -0.0056851143 0.13103773 0.028342208 0.05301881 -0.058316797 0.07405145 0.082441226 0.026741594 -0.093960635 0.042012483 -0.076651 0.07266905 0.03520807 0.00055665016 -0.11437294 -0.09794582 0.083226085 0.017951116 0.00090417825 -0.1291161 -0.11905928 0.06761295 0.03957931 0.05544415 -0.073623896 0.081891604 -0.033069137 0.017094808 -0.01657711 0.09315603 -0.076223195 -0.036578912 0.02133127 0.003222616 -0.11544674 -0.061659966 -0.0050196773 0.050183866 -0.06652148 0.004310793 0.026610777 0.08403487 -0.03941671 0.012500793 -0.08818242 -0.029154422 -0.14119284 -0.085036576 0.08153354 0.074934304 -0.015585192 -0.07806298 0.026762236 -0.031110225 -0.024153836 0.11863766 -0.023456473 -0.08196954 0.0023167115 -0.030134434 -0.039573774 0.07384814 -0.024775483 0.04952806 -0.031278655 -0.005081721 -0.14121787 -0.103423364 -0.04172432
170 0.009349847 0.06783438 0.055763 0.01505833 -0.040387843 -0.09787324 -0.037143473 -0.010659308 -0.13531666 0.054386836 -0.07302672 0.041817084 0.08805949 0.021459239 0.06536665 0.018556008 0.07919675 0.0016689274 0.03713215 0.11954323 0.13261284 0.043079194 -0.025099533 -0.033617027 0.0032299506 -0.12114194 0.05123963 0.022919735 0.005874455 -0.034242906 -0.019006038 0.11907092 0.07190191 -0.024338394 0.0042016283 0.026829965 0.11115789 -0.09096548 -0.065625235 0.036346633 -0.028320502 0.016867815 -0.07234025 -0.0031049727 -0.022737367 0.03408647 -0.033622883 -0.08520864 -0.008861556 -0.07212909 -0.060324963 0.015898084 0.060531408 -0.067120455 0.029378114 -0.013280151 -0.021505503 -0.0433892 -0.027837988 0.085996516 0.061781853 0.03344897 -0.0035658453 0.043297924 0.115105875 0.036053456 -0.09913465 0.0038108057 -0.017628698 0.12098695 0.08305078 0.064766884 -0.049750775 -0.069656655 -0.076417 0.03241007 0.06646999 0.07923228 -0.049324725 0.11652879 0.04740881 -0.034453716 0.0016416048 -0.030939652 0.03752971 -0.11029745 -0.05027496 -0.016595377 0.0026726879 0.057963997 -0.09796156 -0.046568327 -0.16311435 -0.047227893 0.1543063 0.068797074 0.059497684 -0.10236784 0.013889287 -0.07124426 0.028775075 0.052305132 0.01792793 0.08945804 -0.04825849 0.055806443 -0.11492576 0.080398396 0.0100801615 0.09503228 0.09504985 -0.0049805213 0.116815254 -0.0490873 0.024859494 0.055289198 -0.0026990771 0.15244432 0.07985715 -0.036808703 -0.019988004 -0.09385735 0.09752092 0.09502076 0.031399217 -0.09151065 0.10064844 -0.021373756
171 0.040337533 -0.11760127 -0.02790308 0.07731299 0.01815069 -0.017502269 0.079388626 -0.0073053455 0.010916307 0.05052545 -0.006675018 0.07353478 0.10882124 -0.06456495 0.004052754 -0.029653087 0.0023213024 0.038695663 -0.025861053 -0.02938408 -0.0015375412 -0.06852077 -0.08011881 -0.1193324 0.020494256 -0.019874895 0.0293044 0.025113199 0.07879557 0.046665907 0.039953046 0.017452491 0.01831682 -0.103851534 -0.077678196 -0.05502059 0.10237441 -0.033183612 0.038861424 0.037622377 -0.011988268 0.07058875 -0.060409904 0.015524299 0.029180244 -0.036078867 0.029449 -0.11535896 0.10094451 -0.004870363 -0.09323893 0.07731959 0.1516149 -0.13905425 -0.06430251 0.0059735077 -0.116388865 -0.010626395 0.00028584717 -0.039509088 0.05118835 0.017786445 0.08852789 0.13750367 -0.025074009 0.030063365 0.055562798 -0.096732154 -0.05094356 0.05841974 0.032801628 -0.054043107 0.14198062 -0.04708126 0.013679915 0.039897967 -0.042653177 0.024347363 -0.021620069 0.123961814 0.022122027 -0.0063984273 0.08776229 -0.052628692 -0.11217394 0.053942554 -0.0921949 0.103020184 0.07393405 0.006112669 0.048877224 0.058793254 0.054037556 0.011979211 0.04570589 0.07544718 0.06981501 0.02801009 0.012646423 0.028278315 0.007097832 0.120820746 0.023414927 0.0054761753 0.05344967 -0.008557758 0.052698605 -0.03821565 -0.04636656 -0.05418695 -0.067949116 0.09998679 -0.027612744 0.06960258 0.034583587 0.014009351 -0.036424413 0.02552854 0.051329374 -0.06718331 -0.02401258 -0.003298617 0.0489898 -0.11292518 -0.02776311 -0.07502037 0.05541426 -0.04820882
172 0.0011638409 -0.030189352 -0.038907234 0.063277505 0.081545524 -0.09520467 -0.015511491 -0.008728106 -0.021968534 -0.06533917 -0.0103613725 0.112314135 0.13064802 -0.02519946 -0.011639 0.112877354 0.0893076 -0.026170384 -0.03647122 0.11766095 -0.019523114 0.043530185 -0.1359495 -0.040464535 0.058393903 -0.013365713 -0.10856209 -0.076974735 -0.086636275 0.0728416 -0.0016289356 -0.0025380237 0.04467775 -0.044061568 0.101315625 0.10052565 0.06379172 -0.0932352 -0.10843569 -0.026047211 0.028222775 -0.02167391 -0.09942844 -0.0013417825 -0.01734406 -0.124807194 0.011378037 -0.020410884 -0.12734136 -0.15505394 0.041797888 0.066223435 0.035487603 0.0051546763 0.006192541 0.06442925 0.0019202752 0.10573469 0.10352402 0.02796656 0.013816971 0.06399158 0.10299891 -0.038433854 0.012648331 0.04612359 0.015749078 0.15733328 0.012604959 0.1266254 0.08776224 0.07320119 -0.005624656 0.0095025925 0.021720193 0.1191775 0.047904268 -0.003963703 0.043117195 -0.053961188 0.013675726 0.020966532 0.019055571 -0.09320353 0.06013907 0.087804906 -0.096320875 0.06833561 -0.047136385 0.067867965 0.10086215 -0.07797048 0.07909419 -0.07330688 -0.016161453 0.04778458 0.03321446 -0.0038100113 -0.012232935 -0.01377819 0.0149707645 0.11536759 0.020853383 0.023064818 -0.03047233 -0.101539016 0.05431562 0.060762838 -0.009997304 0.026717657 0.06306727 0.061906613 0.090478264 -0.052650448 0.12257632 0.044031806 0.03629091 0.028220188 0.017283326 0.12723003 -0.03965128 -0.049113102 -0.002692497 -0.06450536 -0.024422497 -0.0120190345 -0.04521352 -0.044469126
173 -0.007285244 0.025750158 0.015115085 -0.009950177 0.11517947 -0.10355881 -0.07381301 -0.008770646 -0.012601654 -0.06098459 -0.006949151 0.090362355 0.031228354 -0.1221702 0.10007472 -0.059321743 0.004731962 0.055824947 -0.07739569 -0.020363826 0.06216399 0.020057013 -0.07295101 0.033939622 -0.01797182 0.003709695 -0.03574615 -0.071739845 -0.0046102423 0.050180227 0.047273062 -0.09237109 0.044092517 -0.061827723 -0.0041188207 -0.006903812 0.054692138 0.032975223 0.027569473 -0.017827252 0.018321345 -0.032657403 -0.020672329 0.033689156 -0.050636694 0.042519927 0.03777699 0.12714079 0.0530377 -0.0727113 -0.062150795 -0.048353177 -0.026080439 -0.03650065 0.0025285291 0.09057282 0.12719032 -0.07702498 0.012015001 -0.008877861 0.09879728 0.028909914 0.005832165 0.02619954 0.08359229 -0.008812467 0.058419187 0.09235168 -0.027698025 -0.07956804 0.12456356 0.02706118 0.028478058 -0.042267855 0.012661976 0.015038238 0.0643793 0.11349795 -0.02980242 -0.1010904 0.019558236 0.13451822 0.052577123 -0.077305436 0.050875504 -0.033299126 0.06103101 -0.010063712 0.0029869701 -0.09575089 0.041040897 0.069069296 -0.045376174 -0.027342452 -0.05137376 0.12943402 0.043394927 -0.0404596 0.011336338 -0.089078344 0.03487982 -0.07352799 0.060254827 0.09913453 -0.081879675 0.087037645 -0.118937485 0.111943744 0.047500893 0.011332534 0.06518716 0.030881723 0.06296378 0.11119787 -0.022410648 -0.06755672 -0.10917618 0.024078883 -0.0039060966 -0.09296886 -0.032958854 -0.05158279 -0.047617562 0.01296183 0.040948343 -0.03803398 0.0039415467 -0.031565145
174 0.03293893 0.10619774 0.0019067166 0.005818177 0.09098548 -0.042194072 0.07718802 0.04912783 0.047551524 -0.0024633785 -0.06562752 0.024022792 -0.06374909 -0.11592693 -0.017263466 -0.034368638 0.05597943 -0.10053844 0.00090281205 -0.024288831 -0.059544463 -0.12389229 -0.090739325 -0.02678936 -0.089491144 -0.021275925 0.08116403 0.033320177 -0.05290353 -0.108083054 0.06321636 0.0053701457 -0.09202002 -0.03995762 -0.059366208 -0.030102829 -0.052320547 -0.033412356 -0.041203197 -0.16206941 0.073710375 0.06535594 -0.042979635 -0.019753441 -0.05166875 0.0073921527 0.0819356 0.061041445 0.15719494 0.039434113 0.052266683 -0.14695969 0.0005508051 -0.00032308226 0.039656535 0.107287616 -0.034853905 -0.08173633 0.09121538 -0.06432029 -0.032283925 -0.009081777 -0.036021434 -0.06949349 0.009263873 -0.0072175916 -0.053332396 0.01492831 -0.089471094 -0.09548314 -0.008428267 0.00043614433 -0.06621033 -0.003958162 -0.020050311 0.09223895 0.04901311 -0.0007123519 -0.03706014 0.04587528 0.013441992 -0.010927226 -0.12571713 -0.06101276 0.01561509 0.05206061 0.03097798 0.02446036 0.03276385 -0.05152476 -0.08676501 0.01196037 -0.044358358 0.007331409 0.058864184 -0.008469988 -0.06975295 -0.109995976 0.0108398795 0.11544536 -0.020971233 -0.034054946 -0.0047198134 -0.03218286 -0.036186837 -0.026575187 -0.09078017 0.086235344 -0.13776353 -0.017073631 -0.04995559 0.0985648 -0.042759992 -0.08755418 0.00582198 -0.0510981 -0.1309987 -0.09707382 0.0031427888 0.132937 0.029826041 0.09111043 0.09747478 0.050791275 -0.0010861906 -0.04278366 -0.05630578 0.026553191
183 -0.0020291738 -0.04279787 0.0507116 0.007871756 -0.031990144 -0.037791792 0.0053096907 -0.014333443 -0.044412315 -0.04302708 -0.11961914 0.09665513 0.036436766 -0.003651442 -0.00024136447 0.07160466 0.07221241 0.077847235 0.028348539 -0.00020610854 -0.015834026 0.049102575 -0.09375109 0.011212234 -0.06886095 -0.049191482 -0.018886263 -0.033465225 -0.016474068 -0.036393277 0.109374024 -0.048159402 0.10133738 0.13682297 -0.07453861 -0.089825965 0.03964485 -0.0867371 0.08036592 0.01569725 -0.0077912835 -0.010285618 0.0014142036 0.11730994 -0.033416778 0.07746272 0.0855318 0.04276946 0.029892456 0.012169435 -0.119496055 -0.07463725 -0.089581445 0.082380705 -0.028290967 -0.021331832 0.10692331 -0.015139783 -0.00544931 0.00068243 0.05575805 0.022349091 0.017908094 -0.06102977 0.07988703 0.09291237 0.039978873 0.026525812 0.015271177 -0.078690365 0.030122988 -0.014913417 -0.034506455 0.061738543 0.03713266 -0.012570297 0.052579798 0.010015795 -0.028882222 -0.07976097 0.04682988 0.050365508 -0.048428636 -0.06412465 -0.038174566 -0.017501984 -0.018839862 -0.00903062 0.060665227 0.0022505 -0.09912489 0.02175554 -0.11882889 -0.012593632 0.03546544 -0.08271374 -0.03891189 -0.037845317 0.07988563 -0.08867572 0.088213176 -0.04855155 -0.029594863 0.08198044 0.057607453 0.0069180136 -0.026027068 0.036035873 -0.11064641 -0.04828216 -0.08338813 0.08412775 0.039043315 0.057563484 0.049487542 -0.09320833 -0.046184644 0.1310314 -0.15146066 -0.0154932 -0.012458739 -0.026672883 -0.054161906 0.03334942 0.11399409 0.021937277 0.12115717 0.09095552
184 -0.006268199 0.08039605 -0.051130533 0.019098537 -0.056911223 0.02486478 -0.0634897 -0.00019270301 0.064943954 0.068372145 -0.05735529 -0.03979813 -0.006718791 -0.047207337 -0.015915755 -0.021461025 0.112643674 0.038490344 0.058656793 0.12226733 0.04633755 0.04690201 0.01587642 0.122226015 -0.0016991915 0.10203704 -0.007616801 0.010100584 0.011340326 0.03570852 -0.036701698 0.09504125 0.052211598 0.075842716 0.005170069 0.08292939 -0.028957108 -0.09292109 0.11531004 0.022642251 0.084418334 0.017682975 0.015541964 0.018384263 -0.057315905 0.042302083 0.061604213 0.08101975 0.026741203 0.049247924 0.007559999 0.017805722 -0.03809123 -0.039420802 -0.08449266 -0.020242387 0.015967887 0.023103762 -0.12087757 0.06624299 0.020583125 -0.07340535 0.009078126 0.038064532 0.053523634 -0.08837205 -0.015143902 -0.104894824 0.0033615646 0.05334012 -0.028934028 0.021425294 0.067281224 0.09021467 0.033950716 0.015213345 0.017408336 0.039361518 -0.05056117 0.02261474 0.08053717 -0.012537371 0.06775025 -0.027409367 0.070149116 -0.12765966 0.10308749 -0.025106382 0.060845144 0.06593974 -0.065342195 -0.026584243 -0.002927018 -0.04829766 -0.05368858 -0.122165635 -0.077550456 -0.10629206 -0.013825663 0.118390255 0.03580042 -0.025199829 0.09755247 -0.026891962 -0.053291205 -0.026481166 -0.04796678 -0.011289952 0.007635297 -0.0054986095 0.056987576 -0.011498208 -0.05639189 0.024376623 -0.04198111 0.03000568 -0.11975215 -0.038120862 -0.10659963 -0.05894105 0.032733064 -0.08368795 0.075353816 0.0070813787 -0.10669554 -0.020803953 -0.04622701 0.020742746
187 -0.021996237 0.028898887 0.008275538 -0.09274709 -0.07891725 0.022207731 -0.017755426 0.03545738 -0.04593653 0.09215085 -0.07679534 0.06967306 0.050327774 0.11043571 -0.0757621 0.016718417 -0.02066892 0.032874346 -0.050309125 -0.037879467 0.017305028 -0.13645355 0.033774707 0.0046905973 -0.014171465 -0.008433775 -0.101196595 0.047866076 0.020578885 0.06344763 0.06985275 -0.043689623 -0.089287266 0.016547907 0.03786029 -0.045868948 -0.03784994 0.017313823 -0.041918736 -0.065740384 0.020738712 0.016718842 -0.1092384 -0.1151874 -0.02130104 -0.064999595 -0.040825065 -0.01419978 0.035658356 -0.060057495 0.080674246 -0.11313787 0.017752847 0.06571627 -0.049584102 0.04601969 -0.028200464 -0.11118558 -0.017920498 -0.03586909 -0.035870243 -0.041747507 -0.017850334 0.031112824 -0.0540195 -0.036319852 -0.012876511 0.006362064 0.0030920028 0.053977948 -0.082461484 -0.043048028 0.10658514 -0.04068626 -0.035524197 0.07264995 -0.0973381 -0.078282066 -0.1260173 -0.033751663 0.0173864 0.021961551 -0.06208213 0.14104585 0.040323436 -0.032061167 -0.041628044 -0.0063472176 -0.08241757 -0.02603767 0.08095648 -0.12798493 0.00892286 -0.07050847 -0.10066972 0.116798066 -0.039862245 0.06842637 -0.08073714 -0.08660005 0.0024351664 -0.086356275 0.044139083 -0.06925122 0.12738167 -0.043984532 -0.0060640397 -0.0531122 0.06781712 -0.037328396 -0.06830218 0.020730598 -0.024642864 -0.13793992 -0.053856637 -0.035851948 -0.029069463 0.12604 0.092393726 0.00091079157 0.06462511 0.04703738 0.034787193 0.0631576 -0.018005248 -0.022138787 0.00073093956 0.08272193
188 -0.085995324 -0.006695913 -0.03204462 0.019224081 -0.065802485 0.07710661 0.0061072484 0.13137713 -0.12807727 0.044607136 0.011865938 -0.04281629 0.025726002 0.07069497 0.015945392 -0.077234626 -0.013165173 -0.076950915 -0.010115021 -0.08186299 0.07280098 0.12227954 0.03282176 0.02520934 0.053385586 -0.084499344 -0.03241396 0.07256562 0.048059486 -0.02041323 -0.011591519 0.098867066 -0.1264903 -0.0150542315 0.047589775 -0.09577313 0.12471948 0.04308396 0.007851354 -0.053118646 -0.05563284 0.02199846 0.056255702 0.017369999 0.0111766355 -0.066989355 0.025176048 0.078417145 -0.06170674 -0.083781496 -0.047925603 0.016383808 0.1190172 0.00014274036 0.09971538 0.04446567 0.079856776 -0.036442474 0.013322231 -0.049700193 -0.022083657 -0.029810203 -0.049837235 0.01458837 0.015213996 -0.1139756 0.029457768 0.0070151244 -0.12603667 0.0051812655 -0.01033149 0.019002322 0.04630869 -0.042861402 0.069636956 0.009044354 0.044797633 -0.008233417 -0.058313154 -0.09208034 -0.0071719787 -0.07929075 -0.10871747 0.09745179 0.011573356 -0.092273474 0.087761305 0.09706786 -0.08934346 -0.017015342 0.05032939 -0.053710688 -0.1417264 0.09767954 -0.051714957 -0.083993316 0.015654795 -0.04423265 -0.021366594 -0.013914684 -0.009646319 0.004999078 0.10631591 0.015304094 -0.07790073 -0.0012167887 0.04400384 -0.029595455 -0.0006702467 -0.038012125 -0.025028609 -0.07828704 0.015972566 -0.08688396 0.03772651 -0.01454652 0.14554685 0.07164022 0.039001577 0.02429544 0.006344188 0.010980837 -0.070696935 -0.14296769 0.111490384 0.09106186 0.018136028 0.05752436
189 0.029985249 -0.024671983 -0.13604647 0.05729386 0.06816723 0.10847629 -0.07166938 -0.08727313 -0.0039616274 -0.046447217 0.07806837 -0.04512457 0.067191854 -0.040731624 -0.004186824 -0.022659305 0.0053591803 -0.09677707 -0.012075601 -0.061997198 -0.06263956 0.011888936 -0.054200184 -0.036282226 0.088651106 -0.047464356 0.068659306 0.057891555 -0.008926138 0.054828778 -0.03902935 0.09863036 -0.07045304 -0.08426215 0.112618096 0.07138703 -0.05247801 -0.06798393 -0.038391415 -0.075334884 0.09222315 -0.05634739 -0.039824735 -0.015859937 -0.08160168 0.03911067 -0.04799486 0.009541286 -0.05403093 -0.0023005882 -0.10874467 -0.038156077 -0.040278412 0.12201455 -0.057403054 0.0014422295 -0.041973352 -0.023175292 -0.06481346 0.040192883 -0.061915644 0.056907393 -0.0580917 -0.016357338 0.0021750566 -0.0684364 -0.12931652 -0.038436744 0.040026005 0.027962571 0.0029270954 0.030261774 -0.05488641 -0.035414606 -0.015428665 -0.053748623 0.0016333647 -0.05052805 -0.07860067 -0.07804603 0.08948506 -0.08432599 -0.08848544 0.0888724 0.09678006 -0.020982148 0.107473254 0.022031613 -0.02378788 0.032410607 -0.15420167 0.055767864 -0.06133966 -0.035072006 -0.11236313 0.019544747 -0.09540041 0.04501533 0.00593749 -0.008837044 0.052278962 0.020577721 0.029159948 -0.14310648 0.020464158 -0.061356384 -0.07700645 0.00588341 -0.0026265183 -0.06206461 -0.062448353 0.094609395 0.06356039 0.08789194 -0.107411355 0.098849714 0.08038036 -0.06663424 -0.027531315 -0.07060689 -0.05884361 0.037748158 -0.08104312 0.05194102 0.005101276 -0.007205008 0.0041295183 0.131734
190 0.028555144 0.051886998 -0.061009537 0.09959344 0.034058057 -0.05191073 0.05847237 -0.05780875 -0.027973516 0.050951038 0.03171124 -0.041326143 0.04335734 -0.06309769 -0.0354432 0.08514709 -0.025304502 -0.084384866 0.041131925 0.047436103 0.027371986 -0.13136615 0.004020154 -0.11977788 0.083271995 0.028131923 -0.052120104 -0.1266016 0.06605893 0.09580877 0.16493075 0.11289701 -0.0044028303 -0.054616224 0.052030753 0.05869448 0.05907443 -0.037289463 -0.0885803 0.11762855 0.025012212 0.10005172 -0.07700249 -0.0036365183 0.050754607 -0.035568055 0.044306286 0.08871786 0.06851566 -0.01569123 -0.09160459 -0.0087619955 -0.013069964 0.005597447 -0.10747822 -0.046625514 -0.10639312 0.025621677 0.0017240569 -0.0035630576 -0.0014805283 -0.008226892 -0.06270683 -0.018446872 -0.019049421 -0.05344114 -0.0924824 0.051326632 -0.0042598112 0.0055056056 -0.118305385 -0.05548328 0.13780779 0.025899017 -0.031711075 -0.061846837 -0.020325784 -0.13759117 -0.0037583404 -0.090910025 -0.07121796 0.0025091756 0.049244855 0.04353194 0.034130238 -0.018310662 0.0041154386 -0.010800325 -0.04530756 0.045616936 -0.0060062124 0.070427656 0.0021941217 -0.020883521 0.08252125 0.0997451 0.11344941 -0.004392607 0.0012721898 0.08693513 -0.09718094 0.056472402 -0.12771021 -0.053145543 -0.018894736 0.07285455 0.09743812 -0.06694325 -0.04487191 -0.013555596 -0.052872382 -0.01694643 0.0566423 0.046194486 -0.011727931 -0.03629515 -0.04404947 0.03125292 0.086985454 -0.026756445 0.06691189 -0.027255585 -0.05524031 0.14342897 0.04236345 0.13807894 -0.06757416 0.002303809
192 0.07483764 -0.030966006 -0.107267536 -0.08549929 -0.12498545 0.0021397555 -0.0043387124 0.016984869 0.06091282 -0.006032791 -0.0563102 0.11387638 0.059107456 -0.027193526 0.06093715 -0.06786891 0.04596619 -0.075957306 0.119135134 -0.083356455 0.12684126 -0.0031959931 -0.036205947 -0.05543996 -0.09925871 -0.058655113 -0.052839078 -0.064398766 -0.05312861 0.07083532 0.07749628 0.04619549 0.08760794 -0.017799435 0.03022889 0.0013957832 0.09991959 0.02641783 0.0065716677 -0.09591208 -0.0906828 -0.030278465 -0.09657225 0.051793788 -0.025966445 0.053370234 -0.067176536 -0.1023381 0.048972797 0.03288858 0.0390633 0.0007864387 0.05230344 0.012806933 -0.06344259 0.08194668 -0.0053366115 -0.048234306 0.043455344 0.10343414 0.011321033 -0.035221066 0.034835756 -0.02072721 -0.012640033 -0.0716826 -0.05695836 -0.09625971 -0.014825146 0.043616105 0.13198677 0.042695872 -0.058880065 -0.0042956974 0.054637812 0.018203128 -0.10718208 0.0027835567 -0.008872107 0.07984093 -0.025072824 0.116348356 -0.034549743 -0.06301414 0.10676055 0.031630415 0.13322182 0.014722355 -0.13095754 0.07398727 -0.091056354 -0.06180183 -0.065889575 0.06952203 -0.04590552 -0.04711036 -0.031655885 0.06515053 -0.028524214 0.05276853 0.004239318 -0.06688224 0.00014633569 -0.044655133 -0.04559069 0.05177911 0.050700597 0.10830388 0.015684748 -0.032664217 -0.076477535 0.109540395 0.03277377 -0.008772205 0.10883485 0.09946758 0.03292868 0.05398131 -0.05518921 0.12726992 -0.07309245 0.009504913 -0.022077475 0.066557094 -0.0046752426 0.019679235 -0.10422816 -0.025926478
193 0.010122865 -0.104092054 -0.016444542 -0.042810053 0.016264684 -0.08495186 0.025543064 -0.0002180008 -0.014507238 0.016082235 0.10828914 -0.00958302 -0.11072186 -0.05384571 0.017920358 0.08753768 -0.023769 -0.009862793 -0.0013689136 -0.025315374 0.05551149 -0.061270352 0.063394666 0.047139853 -0.014315873 -0.06004637 -0.11095622 0.0013643507 -0.06505013 0.0959131 -0.05337187 0.025404569 -0.078324735 0.0032554953 0.024161767 -0.0070242016 0.10706512 -0.051678807 -0.005085692 0.015214275 0.037280306 -0.060894467 -0.024085097 -0.02892517 0.02724642 0.10329708 -0.035852756 0.020478684 -0.09257891 -0.10174572 0.038222097 0.0675059 0.049885362 0.03865215 -0.00226325 -0.0021101022 0.021972446 0.025437854 -0.11277007 0.0074479827 0.051371723 -0.11260833 0.026946515 0.106526844 0.16005051 -0.044202693 -0.05404539 -0.031183133 -0.06710077 -0.10445234 0.0026797655 -0.09271662 0.017339554 -0.08428714 -0.030331636 -0.0009371957 -0.060543522 -0.113887064 0.05261298 -0.027782815 0.01892668 -0.07139117 -0.043673884 -0.0873283 0.081202686 -0.026814189 0.10117586 -0.040631447 0.14755037 0.016570717 -0.016318357 0.03878699 0.07006808 0.11530251 0.094511405 0.09914067 -0.100093484 0.105699345 0.029520273 0.049311094 0.084666245 -0.021635635 -0.029266948 -0.08443601 0.005840915 -0.018705046 -0.055939585 0.117228605 0.06160061 -0.05895643 -0.041615322 0.009083292 -0.020483445 -0.11804657 -0.0078053074 -0.10658577 0.10139581 -0.07717132 -0.01989907 -0.07652512 -0.13325676 0.027574915 0.024237284 0.051208824 0.07183132 -0.046048433 0.057933107 -0.04012427
198 -0.1196159 -0.13693269 -0.0007057239 0.112644635 0.116514154 -0.08181075 0.044001143 -0.08846445 0.0204284 0.028769124 -0.030505212 -0.019225337 -0.020060642 0.012218274 -0.06892475 0.05841397 -0.08544326 -0.0198953 -0.017287798 0.011282977 -0.019519508 -0.12821274 -0.058355205 -0.11793204 0.014363439 -0.0017521878 -0.09650409 -0.039237052 -0.10583727 -0.021437943 -0.10088479 0.12144048 -0.048774354 -0.013559064 -0.037623435 -0.012116001 -0.065994136 0.06113854 -0.09979782 -0.10256042 0.051784292 -0.08927543 -0.07133224 -0.06028063 0.041025322 0.032721765 -0.041719474 -0.12347121 0.06826751 0.01197504 0.0047781547 -0.13356383 -0.0018332633 0.033615034 -0.11342393 -0.022622937 0.07220387 0.028874706 0.02622719 -0.058632478 -0.0037341064 -0.00825371 0.02691723 0.07820152 0.043072563 -0.012753356 -0.10959741 -0.017900558 -0.07536753 -0.036001764 0.02446351 0.13444367 0.09686617 -0.11741371 0.023496285 0.08629575 0.13035703 0.023077853 0.026091563 0.048238285 0.02337605 0.036490366 -0.007638296 0.10224032 0.027900692 -0.075507045 0.04854132 0.026977815 -0.011068705 -0.09142427 0.041535106 0.049229138 0.07664349 0.07405624 -0.10780131 -0.06061818 -0.022528224 -0.038767986 -0.05039339 0.02346891 0.087229006 -0.039046198 0.053704865 -0.022465276 -0.062051404 0.13397203 0.009335506 0.05811381 -0.13365194 0.09938127 0.061277308 -0.0066508288 -0.0068082884 0.036001157 -0.070303015 -0.03449085 -0.08602237 -0.012447103 -0.06894717 0.09166491 0.017616048 -0.107419565 -0.0047790348 -0.0069855633 -0.046652254 -0.02411243 0.011575875 0.11478241
195 -0.07004071 0.016025757 -0.015743762 0.037947904 -0.028871614 -0.04460589 -0.112723686 0.14005889 0.12026525 0.09895259 0.050019395 0.03045574 0.11056403 0.072607756 0.0721714 0.03615549 -0.0347155 0.08462135 -0.062070373 -0.13700503 -0.08012372 -0.026015924 -0.016753482 -0.087417416 0.066306226 -0.07985442 -0.051319055 -0.0058702487 0.015429289 -0.013841794 0.072134264 0.05059774 -0.033314638 0.10480849 0.02711705 0.0297142 -0.006993425 0.019068094 0.08044489 0.09641503 0.10081831 0.06894924 0.011357513 -0.13106786 -0.08898117 0.06773396 0.09613607 -0.05141469 0.027817456 -0.008273003 -0.13232392 0.021474661 0.036423437 0.070945926 0.08754101 -0.023189232 -0.07859781 0.054235443 0.0122720795 0.010798 -0.00055498 -0.012692708 -0.034831636 -0.017473448 0.10102184 -0.00871996 -0.018472463 -0.008465774 -0.13578132 -0.0035140042 0.13993733 -0.0444909 0.000102897466 -0.022766646 -0.083871216 0.051057678 -0.08113402 -0.10387661 -0.0338216 -0.03992594 0.020012256 -0.01364139 -0.02169768 -0.037034303 0.009264618 0.098459475 -0.08367672 -0.055861697 -0.024882466 0.068556294 -0.025790514 0.032022096 0.056555897 0.011335128 -0.04261926 0.113027155 -0.0054213637 -0.042166736 -0.022394951 -0.098789535 -0.13194263 -0.009228637 0.061661735 0.045189034 0.008071922 0.008967543 -0.014830281 0.052029084 -0.0056091957 0.06496153 -0.06277366 0.04244098 0.017542642 0.052694164 0.07788473 -0.044923056 -0.057171334 -0.0009077292 0.023022896 0.056009024 0.017465873 0.017097967 0.0059671467 0.056590494 0.11885649 0.062519245 -0.046006132 -0.08536583
205 0.019055441 -0.10577867 0.026779694 0.002807024 -0.042385627 0.028788956 0.10758042 0.030510971 0.021613143 -0.1314174 -0.08434994 0.01936309 -0.067423776 -0.11593879 -0.00187331 0.023310825 -0.030419184 0.03584923 0.09788052 -0.007875457 0.089332275 0.07728529 0.024250727 0.031531334 0.024203662 0.057584427 0.08262616 -0.042419843 -0.030989174 -0.004077457 -0.03360834 -0.044067476 -0.0074595967 -0.048795115 -0.08561896 -0.08338323 0.107344344 0.018833613 0.1034295 0.005025324 0.07626296 0.025724463 0.012670555 -0.008019939 0.059380673 0.008262695 0.107363515 -0.059328604 -0.078167476 -0.06559582 0.0053505343 -0.028697968 -0.10948778 0.0033543387 -0.07508416 0.12188058 -0.00026099503 0.097006135 0.032492604 -0.0039966744 -0.12134182 -0.012049055 0.07151545 0.049898937 0.057032723 -0.12756349 0.04950186 -0.07286422 0.009643549 -0.11567629 0.07113167 0.06031793 -0.12063267 -0.04493876 0.022505118 0.074001476 -0.09847875 0.045793734 0.07530349 0.06679274 0.051835693 0.1104432 0.022660347 -0.014418014 0.09645281 0.10805437 -0.055682354 -0.07893753 -0.09533319 -0.10509332 -0.026800545 -0.07493047 -0.073896006 0.11797779 -0.069945954 0.14112961 -0.017925028 -0.06539401 -0.10502568 0.1146866 0.033135064 0.011750358 -0.02111091 0.008307026 -0.030459002 0.036959685 -0.04084481 0.018831052 0.12456039 0.059086826 0.0021453334 -0.020567346 0.0026233848 0.10113315 -0.050856642 -0.07428291 -0.0048611923 -0.030901132 -0.049507648 0.035138357 -0.033949196 0.08304039 -0.108447835 -0.028653271 -0.08417163 -0.019908767 0.044933297 0.09815243
206 0.09927139 0.03302027 0.11187867 0.0780035 0.0327165 -0.014772188 0.13670185 0.07722457 0.092977025 0.019589776 0.06324707 0.044151396 0.07495846 0.0073661017 0.013181186 -0.034792863 -0.07927661 -0.0028015322 0.0077340426 0.0893922 -0.04281863 0.0987492 0.08660326 0.055278577 -0.01206635 -0.03737552 -0.023691468 -0.086455636 -0.08135647 -0.039170787 -0.12317921 -0.12439411 -0.031121299 -0.0604942 -0.030404773 -0.13045172 -0.03325814 -0.117921285 -0.06304954 0.031881448 -0.03938918 0.024390282 -0.015427793 -0.011051554 0.099999554 -0.12606783 -0.078659296 -0.03422379 0.1321243 -0.06424248 -0.0457254 0.05694651 0.038351383 -0.08586666 -0.13392268 -0.043982375 0.046793368 0.015248808 0.12700655 -0.03643678 0.0075505404 0.0083888015 0.07329936 -0.033089638 -0.028488442 -0.10385905 0.0089789955 0.0020762545 -0.05213214 -0.0027633358 -0.037788905 -0.071600035 0.0024193027 -0.122911796 0.010923069 0.04403992 0.0011680025 0.04781117 0.00030121935 -0.02577059 0.05200875 0.035317365 0.029225893 0.013426039 0.11597098 -0.060177807 0.0355288 -0.06904588 -0.036446977 0.03892313 0.03333029 0.051659413 -0.12894613 -0.0031271563 0.10970157 -0.0097453995 0.024013206 -0.12382909 0.08358864 0.06958379 0.0045381812 -0.04286554 0.012207903 0.062464736 -0.051141977 0.10382603 -0.11609854 -0.041186914 0.03998139 0.074434355 -0.0397493 -0.06877577 -0.038275365 0.09735313 -0.06172974 -0.0710197 -0.065589555 -0.09846147 0.10521537 0.012196763 -0.05457879 0.08797805 -0.047261745 -0.13033292 0.02195302 0.088314 0.09323607 -0.06611453
207 0.10814336 0.008461657 0.083606124 -0.11088491 -0.07302105 -0.083889544 0.14893538 -0.006561881 0.05810429 -0.0840838 -0.03168424 -0.10067777 -0.11309435 -0.024670219 -0.06217014 -0.120535545 -0.010597136 0.019175448 -0.009982854 -0.087462254 0.06929429 0.031949427 0.024254605 0.008416527 -0.12927513 -0.07559672 -0.13731919 0.04091821 0.04547106 -0.038122028 -0.026209595 0.08233948 -0.12393836 0.11217586 0.008000871 0.107821554 0.05394003 -0.009958922 0.077847406 -0.016380206 -0.050734714 -0.08525594 -0.02052242 0.05347486 0.0012547604 2.7344533e-05 0.042721074 0.039632585 0.100833036 0.017689833 -0.11668705 0.09823029 0.0075442796 0.044064738 -0.07083379 -0.027847795 0.0809141 -0.03862327 0.15065886 -0.0064199525 -0.011705382 -0.033869516 0.010344952 0.10723057 -0.019711748 0.07714495 -0.039782103 0.04214199 -0.016645864 0.044915173 0.02704222 0.08755524 0.016386224 0.0031308695 0.09479488 -0.041675553 -0.019379435 0.1321228 -0.03888791 0.008378843 0.043465268 -0.028701412 0.061818205 -0.046930812 0.04062344 0.10927928 0.018252464 -0.10213483 0.12597902 0.0940178 0.0033143791 0.043760255 0.08822998 -0.056961816 0.13899449 -0.054429293 -0.01914701 -0.04996009 -0.015794426 -0.0038087778 0.08940293 -0.06826703 -0.02609822 0.03478784 -0.120815866 -0.053006098 -0.09824404 -0.062256563 0.09215616 0.08402807 0.045806188 -0.028137097 0.058809824 0.03323887 0.10405899 -0.048833445 -0.06233473 0.042275805 0.10010866 -0.07276526 -0.109749734 0.0016059623 -0.051956072 -0.11798156 -0.08709342 0.05881651 0.11072025 -0.03809093
208 -0.015480786 0.064268455 -0.056175184 -0.08021895 0.085418746 -0.025476443 0.047331374 0.024288291 -0.08122077 -0.051339444 0.06951315 0.14131647 -0.06940054 -0.06851951 0.14245893 0.07862788 0.09943573 -0.017391961 0.020218039 -0.015884785 0.01731574 0.02339105 0.015762903 0.005677968 -0.0038089782 0.07715886 -0.06410069 -0.041112747 -0.011005743 -0.09088357 0.09081513 -0.03604847 0.078451365 -0.029150702 -0.053010494 -0.08849714 -0.054962568 -0.06600542 0.0034773736 0.027262855 0.091833465 0.06305815 0.09093928 -0.00048509054 0.07186982 0.019589892 0.1544852 0.0457084 -0.03188931 -0.009443707 -0.028539147 -0.05925455 0.07707533 -0.027982248 -0.062366735 -0.014750744 -0.03799304 -0.044364747 -0.08427899 0.031190103 0.027321737 0.015080909 0.09914256 0.081624895 0.069872096 -0.029040638 0.019318236 0.009889467 0.04129849 -0.07325198 -0.0035936777 0.023094244 -0.012531157 0.114988856 0.019257661 0.09312987 0.071659036 -0.00086639886 -0.07954773 -0.011840558 0.1331155 0.10653104 0.04529304 -0.06794549 0.06823913 0.13161878 -0.010328872 0.044251133 0.056922346 -0.01198886 0.011067561 -0.095408194 0.0039963736 -0.026127981 0.032122523 -0.0068589672 0.10782629 0.015860876 0.115116194 -0.06376291 -0.03318693 -0.057429317 0.10314409 -0.08050394 -0.034528375 0.05494225 -0.045565415 0.08923928 0.00026972214 0.05216842 -0.050045427 -0.0075276815 -0.0781763 -0.03897597 -0.033778165 -0.08158983 0.06277532 -0.13188413 0.0861616 0.050687287 0.06736317 0.0011578195 0.055087928 -0.027841844 -0.06635844 -0.016535144 -0.00146261 0.011003764
209 0.01267665 -0.030700795 0.056207694 -0.001517871 -0.107340164 0.0801598 0.016644428 0.091268644 0.03546457 -0.14916259 0.034583297 0.020363957 0.01798941 0.076645695 -0.016272487 0.07400557 0.07540683 0.08653033 0.00092368823 0.009240843 -0.0068602613 0.10891519 -0.062735565 0.0894794 0.110863686 -0.020194309 0.1377909 -0.0065056686 0.027876612 -0.09783095 -0.030664418 0.114247 0.04763165 -0.050330948 -0.06714998 -0.011026715 0.09791801 0.08346925 0.022804108 -0.020306865 0.08068871 0.057252865 0.041313656 -0.03091987 0.089874096 0.038552415 0.04513742 -0.06508725 0.089112975 -0.09185035 0.11742647 -0.07100569 -0.011028644 -0.06130955 -0.04150247 0.03750806 0.0027043454 0.09138763 0.05510692 -0.069901526 -0.11091966 0.03444971 0.092819646 0.043040935 0.12655349 0.07980589 -0.056195267 -0.0431441 0.052525096 -0.07836629 0.03169671 0.08195947 -0.06899029 -0.02700801 0.054167345 -0.0684997 -0.028601533 0.008848235 0.014592617 0.12874216 0.15421829 0.0154118445 0.016347667 0.043641035 0.06474477 0.05953648 -0.026852831 -0.052498527 -0.024020558 -0.002268723 -0.10310626 -0.0019383796 -0.009812203 0.026225409 -0.060220357 -0.022766938 0.04725343 -0.02888691 0.037450094 -0.021905074 -0.06634986 0.05592504 0.045973282 -0.094015196 -0.052256666 0.059724014 0.0014094749 -0.0839633 0.037594423 -0.044544853 -0.040311243 -0.07855958 -0.011527932 0.1373615 -0.10676795 0.06126915 0.10664704 0.089239195 -0.121283844 -0.04272581 -0.0018537506 -0.13266769 -0.010918249 0.092405796 0.06962611 -0.08870079 -0.093964376 -0.020533767
210 0.0020460181 0.0631071 -0.060992885 0.04640116 0.09082915 0.008425515 0.064720176 -0.044592947 -0.09711001 -0.04874379 -0.030172342 0.10155013 -0.0024328306 -0.058828533 -0.12042419 0.008112534 0.146946 0.041545983 -0.06509802 -0.03529534 0.049104515 0.04905311 0.056441586 -0.058576524 -0.0070293224 0.04471729 0.043919984 -0.06151273 0.027655505 -0.035514265 -0.07936315 0.06564351 -0.014259208 0.0827823 0.025573637 0.044282466 -0.08340454 0.011064905 -0.06008881 0.087726906 0.1087519 -0.0008329577 0.0012826386 0.07724722 -0.065264404 -0.05941358 0.13659932 0.036139354 -0.042547625 0.03584773 0.07441307 -0.10686 -0.034747414 -0.0156962 0.07394925 -0.04093459 -0.06806674 -0.0060364795 0.014456911 0.022382643 -0.09130538 -0.034007385 -0.031607926 0.09052297 -0.0583655 -0.034753688 -0.05223431 0.01213949 0.02960174 0.065308705 0.063300975 -0.14017273 -0.056544352 -0.008611138 0.0032088289 0.027264649 0.038057383 0.005779349 -0.09443393 0.044965062 -0.030960748 0.009020654 -0.03511541 -0.011675288 0.025469273 0.06665041 -0.11398118 -0.10590988 0.10912869 -0.08843814 -0.0054091015 0.060599506 -0.0395347 -0.02321449 -0.0714304 -0.004915483 -0.005814799 -0.053248145 0.08207972 0.05839732 -0.06852476 0.018513761 -0.031952478 0.1313513 0.018199138 0.034884803 -0.056487508 -0.0031645473 -0.055330977 0.08951286 -0.041920677 -0.057162397 0.048401725 0.13955109 -0.06894092 -0.054104112 0.034963887 0.035695784 0.0015617112 0.07588167 0.0143772 0.027651588 -0.041083783 0.01850383 -0.07528012 -0.0847565 0.13220385 -0.03753112
216 0.07095642 -0.12589055 0.0628327 -0.043934498 0.06186846 0.06854073 0.0579821 -0.029301101 0.026102744 -0.16431628 0.09193741 -0.015254247 0.056031857 -0.09559016 -0.08154198 0.06647755 0.0008190196 -0.035877377 0.029015277 -0.019507356 0.016474625 0.006897659 -0.1210438 -0.04565265 0.009686124 -0.04946901 -0.024858408 -0.034692015 -0.01644909 -0.042317413 0.021633191 0.02643882 0.11381016 -0.07865148 0.087345324 -0.10308249 0.005872283 -0.043903913 0.12477729 0.057650402 0.12934226 -0.09667514 0.0051084016 0.014441319 0.07315401 0.05549073 -0.06672182 0.040270254 -0.017644543 -0.13278134 0.10078984 -0.12252044 0.0016378846 -0.04783981 -0.058091026 0.07358424 0.017520627 0.0061726146 0.034438264 0.029370734 -0.0062755183 0.016551815 0.005813938 0.031315487 0.05466767 -0.11607177 0.07444841 -0.11374152 0.11238005 0.06786313 0.030972777 -0.014133889 -0.110684045 0.0189273 0.036018647 -0.03724153 0.0054513616 0.07651746 -0.03875295 0.018204143 0.024698645 0.009130671 0.13840209 0.018282808 -0.017444307 -0.047618393 -0.062234346 0.017957816 0.029309945 -0.0048377016 -0.056321338 -0.03072149 0.03164216 0.031360272 -0.037310693 0.00012071771 0.07551028 -0.00774906 0.030121528 0.105390556 0.1175072 0.024068475 0.02525457 -0.020961542 0.036307078 0.060700536 0.0008903725 0.007545739 0.008531437 -0.009633652 0.021058561 -0.012067053 -0.115002304 0.0599457 0.011300762 -0.008592416 0.03271893 0.035842914 -0.041068334 0.08059556 -0.0204543 -0.016286992 -0.03689045 0.056250703 -0.033634804 0.09715073 -0.029186402 -0.08048005
217 -0.0624864 -0.06655613 -0.05777893 0.024549032 -0.067573495 0.03887815 -0.0915964 0.00885274 0.100707024 -0.025608007 -0.050670866 0.05528335 0.13022475 0.0013290538 0.071246974 0.1105247 0.1096497 0.112167865 0.007141254 -0.016780263 0.04673597 -0.018434118 0.13529034 0.06556772 0.055540867 -0.009745197 0.014103576 -0.05659519 0.03471834 -0.10862024 -0.10259569 -0.005367379 -0.08353152 -0.06146475 0.08495898 -0.04034255 0.07597294 -0.022404732 0.15353072 0.1116352 0.05164719 0.09144195 0.023403479 0.040539674 -0.033887196 -0.027311161 0.07784079 0.025695933 -0.04800104 -0.025002455 0.09390653 0.00029092302 -0.05183495 -0.046891 0.069098026 -0.060303982 -0.051379103 0.12492938 -0.06499305 -0.03038914 -0.16147111 -0.0952689 0.054356158 0.012656534 0.06258653 0.019238645 0.057302866 -0.11800744 0.0012442874 -0.023722973 0.044345137 -0.11369559 -0.052846685 0.14127989 -0.1267969 0.017392375 0.054301687 0.021830188 0.06347855 0.16361673 -0.1353522 0.06610001 0.04019481 0.07296029 0.076746196 -0.10372976 0.0023589672 -0.007496378 0.10563166 -0.01624798 -0.00905684 0.009252795 0.022905173 -0.013581467 0.041781414 -0.012949502 -0.014121325 0.042884286 0.02224164 0.038374428 0.07180597 0.016084738 0.0076087043 -0.08456807 -0.06205207 -0.040086754 -0.050431702 -0.042351197 -0.053519446 0.051495966 -0.10155885 -0.03581368 0.029929671 -0.014776728 -0.08009146 -0.0046059736 -0.048761725 -0.03818534 -0.018760439 -0.12052176 -0.05580956 0.15669216 0.036075935 0.086063825 0.05690993 0.09515923 0.038906183 0.04092463
219 -0.034866873 0.045202322 0.108068176 0.08103636 0.055700764 0.031759795 -0.046881236 -0.017407984 -0.11581721 0.065580845 0.10734295 0.09033205 -0.0071566417 0.032406475 -0.06318304 0.11098556 0.030695291 0.022955133 0.10504213 -0.103093356 0.06565528 0.022390733 0.15375237 0.03527035 0.10213187 0.01786013 0.15507236 -0.13071726 -0.05387519 -0.007498931 0.03405147 -0.02441004 -0.0038502403 -0.089724034 0.071696855 -0.037511077 -0.032593317 -0.08914554 -0.033942718 -0.05358514 -0.09099107 -0.123805426 -0.11195024 0.04130629 -0.02875884 0.079234 0.057113845 0.026242077 -0.14669004 0.05475508 -0.092957474 0.072607934 0.06474013 0.054292217 -0.056812484 -0.06832964 0.06658024 -0.015599255 -0.12632963 0.074332975 0.02615654 0.03274399 -0.07576322 0.08598949 0.039216768 0.06292171 0.0458965 -0.03866073 -0.051242832 -0.075701304 -0.07933283 0.033357922 0.04773694 0.08052788 0.013263692 -0.0540173 0.048335064 0.034534574 0.0022979695 0.0812422 -0.07129977 0.021571875 0.10593076 0.017281406 0.019403964 0.11910811 -0.05325719 -0.021518208 -0.07468361 0.075716734 -0.10097681 0.012997747 0.08525498 0.008957293 0.057261437 -0.03948437 -0.09307744 -0.08259038 0.058947794 0.08994273 0.011227315 0.013044187 0.11667462 -0.09877407 -0.028465897 -0.03910896 -0.0439295 0.093091354 -0.048003085 -0.00025997608 0.09255393 0.06023244 0.11849188 -0.06313924 0.033067644 -0.06635646 0.011095651 0.112811245 0.0062593017 -0.029044943 -0.04291555 0.033906322 -0.044715762 -0.071495146 -0.06922541 -0.033425823 0.033248335 0.11947999
220 0.010248308 0.06269036 0.13137835 -0.03041313 0.063529186 0.124475576 0.06215667 0.070403054 -0.09904286 -0.07738417 0.061293073 -0.009488393 0.046895716 0.0943918 -0.039190717 0.04220374 0.04531005 -6.0700044e-05 0.025404524 0.07182631 0.016869755 -0.021490175 0.047435455 -0.07216279 -0.03273883 -0.14092225 -0.033848304 -0.1251361 0.013714976 0.024725892 0.043751255 0.06477935 -0.07117273 0.025551992 -0.017346274 0.004032383 -0.048962764 -0.0067988927 -0.047823485 0.0967156 0.04181913 -0.08262901 0.05350157 -0.031050181 -0.07691771 0.03892147 0.12111679 -0.11459049 0.1328326 0.024305442 -0.07841232 0.030412626 0.039754804 -0.115666576 -0.08038991 0.0053193555 -0.020495057 -0.011983985 -0.027322305 -0.055230744 0.04223191 0.0011064295 0.0003549703 0.10484715 0.0990679 0.13306981 0.0035050826 0.10470498 0.06416674 -0.06583338 0.050351888 0.024820583 0.009182599 -0.025632478 -0.10011248 -0.102039926 -0.01614055 -0.08580507 -0.046932247 0.010144625 0.13497165 0.09587944 0.04805175 -0.10256997 -0.069957115 0.076550364 0.11498871 -0.11462134 0.09846447 0.0477743 -0.051221203 0.017377624 -0.03617642 0.03834842 0.062028497 -0.022857038 0.031217389 0.09722196 0.07874833 0.003162593 0.06765164 0.02003101 -0.096973956 -0.06084526 -0.06468384 -0.03540032 0.036863547 0.031422608 -0.1291242 0.028049987 -0.05976651 0.021481914 0.08993995 0.06326767 -0.010594431 0.011787592 -0.008186458 -0.08443538 0.089150846 -0.0025267666 -0.13395762 -0.08861624 0.0022843464 0.027530996 0.07952116 0.054576665 0.021417374 -0.1089074
221 -0.03216533 -0.0037156872 -0.089540884 -0.10259693 0.096161 0.0030299374 0.019566901 0.08915494 -0.08589537 0.06156243 -0.058278244 0.042379413 -0.021207536 -0.12743114 -0.06263662 0.04532614 -0.039620735 0.0226112 -0.020245833 0.025096567 -0.0017772866 -0.047448356 -0.04331084 -0.03709988 -0.013465327 -0.036001995 0.014361737 -0.019964438 -0.13082683 0.066154055 -0.07635093 0.09604323 -0.05156672 0.13755468 -0.015714746 -0.10556074 -0.033728506 -0.008746029 0.005427251 0.11344473 0.060659878 0.016534314 -0.0881564 0.12841903 -0.0032038498 -0.06448184 -0.024814978 -0.019450694 0.09803722 0.09180168 0.01523942 -0.07566954 0.028232044 -0.04550142 0.030977825 0.0074073384 0.03399854 0.062481742 -0.045016155 -0.103411585 0.08744663 -0.12572128 -0.13257977 0.15116502 -0.04828348 0.08847032 0.07192309 -0.104087904 0.034587327 -0.026019586 -0.13448317 0.014894543 -0.11226743 0.055484977 -0.10217748 -0.044128485 0.0034247169 0.04717677 -0.046344727 0.11689762 -0.03211896 -0.002433759 0.14782257 0.035830166 -0.060138635 -0.11170619 -0.08816203 -0.037796676 0.103789546 0.05772961 0.03403403 0.066229075 0.016562065 -0.018298052 0.055961918 -0.10086766 -0.07796437 0.07404763 0.0018801421 -0.10471178 0.059221927 0.12295589 -0.050426118 -0.031601958 0.06576198 0.06682926 0.042370494 -0.037644695 -0.015340163 0.07523336 -0.02150923 -0.039871823 0.0044534723 0.0093228975 -0.0765587 0.13856351 -0.09097736 0.027373863 -0.020341767 -0.106289364 0.064381 -0.03915421 0.03422628 -0.117363825 0.033224806 -0.07134728 -0.0034966047 0.08540309
222 -0.019850237 -0.07167778 0.03973364 -0.04202089 0.05499121 -0.02891544 0.006241865 0.06939231 -0.065684035 -0.04387732 0.081731044 0.033206765 -0.08403018 -0.10514385 0.041910157 -0.033822637 0.039510805 0.08995721 0.112463154 -0.0005834423 0.09036948 0.01193038 -0.030356565 0.058928784 -0.062654965 0.10590722 -0.029914744 0.0072839055 -0.101318315 0.0554397 0.028485747 0.087001204 -0.10689271 0.033959325 -0.032739878 0.055627197 0.025521085 -0.039734457 -0.015508647 -0.052417338 0.03197981 -0.043877907 -0.07464171 -0.054588974 -0.009740754 0.0046899533 0.07875023 -0.012684636 -0.022677353 0.064585276 0.07112154 0.013996056 0.06236134 -0.04467038 0.14293715 -0.02143099 0.025933411 0.036754217 0.08322258 -0.048295576 0.002223352 0.020950722 -0.011238509 -0.04036012 -0.07872023 0.09564419 0.08958052 0.08727147 0.041509192 -0.07741606 0.0470514 -0.0008305466 -0.12531547 0.008043997 -0.03615536 0.124439195 -0.05150064 -0.03786283 -0.063434385 0.01925534 -0.048492998 0.0046214336 0.036236074 -0.033239778 -0.058558516 -0.049991902 0.008251012 -0.055722013 -0.05938523 0.026585013 0.021733768 -0.025915643 -0.037820704 0.0067793294 0.036015227 0.023591146 -0.063452825 0.048161022 0.10165838 -0.0071724136 -0.053658333 -0.09451938 -0.054187067 0.057123918 -0.021891097 0.052036684 -0.008616402 0.03824305 0.06689133 0.047837995 0.024601016 0.015990797 -0.085014924 0.011414888 -0.07015988 -0.12609826 -0.10491706 0.026770812 -0.14447084 -0.15811898 0.0641591 0.06381863 0.024817213 0.03571505 -0.1444345 -0.108354785 0.14178213 -0.03213486
234 -0.008851416 -0.036732465 0.049355064 -0.017966272 -0.0072858604 -0.042999797 -0.033980343 -0.0031083412 0.019742431 -0.045806337 0.07779044 -0.0070761135 0.08097891 -0.0919456 0.05106997 0.108945906 0.06997848 0.062343255 0.038496584 0.06454726 0.013603656 -0.03896188 0.045781314 -0.012041017 0.036265578 -0.009157338 -0.063029416 -0.010594202 -0.046130553 0.039892048 -0.015051565 0.0611675 -0.033453126 -0.020048438 -0.016851043 0.0040679276 0.1323833 0.02181935 0.07192565 -0.10998057 -0.12782449 0.03403216 0.04629385 0.070372775 -0.02319158 0.049517263 -0.017009124 0.070136905 -0.105408296 0.08767451 -0.09240517 0.021314397 0.0009140068 -0.012757432 -0.08162883 -0.09397352 -0.034490105 0.099910274 0.044708885 -0.018286174 -0.13833722 -0.06488547 -0.048713345 -0.1311595 -0.016915439 -0.017241374 -0.04359564 0.04516054 -0.021495005 0.07110313 -0.017859954 -0.041554917 -0.06315197 -0.04695689 0.024701674 -0.09897855 -0.020349726 -0.054198235 -0.03240372 0.059337024 0.049711443 -0.026193822 0.097075745 0.10010484 0.0026113125 -0.108601734 -0.050010394 0.00100789 -0.017740196 0.06319923 -0.03522558 0.029636206 0.012790544 -0.058886748 0.094362006 -0.07064523 0.029329069 0.027341718 0.01852001 -0.13684279 0.010334227 0.070367046 0.025770873 0.1426004 0.084705636 -0.0054279715 -0.02594636 -0.0068675955 0.0013673594 0.02499666 0.12367387 0.08253841 0.076051064 -0.009914578 -0.11281581 -0.16269708 -0.045774948 0.042074855 -0.051730663 -0.026452454 0.007312442 -0.04413863 -0.046525892 -0.004577026 0.018391129 -0.13949493 -0.03746998 -0.04854933
235 -0.09700362 -0.0623304 -0.00804405 -0.045499682 -0.084597126 -0.044783596 -0.067637086 -0.09059048 -0.046646077 0.11865637 -0.058576565 -0.0910907 0.013782439 -0.061078664 -0.039674614 -0.019294182 -0.03714878 0.014080233 0.027360238 -0.06372159 -0.057238825 0.05692598 0.05727344 -0.14354107 -0.003627204 0.03531666 0.11703088 -0.067111105 0.035787698 -0.04498188 -0.01374329 -0.038596407 -0.13273402 0.07898653 0.05660439 -0.027928717 0.021536006 0.0015052317 0.055988554 0.012804798 0.09338946 -0.09164246 -0.02452601 -0.0012037787 -0.025532402 -0.002113444 0.118046775 -0.11755529 0.045288943 -0.010536973 -0.082023315 -0.006413478 -0.052807808 0.016318563 -0.12968951 -0.103272125 0.026173614 0.076222025 -0.08703753 0.017847268 -0.023902029 0.04426782 -0.038528923 0.0871694 -0.10242294 0.014178417 0.004935738 0.053771846 0.05808154 -0.02528219 0.050928183 -0.040633675 0.077744484 0.017289273 0.052702144 0.09755204 -0.1385282 0.008857484 0.07892143 0.05148643 0.14378329 0.04638647 0.021278754 -0.0744529 0.091423795 -0.03932283 -0.056367807 -0.11223259 0.06997542 -0.01750968 0.12065604 -0.03556718 -0.09922778 0.04229736 -0.04698011 -0.10519263 -0.017355863 0.015188933 0.07569292 -0.08804602 -0.11308309 0.1027155 -0.062980436 -0.054133203 0.050918628 -0.084685616 -0.02922059 0.014749175 -0.0021689935 0.02096843 -0.01534649 -0.028090995 0.0544026 0.009478933 -0.027913604 -0.10235587 0.047139972 0.037374824 0.013988658 0.028787754 -0.041297525 -0.023339907 -0.00961744 -0.04197793 0.07047979 0.116456576 0.079816826 0.0816106
237 -0.00027838422 0.022263182 0.007873443 -0.05081291 -0.068455726 -0.011653782 0.07592415 -0.1131898 0.034352664 -0.019266743 -0.0037312761 0.036187567 0.10797735 -0.09992039 -0.07060859 -0.04176187 0.014338551 -0.008226648 0.030508902 -0.051342364 0.023231704 -0.085437305 0.06381537 -0.058464326 -0.13298763 0.102815665 -0.08847022 -0.021893714 0.045133267 -0.11261425 -0.050204456 -0.04708104 -0.032234382 0.14114493 -0.1266567 -0.07802686 -8.471066e-05 -0.06748417 0.11891789 0.010886476 0.10569156 -0.0572152 0.073104315 -0.055859342 -0.12516785 0.04126728 -0.124296986 -0.07258548 -0.067820884 -0.07772593 0.07463712 0.027435847 -0.17016873 0.05447609 -0.019005893 -0.040796444 0.054165695 0.05440985 0.11041352 0.07979489 0.0011206969 0.09283868 0.032369897 -0.038820922 0.022830771 -0.064930595 -0.05706361 -0.0554307 0.026983794 -0.013573896 0.04940221 0.06437363 -0.1209351 -0.05500205 -0.019491835 -0.020146858 0.059922047 0.060832366 0.07718819 0.097908214 0.025088936 0.04042181 0.052019402 -0.025928615 0.07698929 0.0022337423 -0.038123142 -0.029395424 0.12898675 -0.013445336 0.112368755 -0.0025743013 -0.045011714 0.05483175 -0.07970692 0.026437728 0.0029597303 -0.0939242 0.06669309 0.03711153 0.08360958 0.023614919 -0.040525533 0.07506178 0.10842791 -0.021192286 -0.095190264 -0.0185663 -0.032855354 -0.10164793 0.007792906 -0.062005226 0.06702709 -0.039566796 0.051682584 -0.13942346 0.090561725 0.032871574 -0.021460239 0.0555796 -0.12205624 -0.045310173 0.059938338 0.03372038 -0.03002911 0.075608395 -0.112266 0.11833078
240 0.062194537 0.0031373587 0.05405549 0.04298417 -0.13088736 0.10370976 -0.0679126 -0.0014137032 0.07057218 -0.014561342 0.05755373 -0.055351097 0.07403328 0.014178346 0.030695595 0.051612895 -0.046548568 -0.019310381 0.026370713 0.018674705 0.0335123 -0.057116732 -0.008636828 0.12683342 -0.028538888 -0.0038259302 -0.15535216 0.057771116 -0.033134107 -0.065607354 -0.016824935 0.011637813 -0.0200129 0.027501503 0.06627465 -0.13250597 0.034143046 0.031031033 -0.12912859 0.046290267 -0.05847056 0.057630997 0.017948916 0.073310286 0.065489076 0.03906272 0.112319194 -0.021897009 -0.02710075 -0.05345831 -0.005170022 -0.07808463 0.009163082 0.004396293 -0.049001023 -0.03146586 0.07365067 0.04824368 -0.008044526 0.0019943085 0.07411321 0.012240439 0.016004559 0.0057390006 0.070699714 0.08500258 -0.090098724 -0.042377397 0.081462994 -0.077369474 -0.029165613 0.031041946 0.12535858 -0.029208634 0.054129634 -0.10707886 -0.026351025 -0.071761206 -0.062161446 0.095792875 0.15884705 -0.08654451 0.013397923 -0.0010240986 -0.0802793 0.040939007 -0.0074342126 0.08475886 0.07677139 -0.047645774 0.0027876338 -0.08210927 -0.12848477 -0.09793754 0.06497454 -0.13370201 -0.11337963 0.07643765 0.05474232 -0.08140814 0.052767593 -0.0005635544 -0.0072528357 0.005244905 0.022627128 0.08391363 -0.10608741 -0.019690478 0.0006972897 -0.10491863 0.056444883 0.039252277 0.06361335 -0.03157106 0.019264517 0.004207085 -0.06795872 0.070942745 0.05937776 0.1014623 0.12222128 -0.033061262 -0.0533184 -0.07018437 0.13570511 -0.005393464 0.122123 -0.035664275
241 -0.1194137 -0.103825875 -0.09970292 -0.026630778 -0.029861595 -0.08025871 -0.09255537 -0.117471196 -0.09352938 0.08847716 0.11680559 0.09285334 -0.08377945 0.032222852 0.09296575 -0.030499443 0.0016479903 -0.028602209 0.027865415 -0.0233611 0.06767746 0.04088521 -0.050584935 0.046233684 -0.1036478 0.0978545 -0.0099224355 -0.10883083 0.013948858 -0.006638402 0.026568495 0.046726026 0.11152613 0.07579136 -0.08462866 -0.101141915 -0.13282333 0.061471544 -0.04741518 0.024138266 0.027508838 0.15055709 -0.032697 0.16378269 0.015905527 -0.12135751 -0.11656895 -0.059356228 -0.0013673527 -0.045513455 0.051887758 -0.04296222 0.04847948 -0.0733703 -0.094448276 -0.11972069 0.109177165 -0.039810523 0.06418443 -0.046691928 -0.07804192 0.018189019 0.06316012 -0.01697533 -0.07013097 -0.04424894 -0.10426934 -0.036486596 0.1371242 -0.109294154 0.033679247 -0.09445407 -0.05036053 0.010840021 0.041323 0.068890505 0.124853924 -0.011466582 0.017477663 -0.10745822 0.014914207 -0.08719582 0.050998207 0.06188654 -0.07922524 -0.014063019 -0.1382552 0.0031446335 -0.03287327 -0.06851898 0.001266473 -0.08745607 0.0784536 -0.009369628 -0.017656712 0.057947684 0.10698534 -0.018799327 0.07803812 0.04057284 -0.08049296 0.093622595 0.02421518 0.02527321 0.12614612 -0.059404425 -0.038431082 0.078717686 -0.086004674 -0.022160735 -0.062014583 0.057996076 0.067184396 0.016895467 -0.065242715 -0.069975324 -0.13339117 0.04397022 0.0061736004 0.009034887 -0.07748392 0.031375915 0.0016441526 -0.039054263 0.07964335 -0.008248244 0.08162928 0.06389595
242 0.02254037 -0.0827993 0.0568508 -0.03831202 -0.08190844 0.16194525 -0.023021385 -0.042431325 0.003399125 0.0062471125 0.085160546 0.03834184 0.03522818 -0.029043345 -0.08843612 0.013357748 0.023902545 -0.03568706 -0.01267726 0.05117837 -0.015233087 -0.027068406 0.028375266 0.14091091 0.053965345 0.0488876 -0.007144491 0.12225479 -0.06621981 -0.023420569 0.047451742 0.015110159 0.0140231745 -0.052293196 -0.060872406 0.021272665 -0.04830549 0.057767767 -0.11067215 0.010100254 -0.024041686 -0.03916403 -0.084185876 -0.122833945 -0.07268666 0.048146136 0.074967995 0.002430749 -0.050043993 0.018753631 0.049021177 0.030740583 -0.070940696 0.00018241673 0.087107785 -0.12513813 -0.024330376 0.038980395 -0.014188159 0.056361336 0.036379784 0.00034185583 -0.0031436528 0.10866925 0.010423906 -0.018506605 -0.116384044 0.01456094 -0.009001773 0.006246088 -0.079682045 0.02656084 0.015850749 0.032299522 -0.09115455 -0.05596011 0.0965385 -0.053430926 -0.014621014 0.0076742554 0.032299705 0.08459312 0.07859764 0.07552747 -0.0719258 -0.07503637 0.10493988 0.039881162 0.002007299 -0.033927094 -0.047854897 0.06932585 0.02640484 -0.12685132 0.03726414 -0.07507105 0.029529713 0.004181495 -0.014665446 -0.024240933 0.03560557 -0.06744384 -0.052848913 0.022797428 -0.07014171 0.06332988 -0.015673231 0.022325596 0.034556974 -0.08587722 -0.1267438 0.040392254 -0.080367595 0.03979466 -0.009450201 0.085672826 0.079350285 0.10997197 -0.04157009 -0.0015431177 0.04332405 0.08698187 -0.023356479 -0.118363805 0.06057426 0.009002148 0.12668692 0.069946945
243 0.15260872 0.05869306 -0.03619833 -0.061083604 0.06330885 -0.05170978 -0.015383607 -0.039038736 -0.06777841 -0.027210223 0.094090216 0.10900588 -0.07375885 0.013422133 -0.12883236 0.012392493 -0.0059793377 0.038964164 -0.059220992 -0.015153153 0.032825403 -0.03760266 -0.027165646 -0.09151617 -0.110858604 -0.05103259 -0.10368714 0.14847659 -0.10514726 -0.021115618 -0.03705729 0.02755959 0.00260887 0.16097994 0.11077975 -0.085935906 0.10511595 -0.025511544 0.119210444 -0.04124452 0.030749291 -0.014169367 -0.04853764 0.04632451 0.0074433074 0.07330022 0.059664752 0.065950416 -0.019705715 -0.05323875 0.07291532 0.057875168 0.06884611 -0.047115736 0.07035627 -0.001380113 -0.10943303 -0.01483597 -0.07331256 0.085265 -0.06264995 -0.018775057 0.07033929 -0.0029683036 -0.04921974 0.08916627 -0.06885417 -0.07448553 0.11473521 0.052745 0.081111 0.021565927 -0.004613277 -0.0049499744 -0.07407004 0.05153626 0.0008081781 -0.023727361 0.092831254 -0.02373713 0.05644406 -0.008060222 -0.12804642 0.04047588 -0.074402265 0.09523479 -0.03169406 0.014544322 -0.010995412 -0.0288062 0.039476946 0.06846943 0.09154667 -0.0036288507 -0.0872548 0.005752005 -0.016773736 0.058083586 -0.06913317 0.075304866 -0.015620708 -0.06806226 0.11678479 0.093063444 0.13762034 -0.009569659 0.076243035 0.004633587 -0.094874986 0.0048440453 -0.053854413 0.06415295 0.01997623 0.0635289 -0.00080995 -0.062303193 0.025310185 0.04209674 0.048240867 0.025151802 -0.040940482 -0.028963378 -0.023212273 -0.11820658 0.05730691 0.07994202 -0.03761115 0.13473329
244 -0.09438141 0.03303438 0.0021034305 0.07986338 -0.0004109512 0.121707805 -0.055020023 0.010789974 0.04653979 0.017444173 0.031129777 -0.12609635 0.017900987 -0.012787321 0.07579696 -0.027110673 0.043759037 -0.016009511 0.016540293 0.1299801 -0.13374698 0.07394094 0.13538113 -0.11708954 0.014697688 0.031105077 -0.052760024 -0.04538262 -0.046495188 -0.0050242166 -0.059819628 0.038307685 0.04381663 0.03405496 0.16771169 -0.09246048 0.05635856 0.011663909 -0.071959235 0.106870376 -0.038439423 0.065592974 0.064553335 0.008308081 -0.11169861 0.036307763 0.060897414 -0.15295067 0.11005209 0.019054294 -0.03508248 0.13036874 -0.08147092 -0.022874737 -0.045214523 -0.079172455 -0.0134061575 0.14934382 -0.0031151841 -0.11671831 -0.041417696 0.025484802 -0.035878163 0.006294602 -0.0048782146 0.023985194 -0.045534197 0.13163827 0.109506674 0.0129576605 -0.087783866 -0.011463909 -0.020284124 -0.0018025123 -0.0492425 -0.057832822 0.039120678 -0.006219722 0.09158493 0.030082572 0.06345497 -0.002292458 0.04829732 -0.03857834 0.06054251 -0.011647003 -0.13358954 -0.07032204 -0.090550296 -0.01941728 0.08664906 -0.0071392427 0.019439647 0.039156582 -0.011470652 -0.026368406 0.022267176 0.010354974 -0.048825055 -0.029109681 -0.091241695 0.08394115 -0.00046994048 -0.070518024 -0.11559404 0.047332205 -0.018755518 -0.07083014 -0.022721292 0.05497375 0.05292619 0.026061945 0.010681603 -0.0019903907 -0.0047066803 -0.046676606 -0.020459956 0.08697123 0.058740355 0.022541862 -0.025538363 0.13063028 0.020802565 -0.0076484224 0.04398614 0.0012129671 0.030385295 0.116974324
245 0.061335053 -0.017874245 -0.061663814 -0.12786144 -0.046763934 -0.013845414 0.03309747 0.08867123 0.030604007 0.06303879 0.0022441805 -0.113464296 -0.017743027 -0.018706523 0.102457315 -0.028532175 0.047150824 -0.01142478 -0.050109375 0.058899086 0.09675347 0.028851591 -0.052204363 0.079415 -0.048128832 0.013148247 0.09951122 -0.01855475 0.0076372316 -0.11470493 -0.09998118 0.05369979 -0.13730583 0.0068452437 0.03123878 0.027391585 -0.1391972 -0.11038719 0.01954722 -0.048746523 -0.060100533 0.059548523 -0.057898156 0.019600308 0.008836543 0.03249509 0.040547714 -0.083591886 0.09210483 -0.039831214 0.034344234 0.00796595 -0.13230751 -0.10019274 -0.055546734 0.03989993 -0.08246472 -0.07242976 -0.008590771 -0.061109565 0.08686727 -0.16348715 0.017354202 -0.039764717 -0.08313433 0.018521104 0.01850898 -0.06780015 -0.038877197 -0.08545522 0.14184855 -0.059775975 -0.072927795 0.045114283 5.4292454e-05 0.035540458 0.108698994 -0.009810808 0.019830946 -0.012832276 -0.019591767 0.013978604 -0.025362995 0.057693534 -0.059867732 0.050844997 -0.08660376 0.12505507 -0.004971138 -0.0034032213 -0.097123034 0.065209776 -0.08001203 -0.030461777 -0.013535555 -0.042971294 -0.043451995 0.04403155 -0.1282432 -0.103749745 -0.008265265 0.07745462 -0.07435412 -0.06602227 0.10616965 0.023474727 0.048006848 0.030847361 0.061646655 0.0081501575 -0.061192848 -0.117154725 -0.06057184 -0.018182203 -0.015318169 0.04772639 -0.050696954 -0.09518721 -0.079107456 -0.0030722625 -0.003108526 0.08512687 -0.0011738405 0.0054626972 0.031442348 -0.07262114 -0.016533252 0.014640693
247 0.12504157 -0.04843092 0.05240977 -0.061727237 -0.10388853 0.09035168 -0.034873784 0.11645669 0.007194163 0.0025666074 0.06588669 -0.074382074 0.10973385 -0.06071973 -0.002971499 0.02609453 0.027838694 0.019626483 -0.015605853 0.09182477 0.053032465 0.026211612 0.042840272 -0.06717435 -0.056587256 0.002519049 0.09595626 -0.04128075 0.04896142 -0.14325662 0.053505093 -0.037546534 -0.08763269 -0.013904435 0.16383286 -0.061134096 0.103642724 0.019181801 0.09480375 0.0030625341 -0.100147575 0.05756726 -0.088222794 -0.030165661 0.08507634 0.032522455 0.031979304 -0.061567564 0.0799683 -0.01453904 0.10201778 0.053585365 -0.123677544 -0.03333468 0.0058792504 0.028497295 0.11808876 0.13276362 -0.03934351 0.037419133 -0.047239576 -0.010695906 0.1024142 -0.09451599 0.042275522 0.0051796236 0.09321885 0.013291705 0.013500502 -0.032917902 -0.009276021 0.11564608 -0.034869306 0.12288653 -0.043155324 0.036522225 0.016564304 -0.013331886 0.09717663 0.028315311 0.1348095 0.067453355 -0.02672464 0.05972076 -0.024425922 -0.000798019 -0.05665077 0.041606847 -0.09249334 -0.0577188 -0.05113509 -0.02473488 0.06583315 -0.034953732 -0.081488684 0.08288469 -0.15507466 -0.02589099 0.013948174 0.0018734192 0.023386493 -0.06820643 -0.04020842 0.04231416 0.036629613 0.028296385 0.023669882 0.032295354 -0.097817786 -0.15170658 -0.046641275 0.077932864 0.105151035 -0.04836376 0.07239712 -0.03085987 -0.05295441 0.03260656 -0.13449481 0.017296107 -0.041761614 -0.010204361 -0.018099396 -0.015795976 0.04488356 0.020499745 -0.075247176 -0.025832688
248 0.06690712 -0.07747101 -0.04279223 0.0059698382 0.07363528 0.06910183 -0.022224324 0.005989081 0.12566368 -0.027428892 0.05482237 -0.07373866 -0.0068697957 -0.06357668 -0.09293702 0.042823557 -0.03807823 0.018177286 0.012676389 -0.027196717 0.016041225 0.026385915 -0.0020277686 -0.06909159 0.019639336 0.13338529 -0.09290847 0.006021891 0.0629036 0.026600266 -0.08278345 0.078069106 -0.09727611 0.033036258 0.017730918 -0.047562256 0.032444865 -0.08283857 -0.10580132 0.03078404 0.11105562 0.03714418 -0.015805898 -0.051720228 0.07325802 -0.065335885 0.097383045 0.03275771 -0.015207727 -0.04995945 -0.0044845836 0.11200063 0.03476695 -0.011612031 0.12140831 -0.0062225414 -0.04308316 -0.039073493 -0.01501469 -0.0014346989 0.11320782 0.031636152 0.114748135 0.008687906 0.015901027 0.0155841205 -0.001887317 0.0046525416 0.09901509 -0.003834426 -0.005262736 0.10418395 0.0036155283 -0.04249599 -0.025696622 0.031549353 0.056403182 -0.002318676 -0.039621927 0.090119794 -0.030714221 -0.09213593 -0.05993593 0.019646693 -0.01791269 -0.0013193137 -0.0703188 -0.05939988 -0.018665476 0.13627778 0.0026554556 -0.04051143 -0.010524879 -0.0228605 0.014092297 -0.01538774 0.12354332 -0.067016274 -0.032154217 0.014118411 -0.12443569 0.01967256 0.107313 -0.13515805 -0.017704882 0.020742685 -0.00012253968 0.08025173 0.057689585 0.013378689 -0.0065694056 -0.024631716 0.08218324 0.09750347 -0.00029257376 0.14624864 0.05208422 0.14684294 -0.09009981 0.05647879 -0.033099014 0.04648427 0.07784191 0.031408217 -0.0021954163 0.014157283 -0.08836904 0.07307646
260 0.081292965 0.14403853 -0.035508208 0.08598945 0.012717045 -0.061911777 -0.012035471 -0.01954939 0.11844119 -0.06337292 0.0042962846 0.09640465 0.063771404 -0.05939529 0.0070674284 0.057980996 -0.030185523 0.038202275 -0.04001058 -0.080232225 -0.090854265 -0.010069012 -0.15579584 0.018049536 0.028226301 0.020133836 -0.06845971 -0.049521603 0.037682235 0.023702603 -0.10006266 -0.012289771 0.032522872 -0.017114442 -0.039186124 -0.017075757 0.08380722 -0.04758548 -0.005404057 -0.054068703 -0.11590452 -0.0247578 -0.0852739 0.07140586 0.105202556 -0.050182547 0.056708097 -0.054150373 0.08335266 -0.12059124 0.085694924 -0.08003111 -0.036526795 -0.061579462 0.0027568052 -0.03929654 0.07505218 0.09633459 -0.04376069 0.08543278 0.0408219 0.04134236 -0.010372373 0.0005481456 -0.03573052 0.03657808 -0.058775503 -0.022136591 -0.06044261 -0.06705854 -0.009914697 0.04109948 -0.0027187052 0.0034521073 0.04022347 -0.005994018 -0.012432138 -0.059091274 0.0030323353 -0.06761171 0.026779212 0.021794308 -0.041115493 -0.06261354 -0.09777087 0.07700518 0.009345666 -0.07153183 -0.0032892334 -0.06171796 0.041498166 -0.023647776 0.0410662 -0.02107528 -0.02761112 -0.0049973344 -0.12474178 0.14218554 0.064836115 -0.040675584 0.11048913 0.12924007 0.013416786 -0.11517216 -0.0129353525 -0.082387276 -0.032898754 0.0021199668 -0.15541673 -0.040769152 -0.15084514 0.0012391806 -0.04787552 -0.06856709 0.122758664 -0.117683716 -0.078611 -0.027454508 -0.0038032 0.099647105 0.16152155 -0.08189279 -0.02318565 -0.006472638 0.14743121 0.007963207 -0.10471413 -0.095202595
263 0.1040437 -0.05018345 0.1015482 -0.04181278 -0.08566091 0.057571158 0.032961223 0.021249712 -0.042842068 -0.05291003 0.0077557904 0.060378756 -0.02950009 -0.100196704 0.026918583 0.05000416 -0.037973866 -0.045772076 -0.095439024 -0.044003993 -0.07904285 -0.12798645 -0.05427575 -0.08856201 -0.110972956 -0.00863711 0.014756256 -0.10622175 -0.05367119 0.07014885 0.11922098 0.020068789 0.056362424 0.06390768 -0.017421039 0.013412265 -0.108546525 0.054512084 -0.088612586 -0.033430785 0.08430278 0.035976373 0.012370281 0.06668379 0.108453326 -0.011576837 0.006043648 -0.07165508 0.10117026 -0.016843954 -0.073676154 -0.0741104 0.14942363 -0.028955799 0.113226965 0.10772066 -0.12879533 -0.11060346 -0.005100161 0.062060058 0.122526765 -0.0008323532 -0.044961933 -0.05112258 -0.12386823 -0.10758664 0.06039328 0.03419488 -0.003859274 0.062652975 -0.08332823 0.06497384 -0.10683359 -0.13837476 -0.0137256915 0.119540505 -0.10266917 0.087076195 -0.032005906 -0.08494652 -0.062442206 0.053815387 -0.03148299 -0.026238427 0.010249499 0.0166799 0.08932145 -0.07199894 0.034432225 -0.12605394 0.1532099 0.011460206 -0.08412236 0.028457956 -0.084570825 -0.025372703 -0.044075284 -0.11983361 0.089534275 0.047070116 -0.00050192396 -0.018107437 -0.055572495 -0.03377816 -0.03199002 -0.025348492 0.03418451 -0.019708093 -0.013936458 0.07382796 0.05346153 0.13810056 -0.051138535 0.0679965 0.020004518 -0.013796639 0.1050016 0.06483119 0.0013173622 0.036247924 0.05155872 0.050121572 0.018890733 -0.11535421 0.06848248 0.08441465 -0.037566826 0.07065511
265 -0.04544551 0.03272081 -0.09837861 0.0943885 0.058924094 0.051979274 0.042362366 0.017387925 -0.0772345 -0.019631464 -0.14275917 -0.03487239 -0.038768336 -0.07668303 0.07337295 -0.064530686 -0.07860896 0.05492742 -0.021925593 -0.08370544 -0.06530677 0.04814328 -0.083744735 -0.0063069686 -0.024340676 -0.015136236 0.011952277 0.034615062 -0.009335503 -0.08043193 -0.03379095 0.045482937 0.06882739 0.072719716 0.017369518 0.08079724 -0.06135614 -0.069213785 -0.012223953 -0.054771937 -0.06149236 -0.054701228 0.00086168415 -0.07862535 -0.009423669 -0.044529177 0.094909914 0.0058990717 0.06455223 0.039994862 -0.013201785 -0.10506623 0.08002134 0.048015006 -0.0016019647 -0.058728248 0.0012085303 0.011854047 0.029567566 0.15157783 0.15523139 -0.017490163 0.107800834 0.051222403 0.07033896 0.010540869 -0.10151374 -0.01672548 -0.050333917 -0.14156534 -0.032277647 0.03605398 -0.09085795 -0.014216071 0.06516348 0.01284007 0.02481854 -0.0012865242 0.020009091 0.0068994155 0.008509006 0.046622105 0.04031443 -0.04958157 -0.00860803 -0.06984836 0.070416875 -0.03524824 -0.07258251 0.038467016 -0.11053162 -0.021788113 -0.12685546 0.037224036 -0.12542903 -0.1012864 -0.12331159 0.033145864 -0.14281355 -0.058948826 -0.03886692 0.14231126 -0.099690355 -0.09768447 -0.03325852 -0.030624012 -0.0027290813 0.013088448 -0.045905933 0.029145831 -0.12578301 -0.010746593 -0.0036873326 -0.06470248 0.064607285 -0.032145917 -0.034948707 -0.072698876 -0.043677267 -0.029902006 -0.09554868 -0.03290785 0.14238483 -0.0042661773 0.10004002 -0.06451722 -0.055917054 0.0625626
266 -0.09451137 0.1342838 -0.00067690166 0.02966941 0.020049894 0.0072479527 -0.044966076 -0.085630864 -0.035998855 -0.01071736 -0.0019148809 0.022710355 -0.10386744 -0.008562834 -0.043531388 0.0703304 0.030374967 -0.12190428 0.070033096 0.0016825569 0.011869615 0.031698395 0.050959203 -0.06747332 -0.03165235 0.0020979552 0.077129416 -0.051972475 -0.030919367 -0.04556076 0.04417455 0.13422346 0.047028415 0.0028638956 -0.043709934 0.017455209 -0.087216444 -0.051477194 -0.0012498911 0.015393163 0.10299428 0.0351599 -0.0015275825 -0.03293522 0.071475245 -0.05991625 -0.11523576 0.042393193 -0.055540055 -0.104195625 0.04047807 0.09375993 0.022419222 -0.06833976 -0.006597875 -0.03133481 -0.049119182 -0.12417099 -0.027480725 -0.010026109 0.100033596 0.02826308 -0.11126905 -0.008180586 -0.09714495 -0.12180844 0.03162884 -0.01489437 -0.08048722 0.066992104 0.07160748 -0.07895061 -0.03962008 -0.042754162 0.04068556 -0.017797543 -0.11512157 0.11910299 -0.13443777 -0.10662411 0.058216084 -0.07833111 0.006491953 0.041464403 -0.0154481605 -0.06855304 0.021898458 0.030504363 0.026974875 0.01950292 -0.011415504 0.029886583 0.05054678 -0.083481625 0.011112194 0.025633805 -0.008369355 -0.100285746 -0.053031348 0.069799334 0.03878384 -0.06998089 -0.14063607 -0.0061476454 -0.07769865 -0.07879909 -0.0665095 0.10916859 -0.032321468 0.06479492 -0.03990433 -0.109250195 -0.037437905 -0.05129801 -0.058941368 0.12806687 -0.069936074 0.12006695 -0.0724156 -0.08117761 -0.010404001 0.08016109 -0.08360231 -0.1335087 0.1254548 0.08810554 -0.0026662021 -0.015986701
267 0.117781244 -0.063111275 0.07855893 -0.08381076 0.10941021 0.035969812 0.11500736 -0.12267558 -0.057753183 -0.10057011 -0.018678952 0.12885854 -0.12973912 -0.0720305 0.051711295 0.15945292 -0.070560865 0.06912559 -0.013807923 0.021151152 -0.020339683 0.124596864 0.039026733 -0.09892777 -0.0722388 0.09541781 0.0021713704 -0.0017883328 0.011559937 -0.08560162 -0.03402138 -0.10204502 0.03308227 0.008480644 0.10749971 -0.06552447 -0.0393532 -0.06411135 -0.01635463 -0.043608386 -0.0031134672 -0.03972865 0.020906948 0.0018332647 0.0047719334 -0.015908113 0.13798445 -0.09944233 0.038463615 -0.04842975 -0.025302729 0.01597509 -0.009878991 -0.017453387 0.13265361 -0.004510749 0.0054623974 0.05532429 0.04489351 0.05374208 0.02850118 -0.02374271 -0.037831526 0.10820638 -0.12009459 -0.06468201 0.013741414 0.0069530066 0.049457304 -0.07896924 0.049862113 -0.100099824 -0.0378726 0.010185502 -0.019949116 0.1027219 0.04803448 0.023492724 0.069851644 -0.14148553 0.043667194 -0.030937618 -0.089687385 -0.035301454 -0.080635704 0.08169431 -0.0035575784 0.12728974 -0.046719283 0.12174047 0.13497697 -0.031324904 -0.056978453 -0.11025337 -0.09614899 -0.020266263 -0.09345884 -0.03599345 -0.07613916 0.054263502 -0.12371436 -0.049884714 -0.0053783185 0.06869147 -0.048706517 -0.0043660826 0.068539955 0.021912994 0.01324758 0.09636874 0.08504116 -0.051644273 0.0009006867 0.055637974 -0.13396174 -0.110420525 -0.002081023 -0.043621507 0.15281032 -0.040972583 0.12071253 0.012446514 -0.0027967046 -0.04871859 0.04621056 -0.012985658 -0.00794455 0.09826262
269 0.09206645 0.010177047 -0.07063319 -0.096153155 0.03553242 -0.0479905 0.039981768 -0.03925546 -0.042172346 -0.035907276 0.028641734 0.011828293 0.0013363478 -0.047974665 0.02866161 -0.011498299 -0.11567787 0.08779725 -0.04813185 -0.032326348 0.06078601 -0.04570727 -0.15389577 -0.13250056 -0.1125992 0.096090846 -0.064683095 0.022068689 0.055271294 -0.04381801 0.019535815 -0.039547455 0.014027151 -0.010297168 -0.028684057 0.015445821 0.059125893 -0.027385004 -0.011780974 -0.13461523 -0.015853293 -0.062186413 -0.014782275 0.12494715 0.058975924 -0.046529315 -0.13183846 -0.07799596 -0.09659538 0.03721494 0.053683907 -0.03622446 -0.060225286 -0.018951835 -0.09368334 0.018902754 0.07948202 0.01729526 0.050844315 0.010141565 0.05787004 -0.067342944 -0.08977811 -0.03441261 -0.05544649 -0.00044939615 0.010677007 -0.019965054 -0.011204506 -0.036502935 0.03212148 0.026159797 0.04797736 0.005663711 -0.104684465 -0.07025408 0.016278429 0.058502033 0.07145088 -0.075455144 0.08604844 0.054684624 -0.12959541 -0.012782092 0.065546505 -0.054569155 -0.059631687 0.020837674 0.15447126 -0.073375896 -0.021780707 -0.01756478 0.026387868 0.067291655 0.02664591 -0.08795698 -0.006360128 -0.1533699 -0.02031023 -0.122769766 0.09592822 0.0061319475 0.009555462 0.09956895 -0.07809825 0.09178876 0.09652473 -0.089670904 0.06879315 0.036750115 0.039759208 -0.008665092 -0.13305639 0.0063884505 0.010620344 -0.037014257 -0.01789677 0.036978547 0.009125606 0.09256659 0.013145631 0.13374592 -0.06267772 -0.059044335 0.057097167 0.029568251 0.041739855 -0.100178316
270 0.04114903 0.025858859 0.115337476 -0.10070787 0.027547084 -0.03074685 0.13045113 -0.00304065 0.057240903 0.022394622 -0.00026637962 0.055431187 -0.12297476 -0.022911167 -0.034981187 -0.0330361 0.0010522216 0.10481451 0.0062659592 0.08565619 0.0018507958 0.04257375 0.009938832 -0.043974787 0.03967245 0.07367263 0.03850648 0.020174835 0.051964596 -0.06014904 -0.012184121 -0.050899394 0.05533687 0.06398371 0.009550249 0.039567914 -0.07831298 -0.01926349 -0.12725987 0.008347266 -0.0025297152 -0.01825548 -0.058298808 0.028415015 0.031575758 -0.045591407 0.06414438 -0.052519068 -0.055143688 0.13293259 0.026049959 -0.066959575 0.02357258 0.030140713 0.08144848 -0.09860958 0.12429193 0.0699862 0.03602243 0.10372148 0.028918147 0.005182429 -0.07422566 0.051854074 -0.0057266746 0.06448806 0.13676693 -0.03880178 -0.09418398 -0.1126166 0.016101971 -0.037156712 0.04059848 -0.07262126 -0.11086355 0.05052289 0.044742238 -0.02806383 0.009375842 -0.057417907 0.03788454 -0.0028418922 0.027807917 -0.054748446 -0.008275632 0.008681546 -0.0022294503 0.015959322 -0.092160724 -0.106110685 -0.04754059 -9.4927396e-05 0.0441051 0.025909822 0.033058397 -0.06641551 0.024322784 -0.043023266 -0.029356182 -0.024821337 0.115466766 -0.12593433 0.05027735 -0.0069171223 0.04690442 0.05689192 0.047321253 -0.0052359896 0.027293978 -0.09461393 0.014631295 0.046095263 -0.031145854 0.14643838 -0.039754037 0.009943279 -0.07192857 0.054845046 0.003219648 0.092514895 -0.011604838 -0.034443628 0.02829583 0.0408183 0.05405354 0.05341478 -0.021349968 -0.061138764
271 -0.036784634 -0.10433209 0.11187804 0.039442886 -0.046408426 -0.080551594 0.14414702 0.05109683 -0.09636288 -0.03659714 0.09877003 -0.09901803 -0.08592126 -0.049277063 -0.03906438 0.11252141 0.14544238 -0.1143671 -0.07874961 0.07482804 0.07657206 -0.05826847 0.017617645 -0.07645454 0.026849948 0.057418246 -0.03235632 -0.1261599 0.048081663 -0.016234262 -0.062448777 -0.11387523 0.022586714 -0.07500928 0.0636233 0.024775283 -0.0111000845 -0.05320926 -0.06667347 0.081563406 -0.10886769 0.01199425 0.10558499 0.0055904146 0.023470515 0.008776684 0.030881682 -0.10626168 0.04544584 -0.009886026 0.05987561 0.046754923 0.03524901 -0.07604019 -0.006117429 0.07885595 -0.021504752 -0.13087295 -0.016213063 -0.10969105 0.045394253 -0.05767735 0.021119893 -0.08370969 -0.020562537 -0.039898645 0.15032661 -0.08729009 0.075321935 0.026606493 0.10814891 0.03712166 -0.0518488 -0.088806994 -0.099434644 0.15044099 -0.089726105 -0.03510221 0.071364135 -0.11101059 -0.019401077 -0.0102125695 0.08452049 0.001362785 0.06486774 0.11789818 -0.045538526 0.03707954 -0.051947627 -0.10912496 0.054257758 -0.052149564 -0.05667359 -0.0202741 -0.15441884 -0.06439596 0.06223414 0.0633623 0.025912536 0.083599426 0.050606232 0.090591684 0.039232645 0.0005648129 0.028698545 0.006008683 -0.08846549 -0.098534845 0.044297546 -0.015417826 0.07482773 0.0019052706 0.0022710308 0.060879067 0.100573026 -0.025722872 0.010151626 0.08862887 0.0023138863 -0.14836201 -0.02001911 -0.035484936 0.026714904 0.08790038 0.0871878 0.07058515 -0.10764282 0.025269581
