402 128
51 0.07803574 -0.024877459 -0.012182277 0.01983766 0.09874725 0.117057845 -0.018529754 0.009388985 -0.033894613 -0.051841933 0.003075946 -0.055742133 0.012144076 0.0829079 -0.10170469 0.16229858 0.022364054 0.074256234 0.114642344 -0.042942613 0.018590624 0.040392708 -0.021757826 -0.1230215 0.052839633 -0.020697935 -0.1163334 0.033852447 0.029304788 -0.01426255 -0.014188413 -0.015134968 -0.009162708 0.015025914 0.09028003 -0.071687885 0.0034817285 0.10863482 0.045349628 0.06474864 0.008137511 -0.076669104 0.08279301 -0.026718779 0.018696748 0.0769242 -0.010085799 0.052193243 0.107082985 0.068483435 -0.020370163 -0.005099373 -0.043178756 0.13577971 -0.010543251 -0.016844468 -0.05045132 -0.0016544954 -0.0057176366 0.00169881 -0.0579437 0.035763904 0.07209891 0.04341821 -0.18072604 -0.10002783 -0.038967036 -0.025981767 0.051940028 -0.021244707 0.06997597 -0.020313516 0.019369768 0.021671316 0.046995662 -0.053400066 0.05334622 0.03813741 0.11633979 -0.021297492 0.07392218 0.04982521 -0.06270075 -0.013646999 0.077269785 0.054603677 -0.019282518 0.060587198 0.005366242 -0.033570822 -0.013204546 0.033948943 0.05186223 0.05597504 0.076464586 0.0028617536 -0.071615845 0.018329453 0.10489767 0.023607286 -0.06295528 0.020981582 0.042326048 0.017014213 0.023446308 0.050206482 0.070494995 -0.09462819 0.036659826 0.05370188 0.034595955 0.10514527 0.06714651 0.08908367 -0.041737195 0.031752016 -0.054140028 -0.022266421 0.03955752 -0.10221724 0.070484556 0.105460264 0.009244655 0.034065917 -0.080180265 0.020588914 0.06414448 0.033650994
52 0.056601595 -0.057958357 -0.009664778 0.018028079 0.07336108 0.1238653 -0.01636689 0.0069308165 0.0007565884 -0.03887557 0.013808383 -0.028088292 -0.008165294 0.03198176 -0.08818881 0.15284061 0.017165015 0.087108925 0.08484453 -0.06235897 0.026494663 0.07245551 -0.035141733 -0.1265985 0.05550309 -0.048740327 -0.11429798 0.023350213 0.0014476151 -0.0030745727 0.0057046893 -0.021177975 0.0045329905 -0.0003922649 0.069189556 -0.058964502 0.0016735109 0.095178895 0.08976247 0.043917473 0.009734607 -0.09322933 0.053072616 -0.004564454 0.0033901313 0.08748046 0.016238434 0.04918894 0.13265184 0.035020813 -0.07007828 0.018042568 -0.06803022 0.10843355 0.009637614 -0.0138997575 -0.05086717 -0.03792879 -0.029074628 -0.00874831 -0.046869885 0.051009726 0.057197247 0.045620974 -0.16854158 -0.097408764 -0.053143736 -0.043024406 0.064282455 -0.024911571 0.10037119 -0.00967145 0.043690205 0.03658471 0.0021614812 -0.038744997 0.049803473 0.054712974 0.108962305 -0.03361569 0.04910287 0.021770777 -0.07483792 -0.03338962 0.06792999 0.025323564 0.01978966 0.086293444 0.021512635 -0.02132237 -0.019952212 0.034307048 0.061492056 0.06549777 0.095618635 -0.011305531 -0.07087321 0.022258965 0.12460412 0.021236112 -0.09942884 0.026074048 0.051164616 0.013352655 0.01792985 0.04869189 0.081370905 -0.11006904 0.05658867 0.068750285 0.060472045 0.12705415 0.09287522 0.08945693 -0.04049575 0.017535457 -0.044693764 -0.060483113 0.06097248 -0.10130137 0.081393376 0.081353664 0.008277343 0.052910827 -0.06538656 0.040642183 0.06291383 0.02469304
54 0.57046837 0.26623142 -0.32754546 0.2485742 0.47631013 -0.21921493 -0.15293354 -0.56858754 0.16399798 -0.26111224 0.5298706 0.016153216 0.1870293 0.050761435 -0.19859034 0.99798304 0.10061374 1.3149438 0.099511035 -0.30294356 0.2876942 -0.28677842 -0.23774011 0.17926823 0.24741918 -0.398993 -0.25928837 0.31728378 0.7297847 0.23754422 -0.02961995 0.23530632 0.049159836 -0.025520917 0.15680046 -0.16783299 -0.14611572 0.31338587 -0.22653553 -0.090079 0.009153427 -0.34808964 0.41001922 -0.06915842 0.4185242 -0.0724602 0.019725991 0.8426921 0.61322886 0.30734643 -0.3768322 0.049434964 -0.04602648 0.2586702 -0.04044012 0.27471215 -0.357876 -0.5802803 0.41102904 0.06251218 -0.42224512 0.82381165 0.17489627 -0.19255774 -1.1020463 -0.8152261 -0.5811753 0.49707308 0.73151344 0.24162093 1.2819364 0.048163474 -0.106177405 0.42217034 0.3040441 -0.27124688 0.6684828 0.61423504 1.069377 -0.62420803 0.5908045 0.22535972 0.458325 -0.38714203 0.20938383 0.00034695142 0.02450495 0.6810431 0.22915381 0.60730684 -0.3198993 -0.41790506 0.28183737 0.2660894 0.48269993 -0.37044212 -0.5018889 -0.073932685 0.65299267 0.6820426 -0.7503403 -0.31249923 0.60053384 0.61974996 0.5980578 -0.14945738 0.5254042 -0.6255516 -0.009820557 0.32432473 0.51979977 0.98804027 0.8879707 0.59473324 -0.20718174 0.49637166 -0.5247188 -0.018090993 0.40660575 -1.0452659 -0.32586056 0.44534412 0.14105903 0.31215224 -0.49452123 0.6773928 0.57753456 0.13503723
55 0.6126719 0.20123348 -0.343038 0.20039389 0.500383 -0.22398499 -0.15183981 -0.5949075 0.17750931 -0.17052187 0.4535433 -0.052558303 0.2139857 0.08589677 -0.19478646 1.0286933 0.1138216 1.3287039 0.066498004 -0.3391186 0.22267377 -0.29187799 -0.17787069 0.21725686 0.27772775 -0.34170824 -0.2469688 0.26322362 0.7747196 0.25474676 0.013947808 0.28941938 0.03409345 0.01416158 0.14055115 -0.17910011 -0.15282588 0.32621756 -0.2284243 -0.011625042 0.008215101 -0.39615038 0.42151168 -0.08080372 0.4734597 -0.06872049 0.06928814 0.7696912 0.56659365 0.3530802 -0.3462278 0.09811481 -0.069485344 0.31099066 -0.04234604 0.20805459 -0.30578062 -0.5734485 0.35122526 0.06920493 -0.36322942 0.92696655 0.21380305 -0.1444453 -1.1280831 -0.79835343 -0.53995883 0.4352372 0.72098225 0.24411552 1.2517232 0.05615824 -0.10906907 0.45131448 0.28680563 -0.2785024 0.75328594 0.64996266 1.1186978 -0.4919154 0.65444463 0.20848185 0.4138033 -0.43923783 0.21297424 -0.007200248 0.060347743 0.72519773 0.25191566 0.63866425 -0.396503 -0.3313345 0.26314858 0.2492404 0.51912576 -0.42082837 -0.4899948 -0.041670192 0.6279951 0.6519638 -0.7285798 -0.3137339 0.6407792 0.6113615 0.57659984 -0.16389638 0.47771505 -0.62608725 0.03024469 0.22103481 0.5496551 0.9642597 0.8418193 0.59517187 -0.2913014 0.52573085 -0.5189028 -0.017291749 0.4824384 -1.0627995 -0.32969952 0.511324 0.15556787 0.19413798 -0.52738494 0.7276386 0.64058876 0.13731273
138 0.16441047 -0.27348587 -0.6942724 -0.18602014 -0.14191996 0.8431253 -0.6628135 0.1506493 0.18149827 -0.88237053 0.51091844 0.12838724 0.5415336 0.02997415 -0.22734644 0.4931124 0.43522877 0.7730226 1.0144081 -0.30012158 0.117756635 0.17587422 -0.088364035 -0.39485306 0.48032507 -0.39811873 -0.83362603 0.22564332 -0.19275993 -0.12690368 -0.3474915 -0.5728142 -0.60813624 -0.704475 0.17570314 0.3332246 -0.15133934 0.3980883 0.69334364 0.5613524 -0.35262492 -0.44103688 0.8380087 -0.15039821 -0.66414183 0.48697063 0.16015585 0.31403846 0.22147696 0.43001896 -0.24638316 -0.14567748 0.40239656 0.36499658 0.12044103 0.08822408 -0.33320448 -0.52765346 -0.6028411 -0.21548313 0.062428676 -0.0025238364 -0.17863509 0.40608835 -0.6404915 -0.39778 -0.209257 -0.36165273 0.5365458 0.781377 0.051883757 -0.28412 -0.10381721 0.4417339 0.45121413 -0.3992796 0.16204771 0.10993453 0.9684569 -0.12493745 -0.010779171 0.08916448 -0.029675754 0.36181518 0.110691585 -0.069749966 0.0785439 0.38476336 0.36095524 -0.20044187 -0.44111994 0.20049404 0.43732274 -0.15997338 0.49356374 -0.058071475 -0.3379408 0.20852478 0.8589845 0.38736495 -0.7252354 -0.04574358 0.059105273 -0.38152498 0.11335877 0.69503206 0.1753858 -0.6240337 0.14960304 -0.32606035 0.6464832 0.7927948 0.04538232 0.63817537 -0.1594936 0.13019173 -0.29939234 -0.8180882 0.08793022 -0.80667055 0.042710308 0.16537173 -0.1509147 0.62196875 -0.32115978 -0.12230181 0.22050841 0.06491651
139 0.24833807 -0.2540992 -0.6478515 -0.30602863 -0.11978603 0.8469549 -0.62264544 0.1409707 0.14769877 -0.8962373 0.43737888 0.101195134 0.54007745 0.07827794 -0.21661155 0.5011824 0.40819687 0.7339552 0.99851125 -0.3171117 0.117897995 0.19257534 -0.08755421 -0.37885135 0.5533394 -0.42905858 -0.8434774 0.30570978 -0.19582756 -0.15483083 -0.26714733 -0.52809846 -0.5413628 -0.64100915 0.21458109 0.33885658 -0.13497764 0.3829716 0.69291764 0.5855469 -0.37423098 -0.41722152 0.8713003 -0.18389218 -0.62170523 0.42928526 0.11870422 0.27925378 0.1996544 0.4821355 -0.17407502 -0.14740653 0.37027493 0.464262 0.10474788 0.087795965 -0.31706923 -0.4895036 -0.528634 -0.19617313 0.07934485 -0.10704751 -0.1298133 0.4192459 -0.6688289 -0.37079856 -0.15116297 -0.40643513 0.5016082 0.7409093 -0.013442105 -0.2369745 -0.07224171 0.43796906 0.45671746 -0.37116292 0.2165711 0.06165491 0.97773916 -0.0957497 -0.027644325 0.14748871 -0.009395197 0.38865158 0.14953925 -0.02181408 -0.009798141 0.38433298 0.35432273 -0.23488124 -0.43697715 0.1572695 0.41193998 -0.1967363 0.46114904 -0.07526311 -0.31980795 0.25708094 0.84934705 0.34878555 -0.6925354 -0.08277905 0.117869675 -0.3689463 0.071929775 0.6556379 0.16895069 -0.5749127 0.1529239 -0.31304026 0.5970648 0.75050014 0.01840713 0.64353263 -0.15560395 0.12030593 -0.28323013 -0.82422715 0.07925568 -0.7784033 0.0042395634 0.17822501 -0.23268022 0.5624778 -0.4410601 -0.13717666 0.25113928 0.110304564
140 0.23557188 -0.24999715 -0.6519969 -0.2776713 -0.12182672 0.7836755 -0.6059595 0.14223714 0.11633232 -0.83527493 0.44049823 0.1270527 0.5484753 0.061419725 -0.2098212 0.4522306 0.41819328 0.7135327 0.97932225 -0.2874698 0.099746265 0.17962222 -0.07975677 -0.35164693 0.50953174 -0.39094526 -0.77718025 0.27736318 -0.2262855 -0.13967142 -0.29739144 -0.5284468 -0.59681904 -0.64002717 0.19956279 0.34591264 -0.1457154 0.3349214 0.66518116 0.5642407 -0.3401553 -0.41560298 0.8415354 -0.15490623 -0.6112324 0.45126244 0.14046028 0.2875558 0.14060313 0.478399 -0.19009484 -0.14016432 0.38927397 0.41825408 0.097468264 0.10018111 -0.2834222 -0.46629235 -0.55264044 -0.20717566 0.06475078 -0.06699807 -0.15588239 0.416887 -0.6460135 -0.35493174 -0.13116089 -0.41530743 0.47080013 0.7443966 -0.0062050405 -0.22400595 -0.077258036 0.42624202 0.45353073 -0.37094626 0.19953229 0.085580006 0.9449416 -0.10325506 -0.01936129 0.09365189 0.011600608 0.38593736 0.16313216 -0.031169942 0.0062096342 0.3686609 0.36773694 -0.21891005 -0.44067365 0.16799964 0.41398197 -0.18591823 0.4615052 -0.07264818 -0.33231002 0.23352273 0.81714916 0.3639764 -0.67184836 -0.083666496 0.075885184 -0.36830243 0.07294845 0.66573846 0.14347798 -0.5587714 0.12519792 -0.33066812 0.59306246 0.7244467 0.013795063 0.65189976 -0.1352031 0.14497626 -0.30903858 -0.8057544 0.10084867 -0.7949823 0.022016114 0.17470013 -0.20879853 0.5280081 -0.3806906 -0.084825605 0.2691791 0.06833762
141 0.2628262 -0.25137758 -0.63028413 -0.26253974 -0.120717965 0.8517436 -0.5856137 0.16085626 0.09932944 -0.8790262 0.42490682 0.1380544 0.5579982 0.049534656 -0.21901038 0.46829963 0.45585105 0.70282245 1.0346274 -0.31672323 0.13885647 0.1977137 -0.07437324 -0.39853168 0.54167193 -0.40438077 -0.8500843 0.2851573 -0.25173762 -0.16125649 -0.2837444 -0.57629627 -0.585381 -0.6726989 0.21775232 0.37799832 -0.1528282 0.39378634 0.707355 0.5523105 -0.36502543 -0.4524712 0.8999391 -0.18870036 -0.5967738 0.43999037 0.07403336 0.33079672 0.19590122 0.48343408 -0.20608187 -0.21024223 0.3733412 0.44853526 0.10193618 0.07990165 -0.31511435 -0.51148 -0.5838137 -0.22956368 0.080986395 -0.14147918 -0.13621843 0.41780826 -0.6329281 -0.37452453 -0.17809202 -0.37235922 0.53146243 0.79017156 -0.014243897 -0.2634692 -0.025127642 0.46584025 0.50204414 -0.38023 0.19927654 0.054812837 1.0209087 -0.11830505 -0.03105667 0.157634 0.02454189 0.36731902 0.14569761 -0.007959909 0.015920712 0.36970758 0.33824536 -0.22793211 -0.42189264 0.1489272 0.40747184 -0.21033463 0.42036808 -0.009615404 -0.3060535 0.25179064 0.8672069 0.36757356 -0.7414628 -0.031293724 0.08404064 -0.41641143 0.058294393 0.68960655 0.18557262 -0.59235233 0.12097785 -0.29524451 0.6418289 0.7838575 0.034577593 0.62247264 -0.09935612 0.15090045 -0.26815754 -0.87860954 0.06386093 -0.81557035 0.045887046 0.14162844 -0.24064346 0.6144066 -0.42535213 -0.13389672 0.27914065 0.1170237
145 0.72728777 0.027921213 0.075092725 -0.16147321 0.32478824 0.4517429 0.46999452 -0.28337315 -0.27191976 -0.38621104 -0.4149516 0.017663104 0.024584293 0.5739023 -0.6467232 0.5937852 0.52787274 0.15881313 0.9023596 -0.3161348 0.01757157 0.20104721 -0.06645308 -0.32069573 0.15045911 0.07895268 -0.5110784 -0.20744106 -0.06623216 -0.20452714 0.0748697 -0.06192668 -0.38391495 0.50137156 0.40430972 -0.70017666 0.06651705 0.1325573 -0.25198343 0.3245665 -0.13632834 -0.43904155 0.83588195 -0.3394515 0.37220985 0.13190779 -0.6769771 0.40356755 0.10261667 0.3908092 0.24311982 -0.3332969 0.27755168 0.9769405 -0.4875331 -0.5025376 -0.2480945 -0.073720425 -0.203077 0.23954752 -0.02670172 0.028154194 0.501652 0.27810985 -0.63064945 -0.18373294 -0.21563865 -0.09761831 0.1293817 0.5867042 0.02723036 -0.47813383 0.02245242 -0.1302174 0.65803224 0.06799479 -0.043651085 0.3297309 0.53828853 -0.13775297 0.59990907 0.88727075 0.2555575 0.15364967 0.17726848 0.82843894 -0.066526875 0.6699965 -0.32504123 0.39100677 -0.6350228 0.23619989 -0.2816148 -0.38688305 0.29940787 0.05468905 -0.25062108 0.091684744 0.88728714 0.5525481 -0.4003052 -0.025098436 0.09933952 -0.2597172 -0.5782251 0.60886526 -0.017654382 -0.05627797 0.5808028 -0.077645026 0.31255266 0.49768782 0.6475726 0.36760873 0.04105159 -0.24806055 0.32875225 -0.25220343 0.08787288 -0.7180499 -0.020783603 0.4070446 -0.25837502 0.1664681 -0.43463275 0.05100446 0.7455481 0.10896044
146 0.6829011 0.0493519 0.090977415 -0.16479349 0.31293568 0.4354113 0.35792616 -0.2848019 -0.23490523 -0.42341107 -0.44797897 -0.012815941 -0.031811867 0.60007614 -0.6118493 0.6060811 0.5386156 0.14324374 0.8185977 -0.29522407 0.0017588215 0.28378958 -0.053925663 -0.27409288 0.1090281 0.09793089 -0.51940006 -0.098191775 -0.02953326 -0.19903956 0.080551945 -0.031098511 -0.3862051 0.5021206 0.44578278 -0.77112097 0.1239131 0.16806628 -0.21091297 0.29631233 -0.17255825 -0.3758381 0.78704554 -0.32614362 0.34838328 0.1321247 -0.6965824 0.34441417 0.116861105 0.38344985 0.2694264 -0.32877582 0.25702104 1.0026926 -0.48475292 -0.5062097 -0.20159797 -0.035940576 -0.14709066 0.19601391 -0.026791679 -0.018450877 0.5223034 0.2658102 -0.6476298 -0.14649788 -0.20535098 -0.07935156 0.05827968 0.5354337 -0.043999672 -0.42888352 0.01459715 -0.15296656 0.63322 0.11022139 -0.03966326 0.3296858 0.46899614 -0.11994892 0.592904 0.8486985 0.21545126 0.16393943 0.22909035 0.8685662 -0.08575559 0.6456404 -0.30845106 0.3271333 -0.5951553 0.1919046 -0.2595759 -0.38816538 0.28381953 0.06677494 -0.2766505 0.13438216 0.8636816 0.47096786 -0.3818006 -0.006551796 0.1263938 -0.2247926 -0.5423675 0.591776 -0.05465535 -0.051637497 0.6087503 -0.08677234 0.23266757 0.43269897 0.61752695 0.3771609 0.037103284 -0.26891255 0.35540092 -0.21940675 0.065935865 -0.64890856 -0.0113352155 0.37845686 -0.25934714 0.16123472 -0.42444152 0.042199705 0.65599036 0.13791992
147 0.66911066 0.043169215 0.12118128 -0.17844567 0.3246562 0.48675013 0.42272487 -0.2878623 -0.24564312 -0.46722662 -0.45330966 -0.009939116 -0.0069382824 0.5889298 -0.6482161 0.5914238 0.5417558 0.13551298 0.8651366 -0.2974819 -0.0206115 0.22567795 -0.0696539 -0.3503204 0.14455596 0.12331778 -0.55815524 -0.14062664 -0.033154268 -0.18282399 0.06889633 -0.0878389 -0.3656848 0.49088416 0.47075057 -0.73493475 0.09511103 0.14966689 -0.257353 0.29212397 -0.15513241 -0.382096 0.7905636 -0.3668153 0.33951616 0.12019739 -0.6403676 0.34228644 0.15226837 0.37357005 0.2626062 -0.31884953 0.26831055 0.9889748 -0.5113177 -0.4583858 -0.23074232 -0.048898827 -0.122631595 0.2691651 -0.029566702 -0.016040822 0.53768265 0.2622319 -0.61399907 -0.1658077 -0.19975954 -0.106598414 0.07268418 0.5717338 -0.0068151252 -0.43795845 0.029445503 -0.16355503 0.64502543 0.107151754 -0.054721624 0.33797774 0.48708984 -0.1772691 0.56121457 0.8773544 0.25022706 0.21320479 0.1746989 0.83397186 -0.09512541 0.62925273 -0.32348692 0.3259694 -0.62486726 0.20142947 -0.25224102 -0.3738345 0.29038963 0.069796994 -0.20368968 0.1309352 0.8423805 0.5030279 -0.36034983 -0.026311262 0.0941277 -0.25397843 -0.5831412 0.59691113 -0.05163947 -0.049296573 0.6124156 -0.09595987 0.2621162 0.46648413 0.6083274 0.34543866 -0.007725076 -0.25450832 0.31575745 -0.21114911 0.05691456 -0.67768353 0.0023905127 0.3728427 -0.28348556 0.2036811 -0.44016063 0.010694468 0.63308394 0.089184545
148 0.6904976 0.00930148 0.10391478 -0.12081057 0.33404344 0.49628556 0.40581405 -0.3005724 -0.20644191 -0.46991646 -0.5065466 -0.030245062 -0.03655963 0.6236246 -0.66896546 0.58807296 0.61949605 0.12552996 0.8087929 -0.26449752 -0.024633413 0.36706576 0.028978176 -0.29693294 0.10155771 0.13560766 -0.6101261 -0.0735988 -0.0001266604 -0.17896591 0.08414991 -0.09059511 -0.47181407 0.46689746 0.46233258 -0.80022216 0.13400409 0.21527354 -0.23019129 0.2387644 -0.15495147 -0.3638193 0.77295077 -0.33342955 0.37060282 0.1614424 -0.7202249 0.35968956 0.18015243 0.36087546 0.26103434 -0.36546028 0.25015697 1.0527757 -0.50227064 -0.5503898 -0.18313041 -0.05843237 -0.12520856 0.18739755 -0.051119447 -0.030519336 0.49837917 0.28468475 -0.6225016 -0.07896629 -0.21507308 -0.03500653 0.002770202 0.5576853 -0.0819576 -0.35720995 0.06658733 -0.13949226 0.6733271 0.119354695 -0.0625338 0.35609883 0.48631522 -0.14405589 0.6480049 0.8758897 0.19184524 0.1300598 0.28549254 0.92107546 -0.054324273 0.6649291 -0.33922958 0.34111437 -0.60105884 0.13611978 -0.24533644 -0.4159472 0.25468636 0.08935705 -0.28964356 0.12516168 0.86488265 0.41355273 -0.37789112 -0.010997281 0.07898908 -0.21389896 -0.5655228 0.6196919 -0.050496597 -0.05704078 0.68553734 -0.07260622 0.250476 0.42917645 0.59366906 0.35801956 0.015106042 -0.27739146 0.30265144 -0.24776903 0.0646702 -0.6681742 0.029193465 0.3961202 -0.23191543 0.18736948 -0.40892446 0.053767715 0.59270185 0.19343154
152 0.45036888 -0.2925775 -0.20173249 0.49506545 0.8921845 0.5281079 -0.26262388 -0.7010312 -0.62445575 -0.2911582 0.00020789044 -0.8643729 0.5771482 0.27841967 -0.43694544 0.67973727 0.23879655 0.79741275 1.0009792 -0.011402384 -0.5100368 -0.55625194 -0.37985831 -0.60816044 0.10209276 0.5572557 -0.8136934 -0.029426638 0.015422508 -0.61729556 -0.47263366 0.14974383 0.30508772 0.008202225 0.86465704 -0.32992235 0.27642506 0.5226379 -0.23085651 -0.35180467 -0.20283014 -0.11460428 0.3394468 -0.40495557 0.6665159 0.036668602 0.21093455 0.5854053 0.47179708 -0.38605988 0.28937784 -0.04593142 -0.32872286 0.5527568 -0.2870325 -0.4088892 -0.38240907 0.18137686 -0.032293804 0.28861818 -0.9896653 0.32659903 0.06268873 0.05574208 -0.7522434 -0.5613832 -0.6713765 0.104758196 0.24693619 0.2557362 0.4961276 -0.30156508 -0.55710304 0.33848152 0.45915133 -0.1569818 -0.06247566 0.25417152 0.35886085 -0.2723123 0.28264868 0.78749657 -0.18160307 0.038442962 -0.06418627 -0.0057484056 -0.11066772 0.5211835 0.5564209 0.32160357 -0.16323613 0.29717666 0.5042791 0.61121446 0.42826968 0.2558619 -0.39045087 -0.009274322 0.53957766 0.37951958 0.4025427 0.15376976 0.010266352 0.041469377 0.29045317 0.26934287 0.4651426 -0.49121624 -0.07742889 0.41650417 0.16998543 0.6098161 0.25701416 -0.2518786 0.26610693 0.19094297 -0.29901043 0.11545931 0.520043 -0.35654598 0.300098 0.58443093 0.16259448 0.094315864 -0.3257835 0.23345841 0.6706812 -0.31064537
153 0.5576893 -0.34962064 -0.1628213 0.49438682 0.98182964 0.50289243 -0.17413366 -0.7174793 -0.6309951 -0.291772 -0.12472237 -0.8788266 0.55542445 0.3233791 -0.4952073 0.63067514 0.22816864 0.63164 1.0394813 -0.055826712 -0.52047837 -0.57280135 -0.35695404 -0.5936186 0.17874888 0.55089223 -0.81924134 -0.05732221 0.015687743 -0.6048579 -0.4214736 0.14039391 0.2667863 0.103997916 0.80653554 -0.34097403 0.2815381 0.5661911 -0.27679527 -0.32477757 -0.15731508 -0.12296755 0.36160463 -0.42218655 0.66933554 0.05290076 0.10825253 0.6153358 0.37657034 -0.39800504 0.26716757 -0.10940137 -0.3306943 0.5676796 -0.25891018 -0.43897945 -0.385817 0.1508479 -0.053175673 0.2779703 -0.9319412 0.31662285 0.06557026 0.080602154 -0.6907475 -0.55928767 -0.66707563 0.07092006 0.30829492 0.26408345 0.43646148 -0.32965863 -0.55824286 0.31479615 0.48864067 -0.15621647 -0.045502026 0.22407126 0.35659805 -0.21438083 0.35425004 0.8325992 -0.1718171 -0.04035488 0.005768881 0.044456966 -0.12338073 0.45896998 0.4749174 0.31918293 -0.14941518 0.3481869 0.47951257 0.6464166 0.3238414 0.30372232 -0.45162612 -0.07860446 0.5214561 0.3168262 0.3872512 0.15474969 0.011669578 0.1138271 0.28901005 0.31053284 0.42018285 -0.49132186 -0.056118406 0.43551975 0.1948349 0.51959133 0.2319298 -0.2864716 0.28192112 0.18324362 -0.23294742 0.09576149 0.51889217 -0.3445458 0.34720537 0.5667474 0.13584496 0.07443988 -0.32019845 0.14597695 0.71669966 -0.26758623
154 0.52867806 -0.33598197 -0.15664019 0.47500876 0.9519603 0.49085623 -0.19366673 -0.6834952 -0.59117246 -0.29360032 -0.09126655 -0.87298983 0.5326481 0.33745578 -0.46853608 0.632303 0.2041711 0.6457162 1.0049255 -0.04148719 -0.52098805 -0.56894153 -0.3495111 -0.57099783 0.15832832 0.5460057 -0.8055314 -0.035756387 0.022272361 -0.60096556 -0.4273196 0.15247124 0.24747205 0.080711335 0.8033656 -0.33196697 0.2928469 0.5517851 -0.263702 -0.30370554 -0.15171319 -0.12644564 0.33975536 -0.41012326 0.6543699 0.028561814 0.128812 0.5789532 0.38171026 -0.39925456 0.2706244 -0.09699292 -0.33765313 0.5718815 -0.25221276 -0.40842444 -0.37178522 0.13386606 -0.06591803 0.2596742 -0.9089004 0.30494082 0.062398393 0.08969437 -0.7040157 -0.5618958 -0.64905065 0.04482354 0.29975754 0.2512772 0.4544102 -0.32305783 -0.5566276 0.31825855 0.46316513 -0.15865767 -0.033136994 0.23956725 0.3408791 -0.20270051 0.34927002 0.80377436 -0.17967995 -0.02265969 0.018417543 0.060428716 -0.13169093 0.4649406 0.48035178 0.31651056 -0.16423841 0.35995397 0.48944232 0.62665623 0.35261223 0.2920098 -0.44789433 -0.042063773 0.51045734 0.32830718 0.38439974 0.14773929 0.0073822066 0.1310322 0.29082042 0.3120819 0.4108395 -0.49686757 -0.05299296 0.41467842 0.18782736 0.5060156 0.23172107 -0.2526793 0.2532327 0.18430643 -0.24246438 0.102642015 0.5066801 -0.3449721 0.32235625 0.56896114 0.14002943 0.061336797 -0.3185419 0.16363348 0.6876837 -0.2622999
165 -0.22413003 0.08903106 -0.5113862 0.5762507 0.1008958 0.38052884 0.34409705 0.11017224 0.08177219 0.046568286 0.41715962 -0.29764634 0.20995669 0.22240731 -1.1041949 -0.18659969 0.18017587 0.33652672 0.4207325 -0.2754892 -0.041333195 0.7347736 0.09655902 -0.53459936 0.04255239 -0.15619507 -0.67944926 -0.32234025 0.014863529 -0.63446665 -0.0912736 -0.122043304 -0.31899416 -0.6439711 0.18869236 -0.6045668 -0.2437962 0.6057226 -0.023688607 0.44399953 0.21463272 0.08644418 0.45442745 0.07010429 0.053170104 0.3707758 0.4003236 0.057754617 0.49703604 -0.33978438 0.00019393615 0.31068242 0.44884256 1.1109711 -0.27582902 -0.10664204 -0.20787802 -0.4065833 -1.2420764 0.34513748 -0.08607488 0.32935807 -0.09176817 0.28795114 -0.8436066 -0.39887625 -0.17502531 -0.26325497 -0.069862075 0.4465581 0.7521473 0.12377109 -0.043958068 0.38079366 -0.25975156 -0.3600377 0.31945267 -0.08780439 0.7100999 -0.21417868 0.23985635 0.36566645 -0.21071826 -0.27334413 0.06604676 0.56387013 -0.067087345 0.6076017 0.26202875 0.41084144 -0.30543864 0.4927984 0.057217415 0.20154224 0.7064478 -0.5031964 -0.29012078 -0.11802995 0.8764046 0.7398879 -0.26878196 0.4786581 -0.52392805 -0.32756788 0.23519322 0.79566777 0.31248286 -0.9485542 0.9813929 -0.13075079 0.36949968 0.7529652 0.5965823 0.27870747 -0.71130526 0.008552068 -0.36642826 -0.27074635 0.3219046 -0.9924083 0.24173643 1.2198579 -0.03800815 0.62400943 0.2714553 0.09701746 0.104661465 -0.2488229
166 -0.22126609 0.06788939 -0.5241782 0.58333904 0.120738156 0.34719154 0.34572253 0.12402397 0.15608646 0.06824724 0.41697615 -0.2664397 0.17130354 0.18990302 -1.0802695 -0.17330663 0.14316364 0.33139345 0.49227422 -0.23450586 -0.035692975 0.8226901 0.05051443 -0.5485798 0.03645772 -0.19820204 -0.70840335 -0.27653372 0.05922401 -0.6240307 -0.1003429 -0.10375791 -0.3492866 -0.61883545 0.17133167 -0.64355385 -0.22790515 0.5707909 0.046835903 0.44834384 0.1693733 0.02446057 0.39873746 0.07939571 0.054524563 0.3100946 0.48225352 0.016452648 0.5130492 -0.3663763 -0.035473075 0.29345912 0.3725532 1.0756936 -0.2953473 -0.14346243 -0.23914735 -0.4364281 -1.2398237 0.421816 -0.01301753 0.3298048 -0.12492395 0.28516027 -0.84004706 -0.3235928 -0.17114076 -0.23650809 -0.11717273 0.40852416 0.8013483 0.1165108 -0.0907032 0.29187283 -0.2775049 -0.3360147 0.29715768 -0.075869314 0.71652555 -0.28533292 0.23585844 0.32679746 -0.20443593 -0.25033805 0.06412867 0.554992 -0.0542702 0.6466853 0.24376425 0.41253436 -0.32672837 0.4860043 0.04395296 0.15971111 0.68847835 -0.43925166 -0.2783517 -0.10313525 0.91989845 0.7684175 -0.2698447 0.47761044 -0.49952814 -0.32290804 0.2382412 0.8026685 0.29472482 -0.9163628 0.98630154 -0.13246119 0.3707527 0.7933456 0.62094647 0.3047754 -0.6784101 0.027979227 -0.32338467 -0.2072342 0.29068783 -1.0103025 0.19145429 1.1639211 0.0056223366 0.64761704 0.26151693 0.08736998 0.17962688 -0.26178482
169 -0.010799425 -0.08809746 -0.5370045 0.6427985 0.067134805 0.24514854 -0.28152123 -0.36513072 -0.14694326 -0.5905222 0.20573778 0.2970899 0.19374104 0.22041415 -0.5869314 0.43605116 -0.0029462306 -0.41595063 0.6226547 -0.15012299 0.32726046 0.0031716677 -0.4495487 -0.5621813 -0.03350294 -0.5885111 -0.33099133 -0.09376522 -0.077336386 -0.082361445 -0.36621097 -0.40391055 0.109117806 -0.40682235 0.80377513 -0.93709016 0.22768083 0.43305242 0.028524054 0.07151271 0.025476633 -0.12235808 0.26660925 0.14100476 -0.11465491 0.29466116 0.18540552 0.45401618 0.23516788 0.23922907 0.007863572 -0.2612289 0.35842818 0.009450397 -0.2017738 0.03810536 -0.2590158 0.31452274 -0.047487497 -0.015186804 -0.54481703 0.25591147 -0.27903497 0.09708003 -0.49222463 -0.4383239 -0.47617742 -0.09299114 0.53004456 0.045638066 0.24222161 -0.3086768 0.2775987 -0.22424023 0.23779252 -0.0591378 0.058291823 -0.06604371 0.6124393 -0.4437919 0.5055987 0.46547547 -0.09220826 -0.2323623 0.30093536 0.5393622 0.21588573 0.20370111 -0.0071492568 -0.33479723 0.23818383 -0.25250974 0.26237634 0.34000677 0.3826506 -0.090402864 -0.9720945 -0.10369437 0.76102316 0.37509936 -0.26387358 0.35928398 0.2673901 0.0841884 0.57198966 0.79570466 0.30852672 -0.57661796 0.1717867 0.29128346 0.33486184 0.34473458 0.59882206 0.42951557 0.2830978 -0.4298039 -0.26690084 0.1370765 0.010772452 -0.6692761 0.56916016 0.20784189 0.102942176 0.32908982 0.0972948 -0.09946696 0.23947546 0.055092413
170 -0.036203425 -0.1266228 -0.5686242 0.612453 0.06893973 0.28463298 -0.30083692 -0.34040347 -0.1922172 -0.5158714 0.15884748 0.2729617 0.1493268 0.22761588 -0.6115431 0.42644957 -0.021926157 -0.42919973 0.62139297 -0.111162886 0.24676925 -0.037833046 -0.50497437 -0.57110816 -0.05461056 -0.5513443 -0.3734576 -0.15738279 -0.013670809 -0.056168765 -0.40070972 -0.38510674 0.12726194 -0.38751912 0.7394345 -0.93377703 0.2500215 0.41832313 0.005560368 0.11295408 0.067363426 -0.082063355 0.2588793 0.10203739 -0.106030956 0.3524448 0.25236842 0.39363405 0.24919835 0.25776082 0.014584362 -0.275992 0.3544646 -0.037460476 -0.19773042 0.025752548 -0.26728863 0.34873882 -0.0571439 0.015447992 -0.54605824 0.25031957 -0.2497534 0.123068936 -0.54896045 -0.43493736 -0.47903058 -0.13390829 0.47497174 0.007811464 0.26639438 -0.33095667 0.2880511 -0.22529773 0.23726952 -0.11475711 0.017071046 -0.048467483 0.64447224 -0.40306413 0.5374046 0.45071557 -0.103224 -0.18892686 0.28776592 0.45600846 0.20803018 0.20720267 0.027261538 -0.37996158 0.23984718 -0.21078332 0.2995094 0.4414831 0.47159147 -0.08412105 -0.9540491 -0.065767094 0.74757415 0.3323718 -0.17272232 0.32650065 0.26105592 0.08407426 0.61325765 0.74678 0.33281878 -0.5517967 0.21943112 0.30349037 0.33970886 0.31633198 0.51390773 0.41962773 0.20938101 -0.4584512 -0.31033754 0.21130787 0.05087767 -0.6209995 0.6262107 0.26708403 0.12970035 0.33512712 0.10282498 -0.086005725 0.1689938 0.025902364
171 -0.004303772 -0.13251796 -0.5532805 0.6285541 0.07054212 0.3065066 -0.27451262 -0.32848322 -0.24782203 -0.48576248 0.14599164 0.29302278 0.15191525 0.22555123 -0.6520048 0.4387227 -0.058921963 -0.47695327 0.6660393 -0.1144287 0.21864118 -0.10475539 -0.52722704 -0.6133337 -0.07315815 -0.528614 -0.35553598 -0.2018218 0.005147524 -0.03941155 -0.4537937 -0.42559105 0.14757131 -0.39008328 0.7101728 -0.93947214 0.23811217 0.39829555 -0.037187915 0.13722456 0.07127321 -0.08111001 0.27182797 0.09635401 -0.08384689 0.33449095 0.28302747 0.38084128 0.23976626 0.32137996 0.012003548 -0.2973645 0.37102407 -0.0589498 -0.20377873 0.010541843 -0.27271214 0.34292316 -0.037977755 0.066581786 -0.52257276 0.25267145 -0.23381649 0.10263954 -0.5368212 -0.42138636 -0.48630998 -0.14236121 0.47852653 0.041162528 0.2725381 -0.36838603 0.3125513 -0.22738735 0.27891925 -0.12748367 -0.01894446 -0.0339549 0.66550076 -0.38229483 0.58249897 0.47246176 -0.09758936 -0.15725537 0.25589845 0.43724316 0.21619426 0.2037136 0.0012319343 -0.386954 0.24157505 -0.23286435 0.29996884 0.45821577 0.47031632 -0.08867882 -0.93256307 -0.08929325 0.7251825 0.33173767 -0.16190529 0.3403038 0.23110059 0.06715815 0.6078219 0.7241874 0.37227693 -0.5029783 0.21926235 0.28469467 0.34307057 0.30850682 0.49516734 0.38799188 0.222433 -0.45601016 -0.27514744 0.23986313 0.058144007 -0.6111678 0.64349604 0.28759688 0.15519089 0.33597645 0.12086273 -0.08843727 0.169924 0.029681848
172 -0.015106712 -0.17182174 -0.5796043 0.6108396 0.07187375 0.27962333 -0.26936135 -0.32298657 -0.2567431 -0.4602989 0.13328454 0.288501 0.15365167 0.22045454 -0.6382787 0.3523294 -0.016260734 -0.475506 0.6478473 -0.08961783 0.21848668 -0.020445658 -0.5391345 -0.5827977 -0.054518536 -0.5311328 -0.37278894 -0.19087063 -0.012925191 -0.061918065 -0.41523948 -0.36713347 0.11106361 -0.39098105 0.71288395 -0.91987467 0.22024335 0.40183288 0.018660758 0.11137479 0.07423742 -0.08694726 0.271437 0.089471675 -0.10227414 0.3802466 0.27183664 0.3733784 0.222862 0.2549791 0.008438153 -0.30667582 0.3276875 -0.06131839 -0.20247652 0.0008805613 -0.27784714 0.34724614 -0.111014485 0.044756923 -0.5287565 0.22927351 -0.2501397 0.15247637 -0.5520822 -0.41869825 -0.48228392 -0.13838357 0.4387674 0.009411684 0.2711562 -0.32251197 0.28415748 -0.20962344 0.22986569 -0.13169749 -0.00027847505 -0.054846376 0.6637031 -0.41440055 0.51680136 0.4510477 -0.08223758 -0.18549046 0.28654653 0.42125198 0.20492841 0.19246508 0.032517325 -0.3672688 0.2402114 -0.16852987 0.28961188 0.4867102 0.4595453 -0.058394153 -0.9309438 -0.0764556 0.7557658 0.33058763 -0.14421375 0.3284459 0.23522872 0.07895598 0.62384385 0.75857705 0.3268835 -0.5486199 0.2462971 0.32893035 0.3630261 0.29810128 0.47997153 0.38667953 0.22117169 -0.4501597 -0.33939674 0.19955243 0.06910351 -0.6153349 0.65374386 0.27335238 0.13540386 0.35067534 0.1178479 -0.08875037 0.18943173 0.011331462
173 -0.047670733 -0.10854991 -0.5676488 0.64697874 0.05911188 0.29046398 -0.280922 -0.33414844 -0.20303407 -0.48097616 0.15023044 0.25732872 0.14346303 0.20625843 -0.6241623 0.40478465 -0.022059312 -0.43339357 0.5986925 -0.11302881 0.22541347 -0.046283107 -0.48716345 -0.5817675 -0.10500657 -0.5025755 -0.35638037 -0.18804967 -0.0034362967 -0.056497972 -0.41567436 -0.4069397 0.13668355 -0.3943241 0.7352379 -0.9333366 0.23782781 0.40448025 -0.009649438 0.14512509 0.05345642 -0.08806526 0.2896818 0.11005673 -0.06940705 0.35115156 0.27969635 0.38255426 0.27378577 0.27454332 0.036654077 -0.25569665 0.3768651 -0.036223188 -0.22397642 -0.0033173873 -0.26777998 0.35305488 -0.07268517 0.05188913 -0.5565799 0.2894595 -0.23522975 0.11018087 -0.52705216 -0.43298635 -0.49922013 -0.12936863 0.496487 0.04317232 0.25045195 -0.364041 0.27288693 -0.23831451 0.2552127 -0.13847342 0.007932519 -0.04680256 0.6589211 -0.39342803 0.5927258 0.44786337 -0.13008709 -0.22269523 0.24496819 0.466058 0.22683299 0.2227031 0.014805316 -0.36865726 0.24145935 -0.21284105 0.27358478 0.43338084 0.4749762 -0.105568424 -0.93816215 -0.11300756 0.75518167 0.34975794 -0.16632774 0.36723018 0.2481927 0.048640184 0.6117072 0.7678812 0.34808445 -0.553282 0.25053537 0.26844946 0.33979085 0.33865932 0.5149746 0.38690978 0.20466742 -0.46988335 -0.2696832 0.22696158 0.06973056 -0.64973605 0.65122956 0.31791455 0.15106596 0.33998758 0.13477984 -0.087862656 0.17450036 0.03310838
174 -0.00096800236 -0.15369627 -0.5499635 0.61681247 0.090034366 0.2896487 -0.26847506 -0.32494396 -0.2620681 -0.4614987 0.1360865 0.2966795 0.13560808 0.21804799 -0.63510734 0.4055265 -0.050687548 -0.4954169 0.66196525 -0.10079 0.22655414 -0.064823896 -0.53199595 -0.60747993 -0.053686704 -0.5215497 -0.36183912 -0.19035518 -0.0062252595 -0.03634245 -0.44557092 -0.39827704 0.13030024 -0.39719188 0.7006884 -0.9262616 0.23399623 0.40322736 -0.016945107 0.121306136 0.07614185 -0.07561384 0.24987754 0.10390998 -0.097664185 0.3573704 0.26879543 0.36718392 0.23212396 0.29620445 0.0024213335 -0.32910472 0.33757088 -0.06071431 -0.1866271 0.0034689214 -0.27076966 0.34490883 -0.07030875 0.048716884 -0.5150996 0.2197464 -0.23194718 0.12542094 -0.5421479 -0.40539682 -0.4738955 -0.14514428 0.4369518 0.011058548 0.2557527 -0.34198722 0.32510346 -0.21538563 0.25555003 -0.14843859 -0.002987631 -0.025715377 0.6454091 -0.3740466 0.54342103 0.45374617 -0.096369125 -0.16508634 0.29409 0.42921922 0.20661189 0.19304591 0.010430511 -0.38088384 0.24663816 -0.19227877 0.29284596 0.48275408 0.4673818 -0.08855574 -0.93223685 -0.07943381 0.73289764 0.31750482 -0.15284346 0.33583733 0.22216646 0.081269436 0.61038077 0.7313755 0.35617608 -0.5019827 0.22190526 0.3204137 0.33979332 0.2900217 0.46797964 0.39428687 0.23572522 -0.44388357 -0.30946943 0.2175515 0.06553864 -0.60110515 0.65961576 0.2808407 0.15197538 0.33389688 0.12205211 -0.071734145 0.18129356 0.023189051
183 0.024438856 -0.23239684 -0.5537535 0.60424066 0.11426259 0.29530108 -0.2622116 -0.30686367 -0.27771062 -0.49912742 0.09606195 0.28135762 0.15807979 0.2695781 -0.67348325 0.32375368 0.025573999 -0.5474961 0.6608788 -0.06245417 0.26399764 -0.032431778 -0.569065 -0.5964761 -0.013625159 -0.55626625 -0.37892815 -0.16352044 -0.054584347 -0.044884555 -0.39883104 -0.3325773 0.0981845 -0.33804634 0.72959954 -0.95076346 0.24767713 0.44076487 0.03806221 0.02848758 0.124001086 -0.068797335 0.23939839 0.07471726 -0.096303016 0.34763628 0.21437941 0.3938127 0.186654 0.20746548 -0.025042513 -0.31139424 0.31711864 -0.047197226 -0.20349577 0.03488245 -0.2788201 0.3799146 -0.08453077 -0.007157673 -0.5429787 0.16314846 -0.24843895 0.15805228 -0.52374154 -0.41623116 -0.44385213 -0.11722837 0.39690477 -0.04596152 0.27454305 -0.27281138 0.30213943 -0.21224318 0.21087298 -0.09613246 -0.003750933 -0.0893966 0.65419084 -0.44017094 0.46588203 0.45651492 -0.048559863 -0.1832756 0.3584845 0.45335847 0.16680424 0.15192206 0.063275196 -0.37533364 0.26992604 -0.16274728 0.3169609 0.53666216 0.3954867 -0.0060353074 -0.97847646 -0.0412982 0.7287989 0.29359624 -0.1360449 0.29741773 0.2149829 0.13715005 0.6004435 0.7581249 0.30761713 -0.5537721 0.20649028 0.41644073 0.35769126 0.27817166 0.49120852 0.37021333 0.24037564 -0.43962207 -0.39976376 0.18371877 0.050299287 -0.6108888 0.67781276 0.20973794 0.12489639 0.33055606 0.07362714 -0.12046121 0.17363355 0.02547551
184 0.002127113 -0.12769935 -0.52614474 0.6658861 0.08687572 0.29717606 -0.26531348 -0.32577938 -0.21517743 -0.4847841 0.16721308 0.27799308 0.1450749 0.20210913 -0.6603498 0.49506652 -0.0737038 -0.46158162 0.6516532 -0.099596515 0.21907017 -0.12573922 -0.52178687 -0.6347993 -0.11343628 -0.50083196 -0.35603082 -0.15213078 0.020579187 0.00028631504 -0.4893113 -0.44296458 0.14725286 -0.45822248 0.71719307 -0.89562124 0.2370009 0.41333216 -0.047876205 0.13408391 0.07356699 -0.07398121 0.2581908 0.13283902 -0.07105321 0.32574368 0.2939863 0.3934524 0.2770997 0.32257175 0.008880557 -0.31334847 0.35703495 -0.09601312 -0.18436944 0.05229746 -0.2735895 0.34178805 -0.012672882 0.08390284 -0.5429258 0.2427762 -0.2215881 0.06925183 -0.52708375 -0.46902418 -0.4826402 -0.12855417 0.51205826 0.03511566 0.2603181 -0.36881617 0.32484585 -0.2068941 0.2769722 -0.15945844 -0.007545974 -0.011230164 0.6848643 -0.36553842 0.61486053 0.42805168 -0.13016619 -0.17568177 0.24340108 0.39567658 0.20225331 0.18999192 -0.0117349075 -0.38758314 0.2376414 -0.27395594 0.3284899 0.42768952 0.46255267 -0.11039631 -0.9386048 -0.11579603 0.6900998 0.3337316 -0.20388262 0.36837316 0.22124803 0.09795489 0.628527 0.7043783 0.42694688 -0.49278513 0.19570036 0.27399656 0.33571446 0.3341468 0.48356974 0.40476453 0.22345474 -0.43138677 -0.24887513 0.23478217 0.035410676 -0.63130087 0.6729541 0.32401225 0.18913586 0.3490474 0.1386353 -0.06725232 0.15394469 0.07066071
187 0.5712308 -0.5113798 0.054618742 0.5531984 1.0479171 0.8682825 0.4769654 0.06028568 0.26145005 -0.2791175 -0.5209942 -0.11330988 0.011796727 -0.46996993 -0.19270256 0.83237064 0.23431943 0.45043376 -0.0751061 -0.13134229 -0.15362507 -0.11032966 0.07987908 -0.66098493 0.5301548 -0.13781294 -0.73070997 0.7429776 0.32212776 -0.08706789 0.1691821 -0.38950023 0.05518217 0.23472592 1.0593774 0.034985606 0.21887887 0.037627675 0.3842855 0.73392004 0.38945013 -0.90305895 -0.057912946 0.5005957 -0.25681704 0.1902855 -0.05308804 -0.17480955 0.46349958 -0.08360814 -0.66899896 0.38510397 -0.6872427 0.6389357 0.16715547 0.20763281 -0.43517366 0.094500214 0.085438795 -0.29389632 -0.5924701 0.5117346 0.30005258 0.29344654 -0.37122136 -0.0948812 -0.17976864 -0.16367905 0.55901957 -0.53889656 0.5965069 -0.030558068 0.11956157 -0.037505098 0.04687949 -0.39916 0.3108952 -0.32668516 0.2759808 -0.34891805 -0.12320588 -0.6615445 -0.5624785 -1.0410582 0.40311107 0.018957922 -0.66208684 0.2574378 0.17524655 -0.028495567 0.0057279207 -0.09169317 0.3197144 0.14131108 0.50043505 -0.08696877 -0.45822513 0.067551956 0.24727787 0.15891561 0.10592951 0.18509524 0.14324921 0.033563297 -0.15934029 -0.11996802 -0.00018079036 -0.63338614 0.01319689 0.27591679 -0.23050475 0.4418064 -0.019954445 0.60845536 -0.2915865 0.1624527 -0.09036864 0.13548486 0.3441066 -0.428163 0.9061545 0.31697366 0.3014562 0.063498616 -0.8425976 0.26328883 0.14209801 0.20565327
188 0.4348347 -0.33390972 0.05758368 0.4199195 0.8299344 0.6717688 0.32129374 0.06338097 0.19837077 -0.24071106 -0.4003319 -0.09173376 0.0010444084 -0.3544036 -0.13352548 0.69067687 0.14612922 0.34791768 -0.059152193 -0.086457394 -0.11903192 -0.08529458 0.05200292 -0.5381681 0.419743 -0.10453339 -0.574907 0.6553351 0.31486812 -0.05098279 0.122934744 -0.24287152 0.11398534 0.18072607 0.90965074 0.015864221 0.15497701 0.042801216 0.31192213 0.6448891 0.29265222 -0.72282606 -0.011905438 0.41569266 -0.24380772 0.09242229 -0.019576665 -0.20320629 0.38837615 -0.034710836 -0.48884404 0.34931707 -0.5555181 0.54258776 0.12264967 0.1981853 -0.32055303 0.1262105 0.09639324 -0.23349464 -0.4811522 0.37157294 0.26489037 0.2699313 -0.3483765 -0.0702878 -0.120657004 -0.12630275 0.45298377 -0.4940993 0.48904577 -0.015277112 0.056492835 -0.05911099 -0.019350434 -0.3184794 0.3134328 -0.2795769 0.21880914 -0.29099363 -0.13873558 -0.57068497 -0.4581282 -0.81759053 0.3479096 0.03219765 -0.57322085 0.15578453 0.16701262 -0.09648611 0.018808706 -0.05861591 0.23160914 0.12227641 0.40202004 -0.06487283 -0.32278788 0.05215179 0.15936698 0.13881643 0.14318828 0.18431203 0.14362542 0.016656253 -0.060685 -0.08846753 -0.04496546 -0.5224048 0.008695679 0.20029822 -0.23955816 0.3219166 -0.04366388 0.48864073 -0.2523953 0.15961988 -0.06985706 0.1571483 0.26879087 -0.34881738 0.71954507 0.26443675 0.21394521 0.045154326 -0.7282581 0.22449055 0.12489174 0.16275011
189 0.41881287 -0.3456471 0.06123855 0.4037647 0.81848 0.6902763 0.3579725 0.060522087 0.24085768 -0.23990287 -0.41275835 -0.09699182 -0.0033533073 -0.3639989 -0.14555526 0.6865322 0.1397436 0.34475896 -0.059177034 -0.09266712 -0.1036713 -0.08166682 0.06822863 -0.5445593 0.42595053 -0.12575902 -0.58241004 0.6474499 0.29819393 -0.054339584 0.16077107 -0.25409847 0.106703155 0.1524345 0.8960726 0.037775476 0.14753708 0.04229068 0.328158 0.6207664 0.29163563 -0.70655894 -0.030898068 0.4308843 -0.2343339 0.09280141 -0.016454948 -0.20343262 0.3981649 -0.06706958 -0.48832038 0.344094 -0.5668816 0.54894286 0.14979687 0.1938803 -0.35137093 0.13048881 0.08371395 -0.23269339 -0.46038243 0.35673532 0.26780435 0.27019402 -0.34363472 -0.059151735 -0.120220914 -0.15000378 0.45477226 -0.48336056 0.49173677 0.004684433 0.105077125 -0.04555559 -0.021458466 -0.30546972 0.30793098 -0.26375037 0.22434697 -0.28664082 -0.17682825 -0.557072 -0.47394687 -0.8104892 0.34355295 0.023672447 -0.57977206 0.17144595 0.1762011 -0.07838324 0.03784478 -0.041645966 0.23306301 0.12388005 0.40135062 -0.097056575 -0.31973287 0.053780284 0.17163503 0.14244409 0.13530079 0.18666285 0.13397923 0.014418216 -0.08599334 -0.080706045 -0.026311152 -0.5289924 0.012593228 0.20694198 -0.21142122 0.32496575 -0.04451033 0.4972611 -0.2507131 0.14757286 -0.10270808 0.12554662 0.2639635 -0.3621384 0.7281874 0.28638846 0.22179246 0.06593743 -0.749587 0.22666089 0.13455209 0.17795064
190 0.42181504 -0.32942423 0.06735219 0.37641844 0.7994434 0.6744265 0.3261614 0.061570052 0.17818142 -0.23767368 -0.39644712 -0.09889139 -0.017444614 -0.32664403 -0.13807298 0.6505358 0.12791367 0.34284967 -0.06489906 -0.09935231 -0.105093986 -0.07532693 0.04732499 -0.5235972 0.42376366 -0.10788247 -0.5509045 0.6202264 0.29801902 -0.060418356 0.16771667 -0.22592959 0.12956117 0.2085665 0.8616428 0.013550779 0.14731936 0.03920858 0.30221415 0.6133576 0.26976034 -0.6827704 -0.022770233 0.38616353 -0.21489415 0.09053975 -0.037532173 -0.19520761 0.37940744 -0.027090883 -0.47624964 0.3446063 -0.5552341 0.54896295 0.13410962 0.1713115 -0.32596365 0.13351838 0.11436449 -0.22036034 -0.4636825 0.3484793 0.26906204 0.25511727 -0.32549703 -0.052930836 -0.108570546 -0.14068688 0.42868358 -0.47687897 0.4630062 0.0023537308 0.08783948 -0.056467403 -0.027738277 -0.29051277 0.29800332 -0.2580515 0.18277533 -0.27878606 -0.17448573 -0.53131783 -0.44202676 -0.7801689 0.3365906 0.037984427 -0.5548099 0.16193031 0.16811828 -0.08655542 0.03126704 -0.047522753 0.21372291 0.13878693 0.3874093 -0.086817995 -0.29915795 0.041069202 0.1469749 0.12146401 0.14596038 0.1743271 0.14374088 0.011446759 -0.07495465 -0.09776655 -0.042048536 -0.49149263 0.018981788 0.22504963 -0.22957227 0.2943845 -0.03189921 0.45265445 -0.24330032 0.14996684 -0.08219029 0.118426174 0.25919452 -0.31303984 0.68422896 0.25387353 0.20293146 0.035513308 -0.72906446 0.22320163 0.12225556 0.15612245
192 0.4294186 -0.33799747 0.06205528 0.39625052 0.7932777 0.67433625 0.3247445 0.0794231 0.17109641 -0.22920637 -0.39326718 -0.08043422 -0.0062332307 -0.3610961 -0.090066634 0.66526234 0.1307557 0.35365042 -0.07495172 -0.09432909 -0.10542874 -0.09027784 0.0524305 -0.53053343 0.4104677 -0.09805354 -0.5511452 0.63033134 0.29258627 -0.05502695 0.13939658 -0.23559603 0.120227665 0.20744455 0.8921916 0.04020212 0.14197376 0.023105621 0.33149466 0.6405374 0.27108562 -0.7141252 -0.033753775 0.40530777 -0.23704949 0.094572745 -0.014596549 -0.20813441 0.379262 -0.041816033 -0.51672626 0.3682007 -0.5783561 0.54629165 0.12709719 0.1784661 -0.31965196 0.13999656 0.07672025 -0.24951927 -0.47012058 0.35967603 0.270852 0.2635578 -0.32479757 -0.049029816 -0.10867104 -0.13805002 0.44871652 -0.48649052 0.48073092 -0.020646008 0.07892666 -0.02483191 -0.03408077 -0.3239957 0.31973258 -0.29692098 0.18879555 -0.2739237 -0.16890627 -0.574097 -0.47612968 -0.817082 0.33186787 0.015298137 -0.5612442 0.1511846 0.20070161 -0.09840332 0.028469082 -0.044948548 0.22125997 0.1371994 0.38846663 -0.059188075 -0.30044496 0.06190694 0.15246347 0.12673149 0.15650755 0.20000196 0.15443967 -0.00738465 -0.07029847 -0.10260667 -0.05829665 -0.5166053 0.0059515927 0.2324567 -0.2419827 0.30056617 -0.061635908 0.45657647 -0.2601167 0.1615988 -0.0566461 0.14181848 0.27243027 -0.30891904 0.6984578 0.23647511 0.21261081 0.019012814 -0.7377393 0.23598546 0.115082934 0.15473446
193 0.4638727 -0.39866266 0.052694224 0.4472115 0.8833429 0.7579029 0.38529012 0.065460406 0.23122776 -0.2630314 -0.45119837 -0.07328638 0.008980412 -0.4070938 -0.16781658 0.7476929 0.1827682 0.3850331 -0.06238579 -0.09538189 -0.12555702 -0.07717099 0.07515661 -0.5773138 0.468665 -0.14170673 -0.6334937 0.6722612 0.3215564 -0.0503563 0.15215349 -0.2985811 0.08114911 0.17135441 0.9557162 0.017961964 0.16273417 0.047604036 0.33972004 0.6570229 0.32308725 -0.7751516 -0.044250205 0.45088923 -0.26089948 0.14253144 -0.008262405 -0.19313736 0.42796984 -0.03765473 -0.54202956 0.35396618 -0.59371614 0.5732506 0.1431726 0.1936068 -0.372517 0.14119378 0.09110866 -0.24481417 -0.51440877 0.43309572 0.27707434 0.295318 -0.37489742 -0.05338716 -0.14783137 -0.14529714 0.4827884 -0.52369004 0.5180369 -0.006436556 0.12048508 -0.041166797 0.002217099 -0.35715604 0.32118353 -0.28533298 0.25396076 -0.29994646 -0.1372965 -0.6004105 -0.5240083 -0.8890468 0.399114 0.028799685 -0.59804934 0.21292964 0.1830002 -0.078209914 0.015668526 -0.0719566 0.2606639 0.12923926 0.4520126 -0.10178157 -0.37318698 0.053386714 0.20090471 0.14282481 0.13213259 0.18390532 0.15700936 0.0015531669 -0.11117274 -0.091137215 -0.021625137 -0.5669202 0.027766807 0.23606157 -0.2167909 0.36539924 -0.048013102 0.53889847 -0.26831242 0.16108477 -0.13269798 0.15127175 0.3114258 -0.40679443 0.80100536 0.298492 0.2595042 0.046965156 -0.7724543 0.23861253 0.1489315 0.19504462
198 0.43927455 -0.36248076 0.058317192 0.43679178 0.8643752 0.7258105 0.3686444 0.060449895 0.21661225 -0.24866375 -0.42930388 -0.08501137 -0.0014624516 -0.39220235 -0.15661414 0.71933514 0.14774889 0.38002625 -0.083811365 -0.08800623 -0.114410244 -0.060686678 0.061023414 -0.56221026 0.43497276 -0.11769172 -0.60772216 0.6782344 0.3113769 -0.07082386 0.16390143 -0.2638516 0.120341815 0.16565633 0.9395126 0.035889063 0.16047369 0.026707048 0.32997963 0.651615 0.3098445 -0.7549638 -0.030154552 0.44634178 -0.24658704 0.09850624 -0.005399968 -0.19603807 0.41503736 -0.06538094 -0.53081363 0.3721878 -0.5917095 0.5563037 0.13591458 0.21095109 -0.3648839 0.13339795 0.095649 -0.24147479 -0.51487225 0.40157863 0.27938193 0.28532282 -0.3655743 -0.06363415 -0.13670954 -0.15453678 0.46843758 -0.50204974 0.51944476 0.0059838174 0.09498405 -0.041634478 -0.028709311 -0.32350633 0.31627163 -0.2757807 0.21868485 -0.3168497 -0.18391193 -0.5934136 -0.47218752 -0.86067545 0.3679002 0.022228437 -0.59981304 0.19928963 0.19265059 -0.07248032 0.025544917 -0.0719021 0.26847833 0.12159057 0.44362143 -0.10207204 -0.32501814 0.050723583 0.17827356 0.15640368 0.14284202 0.19727017 0.1562317 0.0012477211 -0.08407123 -0.09973713 -0.038313784 -0.55164915 0.012348613 0.22164322 -0.23819482 0.35856864 -0.03047981 0.5229594 -0.25684762 0.17552358 -0.087284096 0.14887221 0.28211278 -0.37150294 0.7581143 0.2791552 0.23106076 0.050300308 -0.7614297 0.24552637 0.1265497 0.17024656
195 0.2573877 -0.18200518 0.030795341 0.22753061 0.4601867 0.39959997 0.17713533 0.039649926 0.11008366 -0.12968789 -0.23494568 -0.035939727 -0.012889208 -0.2006982 -0.09278884 0.4065102 0.07993641 0.19684888 -0.02117926 -0.06453582 -0.0726426 -0.047627214 0.017555403 -0.3033194 0.24423937 -0.091445394 -0.33106595 0.37322766 0.2001553 -0.03234052 0.08532754 -0.13500799 0.07452449 0.10860701 0.5106363 0.004719747 0.07886965 0.037726883 0.18378766 0.39016813 0.15292838 -0.4096923 0.00069896143 0.23369505 -0.16559938 0.08183961 -0.0041887057 -0.113783054 0.21911196 0.0054608746 -0.2789726 0.18486477 -0.32081702 0.3034967 0.09603728 0.112061605 -0.19583926 0.07245284 0.05780775 -0.13421711 -0.27496535 0.19159444 0.13883227 0.16654709 -0.2347678 -0.035944927 -0.053913474 -0.08601858 0.24980675 -0.30088282 0.2828151 -0.0028964975 0.0681061 -0.030183349 -0.02792335 -0.17169723 0.18754071 -0.15121518 0.13322282 -0.16470002 -0.10034555 -0.33681008 -0.26293325 -0.45428994 0.22404216 -0.005554359 -0.33438596 0.08617835 0.10188728 -0.075713195 0.016528023 -0.02392198 0.13299315 0.09051921 0.22916283 -0.040684544 -0.17573266 0.035260182 0.08937119 0.069827065 0.09363569 0.114210375 0.08967422 0.013503952 -0.0178319 -0.049645748 -0.022722522 -0.3056376 0.015957776 0.119163506 -0.13111068 0.15834537 -0.023371484 0.30897447 -0.14466263 0.0870316 -0.068329565 0.07831474 0.12958401 -0.19296275 0.41008604 0.1560771 0.113974534 0.05415665 -0.42998615 0.15008363 0.06905778 0.09146859
205 -0.10308291 -0.2489112 -0.42929047 0.25747526 0.22773154 0.6237981 -0.32717252 0.60950357 -0.14164203 -0.37869927 0.21672899 -0.53397113 0.22073753 0.45269066 -0.41342127 0.32195538 0.35559693 0.19345541 0.44759968 0.45643482 -0.40612254 0.4623815 0.066432275 -0.76921344 -0.07691379 0.21156846 -0.8148576 0.22024156 0.22167476 0.25262794 -0.64003927 -0.23503709 -0.55052596 -0.10252038 0.22694273 -0.26033694 0.24306409 0.78553647 0.39109012 0.47508645 0.10216016 -0.23732512 0.23451555 -0.24402212 0.01682138 0.30990165 0.15072456 -0.20065667 0.73527706 0.27651966 -0.12760617 0.022302162 -0.027945997 0.3795841 -0.2492066 -0.16221279 0.14409406 -0.08847287 -0.1556981 -0.1593718 0.06622806 -0.00467002 0.09927017 0.24877125 -0.3280908 -0.3486635 -0.112638645 0.1666229 0.018302549 0.005281101 -0.06281869 -0.30188617 -0.35277438 -0.01818435 0.24046358 -0.2954322 -0.12743066 -0.16112956 0.33682755 0.16680959 0.89475477 0.31281745 -0.5768512 -0.080784485 0.32284054 0.37260416 0.35541496 0.35510108 -0.26701543 -0.28593394 -0.06433295 0.3096644 0.013696725 -0.12744509 0.41667172 0.55377877 -0.24035883 0.22741123 0.47082067 0.20843269 0.0066336994 0.038811002 -0.07845834 -0.2353815 0.0708877 0.38260746 0.37366548 -0.13940363 0.38414595 0.07742238 0.18389194 0.44951618 -0.13631862 0.27332234 -0.43608886 -0.033588078 -0.20152006 0.13558984 0.28034136 -0.08780196 0.35727036 0.46878627 0.18027954 -0.008341695 0.20049986 -0.42917964 0.03508063 0.3303065
206 -0.08240191 -0.26779056 -0.3402118 0.26589558 0.22360463 0.5852226 -0.24095815 0.5729733 -0.22393666 -0.26950017 0.14165919 -0.4961552 0.105644 0.445362 -0.44894004 0.24744825 0.43133983 0.1897814 0.38056052 0.49638203 -0.43061072 0.4820744 0.014464412 -0.7277582 -0.13608742 0.3726986 -0.73763686 0.2588988 0.17684402 0.25126997 -0.62424964 -0.11191447 -0.57642543 0.020554153 0.28517717 -0.33140975 0.28493544 0.7564811 0.40897846 0.4108594 0.101971 -0.31075627 0.1860039 -0.27058402 0.086393155 0.31544834 0.15300144 -0.2454843 0.7551362 0.23904274 -0.12441345 -0.0017646212 -0.097161084 0.38915008 -0.2946946 -0.1650289 0.09510407 -0.020028202 -0.17281927 -0.13467926 -0.010544727 -0.059455864 0.20385754 0.27075386 -0.32237017 -0.31158164 -0.092175566 0.20967253 -0.0038003766 -0.061076004 -0.051285647 -0.28743714 -0.41556975 -0.1164879 0.22925217 -0.27615812 -0.15724075 -0.13936356 0.2961815 0.08557926 0.8361888 0.24640763 -0.5496307 -0.1493499 0.3396543 0.3734659 0.30387568 0.3715679 -0.20627013 -0.21434183 -0.14270598 0.39005372 -0.065290235 -0.0973343 0.38440162 0.6298857 -0.24368627 0.28012967 0.503246 0.24710263 0.0285045 0.09456809 -0.12155412 -0.2809827 -0.097126834 0.39098948 0.38707823 -0.14540301 0.40161386 0.17748533 0.1785666 0.47195807 -0.12856798 0.26383147 -0.36810473 -0.051206555 -0.24656437 0.086867265 0.30607766 -0.16189457 0.44086093 0.49017015 0.21169138 0.010431941 0.18747103 -0.3177238 0.078098744 0.29710984
207 -0.083303615 -0.24979292 -0.29575533 0.24833837 0.20901172 0.5782538 -0.25226185 0.61972046 -0.21093875 -0.24746926 0.1670015 -0.5161381 0.07965119 0.4358811 -0.42402786 0.25605702 0.45053977 0.23186754 0.33508757 0.51958966 -0.4420108 0.49837875 -0.00033412635 -0.71384364 -0.14499328 0.3744283 -0.7239499 0.31459734 0.1793517 0.2635779 -0.63222206 -0.09554984 -0.5908557 -0.010138094 0.2656191 -0.31434503 0.269647 0.74907154 0.4113481 0.36856744 0.1178939 -0.32617483 0.146522 -0.27564675 0.08117728 0.3239471 0.14606847 -0.22154194 0.78282034 0.26921147 -0.15654905 -0.040420406 -0.11779423 0.3831713 -0.2613804 -0.1086842 0.09512003 -0.04605347 -0.15075815 -0.12440633 0.00042384843 -0.09103149 0.2054731 0.24257419 -0.36076933 -0.33320245 -0.06417058 0.2113121 -0.03853643 -0.10255658 -0.033834103 -0.25083745 -0.3943283 -0.09276293 0.23078896 -0.29215202 -0.16791764 -0.11580133 0.28100556 0.087299146 0.8696851 0.21516097 -0.5722385 -0.121895194 0.40997034 0.377848 0.30025744 0.38590428 -0.22769615 -0.24660838 -0.12163669 0.35845935 -0.016356282 -0.07782186 0.35812762 0.6850061 -0.23306283 0.31101397 0.46160644 0.20854966 -0.011365247 0.056155104 -0.15599124 -0.22419988 -0.09526949 0.36539525 0.42445698 -0.15920208 0.36973268 0.23043533 0.16587214 0.47218078 -0.11549789 0.29553613 -0.3884708 -0.0013634788 -0.2714287 0.08292968 0.266559 -0.16052721 0.45185953 0.47966096 0.19975312 0.04317979 0.21979237 -0.3042778 0.032847695 0.3213273
208 -0.07804837 -0.26405236 -0.32038826 0.23147556 0.19596016 0.5625647 -0.21130218 0.59542984 -0.1913004 -0.27653447 0.12790383 -0.51243687 0.11423642 0.4665927 -0.43454197 0.300942 0.42107028 0.18479972 0.38367707 0.47067058 -0.429506 0.45682847 0.048446465 -0.7078418 -0.10952134 0.3342331 -0.71310335 0.27115896 0.18753327 0.28138214 -0.6314287 -0.12469061 -0.62159324 0.009929817 0.2869761 -0.3113091 0.27336475 0.78354895 0.38386005 0.43668327 0.11957904 -0.350795 0.18573788 -0.26300377 0.0721495 0.31702638 0.14659034 -0.23220542 0.74179137 0.28331435 -0.13104449 -0.017858706 -0.08957315 0.37998354 -0.28799883 -0.13369468 0.12170167 -0.044002745 -0.13639541 -0.12862316 0.030823875 -0.055703916 0.20273095 0.27709553 -0.32941395 -0.3030098 -0.07428197 0.19445716 0.008868818 -0.053705037 -0.08130404 -0.28955695 -0.383663 -0.12272439 0.23953731 -0.27187428 -0.119236305 -0.11511885 0.30238768 0.14255635 0.8917915 0.2513941 -0.55480057 -0.1414901 0.38328776 0.40701792 0.30048636 0.3524416 -0.23816906 -0.23481442 -0.14668004 0.37410605 -0.07111615 -0.10969743 0.34977543 0.64595747 -0.2490524 0.27967587 0.467252 0.21259838 0.007951567 0.061479915 -0.12537107 -0.2287544 -0.087810844 0.36546704 0.4091343 -0.12558632 0.39290595 0.17122984 0.21183415 0.4517947 -0.13708033 0.2636042 -0.37401655 -0.038154088 -0.23627612 0.102244124 0.2834456 -0.16328226 0.43080208 0.49491218 0.20115016 -0.023146054 0.20279372 -0.33581308 0.07962122 0.30995816
209 -0.04066504 -0.31239355 -0.2684109 0.25571123 0.26461908 0.58489144 -0.25990582 0.5748658 -0.22783369 -0.26721755 0.117975555 -0.49458584 0.117172405 0.46164623 -0.44501448 0.36407006 0.48542878 0.18168245 0.37680885 0.5507232 -0.41637328 0.48285556 -0.008382953 -0.69166094 -0.12213553 0.33185855 -0.7318435 0.30333573 0.1753571 0.3240762 -0.6343013 -0.09044164 -0.62547773 0.0077410755 0.3457568 -0.4094437 0.33895317 0.7851636 0.4693599 0.3790569 0.1576065 -0.3962048 0.17093183 -0.19417053 0.06528079 0.30255428 0.07855519 -0.21489117 0.76708704 0.33442146 -0.17107147 -0.048035715 -0.1076388 0.28682423 -0.2804466 -0.1071044 0.13952675 -0.010601448 -0.035983745 -0.19974972 -0.013281144 0.0035717147 0.17355688 0.31028146 -0.31177518 -0.29178226 -0.05956882 0.22676553 -0.0032393474 -0.15731893 -0.048436515 -0.25910482 -0.3658066 -0.16927765 0.20023207 -0.20629747 -0.15189336 -0.05986243 0.26333454 0.054309964 0.8765454 0.20717955 -0.5446521 -0.16138329 0.4810307 0.4466265 0.30540678 0.3111762 -0.2821935 -0.253536 -0.06827969 0.31698176 -0.032169014 -0.09796763 0.32366237 0.6802438 -0.32075155 0.28964227 0.44915077 0.17836033 0.018593898 0.02548527 -0.109008655 -0.14960934 -0.054297063 0.33373237 0.3986312 -0.09128656 0.2738076 0.1917013 0.19745497 0.43211406 -0.07616214 0.3168214 -0.26858652 -0.014795701 -0.2685606 0.12959167 0.25913057 -0.14915666 0.47937652 0.43248677 0.23809782 -0.07567052 0.20069744 -0.3485754 0.096099004 0.34204555
210 -0.04477795 -0.2711285 -0.32058316 0.25633577 0.2272704 0.5354148 -0.2171172 0.6236942 -0.21184736 -0.24405397 0.13583738 -0.5423298 0.0721493 0.4625471 -0.44815052 0.2678787 0.4515668 0.19706087 0.350777 0.48044372 -0.43572527 0.5048879 0.028639097 -0.700955 -0.12516062 0.37031913 -0.71117175 0.32646942 0.17735723 0.27663118 -0.6235128 -0.09544993 -0.6478243 0.02879141 0.27110928 -0.33617663 0.28297302 0.7855065 0.4014301 0.41232356 0.118915126 -0.33584055 0.1535544 -0.27116427 0.09425198 0.32096723 0.12541983 -0.21664225 0.73679274 0.27298072 -0.14956634 -0.024648063 -0.09014226 0.40364546 -0.27477562 -0.12772201 0.11703288 -0.05112016 -0.1663983 -0.13447826 0.03749913 -0.0788171 0.21295403 0.2590815 -0.33868527 -0.30331275 -0.053142224 0.20360543 -0.013246805 -0.07790973 -0.078245774 -0.2693975 -0.38275144 -0.09304125 0.23166515 -0.29410112 -0.13184266 -0.12071856 0.3020949 0.12653546 0.9009087 0.22993939 -0.567776 -0.15599343 0.4167664 0.4219064 0.2894477 0.3757931 -0.22336142 -0.2158219 -0.13188684 0.38149455 -0.06234538 -0.10207606 0.34225476 0.64936113 -0.2737669 0.29753986 0.47472325 0.23535304 -0.01495351 0.08555159 -0.14129648 -0.20917533 -0.09740029 0.37606752 0.42868108 -0.15598352 0.40297127 0.21611512 0.19913337 0.45544085 -0.122252576 0.29010755 -0.39154357 -0.016723944 -0.25167242 0.08129988 0.28758842 -0.17800982 0.44401208 0.5045137 0.20401709 -0.008297793 0.21792515 -0.33310345 0.07732345 0.32526448
216 -0.111772545 -0.22848843 -0.31143788 0.27961308 0.23329481 0.6107769 -0.28137606 0.6160957 -0.18099523 -0.2775798 0.19870482 -0.52578294 0.08664157 0.41376272 -0.4427995 0.245466 0.38906792 0.23444244 0.33463445 0.5192252 -0.4425129 0.47507152 -0.011183954 -0.7609258 -0.14110099 0.38830116 -0.75432044 0.30562338 0.17038819 0.20199718 -0.62835246 -0.09650869 -0.5196689 -0.056037422 0.2494157 -0.28543377 0.2813705 0.72187734 0.37613225 0.3249124 0.09783251 -0.27688545 0.14530733 -0.2991012 0.10107586 0.2723033 0.17302659 -0.2224049 0.79772437 0.21630609 -0.13450214 -0.028069323 -0.13312675 0.42519543 -0.24237135 -0.11692636 0.056556124 -0.035598032 -0.17888938 -0.0961278 -0.015453098 -0.11615779 0.19163585 0.21237902 -0.3659652 -0.35285777 -0.10334598 0.21400134 -0.05105122 -0.08517741 0.0033802402 -0.25420472 -0.4188374 -0.054922353 0.23189309 -0.31127617 -0.20120637 -0.14249271 0.27753443 0.069509625 0.8434106 0.24195972 -0.5767029 -0.078386135 0.35984445 0.35487998 0.29976603 0.44294408 -0.2182443 -0.24143954 -0.1071965 0.3513679 0.04972399 -0.06700717 0.39075252 0.67700016 -0.20427169 0.29431224 0.45469716 0.22253686 -0.007273799 0.060477562 -0.16104743 -0.23077244 -0.08227962 0.38529673 0.41162935 -0.17461438 0.34629422 0.22096677 0.12448646 0.47789618 -0.11741066 0.29332402 -0.412912 0.011538661 -0.25633946 0.1083691 0.258452 -0.15473771 0.43854678 0.48081583 0.20332193 0.10099365 0.20008391 -0.30522648 0.02315685 0.3210266
217 -0.05294365 -0.2666095 -0.42321804 0.23077859 0.23013227 0.5856763 -0.22507054 0.5648956 -0.16735642 -0.35715908 0.12570791 -0.53120285 0.12207939 0.4855281 -0.4481337 0.28200176 0.42449677 0.15380636 0.45554614 0.41378942 -0.38710454 0.5299592 0.060585912 -0.70574534 -0.051783867 0.24401318 -0.7891242 0.24232148 0.21532653 0.2590888 -0.58074975 -0.15202437 -0.58673596 0.0661799 0.25460094 -0.3417016 0.25815532 0.79028165 0.38111264 0.5019029 0.12837823 -0.29889438 0.1888412 -0.26734668 0.030988425 0.33419147 0.12986226 -0.22941388 0.7198286 0.23808198 -0.13299069 0.03589978 -0.042978223 0.42736864 -0.32308823 -0.20032217 0.088597536 -0.061715107 -0.18304364 -0.14907455 0.046425838 -0.05333519 0.18143557 0.32079116 -0.32809928 -0.2571945 -0.073872454 0.16643398 -0.001459324 -0.05936427 -0.10177892 -0.29599634 -0.39036816 -0.13460909 0.2201759 -0.27240467 -0.09301582 -0.15807253 0.28823018 0.14648922 0.83287024 0.26665002 -0.5198563 -0.17043647 0.3316817 0.38326323 0.2722312 0.32693148 -0.20915876 -0.24358752 -0.08854162 0.39649382 -0.12093604 -0.0815997 0.39001226 0.5657141 -0.25142732 0.27223697 0.54942024 0.2709609 0.070121944 0.09164285 -0.06735189 -0.28096583 -0.036059033 0.36658126 0.35742944 -0.16561076 0.47376865 0.16323557 0.1776204 0.4195285 -0.16544478 0.2230116 -0.42657927 -0.105396524 -0.21774316 0.11713986 0.29947332 -0.13670161 0.37150282 0.49303985 0.16469651 -0.02010322 0.1589802 -0.4043108 0.071276024 0.28660485
219 -0.14562975 -0.24738957 -0.34455165 0.23247668 0.1956669 0.6108537 -0.3213801 0.5889177 -0.21020828 -0.2896047 0.20032135 -0.4967804 0.15292531 0.4296802 -0.41726938 0.3063074 0.43796983 0.27084076 0.3856042 0.5328465 -0.4157055 0.45931286 -0.022536041 -0.7190329 -0.15928245 0.33725533 -0.7435244 0.25326085 0.18059142 0.26626903 -0.6741429 -0.12670137 -0.5666598 -0.048087936 0.30314526 -0.29638737 0.2839732 0.7357124 0.45012316 0.3692471 0.08151702 -0.31588057 0.1932262 -0.25308204 0.058417555 0.35442445 0.13675366 -0.21531405 0.7885402 0.26071617 -0.12653391 -0.011255983 -0.115942545 0.33649084 -0.27551466 -0.13236111 0.077322006 0.011646501 -0.12030735 -0.1306756 -0.027126886 -0.016627993 0.16365188 0.2588514 -0.34935537 -0.3495263 -0.1125682 0.21040879 -0.023347868 -0.077450156 -0.03361388 -0.28483155 -0.4413271 -0.10343464 0.24092613 -0.26158467 -0.18438487 -0.1369567 0.28466752 0.07510506 0.82965374 0.24453665 -0.5676471 -0.0974885 0.3429618 0.3270171 0.32778943 0.3769693 -0.22707076 -0.21974719 -0.14644702 0.35137814 -0.00090830843 -0.099040315 0.37073505 0.6794706 -0.23181762 0.27617306 0.47548637 0.2047366 -0.013133039 0.01742906 -0.11163499 -0.25538814 -0.059323665 0.37573847 0.3919587 -0.11839037 0.3086281 0.16633305 0.17487371 0.4891406 -0.09349136 0.29240492 -0.33356774 -0.0025406715 -0.2581632 0.107132986 0.26411042 -0.12956099 0.39803746 0.44599923 0.21267681 0.011257717 0.21135142 -0.314137 0.04974414 0.31444278
220 -0.035897773 -0.27511534 -0.36310926 0.2794958 0.26584256 0.54720205 -0.23468539 0.5826416 -0.21184565 -0.26429003 0.13172665 -0.5486285 0.07055629 0.46303666 -0.4436585 0.2503222 0.42142156 0.16350804 0.38868928 0.4638003 -0.43280318 0.51134366 0.0056779785 -0.72073644 -0.09219666 0.3370989 -0.7367523 0.29412824 0.21111226 0.2603319 -0.6243613 -0.095845826 -0.59058857 0.02272638 0.25939935 -0.36687073 0.27486873 0.7635954 0.38324562 0.42779243 0.11760138 -0.2977248 0.15743373 -0.27484307 0.08310756 0.3270566 0.1459021 -0.22939064 0.7324432 0.2663196 -0.14761145 -0.025723346 -0.080043525 0.40458184 -0.2871624 -0.15756986 0.08124763 -0.04202899 -0.17495762 -0.11936405 0.04081971 -0.06892051 0.21448623 0.2687259 -0.34626606 -0.29391485 -0.06763319 0.1937717 -0.011083838 -0.09903434 -0.08137126 -0.2739663 -0.40637708 -0.10875317 0.25802377 -0.32168907 -0.15304804 -0.13310467 0.3061803 0.106435075 0.89053726 0.24275625 -0.5568424 -0.15838893 0.38336986 0.40935153 0.2812545 0.35592616 -0.22464074 -0.23167144 -0.08383487 0.38983253 -0.068701416 -0.06699633 0.3781393 0.61628133 -0.28129235 0.28413594 0.5144523 0.25164554 0.03191068 0.089702144 -0.12832612 -0.21807931 -0.046402674 0.38184628 0.4075334 -0.1697468 0.43443003 0.21135093 0.15595852 0.43916476 -0.14826925 0.2716635 -0.4080436 -0.04327743 -0.24657448 0.109103695 0.3116399 -0.1650257 0.45087457 0.5099746 0.20118546 -0.0043367855 0.21147811 -0.36762792 0.0679813 0.31427172
221 -0.043406915 -0.26871267 -0.28435987 0.24619782 0.2212145 0.5296433 -0.21462572 0.6539223 -0.06262113 -0.3132389 0.17283913 -0.61950696 0.10878146 0.5018677 -0.4364105 0.37464514 0.42555967 0.22933766 0.34927073 0.52281696 -0.45640355 0.470463 0.069414854 -0.69400877 -0.13941687 0.35502723 -0.7353956 0.40427306 0.18397386 0.29155377 -0.7012154 -0.07680089 -0.71724296 -0.17454964 0.2966086 -0.22717467 0.28280553 0.8328194 0.3353861 0.37092167 0.124888994 -0.36016974 0.16689894 -0.23988585 0.07512033 0.2549953 0.10744291 -0.17113128 0.7430623 0.23782127 -0.11136114 -0.059323903 -0.0770628 0.39010492 -0.24063878 0.031609893 0.14340149 -0.054352745 -0.119291134 -0.09726142 0.11125913 -0.12008267 0.18702985 0.21777554 -0.42775372 -0.37290242 -0.03994316 0.1849501 -0.013038772 -0.019206412 -0.06937707 -0.21570782 -0.3707806 -0.0077377437 0.23063575 -0.2879095 -0.06807666 -0.060169633 0.32803518 0.17776655 0.96192974 0.30252665 -0.5897821 -0.03466982 0.51603097 0.4888881 0.24834728 0.40326142 -0.27004698 -0.24228348 -0.15404332 0.33477154 0.09575192 -0.13490331 0.305261 0.65179 -0.25444216 0.27453914 0.3631398 0.15549767 -0.13130946 -0.011145407 -0.1645822 -0.038334828 -0.024620088 0.38323572 0.4561442 -0.14774044 0.29391122 0.17716058 0.22341679 0.46973488 -0.07759242 0.34281254 -0.40974435 0.12943588 -0.22042061 0.13930821 0.19718744 -0.19005804 0.3679445 0.5058077 0.19080485 0.012218124 0.27091822 -0.35578656 0.03228044 0.3711288
222 -0.018354602 -0.27656615 -0.32369897 0.26228255 0.24031094 0.552177 -0.20468313 0.6229974 -0.22393838 -0.23512556 0.13011067 -0.54234546 0.05269012 0.46862805 -0.43629137 0.23669125 0.4368895 0.18301024 0.35581818 0.4718631 -0.45306438 0.50509065 0.02895796 -0.711276 -0.11628954 0.3756689 -0.7143821 0.31283912 0.19412316 0.27161336 -0.6196234 -0.088491514 -0.61587787 0.06288515 0.24030171 -0.3361981 0.2714524 0.77296716 0.3732414 0.42798135 0.12788299 -0.32344687 0.15433168 -0.29679403 0.09831421 0.31651083 0.14070979 -0.2323412 0.7337989 0.27711767 -0.16121094 -0.018228075 -0.10186963 0.42129204 -0.2876026 -0.1436033 0.10705332 -0.06252055 -0.1769192 -0.12669963 0.03882304 -0.09147353 0.22115658 0.25786448 -0.3444259 -0.29362434 -0.04122007 0.19620804 -0.023783246 -0.087437205 -0.07275898 -0.26304927 -0.3945107 -0.11001341 0.23333193 -0.30377707 -0.14903802 -0.12113299 0.29498443 0.11642487 0.8963742 0.2138813 -0.5513987 -0.15859835 0.40682426 0.40627012 0.2862679 0.37402445 -0.21416564 -0.22628212 -0.118041776 0.38729456 -0.070824616 -0.06884106 0.35123923 0.64859074 -0.24612927 0.29971883 0.47750786 0.23055424 0.022561863 0.0852211 -0.1490514 -0.22190765 -0.094140224 0.36632043 0.4085244 -0.16109945 0.43157473 0.2304214 0.16341099 0.44188637 -0.14478381 0.26756325 -0.40782726 -0.0356201 -0.24638271 0.08915527 0.29778203 -0.16208501 0.4477059 0.5131688 0.1888258 0.0125022195 0.20783985 -0.32583612 0.06633927 0.3166435
234 -0.16565207 -0.20978907 -0.31585124 0.1543716 0.20039934 0.6400053 -0.32800874 0.5332065 -0.24451183 -0.2842067 0.20891158 -0.4766259 0.17215154 0.41775775 -0.3677913 0.31118485 0.44080454 0.37442613 0.41516376 0.5292051 -0.4143231 0.4722225 -0.03370896 -0.68315667 -0.15509665 0.34425154 -0.7333816 0.17688069 0.17418195 0.23895997 -0.66586787 -0.087546445 -0.49425596 0.019318663 0.28779942 -0.27612475 0.23506951 0.7116974 0.45232975 0.34565696 0.06431135 -0.34824926 0.21387006 -0.30642015 0.06835994 0.43048984 0.12648894 -0.22702947 0.8250827 0.25643796 -0.12497232 -0.010369515 -0.17662148 0.38619882 -0.30624855 -0.21710782 0.02045919 0.03776432 -0.13522923 -0.10037212 -0.04622612 0.027201597 0.2165766 0.29431745 -0.3920264 -0.35411772 -0.1488126 0.24416399 -0.045836903 -0.09324016 -0.064841926 -0.32974058 -0.54854244 -0.14031024 0.2810079 -0.27773428 -0.20243987 -0.15915446 0.2507192 0.09434139 0.8020929 0.24684241 -0.5897968 -0.11327613 0.3016625 0.26358917 0.34958017 0.40071675 -0.20573208 -0.18073922 -0.2048455 0.41495398 -0.050779976 -0.099961355 0.39312205 0.7405032 -0.1902238 0.28464788 0.5504749 0.21041383 -0.011507867 -0.013078093 -0.08762087 -0.34879553 -0.10445769 0.3432251 0.3778894 -0.0999822 0.31853566 0.18616533 0.14602101 0.5365251 -0.10716888 0.2657052 -0.31547838 -0.020405697 -0.24945518 0.115669526 0.29781416 -0.08258285 0.35974297 0.4655518 0.2143677 0.005737176 0.20219865 -0.30022824 0.08086031 0.29791743
235 -0.09521795 -0.31671238 -0.44678596 0.37005186 0.3314537 0.49632683 -0.30265477 0.50372267 -0.16944262 -0.23052515 0.116323985 -0.5231552 0.07774232 0.46262062 -0.46222913 0.26260605 0.37683472 0.12911597 0.37376454 0.5079949 -0.39940158 0.5397042 -0.03735588 -0.6704862 -0.12795891 0.3592513 -0.7751533 0.29151648 0.20544481 0.21572195 -0.6660332 -0.018085089 -0.6130221 -0.14174128 0.34476852 -0.38967437 0.3485645 0.75539607 0.46031496 0.4779092 0.038378567 -0.2702908 0.18354757 -0.15259457 0.037768636 0.3384538 0.14642742 -0.24875896 0.68542296 0.15953648 -0.06260019 -0.028105184 -0.040807705 0.34400123 -0.22948651 -0.13505591 0.07694832 0.070380665 -0.28183112 -0.19888824 0.0231883 -0.019820902 0.20953923 0.2997163 -0.33530483 -0.32858202 -0.12903373 0.16751732 0.073248446 -0.06212793 -0.10594747 -0.2982221 -0.47803187 -0.051560126 0.25438315 -0.33748958 -0.09588624 -0.16499022 0.34669366 0.101384714 0.8523375 0.31111562 -0.6146521 -0.1489794 0.32181442 0.42813423 0.28207183 0.32375947 -0.21663892 -0.14476433 -0.1335827 0.44855535 -0.04492729 -0.15617622 0.44565862 0.483318 -0.38743117 0.2343164 0.51693434 0.27525842 0.01639184 0.14224839 -0.05178176 -0.22423995 0.02337417 0.4451684 0.35652697 -0.16195938 0.36673498 0.09283412 0.19668187 0.4530951 -0.121891975 0.39556226 -0.325638 0.010383954 -0.23545986 0.05886811 0.29954377 -0.12978524 0.42951512 0.49936724 0.24724326 -0.10119779 0.21750142 -0.36177382 0.0911436 0.30022964
237 -0.04170249 -0.2460401 -0.27161893 0.21353072 0.24584305 0.6222124 -0.15285891 0.6388547 -0.17060667 -0.3284265 0.1237877 -0.59968907 0.089341946 0.46151936 -0.43719125 0.28390515 0.44037256 0.17768712 0.389177 0.46587294 -0.4666083 0.44834775 0.061566744 -0.7576707 -0.0708786 0.3404165 -0.73508716 0.3127883 0.2053285 0.28921324 -0.5616887 -0.14553544 -0.5872091 0.08483956 0.20904057 -0.28365082 0.24752699 0.7601766 0.31618282 0.3728309 0.17105241 -0.32927838 0.13181682 -0.34584275 0.108194895 0.22562057 0.1473864 -0.24338588 0.7888103 0.28336093 -0.18539931 -0.017894784 -0.12511218 0.45287594 -0.30285418 -0.14428137 0.093266025 -0.12713037 -0.099686146 -0.08088823 0.053837407 -0.114962265 0.21038656 0.25795236 -0.3326326 -0.2699466 -0.0393793 0.21508576 -0.07253916 -0.122261435 -0.03944032 -0.2641582 -0.3511961 -0.13274762 0.22981182 -0.28690192 -0.17059454 -0.09257474 0.2556529 0.10643492 0.90369904 0.20345554 -0.5349201 -0.14055574 0.4293162 0.3860188 0.27575415 0.40722343 -0.2533435 -0.28608048 -0.046271086 0.35625505 -0.044658516 -0.04233687 0.3347503 0.71087205 -0.18859617 0.30667117 0.44222438 0.22861157 0.06408594 0.052160397 -0.18489932 -0.17910099 -0.11633919 0.34485608 0.43577024 -0.17568982 0.42644146 0.2669238 0.14283651 0.43106169 -0.16594939 0.22305521 -0.46210843 -0.066831656 -0.27543202 0.14387955 0.27521178 -0.20064574 0.45481554 0.52370113 0.16699088 0.08233011 0.16893296 -0.3704462 0.056889478 0.35530752
240 0.67122334 -0.64685524 0.10143671 0.330446 0.48584718 0.65125495 0.6342645 0.14723916 0.06328426 -0.09396946 -0.29722762 -0.028984332 0.062326577 0.39314327 -0.44314137 0.27126053 0.13297224 -0.4686834 0.50661486 -0.5058451 0.037725043 0.40743992 0.29269642 -0.7753001 0.7801016 -0.43163097 -0.41113287 0.21511163 -0.17986815 -0.016596025 0.4595797 -0.8169633 -0.52219915 0.6069528 -0.0510122 -0.36082074 0.12557499 0.682228 0.43944475 0.5187164 0.06500547 -0.7463014 0.1908355 -0.20316315 -0.28589055 0.12780742 -0.05462248 0.07717638 0.1177479 0.62248397 -0.49398738 -0.23164569 -0.3735579 0.28292066 0.028349632 -0.24647054 0.05275395 -0.83190084 0.07994771 -0.08956248 0.41717353 0.089997165 -0.2591626 0.36296356 -0.27222458 0.18525764 0.13414873 -0.16273744 0.05139171 -0.0077610714 0.13353053 -0.07114459 0.6177789 -0.06697272 -0.03942032 -0.06630861 0.038523987 0.28291604 0.4621595 -0.21800005 0.35282964 -0.013864645 -0.31624267 -0.2156333 0.9191556 0.4710152 0.20641054 -0.014641078 -0.20812376 -0.6338844 -0.012410607 -0.08375926 0.1655272 0.053014748 -0.12048595 0.18557131 -0.535656 0.207983 0.42195866 -0.14064418 -0.2723528 0.38218537 -0.00041210253 0.42983204 0.041741397 0.29699945 0.3345646 -0.35947394 0.28425387 0.30745876 0.59135 0.06675129 0.2604954 0.568137 0.112056345 -0.19614854 0.019969903 -0.44547093 0.012867527 -0.3747405 0.68686914 0.24079579 0.07508898 0.3472294 -0.27543935 -0.10870505 0.5570616 0.26032963
241 0.7764789 -0.6898071 0.13016066 0.33915293 0.52114415 0.65010387 0.69876295 0.17329597 0.028723612 -0.09859112 -0.3490177 -0.06929965 0.036854982 0.45097908 -0.47409707 0.34940335 0.23161943 -0.451486 0.6421022 -0.5365336 0.016457604 0.40677467 0.3711013 -0.809778 0.8402235 -0.37668225 -0.5037809 0.122449026 -0.14873984 0.0083909575 0.41624644 -0.7325929 -0.6041147 0.59557134 -0.09166794 -0.37266728 0.09245554 0.6704803 0.33902487 0.4933597 0.16121106 -0.7585571 0.28546244 -0.23425545 -0.25027177 0.19377309 -0.17100452 0.16506271 0.12549534 0.5878288 -0.5019793 -0.33899555 -0.3862037 0.35767826 0.007983539 -0.23373634 0.044146374 -0.8131797 0.0100298645 -0.10598212 0.4479416 0.06594964 -0.17253153 0.33782354 -0.27216 0.17456867 0.21034251 -0.1573705 0.020288551 0.08170176 0.05238542 0.002570099 0.56385756 -0.04693287 0.055146527 -0.11965813 0.037742585 0.32935047 0.44329718 -0.1382982 0.39827722 0.09246586 -0.2643853 -0.14164522 0.92557997 0.47727647 0.21962523 -0.00013294848 -0.2780021 -0.5648195 -0.05739219 0.0045906603 0.1363919 0.05780493 -0.1417624 0.19152126 -0.51989263 0.20751329 0.36744744 -0.18270572 -0.26110965 0.25606263 -0.061069593 0.44922474 -0.0058295457 0.3277647 0.23638508 -0.28324917 0.27422634 0.25834256 0.5553422 0.023458133 0.22535907 0.52388084 0.06801504 -0.13665566 0.049836583 -0.42063963 -0.003230885 -0.33887637 0.589563 0.22031291 0.0472584 0.3088371 -0.19999538 -0.1100576 0.5495818 0.260273
242 0.76508015 -0.6983671 0.12469197 0.3321166 0.5387594 0.64323306 0.6871501 0.16730121 0.03277381 -0.074642 -0.34812474 -0.055285864 0.037837364 0.43682426 -0.47457883 0.3547366 0.19328548 -0.44369468 0.63920337 -0.5211155 0.02401793 0.41735798 0.355743 -0.8088138 0.8325259 -0.39405385 -0.4728726 0.12738831 -0.14396267 0.006049821 0.39527896 -0.72942996 -0.57834464 0.58783185 -0.08201407 -0.371448 0.09893457 0.6553113 0.3644504 0.4919063 0.13730541 -0.7751849 0.2457384 -0.22582506 -0.2491611 0.19024293 -0.1467932 0.14822936 0.10006849 0.60055345 -0.49617413 -0.3316714 -0.39372855 0.32649577 0.018204566 -0.234232 0.027194101 -0.8020269 0.039457664 -0.08461041 0.44392285 0.08225376 -0.17860399 0.3397129 -0.2931851 0.17979579 0.19049789 -0.17472015 0.020014236 0.052484058 0.07494447 0.0039928863 0.5570319 -0.07740878 0.065665215 -0.091309056 0.043035563 0.32513195 0.43237796 -0.15165077 0.39686602 0.08315615 -0.2648898 -0.14292674 0.9277972 0.47161868 0.21584146 -0.01809843 -0.2892326 -0.57051444 -0.042090885 -0.009825467 0.13528714 0.057827476 -0.14514975 0.19684349 -0.5225829 0.21323806 0.37461078 -0.19190536 -0.27624378 0.25332144 -0.05982297 0.4484391 0.0007713405 0.32453877 0.2557061 -0.27579528 0.26559216 0.25893655 0.5609107 0.039034076 0.22536062 0.5382902 0.07956686 -0.1226852 0.042331345 -0.41879034 0.00046105892 -0.3462506 0.5900023 0.21041454 0.071634814 0.30323157 -0.19085053 -0.10398931 0.56498164 0.257469
243 0.76205224 -0.67756015 0.15002869 0.31871334 0.5042622 0.6468326 0.6804878 0.16889574 0.022443546 -0.10890202 -0.34565526 -0.064044215 0.039248846 0.44528365 -0.4596927 0.3623497 0.2094676 -0.4278551 0.62506235 -0.5358983 0.024175009 0.3899476 0.34349138 -0.79896104 0.8369948 -0.386598 -0.46401238 0.12465168 -0.15408905 0.0088973865 0.42408147 -0.7253586 -0.57543254 0.5976435 -0.0863445 -0.36209136 0.08952521 0.67311853 0.3489982 0.4873795 0.14209145 -0.7707102 0.28382877 -0.23402141 -0.24902476 0.18514434 -0.15821859 0.17558496 0.114455685 0.5947607 -0.4886047 -0.32944256 -0.38115218 0.33785424 -0.00030170506 -0.22459717 0.038360715 -0.80411965 0.045245923 -0.07746499 0.4366848 0.08485646 -0.16862391 0.32297865 -0.27908444 0.16027945 0.19061998 -0.1663553 0.037794676 0.07543333 0.06162811 -0.019024119 0.5585947 -0.058415603 0.050671663 -0.09427782 0.046888325 0.3257836 0.43167496 -0.15208994 0.3917081 0.09419939 -0.25733414 -0.14176856 0.9136892 0.47268853 0.2136859 -0.010332109 -0.2763103 -0.5729892 -0.04502801 -0.0150731485 0.13578176 0.052296113 -0.14811146 0.20141686 -0.49635655 0.21209837 0.37049544 -0.17737627 -0.2785906 0.27151692 -0.03777516 0.45621014 -0.0059298943 0.30643556 0.24287383 -0.2850065 0.26917952 0.2586755 0.5621425 0.037470166 0.23081459 0.51357496 0.06475989 -0.13354248 0.07668816 -0.4066247 -0.0104441345 -0.332229 0.5772695 0.21034937 0.041938186 0.30788386 -0.20296273 -0.11842946 0.54682606 0.24660963
244 0.76406866 -0.6713142 0.16121112 0.33260554 0.51787436 0.6341374 0.67925006 0.15891281 0.035781395 -0.09717822 -0.34948874 -0.031124426 0.05777002 0.45252603 -0.44381618 0.39018115 0.19367915 -0.40356955 0.6316221 -0.54076153 0.04216884 0.41273844 0.362211 -0.79012316 0.8506651 -0.39651898 -0.4536167 0.14290293 -0.1715712 0.005942123 0.42286316 -0.7434313 -0.5940203 0.5887835 -0.07958912 -0.35521117 0.08087115 0.664292 0.35596555 0.49271822 0.12751335 -0.80396664 0.26621652 -0.2158632 -0.2669826 0.1895663 -0.15971817 0.16736685 0.10439889 0.6039682 -0.49354884 -0.3348331 -0.38648537 0.33246475 0.010633453 -0.23909341 0.03583017 -0.8207527 0.050830167 -0.08840891 0.4425065 0.108078934 -0.18024912 0.33231404 -0.29639405 0.1782778 0.17323595 -0.16904141 0.037841856 0.07890804 0.06353411 -0.012170944 0.5660961 -0.033733614 0.067029156 -0.11359696 0.068174034 0.32381812 0.43079495 -0.14438668 0.38784078 0.09814025 -0.28896877 -0.13845894 0.948339 0.48625064 0.20272948 -0.011479237 -0.27330044 -0.5781001 -0.054625355 -0.027859965 0.14206949 0.034923896 -0.14438412 0.1730829 -0.52105254 0.208177 0.3844188 -0.17716466 -0.29950255 0.28071982 -0.02892119 0.45523682 -0.0035360933 0.31931904 0.24356273 -0.28956166 0.24956557 0.25528044 0.5627552 0.038790047 0.23655865 0.55028075 0.0962815 -0.114780195 0.07905894 -0.41342235 -0.011608901 -0.33404186 0.565504 0.21925923 0.06271657 0.29743022 -0.1848339 -0.10310018 0.5588384 0.256411
245 0.76010144 -0.67120355 0.15187648 0.32748702 0.50561696 0.6578034 0.6778913 0.18005985 -0.00034397567 -0.11005964 -0.35615432 -0.058241814 0.057562124 0.44761395 -0.44967622 0.3554002 0.2166822 -0.4196607 0.6038888 -0.538656 0.010034006 0.40455228 0.34431976 -0.79921323 0.834238 -0.35961783 -0.4514521 0.14131688 -0.18441434 -0.004329237 0.41909397 -0.73893946 -0.58433026 0.585776 -0.0592257 -0.34553146 0.08801551 0.69477147 0.3727599 0.4986457 0.11476603 -0.77825814 0.29748267 -0.2345421 -0.2574138 0.17662098 -0.12580329 0.13755396 0.109740555 0.6100463 -0.47039607 -0.32412243 -0.38049507 0.33824503 -0.01257472 -0.22686677 0.049351465 -0.807808 0.027273504 -0.06818514 0.43164253 0.09087807 -0.16198942 0.33423072 -0.27084243 0.17618465 0.18017732 -0.17102939 0.04133575 0.08082377 0.04735052 -0.033825397 0.54518235 -0.019163046 0.04818029 -0.117998734 0.067071475 0.29246828 0.43060598 -0.1390408 0.36897454 0.09209754 -0.28535005 -0.15191436 0.8981439 0.46967328 0.20109715 -0.0072953757 -0.24867502 -0.5720224 -0.05630176 -0.016128121 0.13269266 0.033658743 -0.13199633 0.1865888 -0.48458666 0.21237125 0.3721299 -0.15037501 -0.26208246 0.31604987 -0.026910152 0.43440694 0.0019179343 0.30759943 0.2458346 -0.29715246 0.27271408 0.24584176 0.5603769 0.04923031 0.20512615 0.52151525 0.07696349 -0.12542295 0.093356386 -0.42352414 0.01078077 -0.32902396 0.597077 0.23227517 0.03214166 0.3001164 -0.20070218 -0.11896982 0.55595034 0.24075884
247 0.73889166 -0.6520258 0.1999568 0.31233984 0.4734683 0.67072 0.6596626 0.14583203 -0.011059946 -0.10310866 -0.3886252 0.004588458 0.029192477 0.40921032 -0.47440258 0.37102774 0.21202485 -0.4268395 0.53230155 -0.5451706 0.01732112 0.37646225 0.33717582 -0.788653 0.80051583 -0.37428626 -0.38702622 0.1397128 -0.19901706 0.023070142 0.45472133 -0.7707172 -0.53360194 0.65459406 -0.008290011 -0.37152943 0.11884753 0.69491017 0.38086146 0.5139793 0.09693433 -0.7900188 0.3228631 -0.23310299 -0.2864324 0.17463128 -0.15735057 0.13263553 0.121782385 0.66732836 -0.47418204 -0.30376562 -0.3712711 0.2937339 -0.031576186 -0.24013957 0.04734675 -0.80703896 0.050922245 -0.050314087 0.42725456 0.1179482 -0.17548993 0.3405497 -0.26175117 0.16381355 0.14362738 -0.1689223 0.08971267 0.07148657 0.052896675 -0.09381894 0.5672307 -0.079648525 -0.0038860708 -0.09145026 0.038750593 0.32119456 0.45760417 -0.17305166 0.3335278 0.033789866 -0.2725205 -0.1681528 0.8558456 0.46026084 0.21592873 0.0001283114 -0.19916391 -0.58790404 -0.09765054 -0.040680595 0.12508406 0.040814716 -0.113931574 0.14912985 -0.46297845 0.19214787 0.3758969 -0.1446614 -0.27338493 0.36351636 -0.005261818 0.37717298 -0.034086935 0.3082373 0.21679848 -0.3059153 0.29894808 0.24491817 0.5806209 0.058723826 0.23727466 0.50954986 0.12958229 -0.22784227 0.15896198 -0.42840987 0.02694416 -0.32836562 0.64001405 0.21754394 0.039892733 0.32697195 -0.26474258 -0.07593723 0.5934012 0.24875788
248 0.79371643 -0.6876425 0.17576008 0.32406607 0.48240697 0.6616385 0.69024897 0.15971258 0.013592485 -0.1359493 -0.36423808 -0.06103337 0.051164273 0.45822847 -0.46400258 0.3936444 0.24028447 -0.41207343 0.61282367 -0.5445165 0.012127878 0.39374822 0.37302673 -0.8003168 0.8403541 -0.3760263 -0.46826324 0.1315166 -0.16665277 0.031733602 0.43542558 -0.74097097 -0.6081546 0.60921204 -0.056077242 -0.3516319 0.09517628 0.7170311 0.3537065 0.48947936 0.14461209 -0.79784876 0.32166338 -0.24310097 -0.2601402 0.20110993 -0.15035814 0.1890522 0.13455418 0.60961294 -0.48537856 -0.33632463 -0.3981442 0.3322605 -0.014980183 -0.23022705 0.06375407 -0.823785 0.04040073 -0.08431464 0.42629373 0.08752785 -0.17136203 0.33250743 -0.27414545 0.1654904 0.18147323 -0.15624192 0.06278947 0.094501935 0.032201275 -0.0303796 0.55192685 -0.03177208 0.04502542 -0.104172125 0.05957198 0.324934 0.4495051 -0.12495456 0.40120098 0.09496767 -0.27486002 -0.15981595 0.9031872 0.4654925 0.22369957 0.011196339 -0.25222102 -0.5631278 -0.08360298 -0.020566603 0.12710379 0.011991915 -0.14144804 0.19031194 -0.47998953 0.20927761 0.35930517 -0.16107056 -0.2696189 0.2921064 -0.01767103 0.44478273 -0.013768367 0.3129595 0.21907634 -0.2956121 0.2943312 0.2394749 0.5774237 0.023947129 0.20613655 0.5073387 0.05993603 -0.14831953 0.10513815 -0.40515724 0.015220825 -0.33055705 0.5781906 0.21999297 0.04482624 0.3004856 -0.20987482 -0.09790125 0.5597838 0.26404464
260 0.76858985 -0.68056196 0.08076436 0.36502093 0.5314542 0.64980567 0.7115696 0.17626081 0.023627743 -0.10494184 -0.3186733 -0.09269828 0.051759996 0.48028883 -0.48629048 0.3404339 0.21395455 -0.43335336 0.652979 -0.52677375 0.017308975 0.42249754 0.34409425 -0.81954235 0.8511452 -0.37692153 -0.54968446 0.12933034 -0.14475134 -0.033924043 0.41059127 -0.72618526 -0.61191887 0.5474953 -0.09752491 -0.35491088 0.091349676 0.6804473 0.34844443 0.512938 0.17119707 -0.77619123 0.27377898 -0.2183739 -0.24511547 0.19451468 -0.12911126 0.15960516 0.14470944 0.57724214 -0.51426756 -0.31361648 -0.39773464 0.38420284 0.028704703 -0.23167144 0.046172954 -0.8217625 -0.021762686 -0.11537881 0.41939834 0.059780646 -0.19210856 0.3397292 -0.27719173 0.15557326 0.20050767 -0.18040583 0.017767152 0.06867885 0.08150172 0.012003257 0.5437241 -0.0073608947 0.03091128 -0.12548494 0.04843351 0.313703 0.40543243 -0.120907806 0.39212433 0.11471531 -0.27428457 -0.14861587 0.9204958 0.4675768 0.21771534 0.00040374103 -0.2973831 -0.54548115 -0.030122023 0.005473759 0.15115012 0.07518852 -0.1315451 0.20034313 -0.51912117 0.19892539 0.34855992 -0.16499561 -0.2401625 0.2573062 -0.061439417 0.4805794 0.044474598 0.3225692 0.25357056 -0.28477156 0.25178254 0.25656235 0.53808194 0.008650841 0.21505497 0.54406404 0.06823483 -0.109672576 0.031136243 -0.42476588 -0.0148844 -0.32184732 0.57103956 0.25013447 0.041278597 0.31133124 -0.18592408 -0.12542906 0.5367729 0.25746092
263 0.61290777 0.10167453 0.23097894 0.09777178 0.010957328 0.1976166 -0.37710568 0.46229598 -0.60647786 -0.21573819 0.3726434 0.2075681 -0.2792629 0.3684478 -0.30403724 0.8531734 -0.18534541 0.24431373 0.7135514 -0.12995163 0.49331698 0.2732843 -0.51307505 -1.0443053 -0.15957803 0.16329439 -0.3808191 0.29148158 0.29204944 0.42013457 -0.62381005 0.19509849 -0.059533965 0.18778223 0.5813017 -0.32830638 -0.30043834 0.33508092 0.4854752 0.41642615 -0.16941403 -0.62815917 0.26614258 -0.23555753 0.4139378 -0.38338903 0.1144211 -0.0037771435 0.6609883 0.5530708 -0.45180327 0.16502176 -0.43107155 0.5847606 -0.2928882 -0.16829625 0.06929508 -0.056378063 -0.09726366 0.16307573 -0.24276803 -0.23326221 0.79547966 0.012459885 -0.69099045 -0.73361856 -0.24893865 0.10880343 0.65866166 -0.07344843 0.8899493 -0.280905 0.16943431 0.36837664 0.041050263 -0.44293106 0.6980685 -0.28055832 1.0288262 -0.13899386 0.7913391 0.100211404 -0.35858586 -0.45362642 0.10384798 0.22179453 0.05139403 -0.056465976 0.17532235 -0.40292555 -0.0009871183 -0.07157284 -0.06656905 0.5172196 -0.04250728 0.3180333 -0.31701648 0.02311444 0.506047 0.015276438 -0.7102137 0.7035457 0.42472678 0.108788535 0.4862206 0.2844598 0.52860165 -0.3683526 0.41828763 0.5395299 -0.06675088 0.74962616 0.33007824 0.07916535 -0.14096947 0.257371 0.40646902 -0.21610445 0.23147918 -0.60029125 0.45052913 0.24579497 0.37494025 -0.12900545 -0.34256244 0.25408873 0.45550486 0.39822683
265 0.54414344 0.2442416 0.2466522 0.14934067 0.08652496 0.15492852 -0.42518914 0.39414126 -0.6090252 -0.27894476 0.4273563 0.11556847 -0.23292184 0.42693463 -0.24841756 0.88291526 -0.15983197 0.3193289 0.6699619 -0.12949981 0.5610371 0.33456144 -0.3661245 -0.9574316 -0.118668936 0.1341286 -0.32934296 0.27882752 0.38898972 0.42685246 -0.55958396 0.23234935 0.040065296 0.23423952 0.53608114 -0.38869295 -0.27517974 0.3798001 0.37611988 0.41933104 -0.16199802 -0.46002012 0.36086485 -0.19650598 0.425381 -0.36162537 -0.024647774 0.08693589 0.7294648 0.5695641 -0.36164922 0.17013857 -0.34015372 0.7030996 -0.3489573 -0.16643609 0.02415575 -0.022788199 0.03498007 0.12663384 -0.29844978 -0.08477508 0.79541993 -0.027116006 -0.71554655 -0.675013 -0.26826575 0.16900624 0.5723182 -0.08929437 0.79976815 -0.22273338 0.022586638 0.31140968 0.09266124 -0.5107199 0.7283247 -0.25221875 0.8469072 -0.19608948 0.75186926 0.16305451 -0.3663217 -0.3861102 0.22076488 0.35053793 0.02571887 -0.065327495 0.10520094 -0.40870294 0.13180953 -0.09350342 -0.12555854 0.5445272 0.013107169 0.22313254 -0.33341247 -0.0693231 0.5069511 0.059513137 -0.6212877 0.6854003 0.4624708 0.13837886 0.5415973 0.28256172 0.47411215 -0.38399798 0.377235 0.57004905 -0.17346889 0.7695201 0.35270032 0.085729875 -0.1599468 0.29383212 0.37427858 -0.073124096 0.26683834 -0.6041178 0.2831118 0.36945903 0.32907307 -0.14493842 -0.32560423 0.18205453 0.41829446 0.42535427
266 0.58847123 0.22500281 0.2372993 0.15320699 0.08620656 0.17174286 -0.3919944 0.41785535 -0.705812 -0.25384116 0.3752497 0.18506484 -0.25595137 0.41103047 -0.2547185 0.824941 -0.14141056 0.30123335 0.6627861 -0.10187997 0.525132 0.36017016 -0.42035988 -1.0057184 -0.11781599 0.13713959 -0.36643437 0.28638652 0.40822962 0.4105106 -0.581397 0.21247873 0.009830737 0.23406154 0.5437627 -0.3960164 -0.29343954 0.34828877 0.36248612 0.41305476 -0.13496944 -0.5396904 0.3293838 -0.24284314 0.446714 -0.34266716 -0.026499758 0.052977532 0.7347823 0.6024228 -0.40772837 0.1509471 -0.3691731 0.68665266 -0.36383522 -0.16753723 0.043888975 -0.02823923 0.036342088 0.107695885 -0.32563534 -0.12152664 0.7893696 -0.029540826 -0.72133297 -0.6598103 -0.24990322 0.15737192 0.541487 -0.08299508 0.84812313 -0.20309067 0.10658272 0.34582448 0.0851216 -0.5074675 0.7421437 -0.2718665 0.8739962 -0.22390738 0.7535317 0.19275518 -0.32202846 -0.41806564 0.25888315 0.3704872 0.02995976 -0.042123463 0.1282659 -0.42460644 0.07875937 -0.12160723 -0.110464916 0.58586836 0.015288469 0.2784553 -0.33503813 -0.02752648 0.49525464 0.006907362 -0.58979017 0.69104767 0.4529627 0.11583437 0.5573761 0.2837651 0.4786585 -0.37473756 0.41177657 0.63600147 -0.14793459 0.7364175 0.34454933 0.045891628 -0.14725521 0.31174487 0.33553624 -0.08389497 0.26699567 -0.5770143 0.32486355 0.31682098 0.30489442 -0.14846808 -0.33499274 0.21363065 0.38766637 0.4095587
267 0.58749515 0.23733823 0.22158559 0.16123609 0.07004223 0.1760113 -0.41454735 0.4190506 -0.5901861 -0.30909657 0.45447966 0.10842658 -0.26884282 0.43723354 -0.25485098 0.87303036 -0.18455715 0.30007103 0.7064363 -0.14120066 0.54907393 0.33955613 -0.40948966 -0.9853067 -0.09713991 0.102483645 -0.38126093 0.34315157 0.40574828 0.41049284 -0.56203496 0.24745812 0.019253364 0.24879047 0.555014 -0.39401588 -0.27066317 0.39432007 0.4067283 0.470124 -0.1709608 -0.5119957 0.35953194 -0.20913665 0.38687146 -0.40905425 0.0042227986 0.060984258 0.7398579 0.5804162 -0.39629576 0.17492026 -0.37829402 0.71362185 -0.33817905 -0.13873592 0.020700224 -0.06618896 0.02832858 0.12706147 -0.26811644 -0.13528293 0.7711546 -0.010673422 -0.73123866 -0.6740618 -0.24553317 0.16529158 0.60892975 -0.10064782 0.84042597 -0.2397415 0.039957505 0.29772425 0.06820378 -0.48610315 0.72824943 -0.25772297 0.8859384 -0.22667691 0.736523 0.16206114 -0.3549277 -0.41001683 0.21609035 0.36216614 -0.0011171085 -0.03911436 0.10903086 -0.41996044 0.11330811 -0.09407236 -0.13424827 0.5184417 0.01273322 0.2663593 -0.3386239 -0.01921615 0.53902376 0.10054711 -0.6115589 0.6929827 0.4724975 0.16438016 0.5605457 0.27813992 0.48244765 -0.40463606 0.41269162 0.5715934 -0.15710804 0.75195664 0.3509239 0.10922142 -0.18747163 0.2839406 0.38978076 -0.0854226 0.22197227 -0.61585915 0.2811485 0.3415876 0.31596532 -0.106784835 -0.3572777 0.17981087 0.4357651 0.423348
269 0.58422804 0.22140321 0.23310642 0.154318 0.08215931 0.16734663 -0.40546033 0.408051 -0.63631994 -0.28774256 0.43024805 0.1346873 -0.23613255 0.43559134 -0.24754745 0.84757316 -0.14881063 0.28946376 0.680255 -0.13122393 0.5361176 0.33317915 -0.39511666 -0.9990151 -0.10953245 0.12848918 -0.3679619 0.31589153 0.3812955 0.41705996 -0.5778476 0.21592537 0.0065314895 0.23484737 0.5704947 -0.38966802 -0.27273783 0.3820554 0.39213467 0.42944854 -0.15315427 -0.5192559 0.35331336 -0.22235364 0.42037645 -0.38084406 -0.014802006 0.0598904 0.7207732 0.58686393 -0.39399967 0.15932149 -0.36721042 0.6969221 -0.35299954 -0.13982385 0.04746672 -0.053661995 0.01830106 0.09318965 -0.29230455 -0.14362141 0.7773048 -0.016392838 -0.72113997 -0.68826044 -0.23473704 0.16972941 0.58535117 -0.08608414 0.83143544 -0.2180381 0.071842015 0.3361891 0.07674203 -0.4920421 0.7409495 -0.26733145 0.89038354 -0.21509604 0.745575 0.17057867 -0.33757094 -0.41289362 0.2271378 0.3625405 0.014057743 -0.060508452 0.128109 -0.42908615 0.09008697 -0.106473915 -0.11264045 0.52593535 -0.0008747762 0.27680144 -0.34035736 -0.024950227 0.50421745 0.059152465 -0.61541015 0.69489866 0.45994073 0.14506716 0.56299686 0.29703477 0.47515562 -0.39856365 0.39051688 0.59163725 -0.14146705 0.7537597 0.35257792 0.08315764 -0.16770859 0.2932772 0.3635662 -0.100817226 0.25040856 -0.6035903 0.31530806 0.32833722 0.30793568 -0.12810768 -0.35120854 0.19560516 0.41258705 0.42916295
270 0.5928431 0.14835876 0.2849024 0.17427795 0.028641092 0.16031651 -0.4608616 0.43031555 -0.5317849 -0.22749197 0.44137442 0.11377345 -0.29583526 0.38484582 -0.24438111 0.942586 -0.17465691 0.35989627 0.70197684 -0.16182938 0.52700454 0.2944503 -0.42771772 -0.9320975 -0.14256047 0.17931896 -0.33505702 0.26833078 0.30891076 0.42259794 -0.5922537 0.27299285 0.021219825 0.2001422 0.56446654 -0.3855877 -0.28361773 0.39519823 0.46746966 0.4284643 -0.16087961 -0.5478608 0.33532706 -0.15286696 0.40653747 -0.36780202 0.06775681 0.017857946 0.692443 0.5312191 -0.39966926 0.15320763 -0.40668398 0.6165191 -0.30661723 -0.18186277 0.041700944 -0.110910214 -0.05093085 0.18212374 -0.23086295 -0.104186594 0.8216886 0.003897942 -0.7312212 -0.72704065 -0.28859597 0.16719371 0.6420722 -0.08124944 0.8185488 -0.27315754 -0.00025413054 0.3297211 0.09016136 -0.5018224 0.69701433 -0.21963954 0.90495694 -0.12011392 0.7788998 0.07810196 -0.40789306 -0.4267658 0.1154899 0.27704865 0.027893472 -0.06401056 0.10265763 -0.3630411 0.09054086 -0.037929613 -0.12202473 0.507068 0.012538567 0.2026942 -0.29683667 -0.028655738 0.54584986 0.0786745 -0.73018306 0.6930124 0.4260965 0.14323531 0.50648415 0.25233173 0.52083385 -0.35462892 0.41394293 0.46462938 -0.16683878 0.7805647 0.3488506 0.12616487 -0.13366474 0.27222022 0.4904369 -0.14541307 0.25985676 -0.6013934 0.35041672 0.36777285 0.38347775 -0.11507365 -0.29269406 0.22667763 0.4634125 0.4042722
271 0.5889508 0.20370771 0.2294413 0.19095215 0.047803525 0.13282908 -0.41001266 0.4043002 -0.67747873 -0.23271517 0.42277768 0.17747559 -0.25745174 0.41617247 -0.2574995 0.81820065 -0.12245556 0.30498087 0.6559974 -0.14957853 0.55742973 0.32304823 -0.3954686 -0.95993054 -0.13495526 0.1526546 -0.33015162 0.24413717 0.39235553 0.4457229 -0.58418256 0.20871978 -0.014614817 0.2407935 0.49127075 -0.43099862 -0.28996056 0.37567562 0.371472 0.38521346 -0.143318 -0.5051612 0.33989677 -0.237217 0.45166707 -0.34319496 -0.008141421 0.102026634 0.7093322 0.58572066 -0.41237476 0.1608642 -0.32596734 0.6624626 -0.35809177 -0.18293653 0.045662355 -0.06500896 -0.00483612 0.10462472 -0.3261427 -0.07558088 0.76258016 -0.03863418 -0.6796576 -0.6703055 -0.25486746 0.19158341 0.56132334 -0.06224183 0.8387574 -0.21032621 0.10044753 0.35326767 0.07571873 -0.533566 0.73487234 -0.24951774 0.90909195 -0.20625065 0.7959186 0.15145543 -0.33196077 -0.43295553 0.23119976 0.3507688 0.06641174 -0.05809784 0.1420781 -0.39272878 0.08382597 -0.1359113 -0.104670934 0.5856641 -0.0192473 0.25436223 -0.36266947 -0.047828536 0.5020794 0.012001651 -0.6320892 0.6997003 0.43590087 0.1496505 0.5584447 0.29403177 0.4802943 -0.3928888 0.4106113 0.60441023 -0.13372432 0.7581718 0.3727077 0.0411076 -0.1655477 0.2930782 0.3477321 -0.11145289 0.27082115 -0.6188874 0.3207402 0.3372759 0.33951578 -0.14056946 -0.295602 0.21862346 0.39129528 0.4199445
274 0.2860519 -0.10160396 -0.77490914 0.1994387 0.3499199 0.6433886 -0.2701248 0.26573604 0.37384707 -0.29107124 0.34752762 -0.8411357 -0.3620968 0.0613974 -0.61985314 0.5612566 0.4010048 0.76648664 0.14899842 -0.789616 -0.4423582 -0.2881243 -0.3096448 0.20731384 0.26552722 -0.08974846 -0.67267925 0.46114627 0.7702165 0.2877836 -0.1038719 0.15130275 -0.27539197 0.34256667 -0.68851906 -0.70719767 0.15188116 1.1315013 0.24461946 0.4722162 -0.25698185 -0.1473282 0.16657916 -0.7500786 -0.03902111 0.927428 0.22996551 0.4969862 0.9724252 0.84278584 -0.2382529 0.09424047 0.17695439 0.55700195 -0.0907384 0.042890824 -0.47231954 -0.42410532 -0.10074112 0.5614743 0.048800908 0.61138445 -0.23356634 -0.19809279 -0.6847674 -0.55854946 -0.15590952 0.39724642 0.57077116 -0.2698346 0.28830692 -0.41087356 0.3266951 -0.12686881 -0.11991367 -0.46743128 0.031814843 0.802788 0.9309944 -0.20489924 0.83805203 -0.052007947 -0.58321863 0.013362195 0.08488356 -0.25612253 0.32109162 0.92884105 -0.064229876 0.14042047 -0.52211046 0.08594399 0.0043108766 0.20124553 0.39073083 0.23599647 -0.4072289 0.24890481 0.6989837 0.37057054 -0.27982384 -0.049534123 -0.08908588 0.45960352 -0.035108548 -0.2142296 0.4768753 -0.6448749 0.29154506 0.20528209 0.14906204 0.59622955 0.5022137 0.22589299 -0.6290416 -0.30543187 -0.630894 -0.038029324 -0.32830355 -0.2990952 -0.18225627 0.66359556 -0.38609937 1.038138 -0.23151293 -0.22295834 0.081896655 -0.15305735
275 0.22762 -0.101089224 -0.79044425 0.18834223 0.3913561 0.6551528 -0.2768385 0.27056926 0.4189141 -0.2978798 0.42597276 -0.8843821 -0.31741747 0.08934322 -0.58987206 0.616682 0.38389602 0.82436144 0.10921352 -0.76034576 -0.45685938 -0.28707576 -0.31669515 0.17598328 0.3184215 -0.13011073 -0.67770946 0.45630878 0.77265227 0.2744627 -0.10065934 0.08946596 -0.29906023 0.3625604 -0.64045864 -0.71748996 0.18682852 1.1118193 0.2640011 0.50609165 -0.24654905 -0.1549152 0.1076332 -0.7468511 -0.07016237 0.92707455 0.2832164 0.49452883 1.007804 0.8610584 -0.22645767 0.15697943 0.12571512 0.5436091 -0.07355218 0.050243765 -0.484942 -0.43737572 -0.0804593 0.56112 0.05971589 0.6822054 -0.21968476 -0.20423535 -0.7288154 -0.5578874 -0.19453013 0.38910878 0.5344826 -0.29208532 0.3392102 -0.45001522 0.2578713 -0.15586805 -0.0914557 -0.45176983 -0.028457353 0.82074225 0.8880774 -0.18058598 0.86577743 -0.08820108 -0.5889504 0.054220717 0.0594515 -0.2749435 0.33994776 0.9491106 -0.07134853 0.1383828 -0.50552934 0.08197771 0.020826237 0.15421212 0.46604759 0.22457913 -0.40086642 0.28039774 0.7022201 0.40147954 -0.29072392 -0.07270646 -0.055461004 0.45601737 -0.06078899 -0.23617388 0.4927818 -0.6610729 0.25441658 0.20535965 0.15314983 0.63982797 0.51566374 0.29070762 -0.6728251 -0.28808266 -0.6557799 -0.0029319152 -0.26676324 -0.31683785 -0.20070563 0.6683705 -0.34594283 0.9821407 -0.21256365 -0.25468156 0.09193451 -0.1795817
58 -0.027623883 -0.7925824 -0.21051316 0.51888627 0.17897956 0.9784754 -0.41298366 0.43951783 0.45765787 -0.6513704 0.10959903 -0.3534094 0.18502508 0.21669318 -0.7063572 0.8588534 -0.24388023 0.27731445 0.91554785 -0.23099948 0.09653793 -0.05714397 -0.1311104 -1.0555063 0.83390796 -0.38612095 -0.97124666 -0.21111174 0.27920806 -0.19491616 -0.27588102 -0.19040641 0.5331728 -0.44525215 0.08709158 -0.3262508 -0.09802392 0.85563964 0.4306371 0.39289168 0.598908 -0.19194923 -0.010500873 -0.035349775 -0.38466886 0.2173586 0.8949358 0.07014053 0.3848987 -0.02004379 -0.23027119 0.081874825 0.08235275 -0.26044658 -0.32976234 0.4931499 -0.582476 -0.010317419 0.42751434 0.24908671 0.37444273 0.68938416 0.7879324 -0.029642636 -0.7948399 -0.5562986 -0.036741473 -0.42654195 0.4225266 -0.1449805 0.4763988 0.2539812 0.14099258 0.09648214 0.25141907 -0.21659729 0.25839266 -0.11245663 0.9557468 -0.093030415 0.09114833 0.46758896 -0.31535834 0.5383371 -0.00073542993 0.14011845 -0.026646698 -0.13796392 0.48051777 -0.52554196 0.2923745 0.19629842 0.5543678 0.58850837 0.4712418 -0.29238266 -0.07023187 0.41456234 0.9136689 0.051963773 0.024203384 0.13540687 0.1848906 0.23078643 0.5327953 -0.10185071 1.0029546 -0.6461829 0.34710383 0.3118225 0.43124402 0.85468924 -0.19659816 0.072157316 -0.64609665 0.15153278 -0.3522902 0.039819535 0.42617476 -0.15716675 0.5788088 0.4749705 0.07606159 0.36475724 -0.2922926 -0.79967654 -0.18443055 -0.04791466
59 -0.08538839 -0.69980437 -0.13813308 0.37835574 0.07076294 0.92216665 -0.47802213 0.36694893 0.39550164 -0.6708859 0.039524753 -0.26706707 0.19286147 0.2278667 -0.6638749 0.8128348 -0.16863526 0.35505217 0.95308274 -0.16078784 0.07993356 -0.011457565 -0.19360334 -0.98390055 0.70735013 -0.32116383 -0.9914 -0.28732044 0.26085526 -0.18711315 -0.24704635 -0.10524792 0.53639436 -0.43122306 0.14268473 -0.34435964 -0.12130072 0.7385258 0.46179137 0.305019 0.5604021 -0.1494738 0.012136139 -0.019389478 -0.30695325 0.23812689 0.84638655 0.052257996 0.38520056 -0.14046825 -0.16572544 0.13656032 0.076383844 -0.24398993 -0.36181918 0.41255927 -0.52387375 0.06372572 0.387872 0.23911293 0.29236212 0.6646297 0.80693644 0.03633594 -0.7597689 -0.54269004 -0.067373484 -0.4097443 0.32482955 -0.106575295 0.53094673 0.26318088 0.07071931 0.10057467 0.18202369 -0.1487352 0.2602211 -0.13391171 0.84825164 -0.13321754 0.01627265 0.52042586 -0.25754952 0.5328983 -0.034862302 0.12790221 -0.031233866 -0.09339064 0.47277257 -0.4920367 0.22001895 0.23232834 0.51118404 0.5625736 0.4970454 -0.19112451 -0.011874123 0.423392 0.91871095 0.042810235 0.06534119 0.08932729 0.21640082 0.15813816 0.49538323 -0.06666122 0.9094694 -0.6161884 0.3825919 0.27060634 0.38657263 0.8320953 -0.18224467 0.04043282 -0.63661224 0.14540534 -0.34395838 0.045796346 0.4049741 -0.1632073 0.5343457 0.4572229 0.03491329 0.33890682 -0.30241475 -0.76001793 -0.2086661 -0.08894365
