10 10
824 0.5945459934864792 -0.5081893176830888 -0.41389040996232945 0.34084243484115906 0.1705375663167186 0.10219310221878133 -0.19925270011509225 -0.14680501355626288 2.785404015942573e-17 -5.54783606743701e-48
825 0.04894717027055684 0.14159867282600927 0.5201177212795874 0.30742670868013827 0.601946785586262 -0.010032928759330083 0.3438336221719554 -0.3631228622717582 -4.400343792201917e-17 -5.3763095815881445e-17
827 0.6075673728100498 0.2621817387389558 -0.4593774189170643 -0.11207901845116505 0.09945521457588914 -0.17084427692931606 0.49764394522958405 0.22760646100479887 -1.3865039455214512e-16 -2.9078806247409163e-47
829 0.5369970561782809 0.1431727759702754 0.28107460465757933 -0.3529155809209241 0.05165121236326984 -0.38861345234691497 -0.26436514082202084 -0.061610224260705684 0.5101081912082698 -6.754739960034744e-33
830 0.3793427776014716 0.5315096128247454 0.20231593993206662 -0.1181874962280926 0.3116205305841733 0.6401974229421945 -0.10596986368030242 0.022513491719809924 -2.1012689627337885e-17 1.378506051251697e-16
831 0.5369970561782808 0.1431727759702753 0.28107460465757955 -0.35291558092092407 0.05165121236326971 -0.38861345234691536 -0.26436514082202145 -0.061610224260705844 -0.5101081912082694 6.754739960034708e-33
832 0.39227447763360634 0.7121969593430109 -0.07481843146228953 0.16631937519696827 -0.2642206167460221 0.4255209043335848 -0.23153845985357074 0.03384760431079363 -7.863615057698476e-17 -1.3101943069986432e-16
835 0.47403861400976677 -0.41555240486180356 0.6146103353189253 0.13419926161419535 -0.3459174728366541 0.15847185719803747 0.1948444085078681 0.1552794708851128 -4.4019445668628525e-17 1.3520519409034307e-47
838 0.07553789378564302 0.434818996515567 -0.015692825242673514 0.7140356137904618 -0.3958395796830188 -0.3110133128057551 0.028780551648710084 -0.2022047739475063 1.0446466793724261e-16 6.119594043814014e-17
840 -0.12156094214664913 0.07255032896321083 0.20315318476991626 0.5959500345240933 0.4164355686258401 -0.2046900626819499 -0.24754469796508036 0.5540187225286081 -3.492251532202065e-17 -6.324899087958372e-18
